{"learner":{"attributes":{"best_iteration":"499","best_ntree_limit":"500"},"feature_names":[],"feature_types":[],"gradient_booster":{"model":{"gbtree_model_param":{"num_parallel_tree":"1","num_trees":"1000","size_leaf_vector":"0"},"tree_info":[0,1,0,1,0,1,0,1,0,1,0,1,0,1,0,1,0,1,0,1,0,1,0,1,0,1,0,1,0,1,0,1,0,1,0,1,0,1,0,1,0,1,0,1,0,1,0,1,0,1,0,1,0,1,0,1,0,1,0,1,0,1,0,1,0,1,0,1,0,1,0,1,0,1,0,1,0,1,0,1,0,1,0,1,0,1,0,1,0,1,0,1,0,1,0,1,0,1,0,1,0,1,0,1,0,1,0,1,0,1,0,1,0,1,0,1,0,1,0,1,0,1,0,1,0,1,0,1,0,1,0,1,0,1,0,1,0,1,0,1,0,1,0,1,0,1,0,1,0,1,0,1,0,1,0,1,0,1,0,1,0,1,0,1,0,1,0,1,0,1,0,1,0,1,0,1,0,1,0,1,0,1,0,1,0,1,0,1,0,1,0,1,0,1,0,1,0,1,0,1,0,1,0,1,0,1,0,1,0,1,0,1,0,1,0,1,0,1,0,1,0,1,0,1,0,1,0,1,0,1,0,1,0,1,0,1,0,1,0,1,0,1,0,1,0,1,0,1,0,1,0,1,0,1,0,1,0,1,0,1,0,1,0,1,0,1,0,1,0,1,0,1,0,1,0,1,0,1,0,1,0,1,0,1,0,1,0,1,0,1,0,1,0,1,0,1,0,1,0,1,0,1,0,1,0,1,0,1,0,1,0,1,0,1,0,1,0,1,0,1,0,1,0,1,0,1,0,1,0,1,0,1,0,1,0,1,0,1,0,1,0,1,0,1,0,1,0,1,0,1,0,1,0,1,0,1,0,1,0,1,0,1,0,1,0,1,0,1,0,1,0,1,0,1,0,1,0,1,0,1,0,1,0,1,0,1,0,1,0,1,0,1,0,1,0,1,0,1,0,1,0,1,0,1,0,1,0,1,0,1,0,1,0,1,0,1,0,1,0,1,0,1,0,1,0,1,0,1,0,1,0,1,0,1,0,1,0,1,0,1,0,1,0,1,0,1,0,1,0,1,0,1,0,1,0,1,0,1,0,1,0,1,0,1,0,1,0,1,0,1,0,1,0,1,0,1,0,1,0,1,0,1,0,1,0,1,0,1,0,1,0,1,0,1,0,1,0,1,0,1,0,1,0,1,0,1,0,1,0,1,0,1,0,1,0,1,0,1,0,1,0,1,0,1,0,1,0,1,0,1,0,1,0,1,0,1,0,1,0,1,0,1,0,1,0,1,0,1,0,1,0,1,0,1,0,1,0,1,0,1,0,1,0,1,0,1,0,1,0,1,0,1,0,1,0,1,0,1,0,1,0,1,0,1,0,1,0,1,0,1,0,1,0,1,0,1,0,1,0,1,0,1,0,1,0,1,0,1,0,1,0,1,0,1,0,1,0,1,0,1,0,1,0,1,0,1,0,1,0,1,0,1,0,1,0,1,0,1,0,1,0,1,0,1,0,1,0,1,0,1,0,1,0,1,0,1,0,1,0,1,0,1,0,1,0,1,0,1,0,1,0,1,0,1,0,1,0,1,0,1,0,1,0,1,0,1,0,1,0,1,0,1,0,1,0,1,0,1,0,1,0,1,0,1,0,1,0,1,0,1,0,1,0,1,0,1,0,1,0,1,0,1,0,1,0,1,0,1,0,1,0,1,0,1,0,1,0,1,0,1,0,1,0,1,0,1,0,1,0,1,0,1,0,1,0,1,0,1,0,1,0,1,0,1,0,1,0,1,0,1,0,1,0,1,0,1,0,1,0,1,0,1,0,1,0,1,0,1,0,1,0,1,0,1,0,1,0,1,0,1,0,1,0,1,0,1,0,1,0,1,0,1,0,1,0,1,0,1,0,1,0,1,0,1,0,1,0,1,0,1,0,1,0,1,0,1,0,1,0,1,0,1,0,1,0,1,0,1,0,1,0,1,0,1,0,1,0,1,0,1,0,1,0,1,0,1,0,1,0,1,0,1,0,1,0,1,0,1,0,1,0,1,0,1,0,1,0,1,0,1,0,1,0,1,0,1,0,1,0,1,0,1,0,1,0,1,0,1,0,1,0,1,0,1,0,1,0,1,0,1,0,1,0,1,0,1,0,1,0,1,0,1,0,1,0,1,0,1,0,1,0,1,0,1,0,1,0,1,0,1,0,1,0,1,0,1,0,1,0,1,0,1,0,1,0,1,0,1,0,1,0,1,0,1,0,1,0,1,0,1,0,1,0,1,0,1,0,1,0,1,0,1,0,1,0,1,0,1,0,1],"trees":[{"base_weights":[-1.5350053E-1,1.2368881E-1,-3.1889918E-1,-1.3738893E-1,2.4622793E-1,-1.5235732E-1,-5.0316024E-1],"categories":[],"categories_nodes":[],"categories_segments":[],"categories_sizes":[],"default_left":[1,1,1,0,0,0,0],"id":0,"left_children":[1,3,5,-1,-1,-1,-1],"loss_changes":[2.8064444E2,7.323207E1,1.1756262E2,0E0,0E0,0E0,0E0],"parents":[2147483647,0,0,1,1,2,2],"right_children":[2,4,6,-1,-1,-1,-1],"split_conditions":[4.585E-1,-2.05E0,1.35E1,-1.3738893E-3,2.4622793E-3,-1.5235732E-3,-5.0316025E-3],"split_indices":[3,77,80,0,0,0,0],"split_type":[0,0,0,0,0,0,0],"sum_hessian":[6.1195E3,2.287E3,3.8325E3,7.305E2,1.5565E3,2.014E3,1.8185E3],"tree_param":{"num_deleted":"0","num_feature":"104","num_nodes":"7","size_leaf_vector":"0"}},{"base_weights":[1.5350053E-1,-1.2368881E-1,3.1889918E-1,1.3738893E-1,-2.4622793E-1,1.5235732E-1,5.0316024E-1],"categories":[],"categories_nodes":[],"categories_segments":[],"categories_sizes":[],"default_left":[1,1,1,0,0,0,0],"id":1,"left_children":[1,3,5,-1,-1,-1,-1],"loss_changes":[2.8064444E2,7.323207E1,1.1756262E2,0E0,0E0,0E0,0E0],"parents":[2147483647,0,0,1,1,2,2],"right_children":[2,4,6,-1,-1,-1,-1],"split_conditions":[4.585E-1,-2.05E0,1.35E1,1.3738893E-3,-2.4622793E-3,1.5235732E-3,5.0316025E-3],"split_indices":[3,77,80,0,0,0,0],"split_type":[0,0,0,0,0,0,0],"sum_hessian":[6.1195E3,2.287E3,3.8325E3,7.305E2,1.5565E3,2.014E3,1.8185E3],"tree_param":{"num_deleted":"0","num_feature":"104","num_nodes":"7","size_leaf_vector":"0"}},{"base_weights":[-1.5196793E-1,1.2245301E-1,-3.1571606E-1,-1.3601708E-1,2.4376872E-1,-1.5083481E-1,-4.98144E-1],"categories":[],"categories_nodes":[],"categories_segments":[],"categories_sizes":[],"default_left":[1,1,1,0,0,0,0],"id":2,"left_children":[1,3,5,-1,-1,-1,-1],"loss_changes":[2.7506616E2,7.177645E1,1.1523096E2,0E0,0E0,0E0,0E0],"parents":[2147483647,0,0,1,1,2,2],"right_children":[2,4,6,-1,-1,-1,-1],"split_conditions":[4.585E-1,-2.05E0,1.35E1,-1.3601708E-3,2.4376872E-3,-1.5083482E-3,-4.98144E-3],"split_indices":[3,77,80,0,0,0,0],"split_type":[0,0,0,0,0,0,0],"sum_hessian":[6.1194385E3,2.2869893E3,3.8324492E3,7.3049866E2,1.5564905E3,2.0139954E3,1.818454E3],"tree_param":{"num_deleted":"0","num_feature":"104","num_nodes":"7","size_leaf_vector":"0"}},{"base_weights":[1.5196797E-1,-1.2245299E-1,3.1571612E-1,1.3601717E-1,-2.4376872E-1,1.5083493E-1,4.98144E-1],"categories":[],"categories_nodes":[],"categories_segments":[],"categories_sizes":[],"default_left":[1,1,1,0,0,0,0],"id":3,"left_children":[1,3,5,-1,-1,-1,-1],"loss_changes":[2.7506622E2,7.177649E1,1.15230865E2,0E0,0E0,0E0,0E0],"parents":[2147483647,0,0,1,1,2,2],"right_children":[2,4,6,-1,-1,-1,-1],"split_conditions":[4.585E-1,-2.05E0,1.35E1,1.3601717E-3,-2.4376872E-3,1.5083493E-3,4.98144E-3],"split_indices":[3,77,80,0,0,0,0],"split_type":[0,0,0,0,0,0,0],"sum_hessian":[6.1194385E3,2.2869893E3,3.8324492E3,7.304986E2,1.5564905E3,2.0139954E3,1.818454E3],"tree_param":{"num_deleted":"0","num_feature":"104","num_nodes":"7","size_leaf_vector":"0"}},{"base_weights":[-1.5045367E-1,1.2123068E-1,-3.1257296E-1,-1.970314E-1,2.1811987E-1,-1.4932825E-1,-4.9320248E-1],"categories":[],"categories_nodes":[],"categories_segments":[],"categories_sizes":[],"default_left":[1,1,1,0,0,0,0],"id":4,"left_children":[1,3,5,-1,-1,-1,-1],"loss_changes":[2.6960626E2,7.059479E1,1.1295813E2,0E0,0E0,0E0,0E0],"parents":[2147483647,0,0,1,1,2,2],"right_children":[2,4,6,-1,-1,-1,-1],"split_conditions":[4.585E-1,3.705E-1,1.35E1,-1.970314E-3,2.1811987E-3,-1.4932824E-3,-4.9320245E-3],"split_indices":[3,55,80,0,0,0,0],"split_type":[0,0,0,0,0,0,0],"sum_hessian":[6.1192563E3,2.2869573E3,3.8322993E3,5.334954E2,1.7534618E3,2.0139817E3,1.8183176E3],"tree_param":{"num_deleted":"0","num_feature":"104","num_nodes":"7","size_leaf_vector":"0"}},{"base_weights":[1.5045366E-1,-1.2123062E-1,3.125729E-1,1.970314E-1,-2.181198E-1,1.4932823E-1,4.932024E-1],"categories":[],"categories_nodes":[],"categories_segments":[],"categories_sizes":[],"default_left":[1,1,1,0,0,0,0],"id":5,"left_children":[1,3,5,-1,-1,-1,-1],"loss_changes":[2.696061E2,7.0594765E1,1.129581E2,0E0,0E0,0E0,0E0],"parents":[2147483647,0,0,1,1,2,2],"right_children":[2,4,6,-1,-1,-1,-1],"split_conditions":[4.585E-1,3.705E-1,1.35E1,1.970314E-3,-2.181198E-3,1.4932823E-3,4.9320236E-3],"split_indices":[3,55,80,0,0,0,0],"split_type":[0,0,0,0,0,0,0],"sum_hessian":[6.1192563E3,2.2869573E3,3.8322993E3,5.334954E2,1.7534618E3,2.0139816E3,1.8183176E3],"tree_param":{"num_deleted":"0","num_feature":"104","num_nodes":"7","size_leaf_vector":"0"}},{"base_weights":[-1.4895731E-1,-2.7899566E-1,1.8387899E-1,-1.1497268E-1,-4.5791557E-1,-4.2714473E-2,3.1374288E-1],"categories":[],"categories_nodes":[],"categories_segments":[],"categories_sizes":[],"default_left":[1,1,1,0,0,0,0],"id":6,"left_children":[1,3,5,-1,-1,-1,-1],"loss_changes":[2.649325E2,1.2910458E2,5.0624413E1,0E0,0E0,0E0,0E0],"parents":[2147483647,0,0,1,1,2,2],"right_children":[2,4,6,-1,-1,-1,-1],"split_conditions":[2.15E1,1.35E1,-1.3499999E0,-1.1497268E-3,-4.5791557E-3,-4.2714473E-4,3.1374288E-3],"split_indices":[51,80,77,0,0,0,0],"split_type":[0,0,0,0,0,0,0],"sum_hessian":[6.1189653E3,4.400041E3,1.718924E3,2.296443E3,2.1035981E3,6.264797E2,1.0924442E3],"tree_param":{"num_deleted":"0","num_feature":"104","num_nodes":"7","size_leaf_vector":"0"}},{"base_weights":[1.4895733E-1,2.789957E-1,-1.8387899E-1,1.1497265E-1,4.5791563E-1,4.2714477E-2,-3.1374288E-1],"categories":[],"categories_nodes":[],"categories_segments":[],"categories_sizes":[],"default_left":[1,1,1,0,0,0,0],"id":7,"left_children":[1,3,5,-1,-1,-1,-1],"loss_changes":[2.649325E2,1.2910464E2,5.0624416E1,0E0,0E0,0E0,0E0],"parents":[2147483647,0,0,1,1,2,2],"right_children":[2,4,6,-1,-1,-1,-1],"split_conditions":[2.15E1,1.35E1,-1.3499999E0,1.1497264E-3,4.579156E-3,4.2714475E-4,-3.1374288E-3],"split_indices":[51,80,77,0,0,0,0],"split_type":[0,0,0,0,0,0,0],"sum_hessian":[6.118965E3,4.400041E3,1.718924E3,2.296443E3,2.1035981E3,6.264797E2,1.0924442E3],"tree_param":{"num_deleted":"0","num_feature":"104","num_nodes":"7","size_leaf_vector":"0"}},{"base_weights":[-1.4747693E-1,1.1962529E-1,-3.068776E-1,-1.9341089E-1,2.1492457E-1,-4.2252165E-1,-6.0338456E-2],"categories":[],"categories_nodes":[],"categories_segments":[],"categories_sizes":[],"default_left":[1,1,1,0,0,0,0],"id":8,"left_children":[1,3,5,-1,-1,-1,-1],"loss_changes":[2.6058688E2,6.829314E1,1.0924936E2,0E0,0E0,0E0,0E0],"parents":[2147483647,0,0,1,1,2,2],"right_children":[2,4,6,-1,-1,-1,-1],"split_conditions":[4.585E-1,3.705E-1,2.95E0,-1.9341088E-3,2.1492457E-3,-4.2252163E-3,-6.033846E-4],"split_indices":[3,55,77,0,0,0,0],"split_type":[0,0,0,0,0,0,0],"sum_hessian":[6.11861E3,2.2868552E3,3.831755E3,5.334769E2,1.7533783E3,2.6078005E3,1.2239542E3],"tree_param":{"num_deleted":"0","num_feature":"104","num_nodes":"7","size_leaf_vector":"0"}},{"base_weights":[1.4747691E-1,-1.19625315E-1,3.068776E-1,1.9341093E-1,-2.1492462E-1,4.2252165E-1,6.033846E-2],"categories":[],"categories_nodes":[],"categories_segments":[],"categories_sizes":[],"default_left":[1,1,1,0,0,0,0],"id":9,"left_children":[1,3,5,-1,-1,-1,-1],"loss_changes":[2.605869E2,6.829318E1,1.0924936E2,0E0,0E0,0E0,0E0],"parents":[2147483647,0,0,1,1,2,2],"right_children":[2,4,6,-1,-1,-1,-1],"split_conditions":[4.585E-1,3.705E-1,2.95E0,1.9341093E-3,-2.1492462E-3,4.2252163E-3,6.033846E-4],"split_indices":[3,55,77,0,0,0,0],"split_type":[0,0,0,0,0,0,0],"sum_hessian":[6.11861E3,2.2868552E3,3.831755E3,5.334769E2,1.7533782E3,2.6078005E3,1.2239542E3],"tree_param":{"num_deleted":"0","num_feature":"104","num_nodes":"7","size_leaf_vector":"0"}},{"base_weights":[-1.4601402E-1,-2.738591E-1,1.8117946E-1,-1.12424344E-1,-4.5000038E-1,2.5959146E-1,-1.8198684E-1],"categories":[],"categories_nodes":[],"categories_segments":[],"categories_sizes":[],"default_left":[1,1,1,0,0,0,0],"id":10,"left_children":[1,3,5,-1,-1,-1,-1],"loss_changes":[2.5601404E2,1.25074585E2,4.9021378E1,0E0,0E0,0E0,0E0],"parents":[2147483647,0,0,1,1,2,2],"right_children":[2,4,6,-1,-1,-1,-1],"split_conditions":[2.15E1,1.35E1,2.45E1,-1.1242434E-3,-4.5000035E-3,2.5959145E-3,-1.8198683E-3],"split_indices":[51,80,81,0,0,0,0],"split_type":[0,0,0,0,0,0,0],"sum_hessian":[6.1181475E3,4.399344E3,1.7188032E3,2.2963557E3,2.1029888E3,1.4138263E3,3.0497693E2],"tree_param":{"num_deleted":"0","num_feature":"104","num_nodes":"7","size_leaf_vector":"0"}},{"base_weights":[1.4601403E-1,2.738591E-1,-1.8117942E-1,1.1242428E-1,4.5000046E-1,-2.5959137E-1,1.8198684E-1],"categories":[],"categories_nodes":[],"categories_segments":[],"categories_sizes":[],"default_left":[1,1,1,0,0,0,0],"id":11,"left_children":[1,3,5,-1,-1,-1,-1],"loss_changes":[2.5601398E2,1.2507474E2,4.9021355E1,0E0,0E0,0E0,0E0],"parents":[2147483647,0,0,1,1,2,2],"right_children":[2,4,6,-1,-1,-1,-1],"split_conditions":[2.15E1,1.35E1,2.45E1,1.1242428E-3,4.5000045E-3,-2.5959136E-3,1.8198683E-3],"split_indices":[51,80,81,0,0,0,0],"split_type":[0,0,0,0,0,0,0],"sum_hessian":[6.1181475E3,4.399344E3,1.7188032E3,2.2963557E3,2.1029885E3,1.4138263E3,3.0497693E2],"tree_param":{"num_deleted":"0","num_feature":"104","num_nodes":"7","size_leaf_vector":"0"}},{"base_weights":[-1.4456762E-1,-2.7730784E-1,1.6563818E-1,-1.1691383E-1,-4.566126E-1,6.687054E-3,3.4360078E-1],"categories":[],"categories_nodes":[],"categories_segments":[],"categories_sizes":[],"default_left":[1,1,1,0,0,0,0],"id":12,"left_children":[1,3,5,-1,-1,-1,-1],"loss_changes":[2.5199051E2,1.2319162E2,5.188306E1,0E0,0E0,0E0,0E0],"parents":[2147483647,0,0,1,1,2,2],"right_children":[2,4,6,-1,-1,-1,-1],"split_conditions":[1.95E1,1.35E1,5.135E-1,-1.1691384E-3,-4.5661256E-3,6.687054E-5,3.4360078E-3],"split_indices":[28,80,55,0,0,0,0],"split_type":[0,0,0,0,0,0,0],"sum_hessian":[6.117606E3,4.2843813E3,1.8332246E3,2.2623164E3,2.022065E3,9.6888324E2,8.643414E2],"tree_param":{"num_deleted":"0","num_feature":"104","num_nodes":"7","size_leaf_vector":"0"}},{"base_weights":[1.4456761E-1,2.7730784E-1,-1.6563815E-1,1.1691386E-1,4.566125E-1,-6.6870423E-3,-3.4360072E-1],"categories":[],"categories_nodes":[],"categories_segments":[],"categories_sizes":[],"default_left":[1,1,1,0,0,0,0],"id":13,"left_children":[1,3,5,-1,-1,-1,-1],"loss_changes":[2.5199045E2,1.2319153E2,5.1883053E1,0E0,0E0,0E0,0E0],"parents":[2147483647,0,0,1,1,2,2],"right_children":[2,4,6,-1,-1,-1,-1],"split_conditions":[1.95E1,1.35E1,5.135E-1,1.1691386E-3,4.566125E-3,-6.687042E-5,-3.436007E-3],"split_indices":[28,80,55,0,0,0,0],"split_type":[0,0,0,0,0,0,0],"sum_hessian":[6.117606E3,4.2843813E3,1.8332246E3,2.2623164E3,2.0220651E3,9.6888324E2,8.6434143E2],"tree_param":{"num_deleted":"0","num_feature":"104","num_nodes":"7","size_leaf_vector":"0"}},{"base_weights":[-1.4313744E-1,1.1729202E-1,-2.9859328E-1,-1.2955572E-1,2.331633E-1,-4.9456957E-1,-1.5905832E-1],"categories":[],"categories_nodes":[],"categories_segments":[],"categories_sizes":[],"default_left":[1,1,1,0,0,0,0],"id":14,"left_children":[1,3,5,-1,-1,-1,-1],"loss_changes":[2.4772263E2,6.546095E1,1.046926E2,0E0,0E0,0E0,0E0],"parents":[2147483647,0,0,1,1,2,2],"right_children":[2,4,6,-1,-1,-1,-1],"split_conditions":[4.585E-1,-2.05E0,-4.5E-1,-1.2955571E-3,2.331633E-3,-4.9456954E-3,-1.5905831E-3],"split_indices":[3,77,77,0,0,0,0],"split_type":[0,0,0,0,0,0,0],"sum_hessian":[6.116967E3,2.2865833E3,3.8303838E3,7.304156E2,1.5561676E3,1.5919507E3,2.238433E3],"tree_param":{"num_deleted":"0","num_feature":"104","num_nodes":"7","size_leaf_vector":"0"}},{"base_weights":[1.4313743E-1,-1.1729203E-1,2.9859322E-1,1.2955573E-1,-2.3316331E-1,4.9456957E-1,1.5905826E-1],"categories":[],"categories_nodes":[],"categories_segments":[],"categories_sizes":[],"default_left":[1,1,1,0,0,0,0],"id":15,"left_children":[1,3,5,-1,-1,-1,-1],"loss_changes":[2.477226E2,6.546095E1,1.0469266E2,0E0,0E0,0E0,0E0],"parents":[2147483647,0,0,1,1,2,2],"right_children":[2,4,6,-1,-1,-1,-1],"split_conditions":[4.585E-1,-2.05E0,-4.5E-1,1.2955572E-3,-2.3316331E-3,4.9456954E-3,1.5905825E-3],"split_indices":[3,77,77,0,0,0,0],"split_type":[0,0,0,0,0,0,0],"sum_hessian":[6.116967E3,2.286583E3,3.8303838E3,7.304156E2,1.5561676E3,1.5919507E3,2.238433E3],"tree_param":{"num_deleted":"0","num_feature":"104","num_nodes":"7","size_leaf_vector":"0"}},{"base_weights":[-1.4172429E-1,-2.6649278E-1,1.7752697E-1,-1.0928908E-1,-4.381242E-1,2.5428858E-1,-1.7797014E-1],"categories":[],"categories_nodes":[],"categories_segments":[],"categories_sizes":[],"default_left":[1,1,1,0,0,0,0],"id":16,"left_children":[1,3,5,-1,-1,-1,-1],"loss_changes":[2.4371176E2,1.1863385E2,4.6968624E1,0E0,0E0,0E0,0E0],"parents":[2147483647,0,0,1,1,2,2],"right_children":[2,4,6,-1,-1,-1,-1],"split_conditions":[2.15E1,1.35E1,2.45E1,-1.0928907E-3,-4.381242E-3,2.5428857E-3,-1.7797013E-3],"split_indices":[51,80,81,0,0,0,0],"split_type":[0,0,0,0,0,0,0],"sum_hessian":[6.116227E3,4.3977E3,1.7185266E3,2.2961794E3,2.101521E3,1.4135803E3,3.0494626E2],"tree_param":{"num_deleted":"0","num_feature":"104","num_nodes":"7","size_leaf_vector":"0"}},{"base_weights":[1.4172429E-1,2.6649278E-1,-1.7752694E-1,1.0928905E-1,4.381242E-1,-2.5428855E-1,1.7797014E-1],"categories":[],"categories_nodes":[],"categories_segments":[],"categories_sizes":[],"default_left":[1,1,1,0,0,0,0],"id":17,"left_children":[1,3,5,-1,-1,-1,-1],"loss_changes":[2.437117E2,1.1863388E2,4.6968616E1,0E0,0E0,0E0,0E0],"parents":[2147483647,0,0,1,1,2,2],"right_children":[2,4,6,-1,-1,-1,-1],"split_conditions":[2.15E1,1.35E1,2.45E1,1.0928905E-3,4.381242E-3,-2.5428855E-3,1.7797013E-3],"split_indices":[51,80,81,0,0,0,0],"split_type":[0,0,0,0,0,0,0],"sum_hessian":[6.116227E3,4.3977E3,1.7185266E3,2.2961794E3,2.101521E3,1.4135803E3,3.0494626E2],"tree_param":{"num_deleted":"0","num_feature":"104","num_nodes":"7","size_leaf_vector":"0"}},{"base_weights":[-1.4032657E-1,1.063188E-1,-2.990592E-1,2.0453689E-1,-1.7726736E-1,-4.897E-1,-1.6299371E-1],"categories":[],"categories_nodes":[],"categories_segments":[],"categories_sizes":[],"default_left":[1,1,1,0,0,0,0],"id":18,"left_children":[1,3,5,-1,-1,-1,-1],"loss_changes":[2.3949368E2,6.676508E1,9.6459564E1,0E0,0E0,0E0,0E0],"parents":[2147483647,0,0,1,1,2,2],"right_children":[2,4,6,-1,-1,-1,-1],"split_conditions":[4.6850002E-1,2.25E1,-4.5E-1,2.0453688E-3,-1.7726736E-3,-4.897E-3,-1.6299371E-3],"split_indices":[3,103,77,0,0,0,0],"split_type":[0,0,0,0,0,0,0],"sum_hessian":[6.1154185E3,2.394725E3,3.7206934E3,1.7788958E3,6.1582935E2,1.5484991E3,2.1721943E3],"tree_param":{"num_deleted":"0","num_feature":"104","num_nodes":"7","size_leaf_vector":"0"}},{"base_weights":[1.4032659E-1,-1.0631877E-1,2.990592E-1,-2.0453683E-1,1.7726733E-1,4.897E-1,1.6299373E-1],"categories":[],"categories_nodes":[],"categories_segments":[],"categories_sizes":[],"default_left":[1,1,1,0,0,0,0],"id":19,"left_children":[1,3,5,-1,-1,-1,-1],"loss_changes":[2.3949364E2,6.676505E1,9.645953E1,0E0,0E0,0E0,0E0],"parents":[2147483647,0,0,1,1,2,2],"right_children":[2,4,6,-1,-1,-1,-1],"split_conditions":[4.6850002E-1,2.25E1,-4.5E-1,-2.0453683E-3,1.7726732E-3,4.897E-3,1.6299372E-3],"split_indices":[3,103,77,0,0,0,0],"split_type":[0,0,0,0,0,0,0],"sum_hessian":[6.1154185E3,2.394725E3,3.7206934E3,1.7788959E3,6.1582935E2,1.548499E3,2.1721943E3],"tree_param":{"num_deleted":"0","num_feature":"104","num_nodes":"7","size_leaf_vector":"0"}},{"base_weights":[-1.389448E-1,-2.6736683E-1,1.6105725E-1,-1.12185486E-1,-4.410217E-1,6.371365E-3,3.342803E-1],"categories":[],"categories_nodes":[],"categories_segments":[],"categories_sizes":[],"default_left":[1,1,1,0,0,0,0],"id":20,"left_children":[1,3,5,-1,-1,-1,-1],"loss_changes":[2.3565521E2,1.1536203E2,4.9134335E1,0E0,0E0,0E0,0E0],"parents":[2147483647,0,0,1,1,2,2],"right_children":[2,4,6,-1,-1,-1,-1],"split_conditions":[1.95E1,1.35E1,5.135E-1,-1.1218549E-3,-4.410217E-3,6.371365E-5,3.342803E-3],"split_indices":[28,80,55,0,0,0,0],"split_type":[0,0,0,0,0,0,0],"sum_hessian":[6.1145283E3,4.2817476E3,1.8327809E3,2.2620142E3,2.0197333E3,9.687431E2,8.640378E2],"tree_param":{"num_deleted":"0","num_feature":"104","num_nodes":"7","size_leaf_vector":"0"}},{"base_weights":[1.3894482E-1,2.6736683E-1,-1.6105723E-1,1.12185486E-1,4.410217E-1,-6.3713957E-3,-3.3428025E-1],"categories":[],"categories_nodes":[],"categories_segments":[],"categories_sizes":[],"default_left":[1,1,1,0,0,0,0],"id":21,"left_children":[1,3,5,-1,-1,-1,-1],"loss_changes":[2.356552E2,1.1536203E2,4.9134304E1,0E0,0E0,0E0,0E0],"parents":[2147483647,0,0,1,1,2,2],"right_children":[2,4,6,-1,-1,-1,-1],"split_conditions":[1.95E1,1.35E1,5.135E-1,1.1218549E-3,4.410217E-3,-6.371395E-5,-3.3428024E-3],"split_indices":[28,80,55,0,0,0,0],"split_type":[0,0,0,0,0,0,0],"sum_hessian":[6.1145283E3,4.2817476E3,1.8327809E3,2.2620142E3,2.0197333E3,9.687431E2,8.640378E2],"tree_param":{"num_deleted":"0","num_feature":"104","num_nodes":"7","size_leaf_vector":"0"}},{"base_weights":[-1.37578E-1,-2.5938615E-1,1.7400481E-1,-1.0623261E-1,-4.2674166E-1,-3.986898E-2,2.9662654E-1],"categories":[],"categories_nodes":[],"categories_segments":[],"categories_sizes":[],"default_left":[1,1,1,0,0,0,0],"id":22,"left_children":[1,3,5,-1,-1,-1,-1],"loss_changes":[2.3211261E2,1.1263928E2,4.5097366E1,0E0,0E0,0E0,0E0],"parents":[2147483647,0,0,1,1,2,2],"right_children":[2,4,6,-1,-1,-1,-1],"split_conditions":[2.15E1,1.35E1,-1.3499999E0,-1.0623261E-3,-4.2674164E-3,-3.986898E-4,2.9662654E-3],"split_indices":[51,80,77,0,0,0,0],"split_type":[0,0,0,0,0,0,0],"sum_hessian":[6.113548E3,4.3954043E3,1.7181436E3,2.2959375E3,2.099467E3,6.2635156E2,1.0917919E3],"tree_param":{"num_deleted":"0","num_feature":"104","num_nodes":"7","size_leaf_vector":"0"}},{"base_weights":[1.3757803E-1,2.5938618E-1,-1.7400476E-1,1.06232665E-1,4.2674166E-1,3.9868984E-2,-2.966265E-1],"categories":[],"categories_nodes":[],"categories_segments":[],"categories_sizes":[],"default_left":[1,1,1,0,0,0,0],"id":23,"left_children":[1,3,5,-1,-1,-1,-1],"loss_changes":[2.3211255E2,1.1263928E2,4.5097347E1,0E0,0E0,0E0,0E0],"parents":[2147483647,0,0,1,1,2,2],"right_children":[2,4,6,-1,-1,-1,-1],"split_conditions":[2.15E1,1.35E1,-1.3499999E0,1.0623266E-3,4.2674164E-3,3.9868982E-4,-2.966265E-3],"split_indices":[51,80,77,0,0,0,0],"split_type":[0,0,0,0,0,0,0],"sum_hessian":[6.113548E3,4.3954043E3,1.7181434E3,2.2959373E3,2.099467E3,6.2635156E2,1.0917919E3],"tree_param":{"num_deleted":"0","num_feature":"104","num_nodes":"7","size_leaf_vector":"0"}},{"base_weights":[-1.3622648E-1,-3.324093E-1,5.4774486E-2,-3.2136593E-2,-4.0889534E-1,-1.8341467E-1,1.8855204E-1],"categories":[],"categories_nodes":[],"categories_segments":[],"categories_sizes":[],"default_left":[1,1,1,0,0,0,0],"id":24,"left_children":[1,3,5,-1,-1,-1,-1],"loss_changes":[2.2909747E2,6.9253845E1,9.8766754E1,0E0,0E0,0E0,0E0],"parents":[2147483647,0,0,1,1,2,2],"right_children":[2,4,6,-1,-1,-1,-1],"split_conditions":[1.45E1,5.5E0,-1.45E0,-3.2136592E-4,-4.088953E-3,-1.8341467E-3,1.8855203E-3],"split_indices":[51,103,77,0,0,0,0],"split_type":[0,0,0,0,0,0,0],"sum_hessian":[6.1124907E3,3.014977E3,3.0975137E3,6.1236084E2,2.4026162E3,1.1138851E3,1.9836287E3],"tree_param":{"num_deleted":"0","num_feature":"104","num_nodes":"7","size_leaf_vector":"0"}},{"base_weights":[1.3622649E-1,3.324093E-1,-5.477448E-2,3.2136593E-2,4.0889534E-1,1.8341467E-1,-1.8855202E-1],"categories":[],"categories_nodes":[],"categories_segments":[],"categories_sizes":[],"default_left":[1,1,1,0,0,0,0],"id":25,"left_children":[1,3,5,-1,-1,-1,-1],"loss_changes":[2.2909747E2,6.9253784E1,9.876674E1,0E0,0E0,0E0,0E0],"parents":[2147483647,0,0,1,1,2,2],"right_children":[2,4,6,-1,-1,-1,-1],"split_conditions":[1.45E1,5.5E0,-1.45E0,3.2136592E-4,4.088953E-3,1.8341467E-3,-1.8855202E-3],"split_indices":[51,103,77,0,0,0,0],"split_type":[0,0,0,0,0,0,0],"sum_hessian":[6.1124907E3,3.0149773E3,3.0975137E3,6.1236084E2,2.4026165E3,1.1138851E3,1.9836287E3],"tree_param":{"num_deleted":"0","num_feature":"104","num_nodes":"7","size_leaf_vector":"0"}},{"base_weights":[-1.3488658E-1,-2.604057E-1,1.5823102E-1,-1.08911455E-1,-4.3010342E-1,7.268353E-3,3.2733086E-1],"categories":[],"categories_nodes":[],"categories_segments":[],"categories_sizes":[],"default_left":[1,1,1,0,0,0,0],"id":26,"left_children":[1,3,5,-1,-1,-1,-1],"loss_changes":[2.2493227E2,1.0998932E2,4.67984E1,0E0,0E0,0E0,0E0],"parents":[2147483647,0,0,1,1,2,2],"right_children":[2,4,6,-1,-1,-1,-1],"split_conditions":[1.95E1,1.35E1,5.135E-1,-1.0891146E-3,-4.301034E-3,7.268353E-5,3.2733085E-3],"split_indices":[28,80,55,0,0,0,0],"split_type":[0,0,0,0,0,0,0],"sum_hessian":[6.111522E3,4.2791934E3,1.8323289E3,2.261725E3,2.0174681E3,9.6863226E2,8.636966E2],"tree_param":{"num_deleted":"0","num_feature":"104","num_nodes":"7","size_leaf_vector":"0"}},{"base_weights":[1.3488658E-1,2.604057E-1,-1.5823106E-1,1.0891146E-1,4.3010342E-1,-7.268374E-3,-3.2733092E-1],"categories":[],"categories_nodes":[],"categories_segments":[],"categories_sizes":[],"default_left":[1,1,1,0,0,0,0],"id":27,"left_children":[1,3,5,-1,-1,-1,-1],"loss_changes":[2.2493234E2,1.0998932E2,4.6798412E1,0E0,0E0,0E0,0E0],"parents":[2147483647,0,0,1,1,2,2],"right_children":[2,4,6,-1,-1,-1,-1],"split_conditions":[1.95E1,1.35E1,5.135E-1,1.0891146E-3,4.301034E-3,-7.268374E-5,-3.2733092E-3],"split_indices":[28,80,55,0,0,0,0],"split_type":[0,0,0,0,0,0,0],"sum_hessian":[6.111522E3,4.2791934E3,1.8323289E3,2.261725E3,2.0174681E3,9.6863226E2,8.6369653E2],"tree_param":{"num_deleted":"0","num_feature":"104","num_nodes":"7","size_leaf_vector":"0"}},{"base_weights":[-1.3356471E-1,-3.2673413E-1,5.443983E-2,-3.0778836E-2,-4.021662E-1,-1.8001649E-1,1.8610935E-1],"categories":[],"categories_nodes":[],"categories_segments":[],"categories_sizes":[],"default_left":[1,1,1,0,0,0,0],"id":28,"left_children":[1,3,5,-1,-1,-1,-1],"loss_changes":[2.2196072E2,6.728256E1,9.566856E1,0E0,0E0,0E0,0E0],"parents":[2147483647,0,0,1,1,2,2],"right_children":[2,4,6,-1,-1,-1,-1],"split_conditions":[1.45E1,5.5E0,-1.45E0,-3.0778834E-4,-4.021662E-3,-1.8001648E-3,1.8610934E-3],"split_indices":[51,103,77,0,0,0,0],"split_type":[0,0,0,0,0,0,0],"sum_hessian":[6.1103145E3,3.013396E3,3.0969182E3,6.1233344E2,2.4010627E3,1.1136099E3,1.9833082E3],"tree_param":{"num_deleted":"0","num_feature":"104","num_nodes":"7","size_leaf_vector":"0"}},{"base_weights":[1.3356474E-1,3.2673416E-1,-5.443981E-2,3.0778866E-2,4.0216622E-1,1.8001649E-1,-1.861093E-1],"categories":[],"categories_nodes":[],"categories_segments":[],"categories_sizes":[],"default_left":[1,1,1,0,0,0,0],"id":29,"left_children":[1,3,5,-1,-1,-1,-1],"loss_changes":[2.2196074E2,6.72825E1,9.566855E1,0E0,0E0,0E0,0E0],"parents":[2147483647,0,0,1,1,2,2],"right_children":[2,4,6,-1,-1,-1,-1],"split_conditions":[1.45E1,5.5E0,-1.45E0,3.0778866E-4,4.0216623E-3,1.8001648E-3,-1.861093E-3],"split_indices":[51,103,77,0,0,0,0],"split_type":[0,0,0,0,0,0,0],"sum_hessian":[6.1103145E3,3.013396E3,3.0969182E3,6.1233344E2,2.4010627E3,1.1136099E3,1.9833082E3],"tree_param":{"num_deleted":"0","num_feature":"104","num_nodes":"7","size_leaf_vector":"0"}},{"base_weights":[-1.3225429E-1,-2.4160175E-1,1.9562338E-1,-9.077086E-2,-4.0696275E-1,2.6957142E-1,-1.4568056E-1],"categories":[],"categories_nodes":[],"categories_segments":[],"categories_sizes":[],"default_left":[1,1,1,0,0,0,0],"id":30,"left_children":[1,3,5,-1,-1,-1,-1],"loss_changes":[2.1911362E2,1.1425815E2,3.8621174E1,0E0,0E0,0E0,0E0],"parents":[2147483647,0,0,1,1,2,2],"right_children":[2,4,6,-1,-1,-1,-1],"split_conditions":[2.25E1,1.35E1,2.45E1,-9.077086E-4,-4.0696273E-3,2.6957141E-3,-1.4568056E-3],"split_indices":[51,80,81,0,0,0,0],"split_type":[0,0,0,0,0,0,0],"sum_hessian":[6.109196E3,4.5815186E3,1.5276771E3,2.3968376E3,2.1846812E3,1.2558013E3,2.7187582E2],"tree_param":{"num_deleted":"0","num_feature":"104","num_nodes":"7","size_leaf_vector":"0"}},{"base_weights":[1.3225426E-1,2.4160174E-1,-1.956234E-1,9.077082E-2,4.0696275E-1,-2.6957145E-1,1.4568065E-1],"categories":[],"categories_nodes":[],"categories_segments":[],"categories_sizes":[],"default_left":[1,1,1,0,0,0,0],"id":31,"left_children":[1,3,5,-1,-1,-1,-1],"loss_changes":[2.1911362E2,1.1425821E2,3.86212E1,0E0,0E0,0E0,0E0],"parents":[2147483647,0,0,1,1,2,2],"right_children":[2,4,6,-1,-1,-1,-1],"split_conditions":[2.25E1,1.35E1,2.45E1,9.0770813E-4,4.0696273E-3,-2.6957146E-3,1.4568064E-3],"split_indices":[51,80,81,0,0,0,0],"split_type":[0,0,0,0,0,0,0],"sum_hessian":[6.109196E3,4.5815186E3,1.5276771E3,2.3968376E3,2.184681E3,1.2558013E3,2.7187582E2],"tree_param":{"num_deleted":"0","num_feature":"104","num_nodes":"7","size_leaf_vector":"0"}},{"base_weights":[-1.309606E-1,-3.2127994E-1,5.4201834E-2,-3.935439E-1,-1.9956492E-2,-1.9549245E-1,1.7404318E-1],"categories":[],"categories_nodes":[],"categories_segments":[],"categories_sizes":[],"default_left":[1,1,1,0,0,0,0],"id":32,"left_children":[1,3,5,-1,-1,-1,-1],"loss_changes":[2.1529471E2,6.559189E1,9.2715256E1,0E0,0E0,0E0,0E0],"parents":[2147483647,0,0,1,1,2,2],"right_children":[2,4,6,-1,-1,-1,-1],"split_conditions":[1.45E1,5.05E0,-1.95E0,-3.935439E-3,-1.995649E-4,-1.9549243E-3,1.7404318E-3],"split_indices":[51,77,77,0,0,0,0],"split_type":[0,0,0,0,0,0,0],"sum_hessian":[6.107892E3,3.0116401E3,3.096252E3,2.428844E3,5.82796E2,1.00391766E3,2.0923342E3],"tree_param":{"num_deleted":"0","num_feature":"104","num_nodes":"7","size_leaf_vector":"0"}},{"base_weights":[1.309606E-1,3.2127994E-1,-5.420182E-2,3.935439E-1,1.9956583E-2,1.9549246E-1,-1.7404316E-1],"categories":[],"categories_nodes":[],"categories_segments":[],"categories_sizes":[],"default_left":[1,1,1,0,0,0,0],"id":33,"left_children":[1,3,5,-1,-1,-1,-1],"loss_changes":[2.1529474E2,6.559183E1,9.271525E1,0E0,0E0,0E0,0E0],"parents":[2147483647,0,0,1,1,2,2],"right_children":[2,4,6,-1,-1,-1,-1],"split_conditions":[1.45E1,5.05E0,-1.95E0,3.935439E-3,1.9956582E-4,1.9549245E-3,-1.7404316E-3],"split_indices":[51,77,77,0,0,0,0],"split_type":[0,0,0,0,0,0,0],"sum_hessian":[6.107892E3,3.0116401E3,3.096252E3,2.428844E3,5.82796E2,1.00391766E3,2.0923342E3],"tree_param":{"num_deleted":"0","num_feature":"104","num_nodes":"7","size_leaf_vector":"0"}},{"base_weights":[-1.2967856E-1,-2.3736861E-1,1.9314767E-1,-8.8668846E-2,-4.005139E-1,2.6585332E-1,-1.4238988E-1],"categories":[],"categories_nodes":[],"categories_segments":[],"categories_sizes":[],"default_left":[1,1,1,0,0,0,0],"id":34,"left_children":[1,3,5,-1,-1,-1,-1],"loss_changes":[2.1237909E2,1.1108145E2,3.7322124E1,0E0,0E0,0E0,0E0],"parents":[2147483647,0,0,1,1,2,2],"right_children":[2,4,6,-1,-1,-1,-1],"split_conditions":[2.25E1,1.35E1,2.45E1,-8.866884E-4,-4.0051388E-3,2.6585332E-3,-1.4238987E-3],"split_indices":[51,80,81,0,0,0,0],"split_type":[0,0,0,0,0,0,0],"sum_hessian":[6.106643E3,4.579316E3,1.5273273E3,2.3965288E3,2.182787E3,1.2554902E3,2.7183707E2],"tree_param":{"num_deleted":"0","num_feature":"104","num_nodes":"7","size_leaf_vector":"0"}},{"base_weights":[1.2967858E-1,2.3736866E-1,-1.9314775E-1,8.866886E-2,4.0051398E-1,-2.6585338E-1,1.4238979E-1],"categories":[],"categories_nodes":[],"categories_segments":[],"categories_sizes":[],"default_left":[1,1,1,0,0,0,0],"id":35,"left_children":[1,3,5,-1,-1,-1,-1],"loss_changes":[2.1237924E2,1.1108145E2,3.7322113E1,0E0,0E0,0E0,0E0],"parents":[2147483647,0,0,1,1,2,2],"right_children":[2,4,6,-1,-1,-1,-1],"split_conditions":[2.25E1,1.35E1,2.45E1,8.866886E-4,4.0051397E-3,-2.6585336E-3,1.4238978E-3],"split_indices":[51,80,81,0,0,0,0],"split_type":[0,0,0,0,0,0,0],"sum_hessian":[6.106643E3,4.579316E3,1.5273273E3,2.3965288E3,2.182787E3,1.2554902E3,2.7183707E2],"tree_param":{"num_deleted":"0","num_feature":"104","num_nodes":"7","size_leaf_vector":"0"}},{"base_weights":[-1.284129E-1,-2.8083032E-1,9.671442E-2,-3.7645486E-1,-2.5249409E-2,1.9490498E-1,-1.4659835E-1],"categories":[],"categories_nodes":[],"categories_segments":[],"categories_sizes":[],"default_left":[1,1,1,0,0,0,0],"id":36,"left_children":[1,3,5,-1,-1,-1,-1],"loss_changes":[2.0955142E2,8.898425E1,5.8940517E1,0E0,0E0,0E0,0E0],"parents":[2147483647,0,0,1,1,2,2],"right_children":[2,4,6,-1,-1,-1,-1],"split_conditions":[1.65E1,3.75E0,2.15E1,-3.7645486E-3,-2.524941E-4,1.9490498E-3,-1.4659835E-3],"split_indices":[27,77,103,0,0,0,0],"split_type":[0,0,0,0,0,0,0],"sum_hessian":[6.105207E3,3.6403452E3,2.4648618E3,2.6488254E3,9.915198E2,1.7562957E3,7.0856635E2],"tree_param":{"num_deleted":"0","num_feature":"104","num_nodes":"7","size_leaf_vector":"0"}},{"base_weights":[1.2841289E-1,2.8083032E-1,-9.671444E-2,3.764549E-1,2.5249382E-2,-1.9490501E-1,1.4659838E-1],"categories":[],"categories_nodes":[],"categories_segments":[],"categories_sizes":[],"default_left":[1,1,1,0,0,0,0],"id":37,"left_children":[1,3,5,-1,-1,-1,-1],"loss_changes":[2.0955147E2,8.898428E1,5.8940544E1,0E0,0E0,0E0,0E0],"parents":[2147483647,0,0,1,1,2,2],"right_children":[2,4,6,-1,-1,-1,-1],"split_conditions":[1.65E1,3.75E0,2.15E1,3.7645488E-3,2.5249383E-4,-1.9490501E-3,1.4659838E-3],"split_indices":[27,77,103,0,0,0,0],"split_type":[0,0,0,0,0,0,0],"sum_hessian":[6.105207E3,3.640345E3,2.464862E3,2.6488252E3,9.915198E2,1.7562957E3,7.085663E2],"tree_param":{"num_deleted":"0","num_feature":"104","num_nodes":"7","size_leaf_vector":"0"}},{"base_weights":[-1.2715928E-1,-3.134446E-1,5.3968325E-2,-3.8239133E-1,-1.0680281E-2,-1.7191172E-1,1.8077774E-1],"categories":[],"categories_nodes":[],"categories_segments":[],"categories_sizes":[],"default_left":[1,1,1,0,0,0,0],"id":38,"left_children":[1,3,5,-1,-1,-1,-1],"loss_changes":[2.060011E2,6.282202E1,8.871477E1,0E0,0E0,0E0,0E0],"parents":[2147483647,0,0,1,1,2,2],"right_children":[2,4,6,-1,-1,-1,-1],"split_conditions":[1.45E1,5.25E0,-1.45E0,-3.8239132E-3,-1.0680281E-4,-1.7191172E-3,1.8077774E-3],"split_indices":[51,77,77,0,0,0,0],"split_type":[0,0,0,0,0,0,0],"sum_hessian":[6.1037866E3,3.008691E3,3.0950957E3,2.4504104E3,5.582804E2,1.112713E3,1.9823826E3],"tree_param":{"num_deleted":"0","num_feature":"104","num_nodes":"7","size_leaf_vector":"0"}},{"base_weights":[1.2715927E-1,3.1344458E-1,-5.396832E-2,3.823913E-1,1.0680282E-2,1.7191175E-1,-1.8077774E-1],"categories":[],"categories_nodes":[],"categories_segments":[],"categories_sizes":[],"default_left":[1,1,1,0,0,0,0],"id":39,"left_children":[1,3,5,-1,-1,-1,-1],"loss_changes":[2.0600107E2,6.282199E1,8.871478E1,0E0,0E0,0E0,0E0],"parents":[2147483647,0,0,1,1,2,2],"right_children":[2,4,6,-1,-1,-1,-1],"split_conditions":[1.45E1,5.25E0,-1.45E0,3.823913E-3,1.06802814E-4,1.7191174E-3,-1.8077774E-3],"split_indices":[51,77,77,0,0,0,0],"split_type":[0,0,0,0,0,0,0],"sum_hessian":[6.1037866E3,3.008691E3,3.0950957E3,2.4504104E3,5.582804E2,1.112713E3,1.9823826E3],"tree_param":{"num_deleted":"0","num_feature":"104","num_nodes":"7","size_leaf_vector":"0"}},{"base_weights":[-1.2591834E-1,-2.4547087E-1,1.5296622E-1,-1.3773458E-1,-4.6349135E-1,9.028524E-3,3.1428623E-1],"categories":[],"categories_nodes":[],"categories_segments":[],"categories_sizes":[],"default_left":[1,1,1,0,0,0,0],"id":40,"left_children":[1,3,5,-1,-1,-1,-1],"loss_changes":[2.0353145E2,1.0028934E2,4.2535065E1,0E0,0E0,0E0,0E0],"parents":[2147483647,0,0,1,1,2,2],"right_children":[2,4,6,-1,-1,-1,-1],"split_conditions":[1.95E1,1.95E1,5.135E-1,-1.3773458E-3,-4.6349135E-3,9.028524E-5,3.1428623E-3],"split_indices":[28,103,55,0,0,0,0],"split_type":[0,0,0,0,0,0,0],"sum_hessian":[6.102348E3,4.2714E3,1.8309485E3,2.8598281E3,1.4115718E3,9.6816223E2,8.6278625E2],"tree_param":{"num_deleted":"0","num_feature":"104","num_nodes":"7","size_leaf_vector":"0"}},{"base_weights":[1.2591834E-1,2.4547088E-1,-1.5296622E-1,1.3773459E-1,4.6349135E-1,-9.0284925E-3,-3.1428626E-1],"categories":[],"categories_nodes":[],"categories_segments":[],"categories_sizes":[],"default_left":[1,1,1,0,0,0,0],"id":41,"left_children":[1,3,5,-1,-1,-1,-1],"loss_changes":[2.0353143E2,1.0028934E2,4.2535084E1,0E0,0E0,0E0,0E0],"parents":[2147483647,0,0,1,1,2,2],"right_children":[2,4,6,-1,-1,-1,-1],"split_conditions":[1.95E1,1.95E1,5.135E-1,1.3773459E-3,4.6349135E-3,-9.028492E-5,-3.1428626E-3],"split_indices":[28,103,55,0,0,0,0],"split_type":[0,0,0,0,0,0,0],"sum_hessian":[6.102348E3,4.2714E3,1.8309485E3,2.8598281E3,1.4115718E3,9.681623E2,8.6278625E2],"tree_param":{"num_deleted":"0","num_feature":"104","num_nodes":"7","size_leaf_vector":"0"}},{"base_weights":[-1.2469165E-1,-2.2937505E-1,1.8893652E-1,-8.446131E-2,-3.8861936E-1,2.5967628E-1,-1.3744305E-1],"categories":[],"categories_nodes":[],"categories_segments":[],"categories_sizes":[],"default_left":[1,1,1,0,0,0,0],"id":42,"left_children":[1,3,5,-1,-1,-1,-1],"loss_changes":[2.0037549E2,1.0554903E2,3.5303474E1,0E0,0E0,0E0,0E0],"parents":[2147483647,0,0,1,1,2,2],"right_children":[2,4,6,-1,-1,-1,-1],"split_conditions":[2.25E1,1.35E1,2.45E1,-8.4461307E-4,-3.8861935E-3,2.5967627E-3,-1.3744305E-3],"split_indices":[51,80,81,0,0,0,0],"split_type":[0,0,0,0,0,0,0],"sum_hessian":[6.1007974E3,4.5742607E3,1.5265367E3,2.395691E3,2.1785698E3,1.2547793E3,2.7175748E2],"tree_param":{"num_deleted":"0","num_feature":"104","num_nodes":"7","size_leaf_vector":"0"}},{"base_weights":[1.2469164E-1,2.2937505E-1,-1.889365E-1,8.44613E-2,3.8861936E-1,-2.5967625E-1,1.3744304E-1],"categories":[],"categories_nodes":[],"categories_segments":[],"categories_sizes":[],"default_left":[1,1,1,0,0,0,0],"id":43,"left_children":[1,3,5,-1,-1,-1,-1],"loss_changes":[2.0037546E2,1.0554906E2,3.5303467E1,0E0,0E0,0E0,0E0],"parents":[2147483647,0,0,1,1,2,2],"right_children":[2,4,6,-1,-1,-1,-1],"split_conditions":[2.25E1,1.35E1,2.45E1,8.44613E-4,3.8861935E-3,-2.5967625E-3,1.3744304E-3],"split_indices":[51,80,81,0,0,0,0],"split_type":[0,0,0,0,0,0,0],"sum_hessian":[6.1007974E3,4.5742607E3,1.5265367E3,2.395691E3,2.1785696E3,1.2547793E3,2.7175745E2],"tree_param":{"num_deleted":"0","num_feature":"104","num_nodes":"7","size_leaf_vector":"0"}},{"base_weights":[-1.2347936E-1,-3.0601943E-1,5.3894434E-2,-2.4885073E-2,-3.7789276E-1,-1.669999E-1,1.7787151E-1],"categories":[],"categories_nodes":[],"categories_segments":[],"categories_sizes":[],"default_left":[1,1,1,0,0,0,0],"id":44,"left_children":[1,3,5,-1,-1,-1,-1],"loss_changes":[1.9752553E2,6.07388E1,8.4780594E1,0E0,0E0,0E0,0E0],"parents":[2147483647,0,0,1,1,2,2],"right_children":[2,4,6,-1,-1,-1,-1],"split_conditions":[1.45E1,5.5E0,-1.45E0,-2.4885073E-4,-3.7789275E-3,-1.669999E-3,1.778715E-3],"split_indices":[51,103,77,0,0,0,0],"split_type":[0,0,0,0,0,0,0],"sum_hessian":[6.099133E3,3.0054348E3,3.093698E3,6.121889E2,2.393246E3,1.112022E3,1.981676E3],"tree_param":{"num_deleted":"0","num_feature":"104","num_nodes":"7","size_leaf_vector":"0"}},{"base_weights":[1.23479374E-1,3.0601946E-1,-5.3894438E-2,2.4885068E-2,3.778928E-1,1.669999E-1,-1.7787151E-1],"categories":[],"categories_nodes":[],"categories_segments":[],"categories_sizes":[],"default_left":[1,1,1,0,0,0,0],"id":45,"left_children":[1,3,5,-1,-1,-1,-1],"loss_changes":[1.9752557E2,6.07388E1,8.47806E1,0E0,0E0,0E0,0E0],"parents":[2147483647,0,0,1,1,2,2],"right_children":[2,4,6,-1,-1,-1,-1],"split_conditions":[1.45E1,5.5E0,-1.45E0,2.4885067E-4,3.7789277E-3,1.669999E-3,-1.778715E-3],"split_indices":[51,103,77,0,0,0,0],"split_type":[0,0,0,0,0,0,0],"sum_hessian":[6.099133E3,3.0054348E3,3.093698E3,6.1218884E2,2.393246E3,1.112022E3,1.981676E3],"tree_param":{"num_deleted":"0","num_feature":"104","num_nodes":"7","size_leaf_vector":"0"}},{"base_weights":[-1.2227795E-1,1.0862716E-1,-2.6046985E-1,-1.6562752E-1,1.921288E-1,-3.6408228E-1,-4.079114E-2],"categories":[],"categories_nodes":[],"categories_segments":[],"categories_sizes":[],"default_left":[1,1,1,0,0,0,0],"id":46,"left_children":[1,3,5,-1,-1,-1,-1],"loss_changes":[1.9462726E2,5.233761E1,8.683133E1,0E0,0E0,0E0,0E0],"parents":[2147483647,0,0,1,1,2,2],"right_children":[2,4,6,-1,-1,-1,-1],"split_conditions":[4.585E-1,3.705E-1,2.95E0,-1.6562752E-3,1.9212881E-3,-3.6408226E-3,-4.0791137E-4],"split_indices":[3,55,77,0,0,0,0],"split_type":[0,0,0,0,0,0,0],"sum_hessian":[6.097519E3,2.283024E3,3.8144954E3,5.326366E2,1.7503875E3,2.591531E3,1.2229642E3],"tree_param":{"num_deleted":"0","num_feature":"104","num_nodes":"7","size_leaf_vector":"0"}},{"base_weights":[1.2227797E-1,-1.0862718E-1,2.6046988E-1,1.6562745E-1,-1.9212879E-1,3.6408228E-1,4.07912E-2],"categories":[],"categories_nodes":[],"categories_segments":[],"categories_sizes":[],"default_left":[1,1,1,0,0,0,0],"id":47,"left_children":[1,3,5,-1,-1,-1,-1],"loss_changes":[1.9462732E2,5.2337585E1,8.68313E1,0E0,0E0,0E0,0E0],"parents":[2147483647,0,0,1,1,2,2],"right_children":[2,4,6,-1,-1,-1,-1],"split_conditions":[4.585E-1,3.705E-1,2.95E0,1.6562744E-3,-1.9212879E-3,3.6408226E-3,4.0791198E-4],"split_indices":[3,55,77,0,0,0,0],"split_type":[0,0,0,0,0,0,0],"sum_hessian":[6.0975195E3,2.283024E3,3.8144954E3,5.326366E2,1.7503873E3,2.5915312E3,1.2229642E3],"tree_param":{"num_deleted":"0","num_feature":"104","num_nodes":"7","size_leaf_vector":"0"}},{"base_weights":[-1.210911E-1,1.6263545E-1,-2.3191176E-1,-2.5954105E-2,2.8080174E-1,-4.5606047E-1,-1.3485733E-1],"categories":[],"categories_nodes":[],"categories_segments":[],"categories_sizes":[],"default_left":[1,1,1,0,0,0,0],"id":48,"left_children":[1,3,5,-1,-1,-1,-1],"loss_changes":[1.9173674E2,3.8182484E1,9.532625E1,0E0,0E0,0E0,0E0],"parents":[2147483647,0,0,1,1,2,2],"right_children":[2,4,6,-1,-1,-1,-1],"split_conditions":[-2.45E0,-1.25E0,-1.95E0,-2.5954103E-4,2.8080174E-3,-4.5606047E-3,-1.3485732E-3],"split_indices":[25,77,77,0,0,0,0],"split_type":[0,0,0,0,0,0,0],"sum_hessian":[6.0957617E3,1.7120499E3,4.3837114E3,6.5980426E2,1.0522457E3,1.3234603E3,3.0602512E3],"tree_param":{"num_deleted":"0","num_feature":"104","num_nodes":"7","size_leaf_vector":"0"}},{"base_weights":[1.2109111E-1,-1.6263543E-1,2.3191178E-1,2.5954116E-2,-2.8080174E-1,4.5606044E-1,1.3485737E-1],"categories":[],"categories_nodes":[],"categories_segments":[],"categories_sizes":[],"default_left":[1,1,1,0,0,0,0],"id":49,"left_children":[1,3,5,-1,-1,-1,-1],"loss_changes":[1.9173677E2,3.818248E1,9.53262E1,0E0,0E0,0E0,0E0],"parents":[2147483647,0,0,1,1,2,2],"right_children":[2,4,6,-1,-1,-1,-1],"split_conditions":[-2.45E0,-1.25E0,-1.95E0,2.5954115E-4,-2.8080174E-3,4.560604E-3,1.3485737E-3],"split_indices":[25,77,77,0,0,0,0],"split_type":[0,0,0,0,0,0,0],"sum_hessian":[6.0957617E3,1.7120499E3,4.3837114E3,6.5980426E2,1.0522457E3,1.3234603E3,3.0602512E3],"tree_param":{"num_deleted":"0","num_feature":"104","num_nodes":"7","size_leaf_vector":"0"}},{"base_weights":[-1.1991541E-1,-2.9856962E-1,5.3552885E-2,-3.653273E-1,-6.178345E-3,-1.7995772E-1,1.6553573E-1],"categories":[],"categories_nodes":[],"categories_segments":[],"categories_sizes":[],"default_left":[1,1,1,0,0,0,0],"id":50,"left_children":[1,3,5,-1,-1,-1,-1],"loss_changes":[1.8890573E2,5.8610077E1,8.091548E1,0E0,0E0,0E0,0E0],"parents":[2147483647,0,0,1,1,2,2],"right_children":[2,4,6,-1,-1,-1,-1],"split_conditions":[1.45E1,5.25E0,-1.95E0,-3.653273E-3,-6.178345E-5,-1.7995771E-3,1.6553573E-3],"split_indices":[51,77,77,0,0,0,0],"split_type":[0,0,0,0,0,0,0],"sum_hessian":[6.094019E3,3.001779E3,3.09224E3,2.443613E3,5.58166E2,1.0020736E3,2.0901663E3],"tree_param":{"num_deleted":"0","num_feature":"104","num_nodes":"7","size_leaf_vector":"0"}},{"base_weights":[1.1991541E-1,2.9856962E-1,-5.355286E-2,3.6532733E-1,6.1782687E-3,1.7995775E-1,-1.655357E-1],"categories":[],"categories_nodes":[],"categories_segments":[],"categories_sizes":[],"default_left":[1,1,1,0,0,0,0],"id":51,"left_children":[1,3,5,-1,-1,-1,-1],"loss_changes":[1.8890572E2,5.8610077E1,8.091549E1,0E0,0E0,0E0,0E0],"parents":[2147483647,0,0,1,1,2,2],"right_children":[2,4,6,-1,-1,-1,-1],"split_conditions":[1.45E1,5.25E0,-1.95E0,3.6532732E-3,6.178269E-5,1.7995774E-3,-1.655357E-3],"split_indices":[51,77,77,0,0,0,0],"split_type":[0,0,0,0,0,0,0],"sum_hessian":[6.094019E3,3.001779E3,3.09224E3,2.443613E3,5.58166E2,1.0020736E3,2.0901663E3],"tree_param":{"num_deleted":"0","num_feature":"104","num_nodes":"7","size_leaf_vector":"0"}},{"base_weights":[-1.18751705E-1,-2.3327723E-1,1.4810301E-1,-1.4008206E-1,-4.6844965E-1,9.911547E-3,3.0309E-1],"categories":[],"categories_nodes":[],"categories_segments":[],"categories_sizes":[],"default_left":[1,1,1,0,0,0,0],"id":52,"left_children":[1,3,5,-1,-1,-1,-1],"loss_changes":[1.8625465E2,9.3385666E1,3.919962E1,0E0,0E0,0E0,0E0],"parents":[2147483647,0,0,1,1,2,2],"right_children":[2,4,6,-1,-1,-1,-1],"split_conditions":[1.95E1,1.95E1,5.135E-1,-1.4008206E-3,-4.684496E-3,9.9115474E-5,3.0309E-3],"split_indices":[28,80,55,0,0,0,0],"split_type":[0,0,0,0,0,0,0],"sum_hessian":[6.092254E3,4.2628853E3,1.8293687E3,3.0541636E3,1.2087219E3,9.67647E2,8.617217E2],"tree_param":{"num_deleted":"0","num_feature":"104","num_nodes":"7","size_leaf_vector":"0"}},{"base_weights":[1.187517E-1,2.3327723E-1,-1.4810303E-1,1.4008205E-1,4.684497E-1,-9.911525E-3,-3.030901E-1],"categories":[],"categories_nodes":[],"categories_segments":[],"categories_sizes":[],"default_left":[1,1,1,0,0,0,0],"id":53,"left_children":[1,3,5,-1,-1,-1,-1],"loss_changes":[1.8625465E2,9.3385666E1,3.9199642E1,0E0,0E0,0E0,0E0],"parents":[2147483647,0,0,1,1,2,2],"right_children":[2,4,6,-1,-1,-1,-1],"split_conditions":[1.95E1,1.95E1,5.135E-1,1.4008204E-3,4.684497E-3,-9.911525E-5,-3.0309008E-3],"split_indices":[28,80,55,0,0,0,0],"split_type":[0,0,0,0,0,0,0],"sum_hessian":[6.092254E3,4.2628853E3,1.8293687E3,3.0541636E3,1.2087219E3,9.67647E2,8.617216E2],"tree_param":{"num_deleted":"0","num_feature":"104","num_nodes":"7","size_leaf_vector":"0"}},{"base_weights":[-1.17600664E-1,-2.1793397E-1,1.8268755E-1,-7.821078E-2,-3.71895E-1,2.505804E-1,-1.3039672E-1],"categories":[],"categories_nodes":[],"categories_segments":[],"categories_sizes":[],"default_left":[1,1,1,0,0,0,0],"id":54,"left_children":[1,3,5,-1,-1,-1,-1],"loss_changes":[1.8356737E2,9.820099E1,3.247178E1,0E0,0E0,0E0,0E0],"parents":[2147483647,0,0,1,1,2,2],"right_children":[2,4,6,-1,-1,-1,-1],"split_conditions":[2.25E1,1.35E1,2.45E1,-7.8210776E-4,-3.7189499E-3,2.505804E-3,-1.3039672E-3],"split_indices":[51,80,81,0,0,0,0],"split_type":[0,0,0,0,0,0,0],"sum_hessian":[6.09041E3,4.5653086E3,1.5251019E3,2.394108E3,2.1712004E3,1.2534819E3,2.7162E2],"tree_param":{"num_deleted":"0","num_feature":"104","num_nodes":"7","size_leaf_vector":"0"}},{"base_weights":[1.1760066E-1,2.1793397E-1,-1.8268758E-1,7.8210786E-2,3.7189496E-1,-2.5058043E-1,1.3039665E-1],"categories":[],"categories_nodes":[],"categories_segments":[],"categories_sizes":[],"default_left":[1,1,1,0,0,0,0],"id":55,"left_children":[1,3,5,-1,-1,-1,-1],"loss_changes":[1.8356735E2,9.820099E1,3.247177E1,0E0,0E0,0E0,0E0],"parents":[2147483647,0,0,1,1,2,2],"right_children":[2,4,6,-1,-1,-1,-1],"split_conditions":[2.25E1,1.35E1,2.45E1,7.821078E-4,3.7189494E-3,-2.5058042E-3,1.3039665E-3],"split_indices":[51,80,81,0,0,0,0],"split_type":[0,0,0,0,0,0,0],"sum_hessian":[6.09041E3,4.5653086E3,1.5251019E3,2.394108E3,2.1712004E3,1.2534819E3,2.7162003E2],"tree_param":{"num_deleted":"0","num_feature":"104","num_nodes":"7","size_leaf_vector":"0"}},{"base_weights":[-1.1646307E-1,-2.915689E-1,5.34296E-2,-3.573268E-1,-3.9805174E-3,-1.5788177E-1,1.7196298E-1],"categories":[],"categories_nodes":[],"categories_segments":[],"categories_sizes":[],"default_left":[1,1,1,0,0,0,0],"id":56,"left_children":[1,3,5,-1,-1,-1,-1],"loss_changes":[1.8117184E2,5.671089E1,7.7463295E1,0E0,0E0,0E0,0E0],"parents":[2147483647,0,0,1,1,2,2],"right_children":[2,4,6,-1,-1,-1,-1],"split_conditions":[1.45E1,5.25E0,-1.45E0,-3.573268E-3,-3.9805174E-5,-1.5788176E-3,1.7196297E-3],"split_indices":[51,77,77,0,0,0,0],"split_type":[0,0,0,0,0,0,0],"sum_hessian":[6.08845E3,2.997872E3,3.0905781E3,2.4397693E3,5.581026E2,1.1105143E3,1.9800638E3],"tree_param":{"num_deleted":"0","num_feature":"104","num_nodes":"7","size_leaf_vector":"0"}},{"base_weights":[1.1646309E-1,2.9156893E-1,-5.3429607E-2,3.5732684E-1,3.9806203E-3,1.5788177E-1,-1.7196299E-1],"categories":[],"categories_nodes":[],"categories_segments":[],"categories_sizes":[],"default_left":[1,1,1,0,0,0,0],"id":57,"left_children":[1,3,5,-1,-1,-1,-1],"loss_changes":[1.8117188E2,5.671083E1,7.74633E1,0E0,0E0,0E0,0E0],"parents":[2147483647,0,0,1,1,2,2],"right_children":[2,4,6,-1,-1,-1,-1],"split_conditions":[1.45E1,5.25E0,-1.45E0,3.5732682E-3,3.9806204E-5,1.5788176E-3,-1.7196299E-3],"split_indices":[51,77,77,0,0,0,0],"split_type":[0,0,0,0,0,0,0],"sum_hessian":[6.08845E3,2.997872E3,3.0905781E3,2.4397695E3,5.5810266E2,1.1105143E3,1.9800638E3],"tree_param":{"num_deleted":"0","num_feature":"104","num_nodes":"7","size_leaf_vector":"0"}},{"base_weights":[-1.1533559E-1,-2.563905E-1,9.250688E-2,-3.4655765E-1,-1.6530823E-2,1.7574647E-1,-1.5373243E-1],"categories":[],"categories_nodes":[],"categories_segments":[],"categories_sizes":[],"default_left":[1,1,1,0,0,0,0],"id":58,"left_children":[1,3,5,-1,-1,-1,-1],"loss_changes":[1.784935E2,7.843036E1,5.0487305E1,0E0,0E0,0E0,0E0],"parents":[2147483647,0,0,1,1,2,2],"right_children":[2,4,6,-1,-1,-1,-1],"split_conditions":[1.65E1,3.75E0,2.15E1,-3.4655763E-3,-1.6530823E-4,1.7574647E-3,-1.5373243E-3],"split_indices":[27,77,80,0,0,0,0],"split_type":[0,0,0,0,0,0,0],"sum_hessian":[6.086544E3,3.62569E3,2.460854E3,2.6347864E3,9.909035E2,1.8393574E3,6.214966E2],"tree_param":{"num_deleted":"0","num_feature":"104","num_nodes":"7","size_leaf_vector":"0"}},{"base_weights":[1.153356E-1,2.5639054E-1,-9.250691E-2,3.4655768E-1,1.6530875E-2,-1.7574652E-1,1.5373243E-1],"categories":[],"categories_nodes":[],"categories_segments":[],"categories_sizes":[],"default_left":[1,1,1,0,0,0,0],"id":59,"left_children":[1,3,5,-1,-1,-1,-1],"loss_changes":[1.7849356E2,7.843036E1,5.048732E1,0E0,0E0,0E0,0E0],"parents":[2147483647,0,0,1,1,2,2],"right_children":[2,4,6,-1,-1,-1,-1],"split_conditions":[1.65E1,3.75E0,2.15E1,3.4655768E-3,1.6530875E-4,-1.7574651E-3,1.5373243E-3],"split_indices":[27,77,80,0,0,0,0],"split_type":[0,0,0,0,0,0,0],"sum_hessian":[6.086544E3,3.62569E3,2.460854E3,2.6347864E3,9.909035E2,1.8393574E3,6.214966E2],"tree_param":{"num_deleted":"0","num_feature":"104","num_nodes":"7","size_leaf_vector":"0"}},{"base_weights":[-1.142201E-1,-2.0443429E-1,2.062391E-1,-4.1657317E-1,-1.0581516E-1,2.6743203E-1,-7.879721E-2],"categories":[],"categories_nodes":[],"categories_segments":[],"categories_sizes":[],"default_left":[1,1,1,0,0,0,0],"id":60,"left_children":[1,3,5,-1,-1,-1,-1],"loss_changes":[1.759761E2,9.931453E1,2.3347248E1,0E0,0E0,0E0,0E0],"parents":[2147483647,0,0,1,1,2,2],"right_children":[2,4,6,-1,-1,-1,-1],"split_conditions":[2.35E1,-1.75E0,2.45E1,-4.1657314E-3,-1.0581516E-3,2.6743202E-3,-7.8797207E-4],"split_indices":[51,77,81,0,0,0,0],"split_type":[0,0,0,0,0,0,0],"sum_hessian":[6.0845806E3,4.7482397E3,1.3363406E3,1.505832E3,3.242408E3,1.1002051E3,2.3613542E2],"tree_param":{"num_deleted":"0","num_feature":"104","num_nodes":"7","size_leaf_vector":"0"}},{"base_weights":[1.1422008E-1,2.0443426E-1,-2.0623909E-1,4.1657314E-1,1.05815135E-1,-2.67432E-1,7.8797184E-2],"categories":[],"categories_nodes":[],"categories_segments":[],"categories_sizes":[],"default_left":[1,1,1,0,0,0,0],"id":61,"left_children":[1,3,5,-1,-1,-1,-1],"loss_changes":[1.7597609E2,9.9314514E1,2.3347237E1,0E0,0E0,0E0,0E0],"parents":[2147483647,0,0,1,1,2,2],"right_children":[2,4,6,-1,-1,-1,-1],"split_conditions":[2.35E1,-1.75E0,2.45E1,4.1657314E-3,1.0581514E-3,-2.67432E-3,7.8797183E-4],"split_indices":[51,77,81,0,0,0,0],"split_type":[0,0,0,0,0,0,0],"sum_hessian":[6.0845806E3,4.7482397E3,1.3363406E3,1.505832E3,3.242408E3,1.1002051E3,2.361354E2],"tree_param":{"num_deleted":"0","num_feature":"104","num_nodes":"7","size_leaf_vector":"0"}},{"base_weights":[-1.1311489E-1,-2.846886E-1,5.3205818E-2,-1.83953E-2,-3.5307473E-1,1.5246439E-1,-1.8796627E-1],"categories":[],"categories_nodes":[],"categories_segments":[],"categories_sizes":[],"default_left":[1,1,1,0,0,0,0],"id":62,"left_children":[1,3,5,-1,-1,-1,-1],"loss_changes":[1.7361954E2,5.45291E1,7.399716E1,0E0,0E0,0E0,0E0],"parents":[2147483647,0,0,1,1,2,2],"right_children":[2,4,6,-1,-1,-1,-1],"split_conditions":[1.45E1,5.5E0,2.15E1,-1.8395299E-4,-3.5307473E-3,1.5246439E-3,-1.8796626E-3],"split_indices":[51,103,103,0,0,0,0],"split_type":[0,0,0,0,0,0,0],"sum_hessian":[6.082641E3,2.993689E3,3.088952E3,6.1196967E2,2.3817195E3,2.188574E3,9.003779E2],"tree_param":{"num_deleted":"0","num_feature":"104","num_nodes":"7","size_leaf_vector":"0"}},{"base_weights":[1.1311489E-1,2.846886E-1,-5.320581E-2,1.8395372E-2,3.5307473E-1,-1.5246437E-1,1.8796626E-1],"categories":[],"categories_nodes":[],"categories_segments":[],"categories_sizes":[],"default_left":[1,1,1,0,0,0,0],"id":63,"left_children":[1,3,5,-1,-1,-1,-1],"loss_changes":[1.7361952E2,5.4529068E1,7.3997154E1,0E0,0E0,0E0,0E0],"parents":[2147483647,0,0,1,1,2,2],"right_children":[2,4,6,-1,-1,-1,-1],"split_conditions":[1.45E1,5.5E0,2.15E1,1.8395371E-4,3.5307473E-3,-1.5246437E-3,1.8796625E-3],"split_indices":[51,103,103,0,0,0,0],"split_type":[0,0,0,0,0,0,0],"sum_hessian":[6.082641E3,2.993689E3,3.088952E3,6.1196967E2,2.3817195E3,2.188574E3,9.003779E2],"tree_param":{"num_deleted":"0","num_feature":"104","num_nodes":"7","size_leaf_vector":"0"}},{"base_weights":[-1.1202223E-1,-2.2188205E-1,1.4362893E-1,-1.3176265E-1,-4.5005745E-1,1.069388E-2,2.9283118E-1],"categories":[],"categories_nodes":[],"categories_segments":[],"categories_sizes":[],"default_left":[1,1,1,0,0,0,0],"id":64,"left_children":[1,3,5,-1,-1,-1,-1],"loss_changes":[1.7083878E2,8.741759E1,3.6264267E1,0E0,0E0,0E0,0E0],"parents":[2147483647,0,0,1,1,2,2],"right_children":[2,4,6,-1,-1,-1,-1],"split_conditions":[1.95E1,1.95E1,5.135E-1,-1.3176266E-3,-4.5005744E-3,1.06938794E-4,2.9283117E-3],"split_indices":[28,80,55,0,0,0,0],"split_type":[0,0,0,0,0,0,0],"sum_hessian":[6.0806133E3,4.253086E3,1.8275275E3,3.0500327E3,1.2030532E3,9.670155E2,8.60512E2],"tree_param":{"num_deleted":"0","num_feature":"104","num_nodes":"7","size_leaf_vector":"0"}},{"base_weights":[1.1202223E-1,2.2188205E-1,-1.4362891E-1,1.3176267E-1,4.5005745E-1,-1.0693873E-2,-2.9283118E-1],"categories":[],"categories_nodes":[],"categories_segments":[],"categories_sizes":[],"default_left":[1,1,1,0,0,0,0],"id":65,"left_children":[1,3,5,-1,-1,-1,-1],"loss_changes":[1.7083878E2,8.741759E1,3.626427E1,0E0,0E0,0E0,0E0],"parents":[2147483647,0,0,1,1,2,2],"right_children":[2,4,6,-1,-1,-1,-1],"split_conditions":[1.95E1,1.95E1,5.135E-1,1.3176267E-3,4.5005744E-3,-1.0693873E-4,-2.9283117E-3],"split_indices":[28,80,55,0,0,0,0],"split_type":[0,0,0,0,0,0,0],"sum_hessian":[6.0806133E3,4.253086E3,1.8275275E3,3.0500327E3,1.2030532E3,9.670155E2,8.6051196E2],"tree_param":{"num_deleted":"0","num_feature":"104","num_nodes":"7","size_leaf_vector":"0"}},{"base_weights":[-1.10941194E-1,-1.9925529E-1,2.0260799E-1,-4.0747383E-1,-1.0263389E-1,2.624652E-1,-7.608933E-2],"categories":[],"categories_nodes":[],"categories_segments":[],"categories_sizes":[],"default_left":[1,1,1,0,0,0,0],"id":66,"left_children":[1,3,5,-1,-1,-1,-1],"loss_changes":[1.6838708E2,9.539925E1,2.2316189E1,0E0,0E0,0E0,0E0],"parents":[2147483647,0,0,1,1,2,2],"right_children":[2,4,6,-1,-1,-1,-1],"split_conditions":[2.35E1,-1.75E0,2.45E1,-4.0747384E-3,-1.0263389E-3,2.624652E-3,-7.608933E-4],"split_indices":[51,77,81,0,0,0,0],"split_type":[0,0,0,0,0,0,0],"sum_hessian":[6.078516E3,4.7429766E3,1.3355396E3,1.5023036E3,3.2406729E3,1.099461E3,2.3607848E2],"tree_param":{"num_deleted":"0","num_feature":"104","num_nodes":"7","size_leaf_vector":"0"}},{"base_weights":[1.1094121E-1,1.992553E-1,-2.0260799E-1,4.0747386E-1,1.0263389E-1,-2.624652E-1,7.608942E-2],"categories":[],"categories_nodes":[],"categories_segments":[],"categories_sizes":[],"default_left":[1,1,1,0,0,0,0],"id":67,"left_children":[1,3,5,-1,-1,-1,-1],"loss_changes":[1.6838712E2,9.539923E1,2.2316196E1,0E0,0E0,0E0,0E0],"parents":[2147483647,0,0,1,1,2,2],"right_children":[2,4,6,-1,-1,-1,-1],"split_conditions":[2.35E1,-1.75E0,2.45E1,4.0747384E-3,1.0263389E-3,-2.624652E-3,7.6089415E-4],"split_indices":[51,77,81,0,0,0,0],"split_type":[0,0,0,0,0,0,0],"sum_hessian":[6.078516E3,4.7429766E3,1.3355397E3,1.5023037E3,3.2406729E3,1.0994612E3,2.3607848E2],"tree_param":{"num_deleted":"0","num_feature":"104","num_nodes":"7","size_leaf_vector":"0"}},{"base_weights":[-1.0987004E-1,-2.7815506E-1,5.3124204E-2,-3.4194884E-1,-5.7813068E-5,-1.3893561E-1,1.7269564E-1],"categories":[],"categories_nodes":[],"categories_segments":[],"categories_sizes":[],"default_left":[1,1,1,0,0,0,0],"id":68,"left_children":[1,3,5,-1,-1,-1,-1],"loss_changes":[1.6671619E2,5.3051483E1,7.094172E1,0E0,0E0,0E0,0E0],"parents":[2147483647,0,0,1,1,2,2],"right_children":[2,4,6,-1,-1,-1,-1],"split_conditions":[1.45E1,5.25E0,-1.1500001E0,-3.4194882E-3,-5.7813065E-7,-1.3893561E-3,1.7269563E-3],"split_indices":[51,77,77,0,0,0,0],"split_type":[0,0,0,0,0,0,0],"sum_hessian":[6.076452E3,2.9893557E3,3.0870964E3,2.431382E3,5.5797345E2,1.1844421E3,1.9026542E3],"tree_param":{"num_deleted":"0","num_feature":"104","num_nodes":"7","size_leaf_vector":"0"}},{"base_weights":[1.0987005E-1,2.7815506E-1,-5.312418E-2,3.419488E-1,5.780795E-5,1.3893561E-1,-1.726956E-1],"categories":[],"categories_nodes":[],"categories_segments":[],"categories_sizes":[],"default_left":[1,1,1,0,0,0,0],"id":69,"left_children":[1,3,5,-1,-1,-1,-1],"loss_changes":[1.6671613E2,5.30515E1,7.09417E1,0E0,0E0,0E0,0E0],"parents":[2147483647,0,0,1,1,2,2],"right_children":[2,4,6,-1,-1,-1,-1],"split_conditions":[1.45E1,5.25E0,-1.1500001E0,3.419488E-3,5.780795E-7,1.3893561E-3,-1.726956E-3],"split_indices":[51,77,77,0,0,0,0],"split_type":[0,0,0,0,0,0,0],"sum_hessian":[6.076452E3,2.9893557E3,3.0870964E3,2.431382E3,5.5797345E2,1.1844421E3,1.9026543E3],"tree_param":{"num_deleted":"0","num_feature":"104","num_nodes":"7","size_leaf_vector":"0"}},{"base_weights":[-1.0881066E-1,-2.4422704E-1,9.040873E-2,-3.3181417E-1,-1.1951482E-2,1.7000581E-1,-1.4514259E-1],"categories":[],"categories_nodes":[],"categories_segments":[],"categories_sizes":[],"default_left":[1,1,1,0,0,0,0],"id":70,"left_children":[1,3,5,-1,-1,-1,-1],"loss_changes":[1.6391919E2,7.358356E1,4.6132957E1,0E0,0E0,0E0,0E0],"parents":[2147483647,0,0,1,1,2,2],"right_children":[2,4,6,-1,-1,-1,-1],"split_conditions":[1.65E1,3.75E0,2.15E1,-3.3181417E-3,-1.19514814E-4,1.7000581E-3,-1.4514258E-3],"split_indices":[27,77,80,0,0,0,0],"split_type":[0,0,0,0,0,0,0],"sum_hessian":[6.074311E3,3.6160977E3,2.4582134E3,2.6256E3,9.9049744E2,1.83755E3,6.2066345E2],"tree_param":{"num_deleted":"0","num_feature":"104","num_nodes":"7","size_leaf_vector":"0"}},{"base_weights":[1.0881066E-1,2.4422702E-1,-9.040873E-2,3.3181417E-1,1.1951449E-2,-1.7000583E-1,1.451426E-1],"categories":[],"categories_nodes":[],"categories_segments":[],"categories_sizes":[],"default_left":[1,1,1,0,0,0,0],"id":71,"left_children":[1,3,5,-1,-1,-1,-1],"loss_changes":[1.6391919E2,7.358359E1,4.6132965E1,0E0,0E0,0E0,0E0],"parents":[2147483647,0,0,1,1,2,2],"right_children":[2,4,6,-1,-1,-1,-1],"split_conditions":[1.65E1,3.75E0,2.15E1,3.3181417E-3,1.19514494E-4,-1.7000582E-3,1.451426E-3],"split_indices":[27,77,80,0,0,0,0],"split_type":[0,0,0,0,0,0,0],"sum_hessian":[6.074311E3,3.6160977E3,2.4582136E3,2.6256E3,9.9049744E2,1.83755E3,6.2066345E2],"tree_param":{"num_deleted":"0","num_feature":"104","num_nodes":"7","size_leaf_vector":"0"}},{"base_weights":[-1.0776254E-1,-1.9432935E-1,1.9940841E-1,-3.99152E-1,-9.944332E-2,2.578545E-1,-7.26244E-2],"categories":[],"categories_nodes":[],"categories_segments":[],"categories_sizes":[],"default_left":[1,1,1,0,0,0,0],"id":72,"left_children":[1,3,5,-1,-1,-1,-1],"loss_changes":[1.6152777E2,9.205005E1,2.1255726E1,0E0,0E0,0E0,0E0],"parents":[2147483647,0,0,1,1,2,2],"right_children":[2,4,6,-1,-1,-1,-1],"split_conditions":[2.35E1,-1.75E0,2.45E1,-3.99152E-3,-9.944332E-4,2.578545E-3,-7.26244E-4],"split_indices":[51,77,81,0,0,0,0],"split_type":[0,0,0,0,0,0,0],"sum_hessian":[6.072114E3,4.737391E3,1.3347228E3,1.4988154E3,3.2385757E3,1.0987163E3,2.3600642E2],"tree_param":{"num_deleted":"0","num_feature":"104","num_nodes":"7","size_leaf_vector":"0"}},{"base_weights":[1.07762545E-1,1.9432937E-1,-1.9940841E-1,3.99152E-1,9.944334E-2,-2.578545E-1,7.262442E-2],"categories":[],"categories_nodes":[],"categories_segments":[],"categories_sizes":[],"default_left":[1,1,1,0,0,0,0],"id":73,"left_children":[1,3,5,-1,-1,-1,-1],"loss_changes":[1.615278E2,9.205002E1,2.1255726E1,0E0,0E0,0E0,0E0],"parents":[2147483647,0,0,1,1,2,2],"right_children":[2,4,6,-1,-1,-1,-1],"split_conditions":[2.35E1,-1.75E0,2.45E1,3.99152E-3,9.944334E-4,-2.578545E-3,7.2624424E-4],"split_indices":[51,77,81,0,0,0,0],"split_type":[0,0,0,0,0,0,0],"sum_hessian":[6.0721143E3,4.737391E3,1.3347228E3,1.4988156E3,3.2385757E3,1.0987163E3,2.3600642E2],"tree_param":{"num_deleted":"0","num_feature":"104","num_nodes":"7","size_leaf_vector":"0"}},{"base_weights":[-1.0672404E-1,-2.7165177E-1,5.2862447E-2,-2.0730297E-1,-5.407467E-1,2.1859798E-1,-8.01375E-2],"categories":[],"categories_nodes":[],"categories_segments":[],"categories_sizes":[],"default_left":[1,1,1,0,0,0,0],"id":74,"left_children":[1,3,5,-1,-1,-1,-1],"loss_changes":[1.5980298E2,5.15876E1,6.804759E1,0E0,0E0,0E0,0E0],"parents":[2147483647,0,0,1,1,2,2],"right_children":[2,4,6,-1,-1,-1,-1],"split_conditions":[1.45E1,2.25E1,1.35E1,-2.0730298E-3,-5.4074666E-3,2.1859796E-3,-8.0137496E-4],"split_indices":[51,80,103,0,0,0,0],"split_type":[0,0,0,0,0,0,0],"sum_hessian":[6.0699414E3,2.9846724E3,3.0852693E3,2.4101116E3,5.7456067E2,1.3733054E3,1.7119639E3],"tree_param":{"num_deleted":"0","num_feature":"104","num_nodes":"7","size_leaf_vector":"0"}},{"base_weights":[1.06724046E-1,2.7165177E-1,-5.2862447E-2,2.0730299E-1,5.4074675E-1,-2.1859798E-1,8.01375E-2],"categories":[],"categories_nodes":[],"categories_segments":[],"categories_sizes":[],"default_left":[1,1,1,0,0,0,0],"id":75,"left_children":[1,3,5,-1,-1,-1,-1],"loss_changes":[1.5980301E2,5.1587585E1,6.804759E1,0E0,0E0,0E0,0E0],"parents":[2147483647,0,0,1,1,2,2],"right_children":[2,4,6,-1,-1,-1,-1],"split_conditions":[1.45E1,2.25E1,1.35E1,2.0730298E-3,5.4074675E-3,-2.1859796E-3,8.0137496E-4],"split_indices":[51,80,103,0,0,0,0],"split_type":[0,0,0,0,0,0,0],"sum_hessian":[6.069942E3,2.9846724E3,3.0852693E3,2.4101118E3,5.7456067E2,1.3733054E3,1.7119639E3],"tree_param":{"num_deleted":"0","num_feature":"104","num_nodes":"7","size_leaf_vector":"0"}},{"base_weights":[-1.05695516E-1,1.5127686E-1,-2.063644E-1,-1.8061824E-2,2.5758702E-1,-4.1336405E-1,-1.1748444E-1],"categories":[],"categories_nodes":[],"categories_segments":[],"categories_sizes":[],"default_left":[1,1,1,0,0,0,0],"id":76,"left_children":[1,3,5,-1,-1,-1,-1],"loss_changes":[1.5702591E2,3.0767635E1,8.018527E1,0E0,0E0,0E0,0E0],"parents":[2147483647,0,0,1,1,2,2],"right_children":[2,4,6,-1,-1,-1,-1],"split_conditions":[-2.45E0,-1.25E0,-1.95E0,-1.8061824E-4,2.5758701E-3,-4.1336403E-3,-1.1748445E-3],"split_indices":[25,77,77,0,0,0,0],"split_type":[0,0,0,0,0,0,0],"sum_hessian":[6.0678057E3,1.7078248E3,4.359981E3,6.5898114E2,1.0488438E3,1.308608E3,3.051373E3],"tree_param":{"num_deleted":"0","num_feature":"104","num_nodes":"7","size_leaf_vector":"0"}},{"base_weights":[1.0569552E-1,-1.5127686E-1,2.0636442E-1,1.8061822E-2,-2.5758702E-1,4.1336408E-1,1.1748446E-1],"categories":[],"categories_nodes":[],"categories_segments":[],"categories_sizes":[],"default_left":[1,1,1,0,0,0,0],"id":77,"left_children":[1,3,5,-1,-1,-1,-1],"loss_changes":[1.5702592E2,3.0767632E1,8.018527E1,0E0,0E0,0E0,0E0],"parents":[2147483647,0,0,1,1,2,2],"right_children":[2,4,6,-1,-1,-1,-1],"split_conditions":[-2.45E0,-1.25E0,-1.95E0,1.8061821E-4,-2.5758701E-3,4.133641E-3,1.1748446E-3],"split_indices":[25,77,77,0,0,0,0],"split_type":[0,0,0,0,0,0,0],"sum_hessian":[6.0678057E3,1.7078248E3,4.359981E3,6.5898114E2,1.0488438E3,1.308608E3,3.0513728E3],"tree_param":{"num_deleted":"0","num_feature":"104","num_nodes":"7","size_leaf_vector":"0"}},{"base_weights":[-1.0467945E-1,-2.6719913E-1,5.2462637E-2,-3.296455E-1,4.216019E-3,-7.2800234E-2,2.2394753E-1],"categories":[],"categories_nodes":[],"categories_segments":[],"categories_sizes":[],"default_left":[1,1,1,0,0,0,0],"id":78,"left_children":[1,3,5,-1,-1,-1,-1],"loss_changes":[1.5494418E2,5.054944E1,6.628655E1,0E0,0E0,0E0,0E0],"parents":[2147483647,0,0,1,1,2,2],"right_children":[2,4,6,-1,-1,-1,-1],"split_conditions":[1.45E1,5.25E0,5.4050004E-1,-3.2964551E-3,4.216019E-5,-7.2800234E-4,2.2394753E-3],"split_indices":[51,77,55,0,0,0,0],"split_type":[0,0,0,0,0,0,0],"sum_hessian":[6.0654897E3,2.9813813E3,3.0841082E3,2.4235613E3,5.5782025E2,1.78258E3,1.3015282E3],"tree_param":{"num_deleted":"0","num_feature":"104","num_nodes":"7","size_leaf_vector":"0"}},{"base_weights":[1.04679465E-1,2.6719913E-1,-5.2462615E-2,3.2964554E-1,-4.216026E-3,7.280026E-2,-2.239475E-1],"categories":[],"categories_nodes":[],"categories_segments":[],"categories_sizes":[],"default_left":[1,1,1,0,0,0,0],"id":79,"left_children":[1,3,5,-1,-1,-1,-1],"loss_changes":[1.5494415E2,5.054947E1,6.628656E1,0E0,0E0,0E0,0E0],"parents":[2147483647,0,0,1,1,2,2],"right_children":[2,4,6,-1,-1,-1,-1],"split_conditions":[1.45E1,5.25E0,5.4050004E-1,3.2964554E-3,-4.216026E-5,7.280026E-4,-2.2394748E-3],"split_indices":[51,77,55,0,0,0,0],"split_type":[0,0,0,0,0,0,0],"sum_hessian":[6.0654897E3,2.9813816E3,3.0841082E3,2.4235613E3,5.5782025E2,1.7825801E3,1.3015282E3],"tree_param":{"num_deleted":"0","num_feature":"104","num_nodes":"7","size_leaf_vector":"0"}},{"base_weights":[-1.0367178E-1,-2.0785578E-1,1.3829961E-1,-1.2177273E-1,-4.2699757E-1,1.2621245E-2,2.795535E-1],"categories":[],"categories_nodes":[],"categories_segments":[],"categories_sizes":[],"default_left":[1,1,1,0,0,0,0],"id":80,"left_children":[1,3,5,-1,-1,-1,-1],"loss_changes":[1.5290561E2,7.992285E1,3.2408817E1,0E0,0E0,0E0,0E0],"parents":[2147483647,0,0,1,1,2,2],"right_children":[2,4,6,-1,-1,-1,-1],"split_conditions":[1.95E1,1.95E1,5.135E-1,-1.2177273E-3,-4.2699757E-3,1.2621246E-4,2.795535E-3],"split_indices":[28,80,55,0,0,0,0],"split_type":[0,0,0,0,0,0,0],"sum_hessian":[6.0632446E3,4.2384604E3,1.8247843E3,3.0441975E3,1.1942628E3,9.662067E2,8.585776E2],"tree_param":{"num_deleted":"0","num_feature":"104","num_nodes":"7","size_leaf_vector":"0"}},{"base_weights":[1.03671774E-1,2.0785578E-1,-1.3829961E-1,1.2177272E-1,4.2699754E-1,-1.262126E-2,-2.7955347E-1],"categories":[],"categories_nodes":[],"categories_segments":[],"categories_sizes":[],"default_left":[1,1,1,0,0,0,0],"id":81,"left_children":[1,3,5,-1,-1,-1,-1],"loss_changes":[1.5290561E2,7.992284E1,3.2408802E1,0E0,0E0,0E0,0E0],"parents":[2147483647,0,0,1,1,2,2],"right_children":[2,4,6,-1,-1,-1,-1],"split_conditions":[1.95E1,1.95E1,5.135E-1,1.2177272E-3,4.2699752E-3,-1.262126E-4,-2.7955347E-3],"split_indices":[28,80,55,0,0,0,0],"split_type":[0,0,0,0,0,0,0],"sum_hessian":[6.0632446E3,4.2384604E3,1.8247843E3,3.0441975E3,1.1942628E3,9.662067E2,8.585776E2],"tree_param":{"num_deleted":"0","num_feature":"104","num_nodes":"7","size_leaf_vector":"0"}},{"base_weights":[-1.02676116E-1,-1.8638723E-1,1.9405903E-1,-5.7549756E-2,-3.288645E-1,2.508429E-1,-6.998574E-2],"categories":[],"categories_nodes":[],"categories_segments":[],"categories_sizes":[],"default_left":[1,1,1,0,0,0,0],"id":82,"left_children":[1,3,5,-1,-1,-1,-1],"loss_changes":[1.506133E2,8.678058E1,2.002348E1,0E0,0E0,0E0,0E0],"parents":[2147483647,0,0,1,1,2,2],"right_children":[2,4,6,-1,-1,-1,-1],"split_conditions":[2.35E1,1.35E1,2.45E1,-5.754976E-4,-3.288645E-3,2.5084289E-3,-6.9985737E-4],"split_indices":[51,80,81,0,0,0,0],"split_type":[0,0,0,0,0,0,0],"sum_hessian":[6.060874E3,4.7275654E3,1.3333082E3,2.4833547E3,2.244211E3,1.0973655E3,2.3594276E2],"tree_param":{"num_deleted":"0","num_feature":"104","num_nodes":"7","size_leaf_vector":"0"}},{"base_weights":[1.02676116E-1,1.8638723E-1,-1.9405903E-1,5.7549767E-2,3.288645E-1,-2.508429E-1,6.9985814E-2],"categories":[],"categories_nodes":[],"categories_segments":[],"categories_sizes":[],"default_left":[1,1,1,0,0,0,0],"id":83,"left_children":[1,3,5,-1,-1,-1,-1],"loss_changes":[1.506133E2,8.678058E1,2.0023487E1,0E0,0E0,0E0,0E0],"parents":[2147483647,0,0,1,1,2,2],"right_children":[2,4,6,-1,-1,-1,-1],"split_conditions":[2.35E1,1.35E1,2.45E1,5.7549763E-4,3.288645E-3,-2.5084289E-3,6.998581E-4],"split_indices":[51,80,81,0,0,0,0],"split_type":[0,0,0,0,0,0,0],"sum_hessian":[6.060874E3,4.7275654E3,1.3333082E3,2.4833547E3,2.244211E3,1.0973655E3,2.3594275E2],"tree_param":{"num_deleted":"0","num_feature":"104","num_nodes":"7","size_leaf_vector":"0"}},{"base_weights":[-1.0169028E-1,-2.611338E-1,5.2322112E-2,-8.825987E-3,-3.263494E-1,1.3793479E-1,-1.8932757E-1],"categories":[],"categories_nodes":[],"categories_segments":[],"categories_sizes":[],"default_left":[1,1,1,0,0,0,0],"id":84,"left_children":[1,3,5,-1,-1,-1,-1],"loss_changes":[1.4881195E2,4.8988678E1,6.3809483E1,0E0,0E0,0E0,0E0],"parents":[2147483647,0,0,1,1,2,2],"right_children":[2,4,6,-1,-1,-1,-1],"split_conditions":[1.45E1,5.5E0,2.25E1,-8.825986E-5,-3.263494E-3,1.3793479E-3,-1.8932757E-3],"split_indices":[51,103,103,0,0,0,0],"split_type":[0,0,0,0,0,0,0],"sum_hessian":[6.058481E3,2.9764124E3,3.0820688E3,6.115536E2,2.3648586E3,2.2761086E3,8.059602E2],"tree_param":{"num_deleted":"0","num_feature":"104","num_nodes":"7","size_leaf_vector":"0"}},{"base_weights":[1.0169027E-1,2.6113376E-1,-5.2322105E-2,8.826055E-3,3.2634935E-1,-1.3793477E-1,1.8932757E-1],"categories":[],"categories_nodes":[],"categories_segments":[],"categories_sizes":[],"default_left":[1,1,1,0,0,0,0],"id":85,"left_children":[1,3,5,-1,-1,-1,-1],"loss_changes":[1.4881192E2,4.8988647E1,6.3809486E1,0E0,0E0,0E0,0E0],"parents":[2147483647,0,0,1,1,2,2],"right_children":[2,4,6,-1,-1,-1,-1],"split_conditions":[1.45E1,5.5E0,2.25E1,8.8260545E-5,3.2634933E-3,-1.3793478E-3,1.8932757E-3],"split_indices":[51,103,103,0,0,0,0],"split_type":[0,0,0,0,0,0,0],"sum_hessian":[6.058481E3,2.9764124E3,3.0820688E3,6.115536E2,2.3648586E3,2.2761086E3,8.059602E2],"tree_param":{"num_deleted":"0","num_feature":"104","num_nodes":"7","size_leaf_vector":"0"}},{"base_weights":[-1.00714244E-1,-2.2913304E-1,8.77616E-2,-3.1369048E-1,-5.9148497E-3,1.6311759E-1,-1.3532464E-1],"categories":[],"categories_nodes":[],"categories_segments":[],"categories_sizes":[],"default_left":[1,1,1,0,0,0,0],"id":86,"left_children":[1,3,5,-1,-1,-1,-1],"loss_changes":[1.4662503E2,6.799986E1,4.129796E1,0E0,0E0,0E0,0E0],"parents":[2147483647,0,0,1,1,2,2],"right_children":[2,4,6,-1,-1,-1,-1],"split_conditions":[1.65E1,3.75E0,2.15E1,-3.1369047E-3,-5.9148497E-5,1.6311759E-3,-1.3532464E-3],"split_indices":[27,77,80,0,0,0,0],"split_type":[0,0,0,0,0,0,0],"sum_hessian":[6.0560933E3,3.601786E3,2.4543074E3,2.611947E3,9.898389E2,1.8348013E3,6.1950604E2],"tree_param":{"num_deleted":"0","num_feature":"104","num_nodes":"7","size_leaf_vector":"0"}},{"base_weights":[1.00714244E-1,2.2913304E-1,-8.7761596E-2,3.1369048E-1,5.914834E-3,-1.6311759E-1,1.3532467E-1],"categories":[],"categories_nodes":[],"categories_segments":[],"categories_sizes":[],"default_left":[1,1,1,0,0,0,0],"id":87,"left_children":[1,3,5,-1,-1,-1,-1],"loss_changes":[1.4662502E2,6.799986E1,4.1297966E1,0E0,0E0,0E0,0E0],"parents":[2147483647,0,0,1,1,2,2],"right_children":[2,4,6,-1,-1,-1,-1],"split_conditions":[1.65E1,3.75E0,2.15E1,3.1369047E-3,5.9148337E-5,-1.6311759E-3,1.3532467E-3],"split_indices":[27,77,80,0,0,0,0],"split_type":[0,0,0,0,0,0,0],"sum_hessian":[6.0560933E3,3.601786E3,2.4543074E3,2.611947E3,9.898389E2,1.8348013E3,6.1950604E2],"tree_param":{"num_deleted":"0","num_feature":"104","num_nodes":"7","size_leaf_vector":"0"}},{"base_weights":[-9.974828E-2,-1.8180625E-1,1.9094159E-1,-3.78082E-1,-9.1344E-2,2.4630451E-1,-6.640037E-2],"categories":[],"categories_nodes":[],"categories_segments":[],"categories_sizes":[],"default_left":[1,1,1,0,0,0,0],"id":88,"left_children":[1,3,5,-1,-1,-1,-1],"loss_changes":[1.444589E2,8.381201E1,1.901329E1,0E0,0E0,0E0,0E0],"parents":[2147483647,0,0,1,1,2,2],"right_children":[2,4,6,-1,-1,-1,-1],"split_conditions":[2.35E1,-1.75E0,2.45E1,-3.78082E-3,-9.1343996E-4,2.463045E-3,-6.640037E-4],"split_indices":[51,77,81,0,0,0,0],"split_type":[0,0,0,0,0,0,0],"sum_hessian":[6.053653E3,4.7212734E3,1.3323796E3,1.4884996E3,3.232774E3,1.0965233E3,2.3585622E2],"tree_param":{"num_deleted":"0","num_feature":"104","num_nodes":"7","size_leaf_vector":"0"}},{"base_weights":[9.974828E-2,1.8180625E-1,-1.9094157E-1,3.78082E-1,9.134399E-2,-2.4630448E-1,6.6400304E-2],"categories":[],"categories_nodes":[],"categories_segments":[],"categories_sizes":[],"default_left":[1,1,1,0,0,0,0],"id":89,"left_children":[1,3,5,-1,-1,-1,-1],"loss_changes":[1.444589E2,8.381201E1,1.9013268E1,0E0,0E0,0E0,0E0],"parents":[2147483647,0,0,1,1,2,2],"right_children":[2,4,6,-1,-1,-1,-1],"split_conditions":[2.35E1,-1.75E0,2.45E1,3.78082E-3,9.134399E-4,-2.4630448E-3,6.64003E-4],"split_indices":[51,77,81,0,0,0,0],"split_type":[0,0,0,0,0,0,0],"sum_hessian":[6.0536533E3,4.7212734E3,1.3323796E3,1.4884996E3,3.232774E3,1.0965234E3,2.3585623E2],"tree_param":{"num_deleted":"0","num_feature":"104","num_nodes":"7","size_leaf_vector":"0"}},{"base_weights":[-9.87911E-2,-2.55089E-1,5.2016716E-2,-1.9313465E-1,-5.159386E-1,2.098739E-1,-7.4701004E-2],"categories":[],"categories_nodes":[],"categories_segments":[],"categories_sizes":[],"default_left":[1,1,1,0,0,0,0],"id":90,"left_children":[1,3,5,-1,-1,-1,-1],"loss_changes":[1.426703E2,4.7933258E1,6.1646824E1,0E0,0E0,0E0,0E0],"parents":[2147483647,0,0,1,1,2,2],"right_children":[2,4,6,-1,-1,-1,-1],"split_conditions":[1.45E1,2.25E1,1.35E1,-1.9313465E-3,-5.1593855E-3,2.098739E-3,-7.4701E-4],"split_indices":[51,80,103,0,0,0,0],"split_type":[0,0,0,0,0,0,0],"sum_hessian":[6.05124E3,2.971192E3,3.0800483E3,2.4023503E3,5.688417E2,1.3712156E3,1.7088329E3],"tree_param":{"num_deleted":"0","num_feature":"104","num_nodes":"7","size_leaf_vector":"0"}},{"base_weights":[9.879109E-2,2.5508898E-1,-5.2016705E-2,1.9313462E-1,5.159386E-1,-2.0987388E-1,7.4701004E-2],"categories":[],"categories_nodes":[],"categories_segments":[],"categories_sizes":[],"default_left":[1,1,1,0,0,0,0],"id":91,"left_children":[1,3,5,-1,-1,-1,-1],"loss_changes":[1.4267029E2,4.7933243E1,6.1646812E1,0E0,0E0,0E0,0E0],"parents":[2147483647,0,0,1,1,2,2],"right_children":[2,4,6,-1,-1,-1,-1],"split_conditions":[1.45E1,2.25E1,1.35E1,1.9313461E-3,5.1593855E-3,-2.098739E-3,7.4701E-4],"split_indices":[51,80,103,0,0,0,0],"split_type":[0,0,0,0,0,0,0],"sum_hessian":[6.05124E3,2.971192E3,3.0800486E3,2.4023503E3,5.688417E2,1.3712156E3,1.7088329E3],"tree_param":{"num_deleted":"0","num_feature":"104","num_nodes":"7","size_leaf_vector":"0"}},{"base_weights":[-9.784309E-2,-1.9789417E-1,1.3416027E-1,-1.1478932E-1,-4.1044465E-1,1.331698E-2,2.7012825E-1],"categories":[],"categories_nodes":[],"categories_segments":[],"categories_sizes":[],"default_left":[1,1,1,0,0,0,0],"id":92,"left_children":[1,3,5,-1,-1,-1,-1],"loss_changes":[1.4045714E2,7.462535E1,2.9957607E1,0E0,0E0,0E0,0E0],"parents":[2147483647,0,0,1,1,2,2],"right_children":[2,4,6,-1,-1,-1,-1],"split_conditions":[1.95E1,1.95E1,5.135E-1,-1.1478931E-3,-4.104446E-3,1.331698E-4,2.7012825E-3],"split_indices":[28,80,55,0,0,0,0],"split_type":[0,0,0,0,0,0,0],"sum_hessian":[6.0488643E3,4.226388E3,1.8224762E3,3.0395127E3,1.1868755E3,9.654861E2,8.569902E2],"tree_param":{"num_deleted":"0","num_feature":"104","num_nodes":"7","size_leaf_vector":"0"}},{"base_weights":[9.784311E-2,1.978942E-1,-1.3416025E-1,1.1478933E-1,4.1044465E-1,-1.331697E-2,-2.7012822E-1],"categories":[],"categories_nodes":[],"categories_segments":[],"categories_sizes":[],"default_left":[1,1,1,0,0,0,0],"id":93,"left_children":[1,3,5,-1,-1,-1,-1],"loss_changes":[1.4045714E2,7.462538E1,2.9957607E1,0E0,0E0,0E0,0E0],"parents":[2147483647,0,0,1,1,2,2],"right_children":[2,4,6,-1,-1,-1,-1],"split_conditions":[1.95E1,1.95E1,5.135E-1,1.1478933E-3,4.104446E-3,-1.331697E-4,-2.701282E-3],"split_indices":[28,80,55,0,0,0,0],"split_type":[0,0,0,0,0,0,0],"sum_hessian":[6.0488643E3,4.226388E3,1.8224763E3,3.0395127E3,1.1868755E3,9.654861E2,8.569902E2],"tree_param":{"num_deleted":"0","num_feature":"104","num_nodes":"7","size_leaf_vector":"0"}},{"base_weights":[-9.6906185E-2,-2.5094035E-1,5.159508E-2,-3.1133613E-1,1.0201534E-2,-6.756628E-2,2.1470784E-1],"categories":[],"categories_nodes":[],"categories_segments":[],"categories_sizes":[],"default_left":[1,1,1,0,0,0,0],"id":94,"left_children":[1,3,5,-1,-1,-1,-1],"loss_changes":[1.3834117E2,4.682257E1,5.9875618E1,0E0,0E0,0E0,0E0],"parents":[2147483647,0,0,1,1,2,2],"right_children":[2,4,6,-1,-1,-1,-1],"split_conditions":[1.45E1,5.25E0,5.4050004E-1,-3.1133613E-3,1.0201534E-4,-6.756628E-4,2.1470783E-3],"split_indices":[51,77,55,0,0,0,0],"split_type":[0,0,0,0,0,0,0],"sum_hessian":[6.046329E3,2.967537E3,3.078792E3,2.4099758E3,5.575613E2,1.7794257E3,1.2993665E3],"tree_param":{"num_deleted":"0","num_feature":"104","num_nodes":"7","size_leaf_vector":"0"}},{"base_weights":[9.6906185E-2,2.5094032E-1,-5.1595066E-2,3.1133613E-1,-1.0201533E-2,6.75663E-2,-2.1470782E-1],"categories":[],"categories_nodes":[],"categories_segments":[],"categories_sizes":[],"default_left":[1,1,1,0,0,0,0],"id":95,"left_children":[1,3,5,-1,-1,-1,-1],"loss_changes":[1.3834114E2,4.682257E1,5.9875618E1,0E0,0E0,0E0,0E0],"parents":[2147483647,0,0,1,1,2,2],"right_children":[2,4,6,-1,-1,-1,-1],"split_conditions":[1.45E1,5.25E0,5.4050004E-1,3.1133613E-3,-1.0201533E-4,6.7566294E-4,-2.1470783E-3],"split_indices":[51,77,55,0,0,0,0],"split_type":[0,0,0,0,0,0,0],"sum_hessian":[6.046329E3,2.967537E3,3.078792E3,2.4099758E3,5.575613E2,1.7794257E3,1.2993665E3],"tree_param":{"num_deleted":"0","num_feature":"104","num_nodes":"7","size_leaf_vector":"0"}},{"base_weights":[-9.5976986E-2,-1.7597413E-1,1.8715203E-1,-5.2314088E-2,-3.1329495E-1,2.2043917E-1,-2.2229277E-1],"categories":[],"categories_nodes":[],"categories_segments":[],"categories_sizes":[],"default_left":[1,1,1,0,0,0,0],"id":96,"left_children":[1,3,5,-1,-1,-1,-1],"loss_changes":[1.3694614E2,8.0027176E1,1.8205555E1,0E0,0E0,0E0,0E0],"parents":[2147483647,0,0,1,1,2,2],"right_children":[2,4,6,-1,-1,-1,-1],"split_conditions":[2.35E1,1.35E1,2.75E1,-5.231409E-4,-3.1329494E-3,2.2043916E-3,-2.2229275E-3],"split_indices":[51,80,80,0,0,0,0],"split_type":[0,0,0,0,0,0,0],"sum_hessian":[6.0438633E3,4.7126875E3,1.3311757E3,2.4804106E3,2.232277E3,1.2315171E3,9.9658554E1],"tree_param":{"num_deleted":"0","num_feature":"104","num_nodes":"7","size_leaf_vector":"0"}},{"base_weights":[9.597701E-2,1.7597415E-1,-1.8715197E-1,5.231411E-2,3.1329495E-1,-2.2043912E-1,2.2229286E-1],"categories":[],"categories_nodes":[],"categories_segments":[],"categories_sizes":[],"default_left":[1,1,1,0,0,0,0],"id":97,"left_children":[1,3,5,-1,-1,-1,-1],"loss_changes":[1.3694612E2,8.002721E1,1.8205563E1,0E0,0E0,0E0,0E0],"parents":[2147483647,0,0,1,1,2,2],"right_children":[2,4,6,-1,-1,-1,-1],"split_conditions":[2.35E1,1.35E1,2.75E1,5.2314106E-4,3.1329494E-3,-2.2043912E-3,2.2229285E-3],"split_indices":[51,80,80,0,0,0,0],"split_type":[0,0,0,0,0,0,0],"sum_hessian":[6.0438633E3,4.7126875E3,1.3311755E3,2.4804106E3,2.2322769E3,1.231517E3,9.965855E1],"tree_param":{"num_deleted":"0","num_feature":"104","num_nodes":"7","size_leaf_vector":"0"}},{"base_weights":[-9.505778E-2,-2.1843842E-1,8.566865E-2,-3.0079776E-1,-1.8415372E-3,1.581465E-1,-1.2894727E-1],"categories":[],"categories_nodes":[],"categories_segments":[],"categories_sizes":[],"default_left":[1,1,1,0,0,0,0],"id":98,"left_children":[1,3,5,-1,-1,-1,-1],"loss_changes":[1.3475195E2,6.406142E1,3.816393E1,0E0,0E0,0E0,0E0],"parents":[2147483647,0,0,1,1,2,2],"right_children":[2,4,6,-1,-1,-1,-1],"split_conditions":[1.65E1,3.75E0,2.15E1,-3.0079775E-3,-1.8415372E-5,1.581465E-3,-1.2894727E-3],"split_indices":[27,77,80,0,0,0,0],"split_type":[0,0,0,0,0,0,0],"sum_hessian":[6.041352E3,3.590164E3,2.4511877E3,2.6008293E3,9.8933453E2,1.8325735E3,6.186143E2],"tree_param":{"num_deleted":"0","num_feature":"104","num_nodes":"7","size_leaf_vector":"0"}},{"base_weights":[9.50578E-2,2.1843843E-1,-8.5668646E-2,3.0079776E-1,1.8415981E-3,-1.5814649E-1,1.289473E-1],"categories":[],"categories_nodes":[],"categories_segments":[],"categories_sizes":[],"default_left":[1,1,1,0,0,0,0],"id":99,"left_children":[1,3,5,-1,-1,-1,-1],"loss_changes":[1.3475194E2,6.40614E1,3.8163925E1,0E0,0E0,0E0,0E0],"parents":[2147483647,0,0,1,1,2,2],"right_children":[2,4,6,-1,-1,-1,-1],"split_conditions":[1.65E1,3.75E0,2.15E1,3.0079775E-3,1.841598E-5,-1.5814648E-3,1.289473E-3],"split_indices":[27,77,80,0,0,0,0],"split_type":[0,0,0,0,0,0,0],"sum_hessian":[6.0413516E3,3.590164E3,2.4511877E3,2.6008293E3,9.8933453E2,1.8325735E3,6.186143E2],"tree_param":{"num_deleted":"0","num_feature":"104","num_nodes":"7","size_leaf_vector":"0"}},{"base_weights":[-9.414845E-2,-1.7295305E-1,1.8464011E-1,-3.6336887E-1,-8.5556224E-2,2.174453E-1,-2.1884045E-1],"categories":[],"categories_nodes":[],"categories_segments":[],"categories_sizes":[],"default_left":[1,1,1,0,0,0,0],"id":100,"left_children":[1,3,5,-1,-1,-1,-1],"loss_changes":[1.3272455E2,7.8339355E1,1.767163E1,0E0,0E0,0E0,0E0],"parents":[2147483647,0,0,1,1,2,2],"right_children":[2,4,6,-1,-1,-1,-1],"split_conditions":[2.35E1,-1.75E0,2.75E1,-3.6336887E-3,-8.555622E-4,2.1744529E-3,-2.1884046E-3],"split_indices":[51,77,80,0,0,0,0],"split_type":[0,0,0,0,0,0,0],"sum_hessian":[6.038768E3,4.7082705E3,1.3304977E3,1.4801771E3,3.2280933E3,1.2308813E3,9.961634E1],"tree_param":{"num_deleted":"0","num_feature":"104","num_nodes":"7","size_leaf_vector":"0"}},{"base_weights":[9.414844E-2,1.7295304E-1,-1.8464011E-1,3.6336887E-1,8.55562E-2,-2.1744528E-1,2.1884045E-1],"categories":[],"categories_nodes":[],"categories_segments":[],"categories_sizes":[],"default_left":[1,1,1,0,0,0,0],"id":101,"left_children":[1,3,5,-1,-1,-1,-1],"loss_changes":[1.3272455E2,7.8339386E1,1.7671627E1,0E0,0E0,0E0,0E0],"parents":[2147483647,0,0,1,1,2,2],"right_children":[2,4,6,-1,-1,-1,-1],"split_conditions":[2.35E1,-1.75E0,2.75E1,3.6336887E-3,8.55562E-4,-2.1744529E-3,2.1884046E-3],"split_indices":[51,77,80,0,0,0,0],"split_type":[0,0,0,0,0,0,0],"sum_hessian":[6.038768E3,4.7082705E3,1.3304977E3,1.4801771E3,3.2280933E3,1.2308813E3,9.961634E1],"tree_param":{"num_deleted":"0","num_feature":"104","num_nodes":"7","size_leaf_vector":"0"}},{"base_weights":[-9.324677E-2,-2.43605E-1,5.150014E-2,-1.8345794E-1,-4.9833307E-1,2.0370272E-1,-7.069939E-2],"categories":[],"categories_nodes":[],"categories_segments":[],"categories_sizes":[],"default_left":[1,1,1,0,0,0,0],"id":102,"left_children":[1,3,5,-1,-1,-1,-1],"loss_changes":[1.3140704E2,4.5280777E1,5.7241158E1,0E0,0E0,0E0,0E0],"parents":[2147483647,0,0,1,1,2,2],"right_children":[2,4,6,-1,-1,-1,-1],"split_conditions":[1.45E1,2.25E1,1.35E1,-1.8345794E-3,-4.9833306E-3,2.0370272E-3,-7.0699386E-4],"split_indices":[51,80,103,0,0,0,0],"split_type":[0,0,0,0,0,0,0],"sum_hessian":[6.03627E3,2.9604114E3,3.0758586E3,2.3963088E3,5.6410254E2,1.3694756E3,1.7063832E3],"tree_param":{"num_deleted":"0","num_feature":"104","num_nodes":"7","size_leaf_vector":"0"}},{"base_weights":[9.324677E-2,2.4360502E-1,-5.1500153E-2,1.8345797E-1,4.9833298E-1,-2.0370275E-1,7.069938E-2],"categories":[],"categories_nodes":[],"categories_segments":[],"categories_sizes":[],"default_left":[1,1,1,0,0,0,0],"id":103,"left_children":[1,3,5,-1,-1,-1,-1],"loss_changes":[1.3140704E2,4.5280746E1,5.724116E1,0E0,0E0,0E0,0E0],"parents":[2147483647,0,0,1,1,2,2],"right_children":[2,4,6,-1,-1,-1,-1],"split_conditions":[1.45E1,2.25E1,1.35E1,1.8345796E-3,4.9833297E-3,-2.0370274E-3,7.069938E-4],"split_indices":[51,80,103,0,0,0,0],"split_type":[0,0,0,0,0,0,0],"sum_hessian":[6.03627E3,2.9604114E3,3.0758586E3,2.3963088E3,5.6410254E2,1.3694756E3,1.7063832E3],"tree_param":{"num_deleted":"0","num_feature":"104","num_nodes":"7","size_leaf_vector":"0"}},{"base_weights":[-9.23543E-2,-1.8146698E-1,1.4799386E-1,-9.699364E-2,-3.8039887E-1,3.514191E-2,2.7541623E-1],"categories":[],"categories_nodes":[],"categories_segments":[],"categories_sizes":[],"default_left":[1,1,1,0,0,0,0],"id":104,"left_children":[1,3,5,-1,-1,-1,-1],"loss_changes":[1.292796E2,7.395174E1,2.3470234E1,0E0,0E0,0E0,0E0],"parents":[2147483647,0,0,1,1,2,2],"right_children":[2,4,6,-1,-1,-1,-1],"split_conditions":[2.05E1,2.05E1,5.135E-1,-9.699364E-4,-3.8039887E-3,3.5141912E-4,2.7541623E-3],"split_indices":[28,103,55,0,0,0,0],"split_type":[0,0,0,0,0,0,0],"sum_hessian":[6.033753E3,4.4019204E3,1.6318329E3,3.0909036E3,1.3110166E3,8.660708E2,7.6576215E2],"tree_param":{"num_deleted":"0","num_feature":"104","num_nodes":"7","size_leaf_vector":"0"}},{"base_weights":[9.235429E-2,1.8146698E-1,-1.4799386E-1,9.6993625E-2,3.803989E-1,-3.5141885E-2,-2.7541625E-1],"categories":[],"categories_nodes":[],"categories_segments":[],"categories_sizes":[],"default_left":[1,1,1,0,0,0,0],"id":105,"left_children":[1,3,5,-1,-1,-1,-1],"loss_changes":[1.292796E2,7.395177E1,2.347025E1,0E0,0E0,0E0,0E0],"parents":[2147483647,0,0,1,1,2,2],"right_children":[2,4,6,-1,-1,-1,-1],"split_conditions":[2.05E1,2.05E1,5.135E-1,9.6993626E-4,3.803989E-3,-3.5141886E-4,-2.7541625E-3],"split_indices":[28,103,55,0,0,0,0],"split_type":[0,0,0,0,0,0,0],"sum_hessian":[6.033753E3,4.4019204E3,1.631833E3,3.0909036E3,1.3110166E3,8.660708E2,7.6576215E2],"tree_param":{"num_deleted":"0","num_feature":"104","num_nodes":"7","size_leaf_vector":"0"}},{"base_weights":[-9.147124E-2,4.74934E-2,-2.4372286E-1,1.3459735E-1,-1.6672991E-1,-3.0612886E-1,7.485426E-3],"categories":[],"categories_nodes":[],"categories_segments":[],"categories_sizes":[],"default_left":[1,1,1,0,0,0,0],"id":106,"left_children":[1,3,5,-1,-1,-1,-1],"loss_changes":[1.27636955E2,5.8884712E1,4.5130127E1,0E0,0E0,0E0,0E0],"parents":[2147483647,0,0,1,1,2,2],"right_children":[2,4,6,-1,-1,-1,-1],"split_conditions":[5.5E-1,2.15E1,5.05E0,1.3459735E-3,-1.6672991E-3,-3.0612885E-3,7.485426E-5],"split_indices":[25,103,77,0,0,0,0],"split_type":[0,0,0,0,0,0,0],"sum_hessian":[6.031132E3,3.1535134E3,2.8776184E3,2.242199E3,9.1131433E2,2.304827E3,5.727915E2],"tree_param":{"num_deleted":"0","num_feature":"104","num_nodes":"7","size_leaf_vector":"0"}},{"base_weights":[9.147125E-2,-4.7493387E-2,2.4372287E-1,-1.3459733E-1,1.6672991E-1,3.061289E-1,-7.4853925E-3],"categories":[],"categories_nodes":[],"categories_segments":[],"categories_sizes":[],"default_left":[1,1,1,0,0,0,0],"id":107,"left_children":[1,3,5,-1,-1,-1,-1],"loss_changes":[1.27636955E2,5.8884697E1,4.5130127E1,0E0,0E0,0E0,0E0],"parents":[2147483647,0,0,1,1,2,2],"right_children":[2,4,6,-1,-1,-1,-1],"split_conditions":[5.5E-1,2.15E1,5.05E0,-1.3459732E-3,1.6672991E-3,3.0612887E-3,-7.4853924E-5],"split_indices":[25,103,77,0,0,0,0],"split_type":[0,0,0,0,0,0,0],"sum_hessian":[6.031132E3,3.1535134E3,2.8776184E3,2.2421992E3,9.1131433E2,2.304827E3,5.7279156E2],"tree_param":{"num_deleted":"0","num_feature":"104","num_nodes":"7","size_leaf_vector":"0"}},{"base_weights":[-9.059701E-2,-1.6741182E-1,1.8089794E-1,-2.5529438E-1,1.4790764E-2,2.1303391E-1,-2.1420917E-1],"categories":[],"categories_nodes":[],"categories_segments":[],"categories_sizes":[],"default_left":[1,1,1,0,0,0,0],"id":108,"left_children":[1,3,5,-1,-1,-1,-1],"loss_changes":[1.2577467E2,7.5267105E1,1.693544E1,0E0,0E0,0E0,0E0],"parents":[2147483647,0,0,1,1,2,2],"right_children":[2,4,6,-1,-1,-1,-1],"split_conditions":[2.35E1,2.85E0,2.75E1,-2.5529438E-3,1.4790763E-4,2.1303392E-3,-2.1420917E-3],"split_indices":[51,77,80,0,0,0,0],"split_type":[0,0,0,0,0,0,0],"sum_hessian":[6.0285093E3,4.6993057E3,1.329204E3,3.1699355E3,1.5293701E3,1.2296512E3,9.95527E1],"tree_param":{"num_deleted":"0","num_feature":"104","num_nodes":"7","size_leaf_vector":"0"}},{"base_weights":[9.0597026E-2,1.6741182E-1,-1.8089788E-1,2.552944E-1,-1.4790798E-2,-2.1303385E-1,2.1420927E-1],"categories":[],"categories_nodes":[],"categories_segments":[],"categories_sizes":[],"default_left":[1,1,1,0,0,0,0],"id":109,"left_children":[1,3,5,-1,-1,-1,-1],"loss_changes":[1.2577464E2,7.5267136E1,1.6935444E1,0E0,0E0,0E0,0E0],"parents":[2147483647,0,0,1,1,2,2],"right_children":[2,4,6,-1,-1,-1,-1],"split_conditions":[2.35E1,2.85E0,2.75E1,2.552944E-3,-1.4790797E-4,-2.1303385E-3,2.1420927E-3],"split_indices":[51,77,80,0,0,0,0],"split_type":[0,0,0,0,0,0,0],"sum_hessian":[6.0285093E3,4.6993057E3,1.329204E3,3.1699353E3,1.5293701E3,1.2296512E3,9.95527E1],"tree_param":{"num_deleted":"0","num_feature":"104","num_nodes":"7","size_leaf_vector":"0"}},{"base_weights":[-8.972928E-2,7.529769E-3,-3.0195656E-1,-1.79484E-1,1.0820666E-1,-3.5986745E-1,-4.8356105E-2],"categories":[],"categories_nodes":[],"categories_segments":[],"categories_sizes":[],"default_left":[1,1,1,0,0,0,0],"id":110,"left_children":[1,3,5,-1,-1,-1,-1],"loss_changes":[1.24405594E2,7.7852875E1,2.7799255E1,0E0,0E0,0E0,0E0],"parents":[2147483647,0,0,1,1,2,2],"right_children":[2,4,6,-1,-1,-1,-1],"split_conditions":[2.85E0,-1.45E0,5.3500004E0,-1.7948399E-3,1.0820666E-3,-3.5986744E-3,-4.8356105E-4],"split_indices":[25,77,77,0,0,0,0],"split_type":[0,0,0,0,0,0,0],"sum_hessian":[6.025993E3,4.132928E3,1.8930648E3,1.4460377E3,2.6868904E3,1.5407972E3,3.5226752E2],"tree_param":{"num_deleted":"0","num_feature":"104","num_nodes":"7","size_leaf_vector":"0"}},{"base_weights":[8.972928E-2,-7.529767E-3,3.0195653E-1,1.7948398E-1,-1.0820665E-1,3.5986742E-1,4.83561E-2],"categories":[],"categories_nodes":[],"categories_segments":[],"categories_sizes":[],"default_left":[1,1,1,0,0,0,0],"id":111,"left_children":[1,3,5,-1,-1,-1,-1],"loss_changes":[1.2440558E2,7.785287E1,2.7799255E1,0E0,0E0,0E0,0E0],"parents":[2147483647,0,0,1,1,2,2],"right_children":[2,4,6,-1,-1,-1,-1],"split_conditions":[2.85E0,-1.45E0,5.3500004E0,1.7948397E-3,-1.0820664E-3,3.5986742E-3,4.83561E-4],"split_indices":[25,77,77,0,0,0,0],"split_type":[0,0,0,0,0,0,0],"sum_hessian":[6.0259927E3,4.132928E3,1.8930647E3,1.4460377E3,2.6868904E3,1.5407972E3,3.5226752E2],"tree_param":{"num_deleted":"0","num_feature":"104","num_nodes":"7","size_leaf_vector":"0"}},{"base_weights":[-8.886852E-2,8.553471E-2,-2.0574127E-1,1.5730567E-1,-1.2154926E-1,-2.8280225E-1,-1.526592E-3],"categories":[],"categories_nodes":[],"categories_segments":[],"categories_sizes":[],"default_left":[1,1,1,0,0,0,0],"id":112,"left_children":[1,3,5,-1,-1,-1,-1],"loss_changes":[1.2281713E2,3.595761E1,5.677176E1,0E0,0E0,0E0,0E0],"parents":[2147483647,0,0,1,1,2,2],"right_children":[2,4,6,-1,-1,-1,-1],"split_conditions":[4.7149998E-1,2.25E1,3.75E0,1.5730567E-3,-1.2154926E-3,-2.8280225E-3,-1.526592E-5],"split_indices":[3,103,77,0,0,0,0],"split_type":[0,0,0,0,0,0,0],"sum_hessian":[6.02361E3,2.4170454E3,3.6065647E3,1.7951309E3,6.219144E2,2.6181963E3,9.8836847E2],"tree_param":{"num_deleted":"0","num_feature":"104","num_nodes":"7","size_leaf_vector":"0"}},{"base_weights":[8.8868506E-2,-8.553471E-2,2.0574126E-1,-1.5730569E-1,1.2154928E-1,2.8280222E-1,1.526584E-3],"categories":[],"categories_nodes":[],"categories_segments":[],"categories_sizes":[],"default_left":[1,1,1,0,0,0,0],"id":113,"left_children":[1,3,5,-1,-1,-1,-1],"loss_changes":[1.2281712E2,3.595761E1,5.677176E1,0E0,0E0,0E0,0E0],"parents":[2147483647,0,0,1,1,2,2],"right_children":[2,4,6,-1,-1,-1,-1],"split_conditions":[4.7149998E-1,2.25E1,3.75E0,-1.5730568E-3,1.2154927E-3,2.8280222E-3,1.526584E-5],"split_indices":[3,103,77,0,0,0,0],"split_type":[0,0,0,0,0,0,0],"sum_hessian":[6.02361E3,2.4170454E3,3.6065647E3,1.7951309E3,6.219144E2,2.6181963E3,9.8836847E2],"tree_param":{"num_deleted":"0","num_feature":"104","num_nodes":"7","size_leaf_vector":"0"}},{"base_weights":[-8.802081E-2,-1.6344081E-1,1.783617E-1,-4.597473E-2,-2.946331E-1,2.098872E-1,-2.0923397E-1],"categories":[],"categories_nodes":[],"categories_segments":[],"categories_sizes":[],"default_left":[1,1,1,0,0,0,0],"id":114,"left_children":[1,3,5,-1,-1,-1,-1],"loss_changes":[1.2101191E2,7.2318504E1,1.6285923E1,0E0,0E0,0E0,0E0],"parents":[2147483647,0,0,1,1,2,2],"right_children":[2,4,6,-1,-1,-1,-1],"split_conditions":[2.35E1,1.35E1,2.75E1,-4.597473E-4,-2.946331E-3,2.098872E-3,-2.0923396E-3],"split_indices":[51,80,80,0,0,0,0],"split_type":[0,0,0,0,0,0,0],"sum_hessian":[6.020868E3,4.692642E3,1.3282258E3,2.476553E3,2.216089E3,1.2287432E3,9.948265E1],"tree_param":{"num_deleted":"0","num_feature":"104","num_nodes":"7","size_leaf_vector":"0"}},{"base_weights":[8.802081E-2,1.6344081E-1,-1.7836168E-1,4.5974728E-2,2.946331E-1,-2.0988719E-1,2.0923403E-1],"categories":[],"categories_nodes":[],"categories_segments":[],"categories_sizes":[],"default_left":[1,1,1,0,0,0,0],"id":115,"left_children":[1,3,5,-1,-1,-1,-1],"loss_changes":[1.21011894E2,7.2318474E1,1.6285934E1,0E0,0E0,0E0,0E0],"parents":[2147483647,0,0,1,1,2,2],"right_children":[2,4,6,-1,-1,-1,-1],"split_conditions":[2.35E1,1.35E1,2.75E1,4.5974727E-4,2.946331E-3,-2.0988719E-3,2.0923403E-3],"split_indices":[51,80,80,0,0,0,0],"split_type":[0,0,0,0,0,0,0],"sum_hessian":[6.020868E3,4.692642E3,1.3282258E3,2.476553E3,2.2160894E3,1.2287432E3,9.948265E1],"tree_param":{"num_deleted":"0","num_feature":"104","num_nodes":"7","size_leaf_vector":"0"}},{"base_weights":[-8.718042E-2,8.410153E-3,-2.960374E-1,-1.5173241E-1,1.21643074E-1,-3.529608E-1,-4.7401972E-2],"categories":[],"categories_nodes":[],"categories_segments":[],"categories_sizes":[],"default_left":[1,1,1,0,0,0,0],"id":116,"left_children":[1,3,5,-1,-1,-1,-1],"loss_changes":[1.2017415E2,7.491404E1,2.6731842E1,0E0,0E0,0E0,0E0],"parents":[2147483647,0,0,1,1,2,2],"right_children":[2,4,6,-1,-1,-1,-1],"split_conditions":[2.85E0,-7.5E-1,5.3500004E0,-1.5173241E-3,1.2164307E-3,-3.5296078E-3,-4.740197E-4],"split_indices":[25,77,77,0,0,0,0],"split_type":[0,0,0,0,0,0,0],"sum_hessian":[6.018189E3,4.129254E3,1.888935E3,1.710208E3,2.4190457E3,1.5366989E3,3.5223624E2],"tree_param":{"num_deleted":"0","num_feature":"104","num_nodes":"7","size_leaf_vector":"0"}},{"base_weights":[8.7180436E-2,-8.410153E-3,2.9603744E-1,1.5173241E-1,-1.21643074E-1,3.529608E-1,4.7402073E-2],"categories":[],"categories_nodes":[],"categories_segments":[],"categories_sizes":[],"default_left":[1,1,1,0,0,0,0],"id":117,"left_children":[1,3,5,-1,-1,-1,-1],"loss_changes":[1.20174164E2,7.491404E1,2.6731812E1,0E0,0E0,0E0,0E0],"parents":[2147483647,0,0,1,1,2,2],"right_children":[2,4,6,-1,-1,-1,-1],"split_conditions":[2.85E0,-7.5E-1,5.3500004E0,1.5173241E-3,-1.2164307E-3,3.5296078E-3,4.7402072E-4],"split_indices":[25,77,77,0,0,0,0],"split_type":[0,0,0,0,0,0,0],"sum_hessian":[6.018189E3,4.129254E3,1.888935E3,1.710208E3,2.4190457E3,1.5366989E3,3.5223624E2],"tree_param":{"num_deleted":"0","num_feature":"104","num_nodes":"7","size_leaf_vector":"0"}},{"base_weights":[-8.634459E-2,-1.7180209E-1,1.4370532E-1,-9.0398364E-2,-3.6448687E-1,3.578395E-2,2.657373E-1],"categories":[],"categories_nodes":[],"categories_segments":[],"categories_sizes":[],"default_left":[1,1,1,0,0,0,0],"id":118,"left_children":[1,3,5,-1,-1,-1,-1],"loss_changes":[1.1831134E2,6.878673E1,2.14604E1,0E0,0E0,0E0,0E0],"parents":[2147483647,0,0,1,1,2,2],"right_children":[2,4,6,-1,-1,-1,-1],"split_conditions":[2.05E1,2.05E1,5.135E-1,-9.039836E-4,-3.6448687E-3,3.5783948E-4,2.657373E-3],"split_indices":[28,103,55,0,0,0,0],"split_type":[0,0,0,0,0,0,0],"sum_hessian":[6.0157705E3,4.3865396E3,1.6292308E3,3.084779E3,1.3017605E3,8.652889E2,7.6394196E2],"tree_param":{"num_deleted":"0","num_feature":"104","num_nodes":"7","size_leaf_vector":"0"}},{"base_weights":[8.6344615E-2,1.7180212E-1,-1.4370532E-1,9.0398386E-2,3.644869E-1,-3.5783947E-2,-2.657373E-1],"categories":[],"categories_nodes":[],"categories_segments":[],"categories_sizes":[],"default_left":[1,1,1,0,0,0,0],"id":119,"left_children":[1,3,5,-1,-1,-1,-1],"loss_changes":[1.1831135E2,6.878677E1,2.1460407E1,0E0,0E0,0E0,0E0],"parents":[2147483647,0,0,1,1,2,2],"right_children":[2,4,6,-1,-1,-1,-1],"split_conditions":[2.05E1,2.05E1,5.135E-1,9.0398383E-4,3.644869E-3,-3.5783945E-4,-2.657373E-3],"split_indices":[28,103,55,0,0,0,0],"split_type":[0,0,0,0,0,0,0],"sum_hessian":[6.0157705E3,4.3865396E3,1.629231E3,3.084779E3,1.3017605E3,8.652889E2,7.63942E2],"tree_param":{"num_deleted":"0","num_feature":"104","num_nodes":"7","size_leaf_vector":"0"}},{"base_weights":[-8.552077E-2,8.827421E-3,-2.9187107E-1,-1.719669E-1,1.0598874E-1,-3.4825253E-1,-4.603394E-2],"categories":[],"categories_nodes":[],"categories_segments":[],"categories_sizes":[],"default_left":[1,1,1,0,0,0,0],"id":120,"left_children":[1,3,5,-1,-1,-1,-1],"loss_changes":[1.1708852E2,7.253195E1,2.6139236E1,0E0,0E0,0E0,0E0],"parents":[2147483647,0,0,1,1,2,2],"right_children":[2,4,6,-1,-1,-1,-1],"split_conditions":[2.85E0,-1.45E0,5.3500004E0,-1.719669E-3,1.0598873E-3,-3.4825252E-3,-4.603394E-4],"split_indices":[25,77,77,0,0,0,0],"split_type":[0,0,0,0,0,0,0],"sum_hessian":[6.0130366E3,4.1270225E3,1.886014E3,1.4423602E3,2.6846624E3,1.5338231E3,3.5219086E2],"tree_param":{"num_deleted":"0","num_feature":"104","num_nodes":"7","size_leaf_vector":"0"}},{"base_weights":[8.552077E-2,-8.827413E-3,2.9187104E-1,1.719669E-1,-1.05988726E-1,3.482525E-1,4.603387E-2],"categories":[],"categories_nodes":[],"categories_segments":[],"categories_sizes":[],"default_left":[1,1,1,0,0,0,0],"id":121,"left_children":[1,3,5,-1,-1,-1,-1],"loss_changes":[1.170885E2,7.253195E1,2.6139236E1,0E0,0E0,0E0,0E0],"parents":[2147483647,0,0,1,1,2,2],"right_children":[2,4,6,-1,-1,-1,-1],"split_conditions":[2.85E0,-1.45E0,5.3500004E0,1.719669E-3,-1.0598872E-3,3.482525E-3,4.603387E-4],"split_indices":[25,77,77,0,0,0,0],"split_type":[0,0,0,0,0,0,0],"sum_hessian":[6.0130366E3,4.1270225E3,1.886014E3,1.4423602E3,2.6846624E3,1.5338232E3,3.5219086E2],"tree_param":{"num_deleted":"0","num_feature":"104","num_nodes":"7","size_leaf_vector":"0"}},{"base_weights":[-8.4701814E-2,-2.2628556E-1,5.1054038E-2,-1.6847454E-1,-4.7339135E-1,-5.8764197E-2,2.0127814E-1],"categories":[],"categories_nodes":[],"categories_segments":[],"categories_sizes":[],"default_left":[1,1,1,0,0,0,0],"id":122,"left_children":[1,3,5,-1,-1,-1,-1],"loss_changes":[1.1555867E2,4.1959442E1,5.0654675E1,0E0,0E0,0E0,0E0],"parents":[2147483647,0,0,1,1,2,2],"right_children":[2,4,6,-1,-1,-1,-1],"split_conditions":[1.45E1,2.25E1,5.4050004E-1,-1.6847453E-3,-4.7339136E-3,-5.8764196E-4,2.0127813E-3],"split_indices":[51,80,55,0,0,0,0],"split_type":[0,0,0,0,0,0,0],"sum_hessian":[6.010559E3,2.9418015E3,3.0687576E3,2.3854106E3,5.563909E2,1.773145E3,1.2956124E3],"tree_param":{"num_deleted":"0","num_feature":"104","num_nodes":"7","size_leaf_vector":"0"}},{"base_weights":[8.470181E-2,2.2628553E-1,-5.1054034E-2,1.6847453E-1,4.7339132E-1,5.8764197E-2,-2.0127812E-1],"categories":[],"categories_nodes":[],"categories_segments":[],"categories_sizes":[],"default_left":[1,1,1,0,0,0,0],"id":123,"left_children":[1,3,5,-1,-1,-1,-1],"loss_changes":[1.1555863E2,4.1959457E1,5.065467E1,0E0,0E0,0E0,0E0],"parents":[2147483647,0,0,1,1,2,2],"right_children":[2,4,6,-1,-1,-1,-1],"split_conditions":[1.45E1,2.25E1,5.4050004E-1,1.6847452E-3,4.733913E-3,5.8764196E-4,-2.012781E-3],"split_indices":[51,80,55,0,0,0,0],"split_type":[0,0,0,0,0,0,0],"sum_hessian":[6.010559E3,2.9418018E3,3.0687576E3,2.3854106E3,5.563909E2,1.773145E3,1.2956124E3],"tree_param":{"num_deleted":"0","num_feature":"104","num_nodes":"7","size_leaf_vector":"0"}},{"base_weights":[-8.38937E-2,-1.5731743E-1,1.751059E-1,-2.416988E-1,1.685061E-2,2.0589344E-1,-2.0333146E-1],"categories":[],"categories_nodes":[],"categories_segments":[],"categories_sizes":[],"default_left":[1,1,1,0,0,0,0],"id":124,"left_children":[1,3,5,-1,-1,-1,-1],"loss_changes":[1.1429657E2,6.88161E1,1.5510849E1,0E0,0E0,0E0,0E0],"parents":[2147483647,0,0,1,1,2,2],"right_children":[2,4,6,-1,-1,-1,-1],"split_conditions":[2.35E1,2.85E0,2.75E1,-2.416988E-3,1.6850609E-4,2.0589344E-3,-2.0333144E-3],"split_indices":[51,77,80,0,0,0,0],"split_type":[0,0,0,0,0,0,0],"sum_hessian":[6.0078716E3,4.681194E3,1.3266779E3,3.1531567E3,1.528037E3,1.2272885E3,9.938935E1],"tree_param":{"num_deleted":"0","num_feature":"104","num_nodes":"7","size_leaf_vector":"0"}},{"base_weights":[8.3893694E-2,1.5731743E-1,-1.7510591E-1,2.416988E-1,-1.6850624E-2,-2.0589344E-1,2.0333135E-1],"categories":[],"categories_nodes":[],"categories_segments":[],"categories_sizes":[],"default_left":[1,1,1,0,0,0,0],"id":125,"left_children":[1,3,5,-1,-1,-1,-1],"loss_changes":[1.1429657E2,6.881611E1,1.5510834E1,0E0,0E0,0E0,0E0],"parents":[2147483647,0,0,1,1,2,2],"right_children":[2,4,6,-1,-1,-1,-1],"split_conditions":[2.35E1,2.85E0,2.75E1,2.416988E-3,-1.6850625E-4,-2.0589344E-3,2.0333135E-3],"split_indices":[51,77,80,0,0,0,0],"split_type":[0,0,0,0,0,0,0],"sum_hessian":[6.0078716E3,4.681194E3,1.3266779E3,3.1531567E3,1.528037E3,1.2272885E3,9.938935E1],"tree_param":{"num_deleted":"0","num_feature":"104","num_nodes":"7","size_leaf_vector":"0"}},{"base_weights":[-8.309189E-2,9.49158E-3,-2.858848E-1,-1.8240735E-1,9.776647E-2,-3.4148827E-1,-4.407676E-2],"categories":[],"categories_nodes":[],"categories_segments":[],"categories_sizes":[],"default_left":[1,1,1,0,0,0,0],"id":126,"left_children":[1,3,5,-1,-1,-1,-1],"loss_changes":[1.12771515E2,6.988794E1,2.529776E1,0E0,0E0,0E0,0E0],"parents":[2147483647,0,0,1,1,2,2],"right_children":[2,4,6,-1,-1,-1,-1],"split_conditions":[2.85E0,-1.95E0,5.3500004E0,-1.8240735E-3,9.776646E-4,-3.4148826E-3,-4.407676E-4],"split_indices":[25,77,77,0,0,0,0],"split_type":[0,0,0,0,0,0,0],"sum_hessian":[6.0052407E3,4.123598E3,1.8816425E3,1.2988939E3,2.8247043E3,1.529519E3,3.521234E2],"tree_param":{"num_deleted":"0","num_feature":"104","num_nodes":"7","size_leaf_vector":"0"}},{"base_weights":[8.309189E-2,-9.491584E-3,2.858848E-1,1.8240736E-1,-9.776648E-2,3.4148827E-1,4.407676E-2],"categories":[],"categories_nodes":[],"categories_segments":[],"categories_sizes":[],"default_left":[1,1,1,0,0,0,0],"id":127,"left_children":[1,3,5,-1,-1,-1,-1],"loss_changes":[1.12771515E2,6.9887955E1,2.529776E1,0E0,0E0,0E0,0E0],"parents":[2147483647,0,0,1,1,2,2],"right_children":[2,4,6,-1,-1,-1,-1],"split_conditions":[2.85E0,-1.95E0,5.3500004E0,1.8240736E-3,-9.776648E-4,3.4148826E-3,4.407676E-4],"split_indices":[25,77,77,0,0,0,0],"split_type":[0,0,0,0,0,0,0],"sum_hessian":[6.0052407E3,4.123598E3,1.8816425E3,1.2988939E3,2.8247043E3,1.529519E3,3.521234E2],"tree_param":{"num_deleted":"0","num_feature":"104","num_nodes":"7","size_leaf_vector":"0"}},{"base_weights":[-8.229688E-2,1.3467726E-1,-1.6790117E-1,2.7761767E-2,2.5564823E-1,-9.201419E-2,-3.5494345E-1],"categories":[],"categories_nodes":[],"categories_segments":[],"categories_sizes":[],"default_left":[1,1,1,0,0,0,0],"id":128,"left_children":[1,3,5,-1,-1,-1,-1],"loss_changes":[1.1153525E2,