{"learner":{"attributes":{"best_iteration":"499","best_ntree_limit":"500"},"feature_names":[],"feature_types":[],"gradient_booster":{"model":{"gbtree_model_param":{"num_parallel_tree":"1","num_trees":"1000","size_leaf_vector":"0"},"tree_info":[0,1,0,1,0,1,0,1,0,1,0,1,0,1,0,1,0,1,0,1,0,1,0,1,0,1,0,1,0,1,0,1,0,1,0,1,0,1,0,1,0,1,0,1,0,1,0,1,0,1,0,1,0,1,0,1,0,1,0,1,0,1,0,1,0,1,0,1,0,1,0,1,0,1,0,1,0,1,0,1,0,1,0,1,0,1,0,1,0,1,0,1,0,1,0,1,0,1,0,1,0,1,0,1,0,1,0,1,0,1,0,1,0,1,0,1,0,1,0,1,0,1,0,1,0,1,0,1,0,1,0,1,0,1,0,1,0,1,0,1,0,1,0,1,0,1,0,1,0,1,0,1,0,1,0,1,0,1,0,1,0,1,0,1,0,1,0,1,0,1,0,1,0,1,0,1,0,1,0,1,0,1,0,1,0,1,0,1,0,1,0,1,0,1,0,1,0,1,0,1,0,1,0,1,0,1,0,1,0,1,0,1,0,1,0,1,0,1,0,1,0,1,0,1,0,1,0,1,0,1,0,1,0,1,0,1,0,1,0,1,0,1,0,1,0,1,0,1,0,1,0,1,0,1,0,1,0,1,0,1,0,1,0,1,0,1,0,1,0,1,0,1,0,1,0,1,0,1,0,1,0,1,0,1,0,1,0,1,0,1,0,1,0,1,0,1,0,1,0,1,0,1,0,1,0,1,0,1,0,1,0,1,0,1,0,1,0,1,0,1,0,1,0,1,0,1,0,1,0,1,0,1,0,1,0,1,0,1,0,1,0,1,0,1,0,1,0,1,0,1,0,1,0,1,0,1,0,1,0,1,0,1,0,1,0,1,0,1,0,1,0,1,0,1,0,1,0,1,0,1,0,1,0,1,0,1,0,1,0,1,0,1,0,1,0,1,0,1,0,1,0,1,0,1,0,1,0,1,0,1,0,1,0,1,0,1,0,1,0,1,0,1,0,1,0,1,0,1,0,1,0,1,0,1,0,1,0,1,0,1,0,1,0,1,0,1,0,1,0,1,0,1,0,1,0,1,0,1,0,1,0,1,0,1,0,1,0,1,0,1,0,1,0,1,0,1,0,1,0,1,0,1,0,1,0,1,0,1,0,1,0,1,0,1,0,1,0,1,0,1,0,1,0,1,0,1,0,1,0,1,0,1,0,1,0,1,0,1,0,1,0,1,0,1,0,1,0,1,0,1,0,1,0,1,0,1,0,1,0,1,0,1,0,1,0,1,0,1,0,1,0,1,0,1,0,1,0,1,0,1,0,1,0,1,0,1,0,1,0,1,0,1,0,1,0,1,0,1,0,1,0,1,0,1,0,1,0,1,0,1,0,1,0,1,0,1,0,1,0,1,0,1,0,1,0,1,0,1,0,1,0,1,0,1,0,1,0,1,0,1,0,1,0,1,0,1,0,1,0,1,0,1,0,1,0,1,0,1,0,1,0,1,0,1,0,1,0,1,0,1,0,1,0,1,0,1,0,1,0,1,0,1,0,1,0,1,0,1,0,1,0,1,0,1,0,1,0,1,0,1,0,1,0,1,0,1,0,1,0,1,0,1,0,1,0,1,0,1,0,1,0,1,0,1,0,1,0,1,0,1,0,1,0,1,0,1,0,1,0,1,0,1,0,1,0,1,0,1,0,1,0,1,0,1,0,1,0,1,0,1,0,1,0,1,0,1,0,1,0,1,0,1,0,1,0,1,0,1,0,1,0,1,0,1,0,1,0,1,0,1,0,1,0,1,0,1,0,1,0,1,0,1,0,1,0,1,0,1,0,1,0,1,0,1,0,1,0,1,0,1,0,1,0,1,0,1,0,1,0,1,0,1,0,1,0,1,0,1,0,1,0,1,0,1,0,1,0,1,0,1,0,1,0,1,0,1,0,1,0,1,0,1,0,1,0,1,0,1,0,1,0,1,0,1,0,1,0,1,0,1,0,1,0,1,0,1,0,1,0,1,0,1,0,1,0,1,0,1,0,1,0,1,0,1,0,1,0,1,0,1,0,1,0,1,0,1,0,1,0,1,0,1,0,1,0,1,0,1,0,1,0,1,0,1,0,1,0,1,0,1,0,1,0,1,0,1,0,1,0,1,0,1,0,1,0,1,0,1,0,1,0,1,0,1,0,1,0,1,0,1,0,1,0,1,0,1,0,1,0,1,0,1,0,1,0,1,0,1,0,1,0,1,0,1,0,1,0,1,0,1,0,1,0,1,0,1,0,1,0,1,0,1,0,1,0,1,0,1,0,1],"trees":[{"base_weights":[-1.537775E-1,1.2001724E-1,-3.1910464E-1,-4.1852906E-2,3.024748E-1,-1.5246637E-1,-5.0108933E-1],"categories":[],"categories_nodes":[],"categories_segments":[],"categories_sizes":[],"default_left":[1,1,1,0,0,0,0],"id":0,"left_children":[1,3,5,-1,-1,-1,-1],"loss_changes":[2.7894293E2,6.85473E1,1.1643457E2,0E0,0E0,0E0,0E0],"parents":[2147483647,0,0,1,1,2,2],"right_children":[2,4,6,-1,-1,-1,-1],"split_conditions":[4.585E-1,5.135E-1,1.35E1,-4.1852906E-4,3.0247478E-3,-1.5246636E-3,-5.010893E-3],"split_indices":[3,55,80,0,0,0,0],"split_type":[0,0,0,0,0,0,0],"sum_hessian":[6.1605E3,2.3195E3,3.841E3,1.2295E3,1.09E3,2.006E3,1.835E3],"tree_param":{"num_deleted":"0","num_feature":"104","num_nodes":"7","size_leaf_vector":"0"}},{"base_weights":[1.537775E-1,-1.2001724E-1,3.1910464E-1,4.1852906E-2,-3.024748E-1,1.5246637E-1,5.0108933E-1],"categories":[],"categories_nodes":[],"categories_segments":[],"categories_sizes":[],"default_left":[1,1,1,0,0,0,0],"id":1,"left_children":[1,3,5,-1,-1,-1,-1],"loss_changes":[2.7894293E2,6.85473E1,1.1643457E2,0E0,0E0,0E0,0E0],"parents":[2147483647,0,0,1,1,2,2],"right_children":[2,4,6,-1,-1,-1,-1],"split_conditions":[4.585E-1,5.135E-1,1.35E1,4.1852906E-4,-3.0247478E-3,1.5246636E-3,5.010893E-3],"split_indices":[3,55,80,0,0,0,0],"split_type":[0,0,0,0,0,0,0],"sum_hessian":[6.1605E3,2.3195E3,3.841E3,1.2295E3,1.09E3,2.006E3,1.835E3],"tree_param":{"num_deleted":"0","num_feature":"104","num_nodes":"7","size_leaf_vector":"0"}},{"base_weights":[-1.5224187E-1,-2.905055E-1,1.6939588E-1,-1.251652E-1,-4.7226194E-1,9.6157035E-3,3.5031122E-1],"categories":[],"categories_nodes":[],"categories_segments":[],"categories_sizes":[],"default_left":[1,1,1,0,0,0,0],"id":2,"left_children":[1,3,5,-1,-1,-1,-1],"loss_changes":[2.7405334E2,1.2944696E2,5.3560467E1,0E0,0E0,0E0,0E0],"parents":[2147483647,0,0,1,1,2,2],"right_children":[2,4,6,-1,-1,-1,-1],"split_conditions":[1.95E1,1.35E1,5.135E-1,-1.2516519E-3,-4.7226194E-3,9.615703E-5,3.5031121E-3],"split_indices":[28,80,55,0,0,0,0],"split_type":[0,0,0,0,0,0,0],"sum_hessian":[6.160439E3,4.3084473E3,1.8519916E3,2.2569934E3,2.051454E3,9.839995E2,8.679921E2],"tree_param":{"num_deleted":"0","num_feature":"104","num_nodes":"7","size_leaf_vector":"0"}},{"base_weights":[1.5224187E-1,2.905055E-1,-1.693959E-1,1.251652E-1,4.7226194E-1,-9.6157035E-3,-3.5031125E-1],"categories":[],"categories_nodes":[],"categories_segments":[],"categories_sizes":[],"default_left":[1,1,1,0,0,0,0],"id":3,"left_children":[1,3,5,-1,-1,-1,-1],"loss_changes":[2.7405338E2,1.2944696E2,5.356049E1,0E0,0E0,0E0,0E0],"parents":[2147483647,0,0,1,1,2,2],"right_children":[2,4,6,-1,-1,-1,-1],"split_conditions":[1.95E1,1.35E1,5.135E-1,1.2516519E-3,4.7226194E-3,-9.615703E-5,-3.5031124E-3],"split_indices":[28,80,55,0,0,0,0],"split_type":[0,0,0,0,0,0,0],"sum_hessian":[6.160439E3,4.3084473E3,1.8519917E3,2.2569934E3,2.051454E3,9.839995E2,8.679921E2],"tree_param":{"num_deleted":"0","num_feature":"104","num_nodes":"7","size_leaf_vector":"0"}},{"base_weights":[-1.5072407E-1,1.3040006E-1,-3.0605614E-1,-2.6252685E-2,3.0885187E-1,-1.4022616E-1,-4.8776662E-1],"categories":[],"categories_nodes":[],"categories_segments":[],"categories_sizes":[],"default_left":[1,1,1,0,0,0,0],"id":4,"left_children":[1,3,5,-1,-1,-1,-1],"loss_changes":[2.6908765E2,6.1326164E1,1.19523926E2,0E0,0E0,0E0,0E0],"parents":[2147483647,0,0,1,1,2,2],"right_children":[2,4,6,-1,-1,-1,-1],"split_conditions":[4.475E-1,5.135E-1,1.35E1,-2.6252685E-4,3.0885185E-3,-1.4022616E-3,-4.877666E-3],"split_indices":[3,55,80,0,0,0,0],"split_type":[0,0,0,0,0,0,0],"sum_hessian":[6.160268E3,2.1924585E3,3.9678096E3,1.1679949E3,1.0244637E3,2.0754836E3,1.892326E3],"tree_param":{"num_deleted":"0","num_feature":"104","num_nodes":"7","size_leaf_vector":"0"}},{"base_weights":[1.5072404E-1,-1.3040014E-1,3.0605614E-1,2.6252614E-2,-3.0885196E-1,1.4022616E-1,4.8776662E-1],"categories":[],"categories_nodes":[],"categories_segments":[],"categories_sizes":[],"default_left":[1,1,1,0,0,0,0],"id":5,"left_children":[1,3,5,-1,-1,-1,-1],"loss_changes":[2.6908777E2,6.1326176E1,1.19523926E2,0E0,0E0,0E0,0E0],"parents":[2147483647,0,0,1,1,2,2],"right_children":[2,4,6,-1,-1,-1,-1],"split_conditions":[4.475E-1,5.135E-1,1.35E1,2.6252613E-4,-3.0885194E-3,1.4022616E-3,4.877666E-3],"split_indices":[3,55,80,0,0,0,0],"split_type":[0,0,0,0,0,0,0],"sum_hessian":[6.160268E3,2.1924585E3,3.9678096E3,1.1679949E3,1.0244636E3,2.0754836E3,1.892326E3],"tree_param":{"num_deleted":"0","num_feature":"104","num_nodes":"7","size_leaf_vector":"0"}},{"base_weights":[-1.4922436E-1,-2.849761E-1,1.6655394E-1,-1.2289214E-1,-4.6318078E-1,9.927066E-3,3.439123E-1],"categories":[],"categories_nodes":[],"categories_segments":[],"categories_sizes":[],"default_left":[1,1,1,0,0,0,0],"id":6,"left_children":[1,3,5,-1,-1,-1,-1],"loss_changes":[2.6415308E2,1.24406555E2,5.1469006E1,0E0,0E0,0E0,0E0],"parents":[2147483647,0,0,1,1,2,2],"right_children":[2,4,6,-1,-1,-1,-1],"split_conditions":[1.95E1,1.35E1,5.135E-1,-1.2289213E-3,-4.6318076E-3,9.9270655E-5,3.439123E-3],"split_indices":[28,80,55,0,0,0,0],"split_type":[0,0,0,0,0,0,0],"sum_hessian":[6.1599824E3,4.3080625E3,1.8519199E3,2.2569607E3,2.0511018E3,9.839979E2,8.67922E2],"tree_param":{"num_deleted":"0","num_feature":"104","num_nodes":"7","size_leaf_vector":"0"}},{"base_weights":[1.4922437E-1,2.849761E-1,-1.6655393E-1,1.2289217E-1,4.6318078E-1,-9.927154E-3,-3.4391218E-1],"categories":[],"categories_nodes":[],"categories_segments":[],"categories_sizes":[],"default_left":[1,1,1,0,0,0,0],"id":7,"left_children":[1,3,5,-1,-1,-1,-1],"loss_changes":[2.6415308E2,1.24406555E2,5.146895E1,0E0,0E0,0E0,0E0],"parents":[2147483647,0,0,1,1,2,2],"right_children":[2,4,6,-1,-1,-1,-1],"split_conditions":[1.95E1,1.35E1,5.135E-1,1.2289217E-3,4.6318076E-3,-9.9271536E-5,-3.4391219E-3],"split_indices":[28,80,55,0,0,0,0],"split_type":[0,0,0,0,0,0,0],"sum_hessian":[6.1599824E3,4.3080625E3,1.8519199E3,2.2569607E3,2.0511018E3,9.83998E2,8.67922E2],"tree_param":{"num_deleted":"0","num_feature":"104","num_nodes":"7","size_leaf_vector":"0"}},{"base_weights":[-1.4774196E-1,1.16312355E-1,-3.0720612E-1,-1.2441804E-1,2.3090911E-1,-1.4711317E-1,-4.8210165E-1],"categories":[],"categories_nodes":[],"categories_segments":[],"categories_sizes":[],"default_left":[1,1,1,0,0,0,0],"id":8,"left_children":[1,3,5,-1,-1,-1,-1],"loss_changes":[2.5944098E2,6.403935E1,1.074827E2,0E0,0E0,0E0,0E0],"parents":[2147483647,0,0,1,1,2,2],"right_children":[2,4,6,-1,-1,-1,-1],"split_conditions":[4.585E-1,-2.05E0,1.35E1,-1.2441804E-3,2.309091E-3,-1.4711317E-3,-4.8210165E-3],"split_indices":[3,77,80,0,0,0,0],"split_type":[0,0,0,0,0,0,0],"sum_hessian":[6.159591E3,2.3193252E3,3.8402654E3,7.479792E2,1.5713461E3,2.0059414E3,1.834324E3],"tree_param":{"num_deleted":"0","num_feature":"104","num_nodes":"7","size_leaf_vector":"0"}},{"base_weights":[1.4774199E-1,-1.1631232E-1,3.0720612E-1,1.2441804E-1,-2.3090905E-1,1.4711317E-1,4.8210165E-1],"categories":[],"categories_nodes":[],"categories_segments":[],"categories_sizes":[],"default_left":[1,1,1,0,0,0,0],"id":9,"left_children":[1,3,5,-1,-1,-1,-1],"loss_changes":[2.5944092E2,6.403934E1,1.0748276E2,0E0,0E0,0E0,0E0],"parents":[2147483647,0,0,1,1,2,2],"right_children":[2,4,6,-1,-1,-1,-1],"split_conditions":[4.585E-1,-2.05E0,1.35E1,1.2441804E-3,-2.3090905E-3,1.4711317E-3,4.8210165E-3],"split_indices":[3,77,80,0,0,0,0],"split_type":[0,0,0,0,0,0,0],"sum_hessian":[6.159591E3,2.3193252E3,3.8402656E3,7.479792E2,1.5713461E3,2.0059414E3,1.8343241E3],"tree_param":{"num_deleted":"0","num_feature":"104","num_nodes":"7","size_leaf_vector":"0"}},{"base_weights":[-1.4627698E-1,-2.7958465E-1,1.6378321E-1,-1.20615646E-1,-4.5441815E-1,9.67561E-3,3.3831254E-1],"categories":[],"categories_nodes":[],"categories_segments":[],"categories_sizes":[],"default_left":[1,1,1,0,0,0,0],"id":10,"left_children":[1,3,5,-1,-1,-1,-1],"loss_changes":[2.5466418E2,1.19686615E2,4.983005E1,0E0,0E0,0E0,0E0],"parents":[2147483647,0,0,1,1,2,2],"right_children":[2,4,6,-1,-1,-1,-1],"split_conditions":[1.95E1,1.35E1,5.135E-1,-1.2061564E-3,-4.5441813E-3,9.67561E-5,3.3831252E-3],"split_indices":[28,80,55,0,0,0,0],"split_type":[0,0,0,0,0,0,0],"sum_hessian":[6.159111E3,4.307316E3,1.8517949E3,2.256899E3,2.0504172E3,9.839939E2,8.6780096E2],"tree_param":{"num_deleted":"0","num_feature":"104","num_nodes":"7","size_leaf_vector":"0"}},{"base_weights":[1.4627694E-1,2.7958462E-1,-1.6378322E-1,1.20615646E-1,4.5441806E-1,-9.675597E-3,-3.3831257E-1],"categories":[],"categories_nodes":[],"categories_segments":[],"categories_sizes":[],"default_left":[1,1,1,0,0,0,0],"id":11,"left_children":[1,3,5,-1,-1,-1,-1],"loss_changes":[2.5466411E2,1.19686646E2,4.9830055E1,0E0,0E0,0E0,0E0],"parents":[2147483647,0,0,1,1,2,2],"right_children":[2,4,6,-1,-1,-1,-1],"split_conditions":[1.95E1,1.35E1,5.135E-1,1.2061564E-3,4.5441804E-3,-9.675597E-5,-3.3831256E-3],"split_indices":[28,80,55,0,0,0,0],"split_type":[0,0,0,0,0,0,0],"sum_hessian":[6.159111E3,4.307316E3,1.8517949E3,2.256899E3,2.050417E3,9.839939E2,8.67801E2],"tree_param":{"num_deleted":"0","num_feature":"104","num_nodes":"7","size_leaf_vector":"0"}},{"base_weights":[-1.4482866E-1,1.2630156E-1,-2.9467323E-1,-2.482116E-2,2.9849142E-1,-1.3518947E-1,-4.6954277E-1],"categories":[],"categories_nodes":[],"categories_segments":[],"categories_sizes":[],"default_left":[1,1,1,0,0,0,0],"id":12,"left_children":[1,3,5,-1,-1,-1,-1],"loss_changes":[2.5028229E2,5.7077362E1,1.1058157E2,0E0,0E0,0E0,0E0],"parents":[2147483647,0,0,1,1,2,2],"right_children":[2,4,6,-1,-1,-1,-1],"split_conditions":[4.475E-1,5.135E-1,1.35E1,-2.482116E-4,2.9849142E-3,-1.3518947E-3,-4.6954276E-3],"split_indices":[3,55,80,0,0,0,0],"split_type":[0,0,0,0,0,0,0],"sum_hessian":[6.158516E3,2.1921592E3,3.966357E3,1.1679562E3,1.0242029E3,2.075365E3,1.890992E3],"tree_param":{"num_deleted":"0","num_feature":"104","num_nodes":"7","size_leaf_vector":"0"}},{"base_weights":[1.4482868E-1,-1.263015E-1,2.946732E-1,2.4821192E-2,-2.9849133E-1,1.3518938E-1,4.695429E-1],"categories":[],"categories_nodes":[],"categories_segments":[],"categories_sizes":[],"default_left":[1,1,1,0,0,0,0],"id":13,"left_children":[1,3,5,-1,-1,-1,-1],"loss_changes":[2.502822E2,5.7077335E1,1.10581696E2,0E0,0E0,0E0,0E0],"parents":[2147483647,0,0,1,1,2,2],"right_children":[2,4,6,-1,-1,-1,-1],"split_conditions":[4.475E-1,5.135E-1,1.35E1,2.482119E-4,-2.9849133E-3,1.3518938E-3,4.695429E-3],"split_indices":[3,55,80,0,0,0,0],"split_type":[0,0,0,0,0,0,0],"sum_hessian":[6.158516E3,2.1921592E3,3.966357E3,1.1679562E3,1.0242029E3,2.0753652E3,1.8909918E3],"tree_param":{"num_deleted":"0","num_feature":"104","num_nodes":"7","size_leaf_vector":"0"}},{"base_weights":[-1.433973E-1,-2.7430826E-1,1.6104437E-1,-1.6958988E-1,-5.3240323E-1,9.966844E-3,3.3218008E-1],"categories":[],"categories_nodes":[],"categories_segments":[],"categories_sizes":[],"default_left":[1,1,1,0,0,0,0],"id":14,"left_children":[1,3,5,-1,-1,-1,-1],"loss_changes":[2.4550244E2,1.1632239E2,4.7895042E1,0E0,0E0,0E0,0E0],"parents":[2147483647,0,0,1,1,2,2],"right_children":[2,4,6,-1,-1,-1,-1],"split_conditions":[1.95E1,1.95E1,5.135E-1,-1.6958987E-3,-5.324032E-3,9.966843E-5,3.3218008E-3],"split_indices":[28,80,55,0,0,0,0],"split_type":[0,0,0,0,0,0,0],"sum_hessian":[6.1578203E3,4.306227E3,1.8515933E3,3.064505E3,1.2417223E3,9.839907E2,8.676026E2],"tree_param":{"num_deleted":"0","num_feature":"104","num_nodes":"7","size_leaf_vector":"0"}},{"base_weights":[1.4339729E-1,2.7430826E-1,-1.6104439E-1,1.6958988E-1,5.3240323E-1,-9.966878E-3,-3.3218008E-1],"categories":[],"categories_nodes":[],"categories_segments":[],"categories_sizes":[],"default_left":[1,1,1,0,0,0,0],"id":15,"left_children":[1,3,5,-1,-1,-1,-1],"loss_changes":[2.4550247E2,1.1632236E2,4.7895027E1,0E0,0E0,0E0,0E0],"parents":[2147483647,0,0,1,1,2,2],"right_children":[2,4,6,-1,-1,-1,-1],"split_conditions":[1.95E1,1.95E1,5.135E-1,1.6958987E-3,5.324032E-3,-9.966878E-5,-3.3218008E-3],"split_indices":[28,80,55,0,0,0,0],"split_type":[0,0,0,0,0,0,0],"sum_hessian":[6.1578203E3,4.306227E3,1.8515933E3,3.064505E3,1.2417223E3,9.839907E2,8.676026E2],"tree_param":{"num_deleted":"0","num_feature":"104","num_nodes":"7","size_leaf_vector":"0"}},{"base_weights":[-1.4198114E-1,1.1271483E-1,-2.9584515E-1,-1.8102974E-1,2.0149365E-1,-4.0559506E-1,-5.6406498E-2],"categories":[],"categories_nodes":[],"categories_segments":[],"categories_sizes":[],"default_left":[1,1,1,0,0,0,0],"id":16,"left_children":[1,3,5,-1,-1,-1,-1],"loss_changes":[2.4135956E2,6.0534546E1,1.0086554E2,0E0,0E0,0E0,0E0],"parents":[2147483647,0,0,1,1,2,2],"right_children":[2,4,6,-1,-1,-1,-1],"split_conditions":[4.585E-1,3.705E-1,2.95E0,-1.8102974E-3,2.0149364E-3,-4.0559503E-3,-5.6406495E-4],"split_indices":[3,55,77,0,0,0,0],"split_type":[0,0,0,0,0,0,0],"sum_hessian":[6.157081E3,2.3188623E3,3.838219E3,5.379373E2,1.7809249E3,2.6313916E3,1.2068275E3],"tree_param":{"num_deleted":"0","num_feature":"104","num_nodes":"7","size_leaf_vector":"0"}},{"base_weights":[1.4198112E-1,-1.1271481E-1,2.9584512E-1,1.8102972E-1,-2.0149362E-1,4.0559506E-1,5.6406412E-2],"categories":[],"categories_nodes":[],"categories_segments":[],"categories_sizes":[],"default_left":[1,1,1,0,0,0,0],"id":17,"left_children":[1,3,5,-1,-1,-1,-1],"loss_changes":[2.4135953E2,6.053452E1,1.0086554E2,0E0,0E0,0E0,0E0],"parents":[2147483647,0,0,1,1,2,2],"right_children":[2,4,6,-1,-1,-1,-1],"split_conditions":[4.585E-1,3.705E-1,2.95E0,1.8102971E-3,-2.0149362E-3,4.0559503E-3,5.6406413E-4],"split_indices":[3,55,77,0,0,0,0],"split_type":[0,0,0,0,0,0,0],"sum_hessian":[6.157081E3,2.3188623E3,3.838219E3,5.379373E2,1.7809249E3,2.6313916E3,1.2068275E3],"tree_param":{"num_deleted":"0","num_feature":"104","num_nodes":"7","size_leaf_vector":"0"}},{"base_weights":[-1.4058009E-1,1.7271279E-1,-2.638667E-1,-3.8126078E-2,2.9349428E-1,-1.10865995E-1,-4.2847106E-1],"categories":[],"categories_nodes":[],"categories_segments":[],"categories_sizes":[],"default_left":[1,1,1,0,0,0,0],"id":18,"left_children":[1,3,5,-1,-1,-1,-1],"loss_changes":[2.3787018E2,4.4305187E1,1.1124121E2,0E0,0E0,0E0,0E0],"parents":[2147483647,0,0,1,1,2,2],"right_children":[2,4,6,-1,-1,-1,-1],"split_conditions":[-2.45E0,-1.45E0,1.35E1,-3.8126076E-4,2.9349427E-3,-1.1086599E-3,-4.2847106E-3],"split_indices":[25,77,80,0,0,0,0],"split_type":[0,0,0,0,0,0,0],"sum_hessian":[6.1563E3,1.7383774E3,4.4179224E3,6.333944E2,1.104983E3,2.2905327E3,2.1273896E3],"tree_param":{"num_deleted":"0","num_feature":"104","num_nodes":"7","size_leaf_vector":"0"}},{"base_weights":[1.4058007E-1,-1.7271274E-1,2.6386666E-1,3.812611E-2,-2.9349422E-1,1.1086597E-1,4.2847103E-1],"categories":[],"categories_nodes":[],"categories_segments":[],"categories_sizes":[],"default_left":[1,1,1,0,0,0,0],"id":19,"left_children":[1,3,5,-1,-1,-1,-1],"loss_changes":[2.3787009E2,4.430518E1,1.1124118E2,0E0,0E0,0E0,0E0],"parents":[2147483647,0,0,1,1,2,2],"right_children":[2,4,6,-1,-1,-1,-1],"split_conditions":[-2.45E0,-1.45E0,1.35E1,3.812611E-4,-2.9349423E-3,1.1086597E-3,4.28471E-3],"split_indices":[25,77,80,0,0,0,0],"split_type":[0,0,0,0,0,0,0],"sum_hessian":[6.1563E3,1.7383774E3,4.4179224E3,6.333944E2,1.1049832E3,2.2905327E3,2.12739E3],"tree_param":{"num_deleted":"0","num_feature":"104","num_nodes":"7","size_leaf_vector":"0"}},{"base_weights":[-1.3919434E-1,-3.3853722E-1,5.2332584E-2,-4.3154135E-1,-8.941391E-2,1.6288291E-1,-2.170121E-1],"categories":[],"categories_nodes":[],"categories_segments":[],"categories_sizes":[],"default_left":[1,1,1,0,0,0,0],"id":20,"left_children":[1,3,5,-1,-1,-1,-1],"loss_changes":[2.3506775E2,6.985922E1,9.35515E1,0E0,0E0,0E0,0E0],"parents":[2147483647,0,0,1,1,2,2],"right_children":[2,4,6,-1,-1,-1,-1],"split_conditions":[1.45E1,3.75E0,2.15E1,-4.3154135E-3,-8.941391E-4,1.628829E-3,-2.170121E-3],"split_indices":[51,77,103,0,0,0,0],"split_type":[0,0,0,0,0,0,0],"sum_hessian":[6.155442E3,3.015802E3,3.1396401E3,2.1954512E3,8.2035065E2,2.2262778E3,9.133623E2],"tree_param":{"num_deleted":"0","num_feature":"104","num_nodes":"7","size_leaf_vector":"0"}},{"base_weights":[1.3919437E-1,3.3853725E-1,-5.2332573E-2,4.3154138E-1,8.941394E-2,-1.628829E-1,2.170121E-1],"categories":[],"categories_nodes":[],"categories_segments":[],"categories_sizes":[],"default_left":[1,1,1,0,0,0,0],"id":21,"left_children":[1,3,5,-1,-1,-1,-1],"loss_changes":[2.3506778E2,6.985919E1,9.355149E1,0E0,0E0,0E0,0E0],"parents":[2147483647,0,0,1,1,2,2],"right_children":[2,4,6,-1,-1,-1,-1],"split_conditions":[1.45E1,3.75E0,2.15E1,4.3154135E-3,8.941394E-4,-1.6288289E-3,2.170121E-3],"split_indices":[51,77,103,0,0,0,0],"split_type":[0,0,0,0,0,0,0],"sum_hessian":[6.155442E3,3.015802E3,3.1396401E3,2.1954514E3,8.2035065E2,2.2262778E3,9.133623E2],"tree_param":{"num_deleted":"0","num_feature":"104","num_nodes":"7","size_leaf_vector":"0"}},{"base_weights":[-1.3782191E-1,-2.6473358E-1,1.5720007E-1,-1.6262749E-1,-5.166403E-1,1.0333283E-2,3.236335E-1],"categories":[],"categories_nodes":[],"categories_segments":[],"categories_sizes":[],"default_left":[1,1,1,0,0,0,0],"id":22,"left_children":[1,3,5,-1,-1,-1,-1],"loss_changes":[2.3051877E2,1.106322E2,4.5269806E1,0E0,0E0,0E0,0E0],"parents":[2147483647,0,0,1,1,2,2],"right_children":[2,4,6,-1,-1,-1,-1],"split_conditions":[1.95E1,1.95E1,5.135E-1,-1.6262749E-3,-5.166403E-3,1.0333283E-4,3.2363348E-3],"split_indices":[28,80,55,0,0,0,0],"split_type":[0,0,0,0,0,0,0],"sum_hessian":[6.154623E3,4.303471E3,1.8511516E3,3.0634143E3,1.2400569E3,9.839453E2,8.672063E2],"tree_param":{"num_deleted":"0","num_feature":"104","num_nodes":"7","size_leaf_vector":"0"}},{"base_weights":[1.3782191E-1,2.6473358E-1,-1.5720002E-1,1.6262747E-1,5.1664037E-1,-1.0333296E-2,-3.236334E-1],"categories":[],"categories_nodes":[],"categories_segments":[],"categories_sizes":[],"default_left":[1,1,1,0,0,0,0],"id":23,"left_children":[1,3,5,-1,-1,-1,-1],"loss_changes":[2.3051874E2,1.106322E2,4.526978E1,0E0,0E0,0E0,0E0],"parents":[2147483647,0,0,1,1,2,2],"right_children":[2,4,6,-1,-1,-1,-1],"split_conditions":[1.95E1,1.95E1,5.135E-1,1.6262747E-3,5.1664035E-3,-1.0333295E-4,-3.2363338E-3],"split_indices":[28,80,55,0,0,0,0],"split_type":[0,0,0,0,0,0,0],"sum_hessian":[6.154623E3,4.303471E3,1.8511516E3,3.0634143E3,1.2400569E3,9.839453E2,8.672063E2],"tree_param":{"num_deleted":"0","num_feature":"104","num_nodes":"7","size_leaf_vector":"0"}},{"base_weights":[-1.3646765E-1,-3.327395E-1,5.2055452E-2,-4.2453793E-1,-8.6973906E-2,1.6087581E-1,-2.1310775E-1],"categories":[],"categories_nodes":[],"categories_segments":[],"categories_sizes":[],"default_left":[1,1,1,0,0,0,0],"id":24,"left_children":[1,3,5,-1,-1,-1,-1],"loss_changes":[2.2774771E2,6.799448E1,9.064303E1,0E0,0E0,0E0,0E0],"parents":[2147483647,0,0,1,1,2,2],"right_children":[2,4,6,-1,-1,-1,-1],"split_conditions":[1.45E1,3.75E0,2.15E1,-4.245379E-3,-8.6973904E-4,1.6087581E-3,-2.1310775E-3],"split_indices":[51,77,103,0,0,0,0],"split_type":[0,0,0,0,0,0,0],"sum_hessian":[6.1535796E3,3.0144568E3,3.139123E3,2.1941646E3,8.2029224E2,2.2259915E3,9.131316E2],"tree_param":{"num_deleted":"0","num_feature":"104","num_nodes":"7","size_leaf_vector":"0"}},{"base_weights":[1.3646762E-1,3.3273947E-1,-5.205547E-2,4.2453793E-1,8.6973816E-2,-1.6087583E-1,2.1310769E-1],"categories":[],"categories_nodes":[],"categories_segments":[],"categories_sizes":[],"default_left":[1,1,1,0,0,0,0],"id":25,"left_children":[1,3,5,-1,-1,-1,-1],"loss_changes":[2.2774774E2,6.799448E1,9.064299E1,0E0,0E0,0E0,0E0],"parents":[2147483647,0,0,1,1,2,2],"right_children":[2,4,6,-1,-1,-1,-1],"split_conditions":[1.45E1,3.75E0,2.15E1,4.245379E-3,8.6973817E-4,-1.6087582E-3,2.1310768E-3],"split_indices":[51,77,103,0,0,0,0],"split_type":[0,0,0,0,0,0,0],"sum_hessian":[6.15358E3,3.0144568E3,3.139123E3,2.1941646E3,8.202923E2,2.2259915E3,9.1313165E2],"tree_param":{"num_deleted":"0","num_feature":"104","num_nodes":"7","size_leaf_vector":"0"}},{"base_weights":[-1.3512549E-1,1.6905098E-1,-2.548788E-1,-3.4728933E-2,2.8581703E-1,-1.0595101E-1,-4.1527337E-1],"categories":[],"categories_nodes":[],"categories_segments":[],"categories_sizes":[],"default_left":[1,1,1,0,0,0,0],"id":26,"left_children":[1,3,5,-1,-1,-1,-1],"loss_changes":[2.2419519E2,4.1386215E1,1.0543497E2,0E0,0E0,0E0,0E0],"parents":[2147483647,0,0,1,1,2,2],"right_children":[2,4,6,-1,-1,-1,-1],"split_conditions":[-2.45E0,-1.45E0,1.35E1,-3.4728931E-4,2.8581703E-3,-1.05951E-3,-4.1527334E-3],"split_indices":[25,77,80,0,0,0,0],"split_type":[0,0,0,0,0,0,0],"sum_hessian":[6.152607E3,1.7378955E3,4.4147114E3,6.3332336E2,1.1045721E3,2.2900454E3,2.1246663E3],"tree_param":{"num_deleted":"0","num_feature":"104","num_nodes":"7","size_leaf_vector":"0"}},{"base_weights":[1.351255E-1,-1.69051E-1,2.5487882E-1,3.4728937E-2,-2.858171E-1,1.05951056E-1,4.152734E-1],"categories":[],"categories_nodes":[],"categories_segments":[],"categories_sizes":[],"default_left":[1,1,1,0,0,0,0],"id":27,"left_children":[1,3,5,-1,-1,-1,-1],"loss_changes":[2.2419525E2,4.1386223E1,1.0543497E2,0E0,0E0,0E0,0E0],"parents":[2147483647,0,0,1,1,2,2],"right_children":[2,4,6,-1,-1,-1,-1],"split_conditions":[-2.45E0,-1.45E0,1.35E1,3.4728937E-4,-2.8581708E-3,1.0595105E-3,4.152734E-3],"split_indices":[25,77,80,0,0,0,0],"split_type":[0,0,0,0,0,0,0],"sum_hessian":[6.152607E3,1.7378955E3,4.4147114E3,6.3332336E2,1.1045721E3,2.2900454E3,2.1246663E3],"tree_param":{"num_deleted":"0","num_feature":"104","num_nodes":"7","size_leaf_vector":"0"}},{"base_weights":[-1.3379984E-1,-3.2707244E-1,5.177556E-2,-4.175424E-1,-8.50186E-2,1.9218983E-1,-1.4809482E-1],"categories":[],"categories_nodes":[],"categories_segments":[],"categories_sizes":[],"default_left":[1,1,1,0,0,0,0],"id":28,"left_children":[1,3,5,-1,-1,-1,-1],"loss_changes":[2.2068509E2,6.596399E1,8.8140114E1,0E0,0E0,0E0,0E0],"parents":[2147483647,0,0,1,1,2,2],"right_children":[2,4,6,-1,-1,-1,-1],"split_conditions":[1.45E1,3.75E0,1.75E1,-4.175424E-3,-8.50186E-4,1.9218982E-3,-1.4809482E-3],"split_indices":[51,77,81,0,0,0,0],"split_type":[0,0,0,0,0,0,0],"sum_hessian":[6.151462E3,3.0128667E3,3.1385955E3,2.1926265E3,8.202402E2,1.8435153E3,1.2950801E3],"tree_param":{"num_deleted":"0","num_feature":"104","num_nodes":"7","size_leaf_vector":"0"}},{"base_weights":[1.3379987E-1,3.2707247E-1,-5.177553E-2,4.1754246E-1,8.5018486E-2,-1.921898E-1,1.4809485E-1],"categories":[],"categories_nodes":[],"categories_segments":[],"categories_sizes":[],"default_left":[1,1,1,0,0,0,0],"id":29,"left_children":[1,3,5,-1,-1,-1,-1],"loss_changes":[2.2068503E2,6.596405E1,8.8140114E1,0E0,0E0,0E0,0E0],"parents":[2147483647,0,0,1,1,2,2],"right_children":[2,4,6,-1,-1,-1,-1],"split_conditions":[1.45E1,3.75E0,1.75E1,4.1754246E-3,8.501848E-4,-1.921898E-3,1.4809484E-3],"split_indices":[51,77,81,0,0,0,0],"split_type":[0,0,0,0,0,0,0],"sum_hessian":[6.151462E3,3.0128667E3,3.1385955E3,2.1926265E3,8.202402E2,1.8435153E3,1.2950801E3],"tree_param":{"num_deleted":"0","num_feature":"104","num_nodes":"7","size_leaf_vector":"0"}},{"base_weights":[-1.3248739E-1,-2.558448E-1,1.5411858E-1,-1.562532E-1,-5.0187373E-1,1.1840733E-2,3.1543174E-1],"categories":[],"categories_nodes":[],"categories_segments":[],"categories_sizes":[],"default_left":[1,1,1,0,0,0,0],"id":30,"left_children":[1,3,5,-1,-1,-1,-1],"loss_changes":[2.1751935E2,1.05301025E2,4.2491695E1,0E0,0E0,0E0,0E0],"parents":[2147483647,0,0,1,1,2,2],"right_children":[2,4,6,-1,-1,-1,-1],"split_conditions":[1.95E1,1.95E1,5.135E-1,-1.562532E-3,-5.018737E-3,1.18407326E-4,3.1543174E-3],"split_indices":[28,80,55,0,0,0,0],"split_type":[0,0,0,0,0,0,0],"sum_hessian":[6.150325E3,4.299776E3,1.8505492E3,3.0619465E3,1.2378292E3,9.8386017E2,8.666891E2],"tree_param":{"num_deleted":"0","num_feature":"104","num_nodes":"7","size_leaf_vector":"0"}},{"base_weights":[1.324874E-1,2.5584483E-1,-1.5411858E-1,1.562532E-1,5.0187385E-1,-1.1840741E-2,-3.154317E-1],"categories":[],"categories_nodes":[],"categories_segments":[],"categories_sizes":[],"default_left":[1,1,1,0,0,0,0],"id":31,"left_children":[1,3,5,-1,-1,-1,-1],"loss_changes":[2.175194E2,1.05300995E2,4.2491695E1,0E0,0E0,0E0,0E0],"parents":[2147483647,0,0,1,1,2,2],"right_children":[2,4,6,-1,-1,-1,-1],"split_conditions":[1.95E1,1.95E1,5.135E-1,1.562532E-3,5.0187386E-3,-1.18407406E-4,-3.1543171E-3],"split_indices":[28,80,55,0,0,0,0],"split_type":[0,0,0,0,0,0,0],"sum_hessian":[6.150325E3,4.299776E3,1.8505492E3,3.0619468E3,1.2378293E3,9.838601E2,8.666891E2],"tree_param":{"num_deleted":"0","num_feature":"104","num_nodes":"7","size_leaf_vector":"0"}},{"base_weights":[-1.311913E-1,1.659987E-1,-2.4824242E-1,-3.2909065E-2,2.800078E-1,-8.2942426E-2,-3.8685188E-1],"categories":[],"categories_nodes":[],"categories_segments":[],"categories_sizes":[],"default_left":[1,1,1,0,0,0,0],"id":32,"left_children":[1,3,5,-1,-1,-1,-1],"loss_changes":[2.1397821E2,3.94313E1,1.01070526E2,0E0,0E0,0E0,0E0],"parents":[2147483647,0,0,1,1,2,2],"right_children":[2,4,6,-1,-1,-1,-1],"split_conditions":[-2.45E0,-1.45E0,1.15E1,-3.2909066E-4,2.8000781E-3,-8.2942424E-4,-3.8685186E-3],"split_indices":[25,77,80,0,0,0,0],"split_type":[0,0,0,0,0,0,0],"sum_hessian":[6.149015E3,1.7373943E3,4.411621E3,6.3326685E2,1.1041274E3,2.0128165E3,2.3988044E3],"tree_param":{"num_deleted":"0","num_feature":"104","num_nodes":"7","size_leaf_vector":"0"}},{"base_weights":[1.311913E-1,-1.659987E-1,2.4824242E-1,3.29091E-2,-2.8000784E-1,8.294242E-2,3.8685188E-1],"categories":[],"categories_nodes":[],"categories_segments":[],"categories_sizes":[],"default_left":[1,1,1,0,0,0,0],"id":33,"left_children":[1,3,5,-1,-1,-1,-1],"loss_changes":[2.1397821E2,3.943132E1,1.0107056E2,0E0,0E0,0E0,0E0],"parents":[2147483647,0,0,1,1,2,2],"right_children":[2,4,6,-1,-1,-1,-1],"split_conditions":[-2.45E0,-1.45E0,1.15E1,3.2909098E-4,-2.8000784E-3,8.294242E-4,3.8685186E-3],"split_indices":[25,77,80,0,0,0,0],"split_type":[0,0,0,0,0,0,0],"sum_hessian":[6.1490156E3,1.7373943E3,4.411621E3,6.332669E2,1.1041274E3,2.0128167E3,2.3988044E3],"tree_param":{"num_deleted":"0","num_feature":"104","num_nodes":"7","size_leaf_vector":"0"}},{"base_weights":[-1.2990798E-1,-3.191705E-1,5.1720846E-2,-4.0798473E-1,-8.179506E-2,1.5673003E-1,-2.042282E-1],"categories":[],"categories_nodes":[],"categories_segments":[],"categories_sizes":[],"default_left":[1,1,1,0,0,0,0],"id":34,"left_children":[1,3,5,-1,-1,-1,-1],"loss_changes":[2.1138106E2,6.344992E1,8.4385025E1,0E0,0E0,0E0,0E0],"parents":[2147483647,0,0,1,1,2,2],"right_children":[2,4,6,-1,-1,-1,-1],"split_conditions":[1.45E1,3.75E0,2.15E1,-4.079847E-3,-8.179506E-4,1.5673002E-3,-2.042282E-3],"split_indices":[51,77,103,0,0,0,0],"split_type":[0,0,0,0,0,0,0],"sum_hessian":[6.147693E3,3.0102097E3,3.1374832E3,2.190073E3,8.201366E2,2.225008E3,9.124749E2],"tree_param":{"num_deleted":"0","num_feature":"104","num_nodes":"7","size_leaf_vector":"0"}},{"base_weights":[1.2990798E-1,3.1917048E-1,-5.1720854E-2,4.079847E-1,8.179506E-2,-1.5673004E-1,2.0422818E-1],"categories":[],"categories_nodes":[],"categories_segments":[],"categories_sizes":[],"default_left":[1,1,1,0,0,0,0],"id":35,"left_children":[1,3,5,-1,-1,-1,-1],"loss_changes":[2.1138107E2,6.344989E1,8.4385025E1,0E0,0E0,0E0,0E0],"parents":[2147483647,0,0,1,1,2,2],"right_children":[2,4,6,-1,-1,-1,-1],"split_conditions":[1.45E1,3.75E0,2.15E1,4.079847E-3,8.179506E-4,-1.5673004E-3,2.0422817E-3],"split_indices":[51,77,103,0,0,0,0],"split_type":[0,0,0,0,0,0,0],"sum_hessian":[6.147693E3,3.0102097E3,3.1374832E3,2.190073E3,8.201366E2,2.225008E3,9.124749E2],"tree_param":{"num_deleted":"0","num_feature":"104","num_nodes":"7","size_leaf_vector":"0"}},{"base_weights":[-1.2863754E-1,9.5674716E-2,-2.794514E-1,1.9157647E-1,-1.4035001E-1,-1.3574637E-1,-4.3751332E-1],"categories":[],"categories_nodes":[],"categories_segments":[],"categories_sizes":[],"default_left":[1,1,1,0,0,0,0],"id":36,"left_children":[1,3,5,-1,-1,-1,-1],"loss_changes":[2.0798895E2,5.598579E1,8.344232E1,0E0,0E0,0E0,0E0],"parents":[2147483647,0,0,1,1,2,2],"right_children":[2,4,6,-1,-1,-1,-1],"split_conditions":[4.7149998E-1,2.15E1,1.35E1,1.9157646E-3,-1.4035001E-3,-1.3574638E-3,-4.375133E-3],"split_indices":[3,103,80,0,0,0,0],"split_type":[0,0,0,0,0,0,0],"sum_hessian":[6.1463833E3,2.4712085E3,3.6751748E3,1.7573494E3,7.1385913E2,1.9259865E3,1.7491882E3],"tree_param":{"num_deleted":"0","num_feature":"104","num_nodes":"7","size_leaf_vector":"0"}},{"base_weights":[1.2863754E-1,-9.5674716E-2,2.794514E-1,-1.9157645E-1,1.4034998E-1,1.3574636E-1,4.3751338E-1],"categories":[],"categories_nodes":[],"categories_segments":[],"categories_sizes":[],"default_left":[1,1,1,0,0,0,0],"id":37,"left_children":[1,3,5,-1,-1,-1,-1],"loss_changes":[2.07989E2,5.5985764E1,8.344235E1,0E0,0E0,0E0,0E0],"parents":[2147483647,0,0,1,1,2,2],"right_children":[2,4,6,-1,-1,-1,-1],"split_conditions":[4.7149998E-1,2.15E1,1.35E1,-1.9157644E-3,1.4034999E-3,1.3574635E-3,4.3751337E-3],"split_indices":[3,103,80,0,0,0,0],"split_type":[0,0,0,0,0,0,0],"sum_hessian":[6.1463833E3,2.4712085E3,3.6751746E3,1.7573494E3,7.1385913E2,1.9259865E3,1.7491881E3],"tree_param":{"num_deleted":"0","num_feature":"104","num_nodes":"7","size_leaf_vector":"0"}},{"base_weights":[-1.2738371E-1,-2.4709629E-1,1.5056688E-1,-1.500292E-1,-4.873029E-1,1.2344841E-2,3.073741E-1],"categories":[],"categories_nodes":[],"categories_segments":[],"categories_sizes":[],"default_left":[1,1,1,0,0,0,0],"id":38,"left_children":[1,3,5,-1,-1,-1,-1],"loss_changes":[2.0453613E2,1.0009534E2,4.011031E1,0E0,0E0,0E0,0E0],"parents":[2147483647,0,0,1,1,2,2],"right_children":[2,4,6,-1,-1,-1,-1],"split_conditions":[1.95E1,1.95E1,5.135E-1,-1.500292E-3,-4.873029E-3,1.2344841E-4,3.0737408E-3],"split_indices":[28,80,55,0,0,0,0],"split_type":[0,0,0,0,0,0,0],"sum_hessian":[6.1448735E3,4.295097E3,1.8497759E3,3.060129E3,1.2349684E3,9.8372394E2,8.6605194E2],"tree_param":{"num_deleted":"0","num_feature":"104","num_nodes":"7","size_leaf_vector":"0"}},{"base_weights":[1.2738371E-1,2.470963E-1,-1.505669E-1,1.5002921E-1,4.873029E-1,-1.2344847E-2,-3.0737415E-1],"categories":[],"categories_nodes":[],"categories_segments":[],"categories_sizes":[],"default_left":[1,1,1,0,0,0,0],"id":39,"left_children":[1,3,5,-1,-1,-1,-1],"loss_changes":[2.0453616E2,1.0009534E2,4.0110325E1,0E0,0E0,0E0,0E0],"parents":[2147483647,0,0,1,1,2,2],"right_children":[2,4,6,-1,-1,-1,-1],"split_conditions":[1.95E1,1.95E1,5.135E-1,1.5002921E-3,4.873029E-3,-1.2344847E-4,-3.0737414E-3],"split_indices":[28,80,55,0,0,0,0],"split_type":[0,0,0,0,0,0,0],"sum_hessian":[6.144873E3,4.295097E3,1.8497759E3,3.060129E3,1.2349684E3,9.8372394E2,8.6605194E2],"tree_param":{"num_deleted":"0","num_feature":"104","num_nodes":"7","size_leaf_vector":"0"}},{"base_weights":[-1.2614268E-1,-3.1131628E-1,5.1443268E-2,-3.9860123E-1,-7.83145E-2,1.8581586E-1,-1.398818E-1],"categories":[],"categories_nodes":[],"categories_segments":[],"categories_sizes":[],"default_left":[1,1,1,0,0,0,0],"id":40,"left_children":[1,3,5,-1,-1,-1,-1],"loss_changes":[2.0206718E2,6.114496E1,8.068173E1,0E0,0E0,0E0,0E0],"parents":[2147483647,0,0,1,1,2,2],"right_children":[2,4,6,-1,-1,-1,-1],"split_conditions":[1.45E1,3.75E0,1.75E1,-3.986012E-3,-7.8314496E-4,1.8581585E-3,-1.398818E-3],"split_indices":[51,77,81,0,0,0,0],"split_type":[0,0,0,0,0,0,0],"sum_hessian":[6.1433174E3,3.0070417E3,3.1362756E3,2.187042E3,8.199998E2,1.8423641E3,1.2939115E3],"tree_param":{"num_deleted":"0","num_feature":"104","num_nodes":"7","size_leaf_vector":"0"}},{"base_weights":[1.2614268E-1,3.1131628E-1,-5.1443256E-2,3.986012E-1,7.831453E-2,-1.8581584E-1,1.3988183E-1],"categories":[],"categories_nodes":[],"categories_segments":[],"categories_sizes":[],"default_left":[1,1,1,0,0,0,0],"id":41,"left_children":[1,3,5,-1,-1,-1,-1],"loss_changes":[2.0206714E2,6.114496E1,8.068174E1,0E0,0E0,0E0,0E0],"parents":[2147483647,0,0,1,1,2,2],"right_children":[2,4,6,-1,-1,-1,-1],"split_conditions":[1.45E1,3.75E0,1.75E1,3.9860117E-3,7.8314525E-4,-1.8581584E-3,1.3988183E-3],"split_indices":[51,77,81,0,0,0,0],"split_type":[0,0,0,0,0,0,0],"sum_hessian":[6.1433174E3,3.0070417E3,3.1362756E3,2.187042E3,8.199999E2,1.8423641E3,1.2939115E3],"tree_param":{"num_deleted":"0","num_feature":"104","num_nodes":"7","size_leaf_vector":"0"}},{"base_weights":[-1.24913044E-1,1.6168475E-1,-2.3789136E-1,-3.3047166E-2,2.6898557E-1,-7.8161046E-2,-3.720825E-1],"categories":[],"categories_nodes":[],"categories_segments":[],"categories_sizes":[],"default_left":[1,1,1,0,0,0,0],"id":42,"left_children":[1,3,5,-1,-1,-1,-1],"loss_changes":[1.9893854E2,3.631264E1,9.441861E1,0E0,0E0,0E0,0E0],"parents":[2147483647,0,0,1,1,2,2],"right_children":[2,4,6,-1,-1,-1,-1],"split_conditions":[-2.45E0,-1.55E0,1.15E1,-3.3047164E-4,2.6898556E-3,-7.8161043E-4,-3.7208248E-3],"split_indices":[25,77,80,0,0,0,0],"split_type":[0,0,0,0,0,0,0],"sum_hessian":[6.141808E3,1.7364462E3,4.405362E3,6.171395E2,1.1193066E3,2.01201E3,2.393352E3],"tree_param":{"num_deleted":"0","num_feature":"104","num_nodes":"7","size_leaf_vector":"0"}},{"base_weights":[1.2491304E-1,-1.6168472E-1,2.3789135E-1,3.304722E-2,-2.6898554E-1,7.8161016E-2,3.720825E-1],"categories":[],"categories_nodes":[],"categories_segments":[],"categories_sizes":[],"default_left":[1,1,1,0,0,0,0],"id":43,"left_children":[1,3,5,-1,-1,-1,-1],"loss_changes":[1.9893848E2,3.6312653E1,9.441858E1,0E0,0E0,0E0,0E0],"parents":[2147483647,0,0,1,1,2,2],"right_children":[2,4,6,-1,-1,-1,-1],"split_conditions":[-2.45E0,-1.55E0,1.15E1,3.3047222E-4,-2.6898554E-3,7.8161014E-4,3.7208248E-3],"split_indices":[25,77,80,0,0,0,0],"split_type":[0,0,0,0,0,0,0],"sum_hessian":[6.141808E3,1.7364462E3,4.405362E3,6.171395E2,1.1193066E3,2.0120099E3,2.393352E3],"tree_param":{"num_deleted":"0","num_feature":"104","num_nodes":"7","size_leaf_vector":"0"}},{"base_weights":[-1.23697095E-1,-3.0610627E-1,5.114566E-2,-3.9212835E-1,-7.669545E-2,1.5232798E-1,-1.9556715E-1],"categories":[],"categories_nodes":[],"categories_segments":[],"categories_sizes":[],"default_left":[1,1,1,0,0,0,0],"id":44,"left_children":[1,3,5,-1,-1,-1,-1],"loss_changes":[1.9587625E2,5.9285736E1,7.832585E1,0E0,0E0,0E0,0E0],"parents":[2147483647,0,0,1,1,2,2],"right_children":[2,4,6,-1,-1,-1,-1],"split_conditions":[1.45E1,3.75E0,2.15E1,-3.9212834E-3,-7.669545E-4,1.5232798E-3,-1.9556715E-3],"split_indices":[51,77,103,0,0,0,0],"split_type":[0,0,0,0,0,0,0],"sum_hessian":[6.140194E3,3.0047065E3,3.1354875E3,2.1847734E3,8.19933E2,2.223829E3,9.116584E2],"tree_param":{"num_deleted":"0","num_feature":"104","num_nodes":"7","size_leaf_vector":"0"}},{"base_weights":[1.2369711E-1,3.061063E-1,-5.1145665E-2,3.921284E-1,7.669548E-2,-1.5232798E-1,1.9556715E-1],"categories":[],"categories_nodes":[],"categories_segments":[],"categories_sizes":[],"default_left":[1,1,1,0,0,0,0],"id":45,"left_children":[1,3,5,-1,-1,-1,-1],"loss_changes":[1.9587631E2,5.9285736E1,7.832584E1,0E0,0E0,0E0,0E0],"parents":[2147483647,0,0,1,1,2,2],"right_children":[2,4,6,-1,-1,-1,-1],"split_conditions":[1.45E1,3.75E0,2.15E1,3.921284E-3,7.669548E-4,-1.5232798E-3,1.9556715E-3],"split_indices":[51,77,103,0,0,0,0],"split_type":[0,0,0,0,0,0,0],"sum_hessian":[6.140194E3,3.0047065E3,3.1354875E3,2.1847734E3,8.1993304E2,2.223829E3,9.116584E2],"tree_param":{"num_deleted":"0","num_feature":"104","num_nodes":"7","size_leaf_vector":"0"}},{"base_weights":[-1.2249347E-1,-2.3891051E-1,1.4759742E-1,-1.4409529E-1,-4.7398895E-1,1.3656162E-2,2.9965073E-1],"categories":[],"categories_nodes":[],"categories_segments":[],"categories_sizes":[],"default_left":[1,1,1,0,0,0,0],"id":46,"left_children":[1,3,5,-1,-1,-1,-1],"loss_changes":[1.9308334E2,9.556743E1,3.7670856E1,0E0,0E0,0E0,0E0],"parents":[2147483647,0,0,1,1,2,2],"right_children":[2,4,6,-1,-1,-1,-1],"split_conditions":[1.95E1,1.95E1,5.135E-1,-1.4409529E-3,-4.7398894E-3,1.3656162E-4,2.9965073E-3],"split_indices":[28,80,55,0,0,0,0],"split_type":[0,0,0,0,0,0,0],"sum_hessian":[6.138586E3,4.289711E3,1.8488749E3,3.0579482E3,1.2317627E3,9.835616E2,8.6531335E2],"tree_param":{"num_deleted":"0","num_feature":"104","num_nodes":"7","size_leaf_vector":"0"}},{"base_weights":[1.2249347E-1,2.3891051E-1,-1.475974E-1,1.440953E-1,4.7398892E-1,-1.3656145E-2,-2.9965073E-1],"categories":[],"categories_nodes":[],"categories_segments":[],"categories_sizes":[],"default_left":[1,1,1,0,0,0,0],"id":47,"left_children":[1,3,5,-1,-1,-1,-1],"loss_changes":[1.9308336E2,9.55674E1,3.7670856E1,0E0,0E0,0E0,0E0],"parents":[2147483647,0,0,1,1,2,2],"right_children":[2,4,6,-1,-1,-1,-1],"split_conditions":[1.95E1,1.95E1,5.135E-1,1.440953E-3,4.739889E-3,-1.3656144E-4,-2.9965073E-3],"split_indices":[28,80,55,0,0,0,0],"split_type":[0,0,0,0,0,0,0],"sum_hessian":[6.1385854E3,4.2897104E3,1.8488749E3,3.057948E3,1.2317626E3,9.835616E2,8.653133E2],"tree_param":{"num_deleted":"0","num_feature":"104","num_nodes":"7","size_leaf_vector":"0"}},{"base_weights":[-1.21304385E-1,1.5875228E-1,-2.3176661E-1,-2.740426E-2,2.655497E-1,-7.528204E-2,-3.6340392E-1],"categories":[],"categories_nodes":[],"categories_segments":[],"categories_sizes":[],"default_left":[1,1,1,0,0,0,0],"id":48,"left_children":[1,3,5,-1,-1,-1,-1],"loss_changes":[1.899144E2,3.4535416E1,9.065199E1,0E0,0E0,0E0,0E0],"parents":[2147483647,0,0,1,1,2,2],"right_children":[2,4,6,-1,-1,-1,-1],"split_conditions":[-2.45E0,-1.45E0,1.15E1,-2.740426E-4,2.6554968E-3,-7.5282034E-4,-3.634039E-3],"split_indices":[25,77,80,0,0,0,0],"split_type":[0,0,0,0,0,0,0],"sum_hessian":[6.136818E3,1.7357374E3,4.40108E3,6.330404E2,1.1026971E3,2.0114862E3,2.389594E3],"tree_param":{"num_deleted":"0","num_feature":"104","num_nodes":"7","size_leaf_vector":"0"}},{"base_weights":[1.2130437E-1,-1.587523E-1,2.317666E-1,2.7404256E-2,-2.6554975E-1,7.528202E-2,3.634039E-1],"categories":[],"categories_nodes":[],"categories_segments":[],"categories_sizes":[],"default_left":[1,1,1,0,0,0,0],"id":49,"left_children":[1,3,5,-1,-1,-1,-1],"loss_changes":[1.8991441E2,3.453543E1,9.065198E1,0E0,0E0,0E0,0E0],"parents":[2147483647,0,0,1,1,2,2],"right_children":[2,4,6,-1,-1,-1,-1],"split_conditions":[-2.45E0,-1.45E0,1.15E1,2.7404257E-4,-2.6554975E-3,7.528202E-4,3.6340388E-3],"split_indices":[25,77,80,0,0,0,0],"split_type":[0,0,0,0,0,0,0],"sum_hessian":[6.136818E3,1.7357374E3,4.40108E3,6.330404E2,1.102697E3,2.0114862E3,2.389594E3],"tree_param":{"num_deleted":"0","num_feature":"104","num_nodes":"7","size_leaf_vector":"0"}},{"base_weights":[-1.2012678E-1,-2.98828E-1,5.1032286E-2,-3.8334736E-1,-7.3754445E-2,1.5000387E-1,-1.9036138E-1],"categories":[],"categories_nodes":[],"categories_segments":[],"categories_sizes":[],"default_left":[1,1,1,0,0,0,0],"id":50,"left_children":[1,3,5,-1,-1,-1,-1],"loss_changes":[1.876943E2,5.70795E1,7.4927536E1,0E0,0E0,0E0,0E0],"parents":[2147483647,0,0,1,1,2,2],"right_children":[2,4,6,-1,-1,-1,-1],"split_conditions":[1.45E1,3.75E0,2.15E1,-3.8334734E-3,-7.3754444E-4,1.5000387E-3,-1.9036138E-3],"split_indices":[51,77,103,0,0,0,0],"split_type":[0,0,0,0,0,0,0],"sum_hessian":[6.135042E3,3.0010276E3,3.1340144E3,2.1812312E3,8.1979645E2,2.2229727E3,9.110418E2],"tree_param":{"num_deleted":"0","num_feature":"104","num_nodes":"7","size_leaf_vector":"0"}},{"base_weights":[1.2012679E-1,2.98828E-1,-5.1032256E-2,3.8334733E-1,7.3754445E-2,-1.5000382E-1,1.9036138E-1],"categories":[],"categories_nodes":[],"categories_segments":[],"categories_sizes":[],"default_left":[1,1,1,0,0,0,0],"id":51,"left_children":[1,3,5,-1,-1,-1,-1],"loss_changes":[1.8769426E2,5.707953E1,7.492752E1,0E0,0E0,0E0,0E0],"parents":[2147483647,0,0,1,1,2,2],"right_children":[2,4,6,-1,-1,-1,-1],"split_conditions":[1.45E1,3.75E0,2.15E1,3.8334732E-3,7.3754444E-4,-1.5000382E-3,1.9036138E-3],"split_indices":[51,77,103,0,0,0,0],"split_type":[0,0,0,0,0,0,0],"sum_hessian":[6.1350425E3,3.0010278E3,3.1340146E3,2.1812312E3,8.1979645E2,2.2229727E3,9.110419E2],"tree_param":{"num_deleted":"0","num_feature":"104","num_nodes":"7","size_leaf_vector":"0"}},{"base_weights":[-1.1896095E-1,-2.2457111E-1,1.6619714E-1,-1.3040763E-1,-4.5448565E-1,3.8064666E-2,3.129466E-1],"categories":[],"categories_nodes":[],"categories_segments":[],"categories_sizes":[],"default_left":[1,1,1,0,0,0,0],"id":52,"left_children":[1,3,5,-1,-1,-1,-1],"loss_changes":[1.8477478E2,9.6862274E1,3.1172413E1,0E0,0E0,0E0,0E0],"parents":[2147483647,0,0,1,1,2,2],"right_children":[2,4,6,-1,-1,-1,-1],"split_conditions":[2.05E1,1.95E1,5.135E-1,-1.3040763E-3,-4.5448565E-3,3.8064664E-4,3.1294657E-3],"split_indices":[28,80,55,0,0,0,0],"split_type":[0,0,0,0,0,0,0],"sum_hessian":[6.1332803E3,4.475837E3,1.657443E3,3.1764585E3,1.2993785E3,8.855208E2,7.719222E2],"tree_param":{"num_deleted":"0","num_feature":"104","num_nodes":"7","size_leaf_vector":"0"}},{"base_weights":[1.1896093E-1,2.2457111E-1,-1.661972E-1,1.3040765E-1,4.5448565E-1,-3.8064696E-2,-3.1294668E-1],"categories":[],"categories_nodes":[],"categories_segments":[],"categories_sizes":[],"default_left":[1,1,1,0,0,0,0],"id":53,"left_children":[1,3,5,-1,-1,-1,-1],"loss_changes":[1.8477487E2,9.686224E1,3.1172424E1,0E0,0E0,0E0,0E0],"parents":[2147483647,0,0,1,1,2,2],"right_children":[2,4,6,-1,-1,-1,-1],"split_conditions":[2.05E1,1.95E1,5.135E-1,1.3040764E-3,4.5448565E-3,-3.8064696E-4,-3.1294667E-3],"split_indices":[28,80,55,0,0,0,0],"split_type":[0,0,0,0,0,0,0],"sum_hessian":[6.1332803E3,4.475837E3,1.657443E3,3.1764585E3,1.2993785E3,8.855208E2,7.719222E2],"tree_param":{"num_deleted":"0","num_feature":"104","num_nodes":"7","size_leaf_vector":"0"}},{"base_weights":[-1.17807955E-1,-2.939265E-1,5.077773E-2,-3.774406E-1,-7.1767285E-2,1.7853627E-1,-1.3119791E-1],"categories":[],"categories_nodes":[],"categories_segments":[],"categories_sizes":[],"default_left":[1,1,1,0,0,0,0],"id":54,"left_children":[1,3,5,-1,-1,-1,-1],"loss_changes":[1.8209283E2,5.5621124E1,7.2887146E1,0E0,0E0,0E0,0E0],"parents":[2147483647,0,0,1,1,2,2],"right_children":[2,4,6,-1,-1,-1,-1],"split_conditions":[1.45E1,3.75E0,1.75E1,-3.774406E-3,-7.176728E-4,1.7853626E-3,-1.3119791E-3],"split_indices":[51,77,81,0,0,0,0],"split_type":[0,0,0,0,0,0,0],"sum_hessian":[6.131414E3,2.9983481E3,3.133066E3,2.1786506E3,8.1969745E2,1.8407562E3,1.2923097E3],"tree_param":{"num_deleted":"0","num_feature":"104","num_nodes":"7","size_leaf_vector":"0"}},{"base_weights":[1.1780793E-1,2.9392645E-1,-5.077773E-2,3.7744057E-1,7.176718E-2,-1.7853627E-1,1.3119791E-1],"categories":[],"categories_nodes":[],"categories_segments":[],"categories_sizes":[],"default_left":[1,1,1,0,0,0,0],"id":55,"left_children":[1,3,5,-1,-1,-1,-1],"loss_changes":[1.8209277E2,5.5621155E1,7.288715E1,0E0,0E0,0E0,0E0],"parents":[2147483647,0,0,1,1,2,2],"right_children":[2,4,6,-1,-1,-1,-1],"split_conditions":[1.45E1,3.75E0,1.75E1,3.7744057E-3,7.176718E-4,-1.7853626E-3,1.3119791E-3],"split_indices":[51,77,81,0,0,0,0],"split_type":[0,0,0,0,0,0,0],"sum_hessian":[6.131414E3,2.9983481E3,3.133066E3,2.1786506E3,8.196974E2,1.8407562E3,1.2923097E3],"tree_param":{"num_deleted":"0","num_feature":"104","num_nodes":"7","size_leaf_vector":"0"}},{"base_weights":[-1.1666669E-1,9.157989E-2,-2.570114E-1,1.804758E-1,-1.2716267E-1,-4.0885866E-1,-1.2448024E-1],"categories":[],"categories_nodes":[],"categories_segments":[],"categories_sizes":[],"default_left":[1,1,1,0,0,0,0],"id":56,"left_children":[1,3,5,-1,-1,-1,-1],"loss_changes":[1.791965E2,4.8031975E1,7.365733E1,0E0,0E0,0E0,0E0],"parents":[2147483647,0,0,1,1,2,2],"right_children":[2,4,6,-1,-1,-1,-1],"split_conditions":[4.7149998E-1,2.15E1,1.5E-1,1.804758E-3,-1.2716267E-3,-4.0885867E-3,-1.2448024E-3],"split_indices":[3,103,77,0,0,0,0],"split_type":[0,0,0,0,0,0,0],"sum_hessian":[6.129537E3,2.4679243E3,3.6616125E3,1.7549117E3,7.1301263E2,1.7054795E3,1.956133E3],"tree_param":{"num_deleted":"0","num_feature":"104","num_nodes":"7","size_leaf_vector":"0"}},{"base_weights":[1.16666675E-1,-9.157987E-2,2.5701138E-1,-1.8047577E-1,1.271627E-1,4.0885863E-1,1.24480195E-1],"categories":[],"categories_nodes":[],"categories_segments":[],"categories_sizes":[],"default_left":[1,1,1,0,0,0,0],"id":57,"left_children":[1,3,5,-1,-1,-1,-1],"loss_changes":[1.7919644E2,4.8031975E1,7.365732E1,0E0,0E0,0E0,0E0],"parents":[2147483647,0,0,1,1,2,2],"right_children":[2,4,6,-1,-1,-1,-1],"split_conditions":[4.7149998E-1,2.15E1,1.5E-1,-1.8047576E-3,1.2716269E-3,4.088586E-3,1.2448019E-3],"split_indices":[3,103,77,0,0,0,0],"split_type":[0,0,0,0,0,0,0],"sum_hessian":[6.1295366E3,2.4679243E3,3.6616125E3,1.7549117E3,7.1301263E2,1.7054794E3,1.956133E3],"tree_param":{"num_deleted":"0","num_feature":"104","num_nodes":"7","size_leaf_vector":"0"}},{"base_weights":[-1.155385E-1,1.5459348E-1,-2.2220327E-1,2.797542E-2,2.9983518E-1,-1.316314E-1,-4.371992E-1],"categories":[],"categories_nodes":[],"categories_segments":[],"categories_sizes":[],"default_left":[1,1,1,0,0,0,0],"id":58,"left_children":[1,3,5,-1,-1,-1,-1],"loss_changes":[1.7662009E2,3.1907513E1,8.5506516E1,0E0,0E0,0E0,0E0],"parents":[2147483647,0,0,1,1,2,2],"right_children":[2,4,6,-1,-1,-1,-1],"split_conditions":[-2.45E0,3.5000002E-1,1.95E1,2.797542E-4,2.9983516E-3,-1.316314E-3,-4.371992E-3],"split_indices":[25,77,80,0,0,0,0],"split_type":[0,0,0,0,0,0,0],"sum_hessian":[6.1275625E3,1.7344817E3,4.3930806E3,9.272879E2,8.071937E2,3.0920835E3,1.3009972E3],"tree_param":{"num_deleted":"0","num_feature":"104","num_nodes":"7","size_leaf_vector":"0"}},{"base_weights":[1.15538515E-1,-1.5459347E-1,2.2220327E-1,-2.797539E-2,-2.9983518E-1,1.3163143E-1,4.371992E-1],"categories":[],"categories_nodes":[],"categories_segments":[],"categories_sizes":[],"default_left":[1,1,1,0,0,0,0],"id":59,"left_children":[1,3,5,-1,-1,-1,-1],"loss_changes":[1.7662009E2,3.1907513E1,8.5506516E1,0E0,0E0,0E0,0E0],"parents":[2147483647,0,0,1,1,2,2],"right_children":[2,4,6,-1,-1,-1,-1],"split_conditions":[-2.45E0,3.5000002E-1,1.95E1,-2.797539E-4,-2.9983516E-3,1.3163143E-3,4.371992E-3],"split_indices":[25,77,80,0,0,0,0],"split_type":[0,0,0,0,0,0,0],"sum_hessian":[6.1275625E3,1.7344817E3,4.3930806E3,9.272879E2,8.071938E2,3.0920835E3,1.3009972E3],"tree_param":{"num_deleted":"0","num_feature":"104","num_nodes":"7","size_leaf_vector":"0"}},{"base_weights":[-1.1442017E-1,-2.8683323E-1,5.046558E-2,-1.861575E-2,-3.539191E-1,1.752969E-1,-1.2737618E-1],"categories":[],"categories_nodes":[],"categories_segments":[],"categories_sizes":[],"default_left":[1,1,1,0,0,0,0],"id":60,"left_children":[1,3,5,-1,-1,-1,-1],"loss_changes":[1.7418488E2,5.3886017E1,6.956505E1,0E0,0E0,0E0,0E0],"parents":[2147483647,0,0,1,1,2,2],"right_children":[2,4,6,-1,-1,-1,-1],"split_conditions":[1.45E1,5.5E0,1.75E1,-1.861575E-4,-3.5391909E-3,1.752969E-3,-1.2737619E-3],"split_indices":[51,103,81,0,0,0,0],"split_type":[0,0,0,0,0,0,0],"sum_hessian":[6.1256216E3,2.9940981E3,3.1315234E3,5.993001E2,2.394798E3,1.8399991E3,1.2915244E3],"tree_param":{"num_deleted":"0","num_feature":"104","num_nodes":"7","size_leaf_vector":"0"}},{"base_weights":[1.14420176E-1,2.8683326E-1,-5.0465565E-2,1.861575E-2,3.539191E-1,-1.7529689E-1,1.273762E-1],"categories":[],"categories_nodes":[],"categories_segments":[],"categories_sizes":[],"default_left":[1,1,1,0,0,0,0],"id":61,"left_children":[1,3,5,-1,-1,-1,-1],"loss_changes":[1.7418489E2,5.3886017E1,6.956505E1,0E0,0E0,0E0,0E0],"parents":[2147483647,0,0,1,1,2,2],"right_children":[2,4,6,-1,-1,-1,-1],"split_conditions":[1.45E1,5.5E0,1.75E1,1.861575E-4,3.5391909E-3,-1.7529689E-3,1.273762E-3],"split_indices":[51,103,81,0,0,0,0],"split_type":[0,0,0,0,0,0,0],"sum_hessian":[6.1256216E3,2.9940981E3,3.1315234E3,5.993001E2,2.394798E3,1.8399991E3,1.2915244E3],"tree_param":{"num_deleted":"0","num_feature":"104","num_nodes":"7","size_leaf_vector":"0"}},{"base_weights":[-1.1331338E-1,-2.1541268E-1,1.6206217E-1,-1.2423635E-1,-4.3871504E-1,3.9000474E-2,3.0317277E-1],"categories":[],"categories_nodes":[],"categories_segments":[],"categories_sizes":[],"default_left":[1,1,1,0,0,0,0],"id":62,"left_children":[1,3,5,-1,-1,-1,-1],"loss_changes":[1.7223349E2,9.092337E1,2.876537E1,0E0,0E0,0E0,0E0],"parents":[2147483647,0,0,1,1,2,2],"right_children":[2,4,6,-1,-1,-1,-1],"split_conditions":[2.05E1,1.95E1,5.135E-1,-1.2423635E-3,-4.3871505E-3,3.9000474E-4,3.0317276E-3],"split_indices":[28,80,55,0,0,0,0],"split_type":[0,0,0,0,0,0,0],"sum_hessian":[6.1236523E3,4.4674873E3,1.656165E3,3.1733408E3,1.2941466E3,8.85341E2,7.70824E2],"tree_param":{"num_deleted":"0","num_feature":"104","num_nodes":"7","size_leaf_vector":"0"}},{"base_weights":[1.1331337E-1,2.1541266E-1,-1.6206217E-1,1.2423634E-1,4.3871504E-1,-3.9000496E-2,-3.0317277E-1],"categories":[],"categories_nodes":[],"categories_segments":[],"categories_sizes":[],"default_left":[1,1,1,0,0,0,0],"id":63,"left_children":[1,3,5,-1,-1,-1,-1],"loss_changes":[1.7223346E2,9.09234E1,2.876535E1,0E0,0E0,0E0,0E0],"parents":[2147483647,0,0,1,1,2,2],"right_children":[2,4,6,-1,-1,-1,-1],"split_conditions":[2.05E1,1.95E1,5.135E-1,1.2423634E-3,4.3871505E-3,-3.9000495E-4,-3.0317276E-3],"split_indices":[28,80,55,0,0,0,0],"split_type":[0,0,0,0,0,0,0],"sum_hessian":[6.1236523E3,4.4674873E3,1.656165E3,3.1733408E3,1.2941466E3,8.85341E2,7.7082404E2],"tree_param":{"num_deleted":"0","num_feature":"104","num_nodes":"7","size_leaf_vector":"0"}},{"base_weights":[-1.1221922E-1,-2.8215888E-1,5.0195936E-2,-1.7226953E-2,-3.4849754E-1,1.4437538E-1,-1.7967574E-1],"categories":[],"categories_nodes":[],"categories_segments":[],"categories_sizes":[],"default_left":[1,1,1,0,0,0,0],"id":64,"left_children":[1,3,5,-1,-1,-1,-1],"loss_changes":[1.690018E2,5.2581345E1,6.781909E1,0E0,0E0,0E0,0E0],"parents":[2147483647,0,0,1,1,2,2],"right_children":[2,4,6,-1,-1,-1,-1],"split_conditions":[1.45E1,5.5E0,2.15E1,-1.7226953E-4,-3.4849753E-3,1.4437538E-3,-1.7967573E-3],"split_indices":[51,103,103,0,0,0,0],"split_type":[0,0,0,0,0,0,0],"sum_hessian":[6.121569E3,2.9911282E3,3.130441E3,5.9924115E2,2.391887E3,2.2209001E3,9.095407E2],"tree_param":{"num_deleted":"0","num_feature":"104","num_nodes":"7","size_leaf_vector":"0"}},{"base_weights":[1.1221921E-1,2.8215885E-1,-5.0195936E-2,1.7226923E-2,3.484975E-1,-1.4437538E-1,1.7967574E-1],"categories":[],"categories_nodes":[],"categories_segments":[],"categories_sizes":[],"default_left":[1,1,1,0,0,0,0],"id":65,"left_children":[1,3,5,-1,-1,-1,-1],"loss_changes":[1.690018E2,5.2581314E1,6.781909E1,0E0,0E0,0E0,0E0],"parents":[2147483647,0,0,1,1,2,2],"right_children":[2,4,6,-1,-1,-1,-1],"split_conditions":[1.45E1,5.5E0,2.15E1,1.7226923E-4,3.484975E-3,-1.4437538E-3,1.7967573E-3],"split_indices":[51,103,103,0,0,0,0],"split_type":[0,0,0,0,0,0,0],"sum_hessian":[6.1215693E3,2.9911282E3,3.130441E3,5.9924115E2,2.3918872E3,2.2209001E3,9.095407E2],"tree_param":{"num_deleted":"0","num_feature":"104","num_nodes":"7","size_leaf_vector":"0"}},{"base_weights":[-1.1113508E-1,-2.1172756E-1,1.6005644E-1,-1.2172023E-1,-4.3246943E-1,3.8953938E-2,2.9900056E-1],"categories":[],"categories_nodes":[],"categories_segments":[],"categories_sizes":[],"default_left":[1,1,1,0,0,0,0],"id":66,"left_children":[1,3,5,-1,-1,-1,-1],"loss_changes":[1.6700102E2,8.8658676E1,2.7862831E1,0E0,0E0,0E0,0E0],"parents":[2147483647,0,0,1,1,2,2],"right_children":[2,4,6,-1,-1,-1,-1],"split_conditions":[2.05E1,1.95E1,5.135E-1,-1.2172023E-3,-4.324694E-3,3.8953937E-4,2.9900055E-3],"split_indices":[28,80,55,0,0,0,0],"split_type":[0,0,0,0,0,0,0],"sum_hessian":[6.1195347E3,4.46395E3,1.6555841E3,3.1720862E3,1.2918643E3,8.852704E2,7.703138E2],"tree_param":{"num_deleted":"0","num_feature":"104","num_nodes":"7","size_leaf_vector":"0"}},{"base_weights":[1.111351E-1,2.1172759E-1,-1.600564E-1,1.21720254E-1,4.324695E-1,-3.895392E-2,-2.9900047E-1],"categories":[],"categories_nodes":[],"categories_segments":[],"categories_sizes":[],"default_left":[1,1,1,0,0,0,0],"id":67,"left_children":[1,3,5,-1,-1,-1,-1],"loss_changes":[1.6700102E2,8.865872E1,2.7862823E1,0E0,0E0,0E0,0E0],"parents":[2147483647,0,0,1,1,2,2],"right_children":[2,4,6,-1,-1,-1,-1],"split_conditions":[2.05E1,1.95E1,5.135E-1,1.2172025E-3,4.3246946E-3,-3.8953917E-4,-2.9900046E-3],"split_indices":[28,80,55,0,0,0,0],"split_type":[0,0,0,0,0,0,0],"sum_hessian":[6.1195347E3,4.46395E3,1.6555842E3,3.1720862E3,1.2918641E3,8.852704E2,7.703138E2],"tree_param":{"num_deleted":"0","num_feature":"104","num_nodes":"7","size_leaf_vector":"0"}},{"base_weights":[-1.10063486E-1,1.504574E-1,-2.1305145E-1,2.8438406E-2,2.9057166E-1,-6.550108E-2,-3.377788E-1],"categories":[],"categories_nodes":[],"categories_segments":[],"categories_sizes":[],"default_left":[1,1,1,0,0,0,0],"id":68,"left_children":[1,3,5,-1,-1,-1,-1],"loss_changes":[1.6419107E2,2.9637577E1,8.0683975E1,0E0,0E0,0E0,0E0],"parents":[2147483647,0,0,1,1,2,2],"right_children":[2,4,6,-1,-1,-1,-1],"split_conditions":[-2.45E0,3.5000002E-1,1.15E1,2.8438406E-4,2.9057164E-3,-6.5501075E-4,-3.377788E-3],"split_indices":[25,77,80,0,0,0,0],"split_type":[0,0,0,0,0,0,0],"sum_hessian":[6.1173696E3,1.7330198E3,4.38435E3,9.2696875E2,8.060511E2,2.0091198E3,2.3752302E3],"tree_param":{"num_deleted":"0","num_feature":"104","num_nodes":"7","size_leaf_vector":"0"}},{"base_weights":[1.1006346E-1,-1.5045743E-1,2.1305144E-1,-2.8438445E-2,-2.9057166E-1,6.5501064E-2,3.3777878E-1],"categories":[],"categories_nodes":[],"categories_segments":[],"categories_sizes":[],"default_left":[1,1,1,0,0,0,0],"id":69,"left_children":[1,3,5,-1,-1,-1,-1],"loss_changes":[1.641911E2,2.9637577E1,8.068399E1,0E0,0E0,0E0,0E0],"parents":[2147483647,0,0,1,1,2,2],"right_children":[2,4,6,-1,-1,-1,-1],"split_conditions":[-2.45E0,3.5000002E-1,1.15E1,-2.8438444E-4,-2.9057164E-3,6.5501063E-4,3.3777878E-3],"split_indices":[25,77,80,0,0,0,0],"split_type":[0,0,0,0,0,0,0],"sum_hessian":[6.1173696E3,1.7330199E3,4.38435E3,9.269688E2,8.060511E2,2.0091198E3,2.3752302E3],"tree_param":{"num_deleted":"0","num_feature":"104","num_nodes":"7","size_leaf_vector":"0"}},{"base_weights":[-1.0900209E-1,-2.756178E-1,5.0086226E-2,-2.1143979E-1,-5.4170424E-1,1.4229971E-1,-1.7507204E-1],"categories":[],"categories_nodes":[],"categories_segments":[],"categories_sizes":[],"default_left":[1,1,1,0,0,0,0],"id":70,"left_children":[1,3,5,-1,-1,-1,-1],"loss_changes":[1.6213348E2,5.0904022E1,6.5004074E1,0E0,0E0,0E0,0E0],"parents":[2147483647,0,0,1,1,2,2],"right_children":[2,4,6,-1,-1,-1,-1],"split_conditions":[1.45E1,2.25E1,2.15E1,-2.114398E-3,-5.4170424E-3,1.4229971E-3,-1.7507204E-3],"split_indices":[51,80,103,0,0,0,0],"split_type":[0,0,0,0,0,0,0],"sum_hessian":[6.1151973E3,2.9865764E3,3.128621E3,2.4076614E3,5.789149E2,2.2198503E3,9.087708E2],"tree_param":{"num_deleted":"0","num_feature":"104","num_nodes":"7","size_leaf_vector":"0"}},{"base_weights":[1.0900209E-1,2.756178E-1,-5.0086237E-2,2.1143977E-1,5.417043E-1,-1.4229971E-1,1.75072E-1],"categories":[],"categories_nodes":[],"categories_segments":[],"categories_sizes":[],"default_left":[1,1,1,0,0,0,0],"id":71,"left_children":[1,3,5,-1,-1,-1,-1],"loss_changes":[1.6213348E2,5.0904037E1,6.500405E1,0E0,0E0,0E0,0E0],"parents":[2147483647,0,0,1,1,2,2],"right_children":[2,4,6,-1,-1,-1,-1],"split_conditions":[1.45E1,2.25E1,2.15E1,2.1143977E-3,5.417043E-3,-1.4229971E-3,1.75072E-3],"split_indices":[51,80,103,0,0,0,0],"split_type":[0,0,0,0,0,0,0],"sum_hessian":[6.1151978E3,2.9865764E3,3.128621E3,2.4076616E3,5.789149E2,2.2198503E3,9.087708E2],"tree_param":{"num_deleted":"0","num_feature":"104","num_nodes":"7","size_leaf_vector":"0"}},{"base_weights":[-1.0795158E-1,-2.142122E-1,1.3783608E-1,-1.270835E-1,-4.3213677E-1,-1.1906242E-1,2.0538639E-1],"categories":[],"categories_nodes":[],"categories_segments":[],"categories_sizes":[],"default_left":[1,1,1,0,0,0,0],"id":72,"left_children":[1,3,5,-1,-1,-1,-1],"loss_changes":[1.5971387E2,8.100296E1,3.2059998E1,0E0,0E0,0E0,0E0],"parents":[2147483647,0,0,1,1,2,2],"right_children":[2,4,6,-1,-1,-1,-1],"split_conditions":[1.95E1,1.95E1,3.585E-1,-1.2708349E-3,-4.3213675E-3,-1.1906242E-3,2.0538638E-3],"split_indices":[28,80,55,0,0,0,0],"split_type":[0,0,0,0,0,0,0],"sum_hessian":[6.1130635E3,4.2680146E3,1.845049E3,3.050124E3,1.2178906E3,3.8398074E2,1.4610681E3],"tree_param":{"num_deleted":"0","num_feature":"104","num_nodes":"7","size_leaf_vector":"0"}},{"base_weights":[1.0795158E-1,2.1421221E-1,-1.3783613E-1,1.2708354E-1,4.3213674E-1,1.1906243E-1,-2.0538644E-1],"categories":[],"categories_nodes":[],"categories_segments":[],"categories_sizes":[],"default_left":[1,1,1,0,0,0,0],"id":73,"left_children":[1,3,5,-1,-1,-1,-1],"loss_changes":[1.5971393E2,8.100293E1,3.2060017E1,0E0,0E0,0E0,0E0],"parents":[2147483647,0,0,1,1,2,2],"right_children":[2,4,6,-1,-1,-1,-1],"split_conditions":[1.95E1,1.95E1,3.585E-1,1.2708354E-3,4.3213675E-3,1.1906243E-3,-2.0538643E-3],"split_indices":[28,80,55,0,0,0,0],"split_type":[0,0,0,0,0,0,0],"sum_hessian":[6.1130635E3,4.2680146E3,1.845049E3,3.050124E3,1.2178906E3,3.8398074E2,1.4610681E3],"tree_param":{"num_deleted":"0","num_feature":"104","num_nodes":"7","size_leaf_vector":"0"}},{"base_weights":[-1.0691314E-1,-2.7109528E-1,4.9735475E-2,-1.1880747E-2,-3.361842E-1,-1.5494281E-1,1.4805585E-1],"categories":[],"categories_nodes":[],"categories_segments":[],"categories_sizes":[],"default_left":[1,1,1,0,0,0,0],"id":74,"left_children":[1,3,5,-1,-1,-1,-1],"loss_changes":[1.5720201E2,5.034703E1,6.298094E1,0E0,0E0,0E0,0E0],"parents":[2147483647,0,0,1,1,2,2],"right_children":[2,4,6,-1,-1,-1,-1],"split_conditions":[1.45E1,5.5E0,-1.95E0,-1.1880747E-4,-3.361842E-3,-1.5494281E-3,1.4805585E-3],"split_indices":[51,103,77,0,0,0,0],"split_type":[0,0,0,0,0,0,0],"sum_hessian":[6.1107896E3,2.9832935E3,3.1274958E3,5.9899585E2,2.3842976E3,1.0146578E3,2.1128381E3],"tree_param":{"num_deleted":"0","num_feature":"104","num_nodes":"7","size_leaf_vector":"0"}},{"base_weights":[1.0691312E-1,2.7109525E-1,-4.9735494E-2,1.1880747E-2,3.3618417E-1,1.5494281E-1,-1.4805588E-1],"categories":[],"categories_nodes":[],"categories_segments":[],"categories_sizes":[],"default_left":[1,1,1,0,0,0,0],"id":75,"left_children":[1,3,5,-1,-1,-1,-1],"loss_changes":[1.57202E2,5.0347015E1,6.298095E1,0E0,0E0,0E0,0E0],"parents":[2147483647,0,0,1,1,2,2],"right_children":[2,4,6,-1,-1,-1,-1],"split_conditions":[1.45E1,5.5E0,-1.95E0,1.1880747E-4,3.3618417E-3,1.5494281E-3,-1.4805588E-3],"split_indices":[51,103,77,0,0,0,0],"split_type":[0,0,0,0,0,0,0],"sum_hessian":[6.1107896E3,2.9832935E3,3.127496E3,5.9899585E2,2.3842976E3,1.0146578E3,2.1128381E3],"tree_param":{"num_deleted":"0","num_feature":"104","num_nodes":"7","size_leaf_vector":"0"}},{"base_weights":[-1.0588331E-1,-2.0294483E-1,1.5547194E-1,-1.15888804E-1,-4.1726476E-1,3.8529087E-2,2.8982416E-1],"categories":[],"categories_nodes":[],"categories_segments":[],"categories_sizes":[],"default_left":[1,1,1,0,0,0,0],"id":76,"left_children":[1,3,5,-1,-1,-1,-1],"loss_changes":[1.5501663E2,8.3081726E1,2.5992672E1,0E0,0E0,0E0,0E0],"parents":[2147483647,0,0,1,1,2,2],"right_children":[2,4,6,-1,-1,-1,-1],"split_conditions":[2.05E1,1.95E1,5.135E-1,-1.158888E-3,-4.1726474E-3,3.8529086E-4,2.8982416E-3],"split_indices":[28,80,55,0,0,0,0],"split_type":[0,0,0,0,0,0,0],"sum_hessian":[6.108583E3,4.4545034E3,1.6540798E3,3.1688625E3,1.2856406E3,8.8502405E2,7.6905585E2],"tree_param":{"num_deleted":"0","num_feature":"104","num_nodes":"7","size_leaf_vector":"0"}},{"base_weights":[1.058833E-1,2.0294482E-1,-1.5547192E-1,1.1588877E-1,4.1726476E-1,-3.8529098E-2,-2.898241E-1],"categories":[],"categories_nodes":[],"categories_segments":[],"categories_sizes":[],"default_left":[1,1,1,0,0,0,0],"id":77,"left_children":[1,3,5,-1,-1,-1,-1],"loss_changes":[1.550166E2,8.308176E1,2.5992653E1,0E0,0E0,0E0,0E0],"parents":[2147483647,0,0,1,1,2,2],"right_children":[2,4,6,-1,-1,-1,-1],"split_conditions":[2.05E1,1.95E1,5.135E-1,1.1588876E-3,4.1726474E-3,-3.8529097E-4,-2.898241E-3],"split_indices":[28,80,55,0,0,0,0],"split_type":[0,0,0,0,0,0,0],"sum_hessian":[6.108583E3,4.4545034E3,1.6540798E3,3.1688625E3,1.2856406E3,8.8502405E2,7.6905585E2],"tree_param":{"num_deleted":"0","num_feature":"104","num_nodes":"7","size_leaf_vector":"0"}},{"base_weights":[-1.0486549E-1,1.4645642E-1,-2.0434335E-1,2.8543757E-2,2.8199553E-1,-6.095657E-2,-3.2589555E-1],"categories":[],"categories_nodes":[],"categories_segments":[],"categories_sizes":[],"default_left":[1,1,1,0,0,0,0],"id":78,"left_children":[1,3,5,-1,-1,-1,-1],"loss_changes":[1.527168E2,2.7679424E1,7.624582E1,0E0,0E0,0E0,0E0],"parents":[2147483647,0,0,1,1,2,2],"right_children":[2,4,6,-1,-1,-1,-1],"split_conditions":[-2.45E0,3.5000002E-1,1.15E1,2.8543756E-4,2.8199553E-3,-6.095657E-4,-3.2589554E-3],"split_indices":[25,77,80,0,0,0,0],"split_type":[0,0,0,0,0,0,0],"sum_hessian":[6.1062397E3,1.7314398E3,4.3748003E3,9.2657434E2,8.048654E2,2.0078174E3,2.366983E3],"tree_param":{"num_deleted":"0","num_feature":"104","num_nodes":"7","size_leaf_vector":"0"}},{"base_weights":[1.0486549E-1,-1.4645639E-1,2.0434333E-1,-2.8543776E-2,-2.8199548E-1,6.0956553E-2,3.2589552E-1],"categories":[],"categories_nodes":[],"categories_segments":[],"categories_sizes":[],"default_left":[1,1,1,0,0,0,0],"id":79,"left_children":[1,3,5,-1,-1,-1,-1],"loss_changes":[1.527168E2,2.7679401E1,7.6245834E1,0E0,0E0,0E0,0E0],"parents":[2147483647,0,0,1,1,2,2],"right_children":[2,4,6,-1,-1,-1,-1],"split_conditions":[-2.45E0,3.5000002E-1,1.15E1,-2.8543777E-4,-2.8199547E-3,6.095655E-4,3.2589552E-3],"split_indices":[25,77,80,0,0,0,0],"split_type":[0,0,0,0,0,0,0],"sum_hessian":[6.1062397E3,1.7314398E3,4.3748003E3,9.265743E2,8.048655E2,2.0078174E3,2.366983E3],"tree_param":{"num_deleted":"0","num_feature":"104","num_nodes":"7","size_leaf_vector":"0"}},{"base_weights":[-1.038571E-1,-2.6485473E-1,4.95964E-2,-1.0019022E-2,-3.2896435E-1,1.3855337E-1,-1.6775934E-1],"categories":[],"categories_nodes":[],"categories_segments":[],"categories_sizes":[],"default_left":[1,1,1,0,0,0,0],"id":80,"left_children":[1,3,5,-1,-1,-1,-1],"loss_changes":[1.508388E2,4.8672012E1,6.0475616E1,0E0,0E0,0E0,0E0],"parents":[2147483647,0,0,1,1,2,2],"right_children":[2,4,6,-1,-1,-1,-1],"split_conditions":[1.45E1,5.5E0,2.15E1,-1.0019022E-4,-3.2896434E-3,1.3855336E-3,-1.6775934E-3],"split_indices":[51,103,103,0,0,0,0],"split_type":[0,0,0,0,0,0,0],"sum_hessian":[6.1039053E3,2.9783777E3,3.1255276E3,5.989013E2,2.3794766E3,2.2180933E3,9.0743427E2],"tree_param":{"num_deleted":"0","num_feature":"104","num_nodes":"7","size_leaf_vector":"0"}},{"base_weights":[1.0385709E-1,2.648547E-1,-4.9596384E-2,1.0018939E-2,3.289643E-1,-1.3855335E-1,1.6775934E-1],"categories":[],"categories_nodes":[],"categories_segments":[],"categories_sizes":[],"default_left":[1,1,1,0,0,0,0],"id":81,"left_children":[1,3,5,-1,-1,-1,-1],"loss_changes":[1.5083875E2,4.8672012E1,6.047561E1,0E0,0E0,0E0,0E0],"parents":[2147483647,0,0,1,1,2,2],"right_children":[2,4,6,-1,-1,-1,-1],"split_conditions":[1.45E1,5.5E0,2.15E1,1.0018939E-4,3.2896427E-3,-1.3855335E-3,1.6775934E-3],"split_indices":[51,103,103,0,0,0,0],"split_type":[0,0,0,0,0,0,0],"sum_hessian":[6.1039053E3,2.9783777E3,3.1255276E3,5.989013E2,2.3794766E3,2.2180933E3,9.0743427E2],"tree_param":{"num_deleted":"0","num_feature":"104","num_nodes":"7","size_leaf_vector":"0"}},{"base_weights":[-1.0285853E-1,8.676117E-2,-2.311395E-1,-1.6152667E-1,1.5291567E-1,-3.2179552E-1,-3.6439385E-2],"categories":[],"categories_nodes":[],"categories_segments":[],"categories_sizes":[],"default_left":[1,1,1,0,0,0,0],"id":82,"left_children":[1,3,5,-1,-1,-1,-1],"loss_changes":[1.484633E2,4.0484955E1,6.4242584E1,0E0,0E0,0E0,0E0],"parents":[2147483647,0,0,1,1,2,2],"right_children":[2,4,6,-1,-1,-1,-1],"split_conditions":[4.7149998E-1,3.585E-1,2.95E0,-1.6152667E-3,1.5291567E-3,-3.2179551E-3,-3.6439384E-4],"split_indices":[3,55,77,0,0,0,0],"split_type":[0,0,0,0,0,0,0],"sum_hessian":[6.1015977E3,2.4622798E3,3.6393179E3,5.177277E2,1.9445521E3,2.482682E3,1.156636E3],"tree_param":{"num_deleted":"0","num_feature":"104","num_nodes":"7","size_leaf_vector":"0"}},{"base_weights":[1.0285852E-1,-8.6761184E-2,2.311395E-1,1.615266E-1,-1.5291567E-1,3.2179552E-1,3.6439363E-2],"categories":[],"categories_nodes":[],"categories_segments":[],"categories_sizes":[],"default_left":[1,1,1,0,0,0,0],"id":83,"left_children":[1,3,5,-1,-1,-1,-1],"loss_changes":[1.4846329E2,4.0484932E1,6.42426E1,0E0,0E0,0E0,0E0],"parents":[2147483647,0,0,1,1,2,2],"right_children":[2,4,6,-1,-1,-1,-1],"split_conditions":[4.7149998E-1,3.585E-1,2.95E0,1.615266E-3,-1.5291567E-3,3.2179551E-3,3.643936E-4],"split_indices":[3,55,77,0,0,0,0],"split_type":[0,0,0,0,0,0,0],"sum_hessian":[6.1015977E3,2.4622798E3,3.6393179E3,5.177277E2,1.9445521E3,2.482682E3,1.156636E3],"tree_param":{"num_deleted":"0","num_feature":"104","num_nodes":"7","size_leaf_vector":"0"}},{"base_weights":[-1.0187046E-1,-1.849177E-1,1.8728183E-1,-4.1152205E-2,-3.0610898E-1,-4.0843993E-2,2.4585377E-1],"categories":[],"categories_nodes":[],"categories_segments":[],"categories_sizes":[],"default_left":[1,1,1,0,0,0,0],"id":84,"left_children":[1,3,5,-1,-1,-1,-1],"loss_changes":[1.4652142E2,8.256641E1,1.8203636E1,0E0,0E0,0E0,0E0],"parents":[2147483647,0,0,1,1,2,2],"right_children":[2,4,6,-1,-1,-1,-1],"split_conditions":[2.35E1,1.15E1,3.595E-1,-4.1152205E-4,-3.0610897E-3,-4.0843993E-4,2.4585377E-3],"split_indices":[51,80,55,0,0,0,0],"split_type":[0,0,0,0,0,0,0],"sum_hessian":[6.099237E3,4.738621E3,1.3606156E3,2.1680588E3,2.5705623E3,2.7803363E2,1.082582E3],"tree_param":{"num_deleted":"0","num_feature":"104","num_nodes":"7","size_leaf_vector":"0"}},{"base_weights":[1.0187045E-1,1.8491769E-1,-1.8728186E-1,4.1152213E-2,3.0610895E-1,4.0843926E-2,-2.4585378E-1],"categories":[],"categories_nodes":[],"categories_segments":[],"categories_sizes":[],"default_left":[1,1,1,0,0,0,0],"id":85,"left_children":[1,3,5,-1,-1,-1,-1],"loss_changes":[1.4652144E2,8.256639E1,1.8203632E1,0E0,0E0,0E0,0E0],"parents":[2147483647,0,0,1,1,2,2],"right_children":[2,4,6,-1,-1,-1,-1],"split_conditions":[2.35E1,1.15E1,3.595E-1,4.115221E-4,3.0610894E-3,4.0843926E-4,-2.4585377E-3],"split_indices":[51,80,55,0,0,0,0],"split_type":[0,0,0,0,0,0,0],"sum_hessian":[6.099237E3,4.738621E3,1.3606156E3,2.1680588E3,2.5705623E3,2.7803366E2,1.082582E3],"tree_param":{"num_deleted":"0","num_feature":"104","num_nodes":"7","size_leaf_vector":"0"}},{"base_weights":[-1.008904E-1,-2.5870997E-1,4.935887E-2,-1.9682403E-1,-5.169875E-1,1.6366372E-1,-1.136398E-1],"categories":[],"categories_nodes":[],"categories_segments":[],"categories_sizes":[],"default_left":[1,1,1,0,0,0,0],"id":86,"left_children":[1,3,5,-1,-1,-1,-1],"loss_changes":[1.446088E2,4.743721E1,5.823718E1,0E0,0E0,0E0,0E0],"parents":[2147483647,0,0,1,1,2,2],"right_children":[2,4,6,-1,-1,-1,-1],"split_conditions":[1.45E1,2.25E1,1.75E1,-1.9682401E-3,-5.169875E-3,1.6366371E-3,-1.136398E-3],"split_indices":[51,80,81,0,0,0,0],"split_type":[0,0,0,0,0,0,0],"sum_hessian":[6.0969395E3,2.9732065E3,3.1237332E3,2.3999226E3,5.732839E2,1.8361243E3,1.287609E3],"tree_param":{"num_deleted":"0","num_feature":"104","num_nodes":"7","size_leaf_vector":"0"}},{"base_weights":[1.0089037E-1,2.5870994E-1,-4.9358893E-2,1.96824E-1,5.1698744E-1,-1.6366374E-1,1.13639794E-1],"categories":[],"categories_nodes":[],"categories_segments":[],"categories_sizes":[],"default_left":[1,1,1,0,0,0,0],"id":87,"left_children":[1,3,5,-1,-1,-1,-1],"loss_changes":[1.4460878E2,4.7437195E1,5.8237194E1,0E0,0E0,0E0,0E0],"parents":[2147483647,0,0,1,1,2,2],"right_children":[2,4,6,-1,-1,-1,-1],"split_conditions":[1.45E1,2.25E1,1.75E1,1.96824E-3,5.1698745E-3,-1.6366374E-3,1.136398E-3],"split_indices":[51,80,81,0,0,0,0],"split_type":[0,0,0,0,0,0,0],"sum_hessian":[6.09694E3,2.9732065E3,3.1237332E3,2.3999226E3,5.7328394E2,1.8361243E3,1.2876089E3],"tree_param":{"num_deleted":"0","num_feature":"104","num_nodes":"7","size_leaf_vector":"0"}},{"base_weights":[-9.992245E-2,-1.9313127E-1,1.5066543E-1,-1.08977236E-1,-4.012136E-1,3.85507E-2,2.796851E-1],"categories":[],"categories_nodes":[],"categories_segments":[],"categories_sizes":[],"default_left":[1,1,1,0,0,0,0],"id":88,"left_children":[1,3,5,-1,-1,-1,-1],"loss_changes":[1.4240266E2,7.776416E1,2.3902199E1,0E0,0E0,0E0,0E0],"parents":[2147483647,0,0,1,1,2,2],"right_children":[2,4,6,-1,-1,-1,-1],"split_conditions":[2.05E1,1.95E1,5.135E-1,-1.0897723E-3,-4.012136E-3,3.85507E-4,2.796851E-3],"split_indices":[28,80,55,0,0,0,0],"split_type":[0,0,0,0,0,0,0],"sum_hessian":[6.0945415E3,4.4423804E3,1.6521611E3,3.1642124E3,1.278168E3,8.846886E2,7.674726E2],"tree_param":{"num_deleted":"0","num_feature":"104","num_nodes":"7","size_leaf_vector":"0"}},{"base_weights":[9.992243E-2,1.9313125E-1,-1.5066546E-1,1.0897722E-1,4.0121362E-1,-3.855072E-2,-2.7968514E-1],"categories":[],"categories_nodes":[],"categories_segments":[],"categories_sizes":[],"default_left":[1,1,1,0,0,0,0],"id":89,"left_children":[1,3,5,-1,-1,-1,-1],"loss_changes":[1.4240266E2,7.7764175E1,2.3902203E1,0E0,0E0,0E0,0E0],"parents":[2147483647,0,0,1,1,2,2],"right_children":[2,4,6,-1,-1,-1,-1],"split_conditions":[2.05E1,1.95E1,5.135E-1,1.0897722E-3,4.0121363E-3,-3.8550718E-4,-2.7968513E-3],"split_indices":[28,80,55,0,0,0,0],"split_type":[0,0,0,0,0,0,0],"sum_hessian":[6.0945415E3,4.4423804E3,1.6521613E3,3.1642124E3,1.278168E3,8.846886E2,7.674726E2],"tree_param":{"num_deleted":"0","num_feature":"104","num_nodes":"7","size_leaf_vector":"0"}},{"base_weights":[-9.896479E-2,-2.545645E-1,4.9054865E-2,-6.199288E-3,-3.1725147E-1,-7.853488E-2,1.9104123E-1],"categories":[],"categories_nodes":[],"categories_segments":[],"categories_sizes":[],"default_left":[1,1,1,0,0,0,0],"id":90,"left_children":[1,3,5,-1,-1,-1,-1],"loss_changes":[1.4034604E2,4.6248367E1,5.6598747E1,0E0,0E0,0E0,0E0],"parents":[2147483647,0,0,1,1,2,2],"right_children":[2,4,6,-1,-1,-1,-1],"split_conditions":[1.45E1,5.5E0,3.5000002E-1,-6.199288E-5,-3.1725147E-3,-7.8534876E-4,1.9104122E-3],"split_indices":[51,103,77,0,0,0,0],"split_type":[0,0,0,0,0,0,0],"sum_hessian":[6.0920303E3,2.9696184E3,3.1224119E3,5.986946E2,2.3709238E3,1.6448169E3,1.4775948E3],"tree_param":{"num_deleted":"0","num_feature":"104","num_nodes":"7","size_leaf_vector":"0"}},{"base_weights":[9.896479E-2,2.5456452E-1,-4.9054883E-2,6.199287E-3,3.1725147E-1,7.8534864E-2,-1.9104125E-1],"categories":[],"categories_nodes":[],"categories_segments":[],"categories_sizes":[],"default_left":[1,1,1,0,0,0,0],"id":91,"left_children":[1,3,5,-1,-1,-1,-1],"loss_changes":[1.4034607E2,4.6248352E1,5.6598747E1,0E0,0E0,0E0,0E0],"parents":[2147483647,0,0,1,1,2,2],"right_children":[2,4,6,-1,-1,-1,-1],"split_conditions":[1.45E1,5.5E0,3.5000002E-1,6.199287E-5,3.1725147E-3,7.8534865E-4,-1.9104125E-3],"split_indices":[51,103,77,0,0,0,0],"split_type":[0,0,0,0,0,0,0],"sum_hessian":[6.0920303E3,2.9696184E3,3.1224119E3,5.986946E2,2.3709238E3,1.6448169E3,1.4775948E3],"tree_param":{"num_deleted":"0","num_feature":"104","num_nodes":"7","size_leaf_vector":"0"}},{"base_weights":[-9.80147E-2,-1.7894158E-1,1.834883E-1,-3.8675882E-2,-2.9744858E-1,-3.8421515E-2,2.4050786E-1],"categories":[],"categories_nodes":[],"categories_segments":[],"categories_sizes":[],"default_left":[1,1,1,0,0,0,0],"id":92,"left_children":[1,3,5,-1,-1,-1,-1],"loss_changes":[1.3878427E2,7.863197E1,1.7223507E1,0E0,0E0,0E0,0E0],"parents":[2147483647,0,0,1,1,2,2],"right_children":[2,4,6,-1,-1,-1,-1],"split_conditions":[2.35E1,1.15E1,3.595E-1,-3.8675882E-4,-2.9744857E-3,-3.8421515E-4,2.4050786E-3],"split_indices":[51,80,55,0,0,0,0],"split_type":[0,0,0,0,0,0,0],"sum_hessian":[6.0896226E3,4.7301553E3,1.3594674E3,2.1668196E3,2.5633357E3,2.7797302E2,1.0814944E3],"tree_param":{"num_deleted":"0","num_feature":"104","num_nodes":"7","size_leaf_vector":"0"}},{"base_weights":[9.80147E-2,1.7894158E-1,-1.8348828E-1,3.867586E-2,2.974486E-1,3.8421493E-2,-2.4050784E-1],"categories":[],"categories_nodes":[],"categories_segments":[],"categories_sizes":[],"default_left":[1,1,1,0,0,0,0],"id":93,"left_children":[1,3,5,-1,-1,-1,-1],"loss_changes":[1.3878426E2,7.863199E1,1.72235E1,0E0,0E0,0E0,0E0],"parents":[2147483647,0,0,1,1,2,2],"right_children":[2,4,6,-1,-1,-1,-1],"split_conditions":[2.35E1,1.15E1,3.595E-1,3.867586E-4,2.974486E-3,3.8421492E-4,-2.4050784E-3],"split_indices":[51,80,55,0,0,0,0],"split_type":[0,0,0,0,0,0,0],"sum_hessian":[6.0896226E3,4.7301553E3,1.3594674E3,2.1668196E3,2.5633357E3,2.7797302E2,1.0814944E3],"tree_param":{"num_deleted":"0","num_feature":"104","num_nodes":"7","size_leaf_vector":"0"}},{"base_weights":[-9.707343E-2,-2.2156888E-1,8.3260104E-2,-3.1204933E-1,-3.5761107E-2,1.542628E-1,-1.2777379E-1],"categories":[],"categories_nodes":[],"categories_segments":[],"categories_sizes":[],"default_left":[1,1,1,0,0,0,0],"id":94,"left_children":[1,3,5,-1,-1,-1,-1],"loss_changes":[1.3670335E2,6.054561E1,3.72882E1,0E0,0E0,0E0,0E0],"parents":[2147483647,0,0,1,1,2,2],"right_children":[2,4,6,-1,-1,-1,-1],"split_conditions":[1.65E1,2.85E0,2.15E1,-3.1204931E-3,-3.5761105E-4,1.5426279E-3,-1.2777379E-3],"split_indices":[27,77,80,0,0,0,0],"split_type":[0,0,0,0,0,0,0],"sum_hessian":[6.0872236E3,3.6010005E3,2.4862231E3,2.421267E3,1.1797333E3,1.8605181E3,6.257052E2],"tree_param":{"num_deleted":"0","num_feature":"104","num_nodes":"7","size_leaf_vector":"0"}},{"base_weights":[9.707341E-2,2.2156887E-1,-8.326012E-2,3.1204936E-1,3.5761066E-2,-1.5426283E-1,1.2777384E-1],"categories":[],"categories_nodes":[],"categories_segments":[],"categories_sizes":[],"default_left":[1,1,1,0,0,0,0],"id":95,"left_children":[1,3,5,-1,-1,-1,-1],"loss_changes":[1.3670337E2,6.0545593E1,3.7288216E1,0E0,0E0,0E0,0E0],"parents":[2147483647,0,0,1,1,2,2],"right_children":[2,4,6,-1,-1,-1,-1],"split_conditions":[1.65E1,2.85E0,2.15E1,3.1204936E-3,3.5761064E-4,-1.5426283E-3,1.2777384E-3],"split_indices":[27,77,80,0,0,0,0],"split_type":[0,0,0,0,0,0,0],"sum_hessian":[6.0872236E3,3.6010005E3,2.4862231E3,2.421267E3,1.1797333E3,1.860518E3,6.257052E2],"tree_param":{"num_deleted":"0","num_feature":"104","num_nodes":"7","size_leaf_vector":"0"}},{"base_weights":[-9.614294E-2,4.766434E-3,-3.158188E-1,-1.9762257E-1,9.847331E-2,-3.7488404E-1,-6.7315646E-2],"categories":[],"categories_nodes":[],"categories_segments":[],"categories_sizes":[],"default_left":[1,1,1,0,0,0,0],"id":96,"left_children":[1,3,5,-1,-1,-1,-1],"loss_changes":[1.3490627E2,7.912615E1,2.8091736E1,0E0,0E0,0E0,0E0],"parents":[2147483647,0,0,1,1,2,2],"right_children":[2,4,6,-1,-1,-1,-1],"split_conditions":[2.75E0,-1.95E0,5.05E0,-1.9762255E-3,9.847331E-4,-3.7488404E-3,-6.7315646E-4],"split_indices":[25,77,77,0,0,0,0],"split_type":[0,0,0,0,0,0,0],"sum_hessian":[6.0847407E3,4.1701406E3,1.9146001E3,1.3193934E3,2.8507473E3,1.5465105E3,3.6808957E2],"tree_param":{"num_deleted":"0","num_feature":"104","num_nodes":"7","size_leaf_vector":"0"}},{"base_weights":[9.614294E-2,-4.7664396E-3,3.158188E-1,1.9762257E-1,-9.847332E-2,3.7488404E-1,6.731565E-2],"categories":[],"categories_nodes":[],"categories_segments":[],"categories_sizes":[],"default_left":[1,1,1,0,0,0,0],"id":97,"left_children":[1,3,5,-1,-1,-1,-1],"loss_changes":[1.3490628E2,7.912616E1,2.8091751E1,0E0,0E0,0E0,0E0],"parents":[2147483647,0,0,1,1,2,2],"right_children":[2,4,6,-1,-1,-1,-1],"split_conditions":[2.75E0,-1.95E0,5.05E0,1.9762255E-3,-9.847331E-4,3.7488404E-3,6.731565E-4],"split_indices":[25,77,77,0,0,0,0],"split_type":[0,0,0,0,0,0,0],"sum_hessian":[6.084741E3,4.1701406E3,1.9146001E3,1.3193934E3,2.8507473E3,1.5465106E3,3.6808957E2],"tree_param":{"num_deleted":"0","num_feature":"104","num_nodes":"7","size_leaf_vector":"0"}},{"base_weights":[-9.521718E-2,-1.7468372E-1,1.8100749E-1,-3.7179038E-2,-2.9106393E-1,-3.51538E-2,2.3657116E-1],"categories":[],"categories_nodes":[],"categories_segments":[],"categories_sizes":[],"default_left":[1,1,1,0,0,0,0],"id":98,"left_children":[1,3,5,-1,-1,-1,-1],"loss_changes":[1.335694E2,7.5601074E1,1.633863E1,0E0,0E0,0E0,0E0],"parents":[2147483647,0,0,1,1,2,2],"right_children":[2,4,6,-1,-1,-1,-1],"split_conditions":[2.35E1,1.15E1,3.595E-1,-3.7179037E-4,-2.9106394E-3,-3.5153798E-4,2.3657116E-3],"split_indices":[51,80,55,0,0,0,0],"split_type":[0,0,0,0,0,0,0],"sum_hessian":[6.0825547E3,4.72391E3,1.3586449E3,2.1660337E3,2.5578765E3,2.7789764E2,1.0807472E3],"tree_param":{"num_deleted":"0","num_feature":"104","num_nodes":"7","size_leaf_vector":"0"}},{"base_weights":[9.521718E-2,1.7468372E-1,-1.8100747E-1,3.717905E-2,2.910639E-1,3.5153784E-2,-2.3657116E-1],"categories":[],"categories_nodes":[],"categories_segments":[],"categories_sizes":[],"default_left":[1,1,1,0,0,0,0],"id":99,"left_children":[1,3,5,-1,-1,-1,-1],"loss_changes":[1.335694E2,7.560106E1,1.6338627E1,0E0,0E0,0E0,0E0],"parents":[2147483647,0,0,1,1,2,2],"right_children":[2,4,6,-1,-1,-1,-1],"split_conditions":[2.35E1,1.15E1,3.595E-1,3.717905E-4,2.910639E-3,3.5153783E-4,-2.3657116E-3],"split_indices":[51,80,55,0,0,0,0],"split_type":[0,0,0,0,0,0,0],"sum_hessian":[6.0825547E3,4.72391E3,1.3586449E3,2.1660337E3,2.5578765E3,2.778976E2,1.0807472E3],"tree_param":{"num_deleted":"0","num_feature":"104","num_nodes":"7","size_leaf_vector":"0"}},{"base_weights":[-9.4303876E-2,-2.4528164E-1,4.903591E-2,-1.8524098E-1,-4.974243E-1,1.3239203E-1,-1.5489128E-1],"categories":[],"categories_nodes":[],"categories_segments":[],"categories_sizes":[],"default_left":[1,1,1,0,0,0,0],"id":100,"left_children":[1,3,5,-1,-1,-1,-1],"loss_changes":[1.3161359E2,4.4746033E1,5.3060898E1,0E0,0E0,0E0,0E0],"parents":[2147483647,0,0,1,1,2,2],"right_children":[2,4,6,-1,-1,-1,-1],"split_conditions":[1.45E1,2.25E1,2.15E1,-1.8524098E-3,-4.9742428E-3,1.3239203E-3,-1.5489128E-3],"split_indices":[51,80,103,0,0,0,0],"split_type":[0,0,0,0,0,0,0],"sum_hessian":[6.080088E3,2.960804E3,3.119284E3,2.3927686E3,5.6803546E2,2.2144634E3,9.0482056E2],"tree_param":{"num_deleted":"0","num_feature":"104","num_nodes":"7","size_leaf_vector":"0"}},{"base_weights":[9.4303876E-2,2.4528165E-1,-4.9035918E-2,1.85241E-1,4.9742436E-1,-1.3239203E-1,1.5489127E-1],"categories":[],"categories_nodes":[],"categories_segments":[],"categories_sizes":[],"default_left":[1,1,1,0,0,0,0],"id":101,"left_children":[1,3,5,-1,-1,-1,-1],"loss_changes":[1.316136E2,4.4746048E1,5.306089E1,0E0,0E0,0E0,0E0],"parents":[2147483647,0,0,1,1,2,2],"right_children":[2,4,6,-1,-1,-1,-1],"split_conditions":[1.45E1,2.25E1,2.15E1,1.8524099E-3,4.9742437E-3,-1.3239203E-3,1.5489126E-3],"split_indices":[51,80,103,0,0,0,0],"split_type":[0,0,0,0,0,0,0],"sum_hessian":[6.080088E3,2.960804E3,3.119284E3,2.3927686E3,5.6803546E2,2.2144634E3,9.048206E2],"tree_param":{"num_deleted":"0","num_feature":"104","num_nodes":"7","size_leaf_vector":"0"}},{"base_weights":[-9.3401715E-2,-1.8263207E-1,1.4602925E-1,-9.8630324E-2,-3.7744838E-1,3.9104823E-2,2.692972E-1],"categories":[],"categories_nodes":[],"categories_segments":[],"categories_sizes":[],"default_left":[1,1,1,0,0,0,0],"id":102,"left_children":[1,3,5,-1,-1,-1,-1],"loss_changes":[1.2989175E2,7.243782E1,2.1748363E1,0E0,0E0,0E0,0E0],"parents":[2147483647,0,0,1,1,2,2],"right_children":[2,4,6,-1,-1,-1,-1],"split_conditions":[2.05E1,2.05E1,5.135E-1,-9.863032E-4,-3.7744837E-3,3.9104823E-4,2.692972E-3],"split_indices":[28,103,55,0,0,0,0],"split_type":[0,0,0,0,0,0,0],"sum_hessian":[6.0775425E3,4.4276846E3,1.649858E3,3.0947727E3,1.3329116E3,8.8420386E2,7.656542E2],"tree_param":{"num_deleted":"0","num_feature":"104","num_nodes":"7","size_leaf_vector":"0"}},{"base_weights":[9.3401715E-2,1.8263209E-1,-1.4602925E-1,9.8630324E-2,3.7744838E-1,-3.910482E-2,-2.6929718E-1],"categories":[],"categories_nodes":[],"categories_segments":[],"categories_sizes":[],"default_left":[1,1,1,0,0,0,0],"id":103,"left_children":[1,3,5,-1,-1,-1,-1],"loss_changes":[1.2989175E2,7.243782E1,2.1748367E1,0E0,0E0,0E0,0E0],"parents":[2147483647,0,0,1,1,2,2],"right_children":[2,4,6,-1,-1,-1,-1],"split_conditions":[2.05E1,2.05E1,5.135E-1,9.863032E-4,3.7744837E-3,-3.9104818E-4,-2.6929718E-3],"split_indices":[28,103,55,0,0,0,0],"split_type":[0,0,0,0,0,0,0],"sum_hessian":[6.0775425E3,4.4276846E3,1.649858E3,3.0947727E3,1.3329116E3,8.842039E2,7.656542E2],"tree_param":{"num_deleted":"0","num_feature":"104","num_nodes":"7","size_leaf_vector":"0"}},{"base_weights":[-9.250818E-2,6.1435774E-3,-3.0760875E-1,-1.9065653E-1,9.7134404E-2,-3.658059E-1,-6.345928E-2],"categories":[],"categories_nodes":[],"categories_segments":[],"categories_sizes":[],"default_left":[1,1,1,0,0,0,0],"id":104,"left_children":[1,3,5,-1,-1,-1,-1],"loss_changes":[1.2893346E2,7.462777E1,2.7121979E1,0E0,0E0,0E0,0E0],"parents":[2147483647,0,0,1,1,2,2],"right_children":[2,4,6,-1,-1,-1,-1],"split_conditions":[2.75E0,-1.95E0,5.05E0,-1.9065653E-3,9.71344E-4,-3.6580588E-3,-6.345928E-4],"split_indices":[25,77,77,0,0,0,0],"split_type":[0,0,0,0,0,0,0],"sum_hessian":[6.074932E3,4.165484E3,1.909448E3,1.3166543E3,2.8488296E3,1.5415057E3,3.6794232E2],"tree_param":{"num_deleted":"0","num_feature":"104","num_nodes":"7","size_leaf_vector":"0"}},{"base_weights":[9.250818E-2,-6.143569E-3,3.0760872E-1,1.9065657E-1,-9.713441E-2,3.658059E-1,6.345928E-2],"categories":[],"categories_nodes":[],"categories_segments":[],"categories_sizes":[],"default_left":[1,1,1,0,0,0,0],"id":105,"left_children":[1,3,5,-1,-1,-1,-1],"loss_changes":[1.2893343E2,7.462779E1,2.7121979E1,0E0,0E0,0E0,0E0],"parents":[2147483647,0,0,1,1,2,2],"right_children":[2,4,6,-1,-1,-1,-1],"split_conditions":[2.75E0,-1.95E0,5.05E0,1.9065657E-3,-9.7134407E-4,3.6580588E-3,6.345928E-4],"split_indices":[25,77,77,0,0,0,0],"split_type":[0,0,0,0,0,0,0],"sum_hessian":[6.074932E3,4.165484E3,1.9094481E3,1.3166543E3,2.8488296E3,1.5415057E3,3.6794232E2],"tree_param":{"num_deleted":"0","num_feature":"104","num_nodes":"7","size_leaf_vector":"0"}},{"base_weights":[-9.161886E-2,-1.6917676E-1,1.7771783E-1,-2.5443646E-1,1.17586395E-2,7.896506E-2,2.9241565E-1],"categories":[],"categories_nodes":[],"categories_segments":[],"categories_sizes":[],"default_left":[1,1,1,0,0,0,0],"id":106,"left_children":[1,3,5,-1,-1,-1,-1],"loss_changes":[1.2690379E2,7.2757935E1,1.536338E1,0E0,0E0,0E0,0E0],"parents":[2147483647,0,0,1,1,2,2],"right_children":[2,4,6,-1,-1,-1,-1],"split_conditions":[2.35E1,2.85E0,3.5000002E-1,-2.5443647E-3,1.17586394E-4,7.896506E-4,2.9241564E-3],"split_indices":[51,77,77,0,0,0,0],"split_type":[0,0,0,0,0,0,0],"sum_hessian":[6.0726553E3,4.715234E3,1.3574215E3,3.2047144E3,1.5105197E3,7.3031866E2,6.2710284E2],"tree_param":{"num_deleted":"0","num_feature":"104","num_nodes":"7","size_leaf_vector":"0"}},{"base_weights":[9.161887E-2,1.6917676E-1,-1.777178E-1,2.5443646E-1,-1.175866E-2,-7.896508E-2,-2.924156E-1],"categories":[],"categories_nodes":[],"categories_segments":[],"categories_sizes":[],"default_left":[1,1,1,0,0,0,0],"id":107,"left_children":[1,3,5,-1,-1,-1,-1],"loss_changes":[1.2690378E2,7.2757965E1,1.5363365E1,0E0,0E0,0E0,0E0],"parents":[2147483647,0,0,1,1,2,2],"right_children":[2,4,6,-1,-1,-1,-1],"split_conditions":[2.35E1,2.85E0,3.5000002E-1,2.5443647E-3,-1.175866E-4,-7.8965083E-4,-2.924156E-3],"split_indices":[51,77,77,0,0,0,0],"split_type":[0,0,0,0,0,0,0],"sum_hessian":[6.0726553E3,4.715234E3,1.3574215E3,3.2047144E3,1.5105197E3,7.3031866E2,6.2710284E2],"tree_param":{"num_deleted":"0","num_feature":"104","num_nodes":"7","size_leaf_vector":"0"}},{"base_weights":[-9.0739645E-2,6.67429E-3,-3.033532E-1,-1.8746988E-1,9.6383326E-2,-3.607578E-1,-6.294719E-2],"categories":[],"categories_nodes":[],"categories_segments":[],"categories_sizes":[],"default_left":[1,1,1,0,0,0,0],"id":108,"left_children":[1,3,5,-1,-1,-1,-1],"loss_changes":[1.25745605E2,7.2549644E1,2.630371E1,0E0,0E0,0E0,0E0],"parents":[2147483647,0,0,1,1,2,2],"right_children":[2,4,6,-1,-1,-1,-1],"split_conditions":[2.75E0,-1.95E0,5.05E0,-1.8746988E-3,9.6383324E-4,-3.6075779E-3,-6.294719E-4],"split_indices":[25,77,77,0,0,0,0],"split_type":[0,0,0,0,0,0,0],"sum_hessian":[6.0701895E3,4.1635356E3,1.906654E3,1.3155004E3,2.8480354E3,1.5387319E3,3.6792203E2],"tree_param":{"num_deleted":"0","num_feature":"104","num_nodes":"7","size_leaf_vector":"0"}},{"base_weights":[9.073965E-2,-6.6742906E-3,3.033532E-1,1.8746987E-1,-9.638331E-2,3.607578E-1,6.294719E-2],"categories":[],"categories_nodes":[],"categories_segments":[],"categories_sizes":[],"default_left":[1,1,1,0,0,0,0],"id":109,"left_children":[1,3,5,-1,-1,-1,-1],"loss_changes":[1.2574561E2,7.254963E1,2.630368E1,0E0,0E0,0E0,0E0],"parents":[2147483647,0,0,1,1,2,2],"right_children":[2,4,6,-1,-1,-1,-1],"split_conditions":[2.75E0,-1.95E0,5.05E0,1.8746987E-3,-9.6383307E-4,3.6075779E-3,6.294719E-4],"split_indices":[25,77,77,0,0,0,0],"split_type":[0,0,0,0,0,0,0],"sum_hessian":[6.0701895E3,4.1635356E3,1.906654E3,1.3155004E3,2.8480354E3,1.538732E3,3.6792203E2],"tree_param":{"num_deleted":"0","num_feature":"104","num_nodes":"7","size_leaf_vector":"0"}},{"base_weights":[-8.9868054E-2,-1.8401782E-1,1.2673357E-1,-1.0537338E-1,-3.8363245E-1,1.775413E-1,-1.4493337E-1],"categories":[],"categories_nodes":[],"categories_segments":[],"categories_sizes":[],"default_left":[1,1,1,0,0,0,0],"id":110,"left_children":[1,3,5,-1,-1,-1,-1],"loss_changes":[1.2378569E2,6.637343E1,2.5413254E1,0E0,0E0,0E0,0E0],"parents":[2147483647,0,0,1,1,2,2],"right_children":[2,4,6,-1,-1,-1,-1],"split_conditions":[1.95E1,1.95E1,2.55E1,-1.0537338E-3,-3.8363244E-3,1.7754129E-3,-1.4493337E-3],"split_indices":[28,80,103,0,0,0,0],"split_type":[0,0,0,0,0,0,0],"sum_hessian":[6.067868E3,4.2295635E3,1.8383049E3,3.0352566E3,1.1943066E3,1.5489613E3,2.893436E2],"tree_param":{"num_deleted":"0","num_feature":"104","num_nodes":"7","size_leaf_vector":"0"}},{"base_weights":[8.986805E-2,1.840178E-1,-1.2673356E-1,1.0537336E-1,3.8363242E-1,-1.7754129E-1,1.4493337E-1],"categories":[],"categories_nodes":[],"categories_segments":[],"categories_sizes":[],"default_left":[1,1,1,0,0,0,0],"id":111,"left_children":[1,3,5,-1,-1,-1,-1],"loss_changes":[1.2378567E2,6.637343E1,2.5413256E1,0E0,0E0,0E0,0E0],"parents":[2147483647,0,0,1,1,2,2],"right_children":[2,4,6,-1,-1,-1,-1],"split_conditions":[1.95E1,1.95E1,2.55E1,1.0537336E-3,3.8363242E-3,-1.7754128E-3,1.4493337E-3],"split_indices":[28,80,103,0,0,0,0],"split_type":[0,0,0,0,0,0,0],"sum_hessian":[6.067868E3,4.2295635E3,1.8383048E3,3.0352566E3,1.1943066E3,1.5489612E3,2.893436E2],"tree_param":{"num_deleted":"0","num_feature":"104","num_nodes":"7","size_leaf_vector":"0"}},{"base_weights":[-8.9010365E-2,7.099945E-3,-2.9899618E-1,1.1299606E-1,-1.525936E-1,-3.5299385E-1,-4.853499E-2],"categories":[],"categories_nodes":[],"categories_segments":[],"categories_sizes":[],"default_left":[1,1,1,0,0,0,0],"id":112,"left_children":[1,3,5,-1,-1,-1,-1],"loss_changes":[1.2242821E2,7.040797E1,2.5742935E1,0E0,0E0,0E0,0E0],"parents":[2147483647,0,0,1,1,2,2],"right_children":[2,4,6,-1,-1,-1,-1],"split_conditions":[2.75E0,1.65E1,5.45E0,1.1299605E-3,-1.525936E-3,-3.5299384E-3,-4.8534988E-4],"split_indices":[25,80,77,0,0,0,0],"split_type":[0,0,0,0,0,0,0],"sum_hessian":[6.0651626E3,4.161441E3,1.9037216E3,2.5023638E3,1.6590771E3,1.5657479E3,3.3797366E2],"tree_param":{"num_deleted":"0","num_feature":"104","num_nodes":"7","size_leaf_vector":"0"}},{"base_weights":[8.901038E-2,-7.0999307E-3,2.9899618E-1,-1.1299604E-1,1.525936E-1,3.5299385E-1,4.8535E-2],"categories":[],"categories_nodes":[],"categories_segments":[],"categories_sizes":[],"default_left":[1,1,1,0,0,0,0],"id":113,"left_children":[1,3,5,-1,-1,-1,-1],"loss_changes":[1.2242819E2,7.040796E1,2.5742935E1,0E0,0E0,0E0,0E0],"parents":[2147483647,0,0,1,1,2,2],"right_children":[2,4,6,-1,-1,-1,-1],"split_conditions":[2.75E0,1.65E1,5.45E0,-1.1299604E-3,1.525936E-3,3.5299384E-3,4.8535E-4],"split_indices":[25,80,77,0,0,0,0],"split_type":[0,0,0,0,0,0,0],"sum_hessian":[6.0651626E3,4.161441E3,1.9037216E3,2.5023638E3,1.6590771E3,1.5657479E3,3.3797366E2],"tree_param":{"num_deleted":"0","num_feature":"104","num_nodes":"7","size_leaf_vector":"0"}},{"base_weights":[-8.815619E-2,-1.6398813E-1,1.7492265E-1,-2.4750961E-1,1.287552E-2,-2.8820924E-2,2.2735909E-1],"categories":[],"categories_nodes":[],"categories_segments":[],"categories_sizes":[],"default_left":[1,1,1,0,0,0,0],"id":114,"left_children":[1,3,5,-1,-1,-1,-1],"loss_changes":[1.2099974E2,6.9542175E1,1.45070305E1,0E0,0E0,0E0,0E0],"parents":[2147483647,0,0,1,1,2,2],"right_children":[2,4,6,-1,-1,-1,-1],"split_conditions":[2.35E1,2.85E0,3.595E-1,-2.4750961E-3,1.287552E-4,-2.8820924E-4,2.2735908E-3],"split_indices":[51,77,55,0,0,0,0],"split_type":[0,0,0,0,0,0,0],"sum_hessian":[6.06278E3,4.7065137E3,1.3562662E3,3.1965747E3,1.5099388E3,2.777008E2,1.0785654E3],"tree_param":{"num_deleted":"0","num_feature":"104","num_nodes":"7","size_leaf_vector":"0"}},{"base_weights":[8.8156186E-2,1.6398813E-1,-1.7492267E-1,2.4750963E-1,-1.2875548E-2,2.8820928E-2,-2.2735913E-1],"categories":[],"categories_nodes":[],"categories_segments":[],"categories_sizes":[],"default_left":[1,1,1,0,0,0,0],"id":115,"left_children":[1,3,5,-1,-1,-1,-1],"loss_changes":[1.2099976E2,6.954222E1,1.4507034E1,0E0,0E0,0E0,0E0],"parents":[2147483647,0,0,1,1,2,2],"right_children":[2,4,6,-1,-1,-1,-1],"split_conditions":[2.35E1,2.85E0,3.595E-1,2.4750961E-3,-1.2875548E-4,2.8820927E-4,-2.2735912E-3],"split_indices":[51,77,55,0,0,0,0],"split_type":[0,0,0,0,0,0,0],"sum_hessian":[6.06278E3,4.7065137E3,1.3562662E3,3.1965747E3,1.5099388E3,2.777008E2,1.0785654E3],"tree_param":{"num_deleted":"0","num_feature":"104","num_nodes":"7","size_leaf_vector":"0"}},{"base_weights":[-8.7311335E-2,7.5950525E-3,-2.9488114E-1,-1.816004E-1,9.490434E-2,-3.481633E-1,-4.81813E-2],"categories":[],"categories_nodes":[],"categories_segments":[],"categories_sizes":[],"default_left":[1,1,1,0,0,0,0],"id":116,"left_children":[1,3,5,-1,-1,-1,-1],"loss_changes":[1.19407234E2,6.8741295E1,2.498227E1,0E0,0E0,0E0,0E0],"parents":[2147483647,0,0,1,1,2,2],"right_children":[2,4,6,-1,-1,-1,-1],"split_conditions":[2.75E0,-1.95E0,5.45E0,-1.816004E-3,9.490434E-4,-3.481633E-3,-4.8181298E-4],"split_indices":[25,77,77,0,0,0,0],"split_type":[0,0,0,0,0,0,0],"sum_hessian":[6.06026E3,4.159425E3,1.9008351E3,1.3130411E3,2.8463833E3,1.5628748E3,3.3796045E2],"tree_param":{"num_deleted":"0","num_feature":"104","num_nodes":"7","size_leaf_vector":"0"}},{"base_weights":[8.7311335E-2,-7.595053E-3,2.9488114E-1,1.8160042E-1,-9.4904356E-2,3.481633E-1,4.81813E-2],"categories":[],"categories_nodes":[],"categories_segments":[],"categories_sizes":[],"default_left":[1,1,1,0,0,0,0],"id":117,"left_children":[1,3,5,-1,-1,-1,-1],"loss_changes":[1.19407234E2,6.874131E1,2.4982285E1,0E0,0E0,0E0,0E0],"parents":[2147483647,0,0,1,1,2,2],"right_children":[2,4,6,-1,-1,-1,-1],"split_conditions":[2.75E0,-1.95E0,5.45E0,1.8160042E-3,-9.4904355E-4,3.481633E-3,4.8181298E-4],"split_indices":[25,77,77,0,0,0,0],"split_type":[0,0,0,0,0,0,0],"sum_hessian":[6.06026E3,4.159425E3,1.9008351E3,1.3130413E3,2.8463833E3,1.5628746E3,3.3796045E2],"tree_param":{"num_deleted":"0","num_feature":"104","num_nodes":"7","size_leaf_vector":"0"}},{"base_weights":[-8.647374E-2,1.34813E-1,-1.7455864E-1,8.900588E-2,4.063078E-1,-1.1513674E-1,-4.1219988E-1],"categories":[],"categories_nodes":[],"categories_segments":[],"categories_sizes":[],"default_left":[1,1,1,0,0,0,0],"id":118,"left_children":[1,3,5,-1,-1,-1,-1],"loss_changes":[1.1812309E2,2.1424786E1,6.1156326E1,0E0,0E0,0E0,0E0],"parents":[2147483647,0,0,1,1,2,2],"right_children":[2,4,6,-1,-1,-1,-1],"split_conditions":[-2.45E0,3.45E1,2.25E1,8.9005876E-4,4.0630777E-3,-1.1513674E-3,-4.121999E-3],"split_indices":[25,53,80,0,0,0,0],"split_type":[0,0,0,0,0,0,0],"sum_hessian":[6.0578667E3,1.7246567E3,4.33321E3,1.4768137E3,2.4784302E2,3.4676204E3,8.655898E2],"tree_param":{"num_deleted":"0","num_feature":"104","num_nodes":"7","size_leaf_vector":"0"}},{"base_weights":[8.6473756E-2,-1.3481298E-1,1.7455865E-1,-8.900586E-2,-4.0630776E-1,1.15136735E-1,4.121999E-1],"categories":[],"categories_nodes":[],"categories_segments":[],"categories_sizes":[],"default_left":[1,1,1,0,0,0,0],"id":119,"left_children":[1,3,5,-1,-1,-1,-1],"loss_changes":[1.18123085E2,2.1424782E1,6.1156357E1,0E0,0E0,0E0,0E0],"parents":[2147483647,0,0,1,1,2,2],"right_children":[2,4,6,-1,-1,-1,-1],"split_conditions":[-2.45E0,3.45E1,2.25E1,-8.900586E-4,-4.0630773E-3,1.1513673E-3,4.1219993E-3],"split_indices":[25,53,80,0,0,0,0],"split_type":[0,0,0,0,0,0,0],"sum_hessian":[6.0578667E3,1.7246567E3,4.3332104E3,1.4768137E3,2.47843E2,3.4676204E3,8.655898E2],"tree_param":{"num_deleted":"0","num_feature":"104","num_nodes":"7","size_leaf_vector":"0"}},{"base_weights":[-8.564512E-2,-2.0115957E-1,8.09382E-2,-2.757756E-1,-2.9459363E-3,2.1799292E-1,-1.2680416E-2],"categories":[],"categories_nodes":[],"categories_segments":[],"categories_sizes":[],"default_left":[1,1,1,0,0,0,0],"id":120,"left_children":[1,3,5,-1,-1,-1,-1],"loss_changes":[1.1655729E2,5.289772E1,3.1832186E1,0E0,0E0,0E0,0E0],"parents":[2147483647,0,0,1,1,2,2],"right_children":[2,4,6,-1,-1,-1,-1],"split_conditions":[1.65E1,3.75E0,-4.8500004E0,-2.757756E-3,-2.9459363E-5,2.179929E-3,-1.2680415E-4],"split_indices":[27,77,25,0,0,0,0],"split_type":[0,0,0,0,0,0,0],"sum_hessian":[6.0553506E3,3.5756604E3,2.4796902E3,2.5974705E3,9.781898E2,1.0058414E3,1.4738489E3],"tree_param":{"num_deleted":"0","num_feature":"104","num_nodes":"7","size_leaf_vector":"0"}},{"base_weights":[8.564511E-2,2.0115957E-1,-8.0938205E-2,2.757756E-1,2.9459589E-3,-2.1799295E-1,1.2680414E-2],"categories":[],"categories_nodes":[],"categories_segments":[],"categories_sizes":[],"default_left":[1,1,1,0,0,0,0],"id":121,"left_children":[1,3,5,-1,-1,-1,-1],"loss_changes":[1.1655731E2,5.289769E1,3.183219E1,0E0,0E0,0E0,0E0],"parents":[2147483647,0,0,1,1,2,2],"right_children":[2,4,6,-1,-1,-1,-1],"split_conditions":[1.65E1,3.75E0,-4.8500004E0,2.757756E-3,2.9459588E-5,-2.1799295E-3,1.2680414E-4],"split_indices":[27,77,25,0,0,0,0],"split_type":[0,0,0,0,0,0,0],"sum_hessian":[6.0553506E3,3.5756604E3,2.4796902E3,2.5974705E3,9.781898E2,1.0058414E3,1.4738489E3],"tree_param":{"num_deleted":"0","num_feature":"104","num_nodes":"7","size_leaf_vector":"0"}},{"base_weights":[-8.482531E-2,8.360949E-3,-2.8893945E-1,-1.1391707E-1,1.4018849E-1,-3.4142768E-1,-4.653168E-2],"categories":[],"categories_nodes":[],"categories_segments":[],"categories_sizes":[],"default_left":[1,1,1,0,0,0,0],"id":122,"left_children":[1,3,5,-1,-1,-1,-1],"loss_changes":[1.1514909E2,6.702914E1,2.4127487E1,0E0,0E0,0E0,0E0],"parents":[2147483647,0,0,1,1,2,2],"right_children":[2,4,6,-1,-1,-1,-1],"split_conditions":[2.75E0,3.5000002E-1,5.45E0,-1.1391706E-3,1.4018848E-3,-3.4142768E-3,-4.6531679E-4],"split_indices":[25,77,77,0,0,0,0],"split_type":[0,0,0,0,0,0,0],"sum_hessian":[6.0527773E3,4.1562446E3,1.8965326E3,2.1562905E3,1.999954E3,1.5586349E3,3.378976E2],"tree_param":{"num_deleted":"0","num_feature":"104","num_nodes":"7","size_leaf_vector":"0"}},{"base_weights":[8.482531E-2,-8.36096E-3,2.8893948E-1,1.1391707E-1,-1.401885E-1,3.414277E-1,4.653169E-2],"categories":[],"categories_nodes":[],"categories_segments":[],"categories_sizes":[],"default_left":[1,1,1,0,0,0,0],"id":123,"left_children":[1,3,5,-1,-1,-1,-1],"loss_changes":[1.15149124E2,6.7029144E1,2.4127472E1,0E0,0E0,0E0,0E0],"parents":[2147483647,0,0,1,1,2,2],"right_children":[2,4,6,-1,-1,-1,-1],"split_conditions":[2.75E0,3.5000002E-1,5.45E0,1.1391706E-3,-1.401885E-3,3.414277E-3,4.6531687E-4],"split_indices":[25,77,77,0,0,0,0],"split_type":[0,0,0,0,0,0,0],"sum_hessian":[6.052777E3,4.1562446E3,1.8965325E3,2.1562905E3,1.999954E3,1.5586349E3,3.378976E2],"tree_param":{"num_deleted":"0","num_feature":"104","num_nodes":"7","size_leaf_vector":"0"}},{"base_weights":[-8.4011585E-2,-1.6768223E-1,1.3978112E-1,-9.0820834E-2,-3.6034083E-1,2.6700488E-1,4.750394E-2],"categories":[],"categories_nodes":[],"categories_segments":[],"categories_sizes":[],"default_left":[1,1,1,0,0,0,0],"id":124,"left_children":[1,3,5,-1,-1,-1,-1],"loss_changes":[1.1333464E2,6.519736E1,1.9326576E1,0E0,0E0,0E0,0E0],"parents":[2147483647,0,0,1,1,2,2],"right_children":[2,4,6,-1,-1,-1,-1],"split_conditions":[2.05E1,1.95E1,-6.25E0,-9.082083E-4,-3.6034083E-3,2.6700487E-3,4.750394E-4],"split_indices":[28,80,25,0,0,0,0],"split_type":[0,0,0,0,0,0,0],"sum_hessian":[6.0503716E3,4.4040537E3,1.6463177E3,3.1491626E3,1.254891E3,6.9130835E2,9.5500946E2],"tree_param":{"num_deleted":"0","num_feature":"104","num_nodes":"7","size_leaf_vector":"0"}},{"base_weights":[8.401158E-2,1.6768222E-1,-1.3978112E-1,9.0820834E-2,3.6034083E-1,-2.6700485E-1,-4.750394E-2],"categories":[],"categories_nodes":[],"categories_segments":[],"categories_sizes":[],"default_left":[1,1,1,0,0,0,0],"id":125,"left_children":[1,3,5,-1,-1,-1,-1],"loss_changes":[1.1333462E2,6.519736E1,1.9326572E1,0E0,0E0,0E0,0E0],"parents":[2147483647,0,0,1,1,2,2],"right_children":[2,4,6,-1,-1,-1,-1],"split_conditions":[2.05E1,1.95E1,-6.25E0,9.082083E-4,3.6034083E-3,-2.6700485E-3,-4.750394E-4],"split_indices":[28,80,25,0,0,0,0],"split_type":[0,0,0,0,0,0,0],"sum_hessian":[6.0503716E3,4.4040537E3,1.6463177E3,3.1491626E3,1.2548909E3,6.9130835E2,9.5500946E2],"tree_param":{"num_deleted":"0","num_feature":"104","num_nodes":"7","size_leaf_vector":"0"}},{"base_weights":[-8.32084E-2,8.7656565E-3,-2.8489223E-1,-1.119929E-1,1.3889548E-1,-3.3968613E-1,-5.7196356E-2],"categories":[],"categories_nodes":[],"categories_segments":[],"categories_sizes":[],"default_left":[1,1,1,0,0,0,0],"id":126,"left_children":[1,3,5,-1,-1,-1,-1],"loss_changes":[1.1220473E2,6.531217E1,2.3617065E1,0E0,0E0,0E0,0E0],"parents":[2147483647,0,0,1,1,2,2],"right_children":[2,4,6,-1,-1,-1,-1],"split_conditions":[2.75E0,3.5000002E-1,5.05E0,-1.119929E-3,1.3889548E-3,-3.3968613E-3,-5.7196355E-4],"split_indices":[25,77,77,0,0,0,0],"split_type":[0,0,0,0,0,0,0],"sum_hessian":[6.047742E3,4.154238E3,1.8935042E3,2.1547764E3,1.9994614E3,1.525829E3,3.6767514E2],"tree_param":{"num_deleted":"0","num_feature":"104","num_nodes":"7","size_leaf_vector":"0"}},{"base_weights":[8.32084E-2,-8.765657E-3,2.8489223E-1,1.11992896E-1,-1.3889548E-1,3.3968613E-1,5.7196375E-2],"categories":[],"categories_nodes":[],"categories_segments":[],"categories_sizes":[],"default_left":[1,1,1,0,0,0,0],"id":127,"left_children":[1,3,5,-1,-1,-1,-1],"loss_changes":[1.1220472E2,6.5312164E1,2.361708E1,0E0,0E0,0E0,0E0],"parents":[2147483647,0,0,1,1,2,2],"right_children":[2,4,6,-1,-1,-1,-1],"split_conditions":[2.75E0,3.5000002E-1,5.05E0,1.1199289E-3,-1.3889548E-3,3.3968613E-3,5.719637E-4],"split_indices":[25,77,77,0,0,0,0],"split_type":[0,0,0,0,0,0,0],"sum_hessian":[6.047742E3,4.154238E3,1.8935042E3,2.1547764E3,1.9994614E3,1.525829E3,3.6767517E2],"tree_param":{"num_deleted":"0","num_feature":"104","num_nodes":"7","size_leaf_vector":"0"}},{"base_weights":[-8.241076E-2,-2.2164844E-1,4.9007155E-2,-1.6501693E-1,-4.627278E-1,-6.4912796E-2,1.7566937E-1],"categories":[],"categories_nodes":[],"categories_segments":[],"categories_sizes":[],"default_left":[1,1,1,0,