{"learner":{"attributes":{"best_iteration":"499","best_ntree_limit":"500"},"feature_names":[],"feature_types":[],"gradient_booster":{"model":{"gbtree_model_param":{"num_parallel_tree":"1","num_trees":"1000","size_leaf_vector":"0"},"tree_info":[0,1,0,1,0,1,0,1,0,1,0,1,0,1,0,1,0,1,0,1,0,1,0,1,0,1,0,1,0,1,0,1,0,1,0,1,0,1,0,1,0,1,0,1,0,1,0,1,0,1,0,1,0,1,0,1,0,1,0,1,0,1,0,1,0,1,0,1,0,1,0,1,0,1,0,1,0,1,0,1,0,1,0,1,0,1,0,1,0,1,0,1,0,1,0,1,0,1,0,1,0,1,0,1,0,1,0,1,0,1,0,1,0,1,0,1,0,1,0,1,0,1,0,1,0,1,0,1,0,1,0,1,0,1,0,1,0,1,0,1,0,1,0,1,0,1,0,1,0,1,0,1,0,1,0,1,0,1,0,1,0,1,0,1,0,1,0,1,0,1,0,1,0,1,0,1,0,1,0,1,0,1,0,1,0,1,0,1,0,1,0,1,0,1,0,1,0,1,0,1,0,1,0,1,0,1,0,1,0,1,0,1,0,1,0,1,0,1,0,1,0,1,0,1,0,1,0,1,0,1,0,1,0,1,0,1,0,1,0,1,0,1,0,1,0,1,0,1,0,1,0,1,0,1,0,1,0,1,0,1,0,1,0,1,0,1,0,1,0,1,0,1,0,1,0,1,0,1,0,1,0,1,0,1,0,1,0,1,0,1,0,1,0,1,0,1,0,1,0,1,0,1,0,1,0,1,0,1,0,1,0,1,0,1,0,1,0,1,0,1,0,1,0,1,0,1,0,1,0,1,0,1,0,1,0,1,0,1,0,1,0,1,0,1,0,1,0,1,0,1,0,1,0,1,0,1,0,1,0,1,0,1,0,1,0,1,0,1,0,1,0,1,0,1,0,1,0,1,0,1,0,1,0,1,0,1,0,1,0,1,0,1,0,1,0,1,0,1,0,1,0,1,0,1,0,1,0,1,0,1,0,1,0,1,0,1,0,1,0,1,0,1,0,1,0,1,0,1,0,1,0,1,0,1,0,1,0,1,0,1,0,1,0,1,0,1,0,1,0,1,0,1,0,1,0,1,0,1,0,1,0,1,0,1,0,1,0,1,0,1,0,1,0,1,0,1,0,1,0,1,0,1,0,1,0,1,0,1,0,1,0,1,0,1,0,1,0,1,0,1,0,1,0,1,0,1,0,1,0,1,0,1,0,1,0,1,0,1,0,1,0,1,0,1,0,1,0,1,0,1,0,1,0,1,0,1,0,1,0,1,0,1,0,1,0,1,0,1,0,1,0,1,0,1,0,1,0,1,0,1,0,1,0,1,0,1,0,1,0,1,0,1,0,1,0,1,0,1,0,1,0,1,0,1,0,1,0,1,0,1,0,1,0,1,0,1,0,1,0,1,0,1,0,1,0,1,0,1,0,1,0,1,0,1,0,1,0,1,0,1,0,1,0,1,0,1,0,1,0,1,0,1,0,1,0,1,0,1,0,1,0,1,0,1,0,1,0,1,0,1,0,1,0,1,0,1,0,1,0,1,0,1,0,1,0,1,0,1,0,1,0,1,0,1,0,1,0,1,0,1,0,1,0,1,0,1,0,1,0,1,0,1,0,1,0,1,0,1,0,1,0,1,0,1,0,1,0,1,0,1,0,1,0,1,0,1,0,1,0,1,0,1,0,1,0,1,0,1,0,1,0,1,0,1,0,1,0,1,0,1,0,1,0,1,0,1,0,1,0,1,0,1,0,1,0,1,0,1,0,1,0,1,0,1,0,1,0,1,0,1,0,1,0,1,0,1,0,1,0,1,0,1,0,1,0,1,0,1,0,1,0,1,0,1,0,1,0,1,0,1,0,1,0,1,0,1,0,1,0,1,0,1,0,1,0,1,0,1,0,1,0,1,0,1,0,1,0,1,0,1,0,1,0,1,0,1,0,1,0,1,0,1,0,1,0,1,0,1,0,1,0,1,0,1,0,1,0,1,0,1,0,1,0,1,0,1,0,1,0,1,0,1,0,1,0,1,0,1,0,1,0,1,0,1,0,1,0,1,0,1,0,1,0,1,0,1,0,1,0,1,0,1,0,1,0,1,0,1,0,1,0,1,0,1,0,1,0,1,0,1,0,1,0,1,0,1,0,1,0,1,0,1,0,1,0,1,0,1,0,1,0,1,0,1,0,1,0,1,0,1,0,1,0,1,0,1,0,1,0,1,0,1,0,1,0,1,0,1,0,1,0,1,0,1,0,1,0,1,0,1,0,1,0,1,0,1,0,1,0,1,0,1,0,1,0,1,0,1,0,1],"trees":[{"base_weights":[-1.5725839E-1,1.1745478E-1,-3.2192317E-1,-1.3535354E-1,2.3824856E-1,-1.533712E-1,-5.109509E-1],"categories":[],"categories_nodes":[],"categories_segments":[],"categories_sizes":[],"default_left":[1,1,1,0,0,0,0],"id":0,"left_children":[1,3,5,-1,-1,-1,-1],"loss_changes":[2.769022E2,7.010092E1,1.2185367E2,0E0,0E0,0E0,0E0],"parents":[2147483647,0,0,1,1,2,2],"right_children":[2,4,6,-1,-1,-1,-1],"split_conditions":[4.585E-1,-2.05E0,1.35E1,-1.3535353E-3,2.3824854E-3,-1.5337119E-3,-5.109509E-3],"split_indices":[3,77,80,0,0,0,0],"split_type":[0,0,0,0,0,0,0],"sum_hessian":[6.1195E3,2.2935E3,3.826E3,7.415E2,1.552E3,2.0235E3,1.8025E3],"tree_param":{"num_deleted":"0","num_feature":"104","num_nodes":"7","size_leaf_vector":"0"}},{"base_weights":[1.5725839E-1,-1.1745478E-1,3.2192317E-1,1.3535354E-1,-2.3824856E-1,1.533712E-1,5.109509E-1],"categories":[],"categories_nodes":[],"categories_segments":[],"categories_sizes":[],"default_left":[1,1,1,0,0,0,0],"id":1,"left_children":[1,3,5,-1,-1,-1,-1],"loss_changes":[2.769022E2,7.010092E1,1.2185367E2,0E0,0E0,0E0,0E0],"parents":[2147483647,0,0,1,1,2,2],"right_children":[2,4,6,-1,-1,-1,-1],"split_conditions":[4.585E-1,-2.05E0,1.35E1,1.3535353E-3,-2.3824854E-3,1.5337119E-3,5.109509E-3],"split_indices":[3,77,80,0,0,0,0],"split_type":[0,0,0,0,0,0,0],"sum_hessian":[6.1195E3,2.2935E3,3.826E3,7.415E2,1.552E3,2.0235E3,1.8025E3],"tree_param":{"num_deleted":"0","num_feature":"104","num_nodes":"7","size_leaf_vector":"0"}},{"base_weights":[-1.556883E-1,1.1628118E-1,-3.1870997E-1,-1.3400207E-1,2.358689E-1,-1.5183859E-1,-5.058574E-1],"categories":[],"categories_nodes":[],"categories_segments":[],"categories_sizes":[],"default_left":[1,1,1,0,0,0,0],"id":2,"left_children":[1,3,5,-1,-1,-1,-1],"loss_changes":[2.7139844E2,6.8707535E1,1.194371E2,0E0,0E0,0E0,0E0],"parents":[2147483647,0,0,1,1,2,2],"right_children":[2,4,6,-1,-1,-1,-1],"split_conditions":[4.585E-1,-2.05E0,1.35E1,-1.3400207E-3,2.358689E-3,-1.5183858E-3,-5.058574E-3],"split_indices":[3,77,80,0,0,0,0],"split_type":[0,0,0,0,0,0,0],"sum_hessian":[6.1194385E3,2.2934897E3,3.8259485E3,7.414986E2,1.5519912E3,2.0234954E3,1.802453E3],"tree_param":{"num_deleted":"0","num_feature":"104","num_nodes":"7","size_leaf_vector":"0"}},{"base_weights":[1.5568832E-1,-1.1628119E-1,3.1871E-1,1.340021E-1,-2.3586893E-1,1.5183857E-1,5.058575E-1],"categories":[],"categories_nodes":[],"categories_segments":[],"categories_sizes":[],"default_left":[1,1,1,0,0,0,0],"id":3,"left_children":[1,3,5,-1,-1,-1,-1],"loss_changes":[2.713985E2,6.870755E1,1.19437164E2,0E0,0E0,0E0,0E0],"parents":[2147483647,0,0,1,1,2,2],"right_children":[2,4,6,-1,-1,-1,-1],"split_conditions":[4.585E-1,-2.05E0,1.35E1,1.340021E-3,-2.3586892E-3,1.5183857E-3,5.058575E-3],"split_indices":[3,77,80,0,0,0,0],"split_type":[0,0,0,0,0,0,0],"sum_hessian":[6.119438E3,2.29349E3,3.8259482E3,7.4149866E2,1.5519913E3,2.0234952E3,1.802453E3],"tree_param":{"num_deleted":"0","num_feature":"104","num_nodes":"7","size_leaf_vector":"0"}},{"base_weights":[-1.5413705E-1,1.15120314E-1,-3.1553742E-1,-1.3266459E-1,2.3351565E-1,-1.5032208E-1,-5.008406E-1],"categories":[],"categories_nodes":[],"categories_segments":[],"categories_sizes":[],"default_left":[1,1,1,0,0,0,0],"id":4,"left_children":[1,3,5,-1,-1,-1,-1],"loss_changes":[2.6601178E2,6.7342575E1,1.17081726E2,0E0,0E0,0E0,0E0],"parents":[2147483647,0,0,1,1,2,2],"right_children":[2,4,6,-1,-1,-1,-1],"split_conditions":[4.585E-1,-2.05E0,1.35E1,-1.3266458E-3,2.3351565E-3,-1.5032208E-3,-5.008406E-3],"split_indices":[3,77,80,0,0,0,0],"split_type":[0,0,0,0,0,0,0],"sum_hessian":[6.1192544E3,2.2934597E3,3.8257947E3,7.414946E2,1.5519651E3,2.0234811E3,1.8023137E3],"tree_param":{"num_deleted":"0","num_feature":"104","num_nodes":"7","size_leaf_vector":"0"}},{"base_weights":[1.5413696E-1,-1.15120396E-1,3.155373E-1,1.3266459E-1,-2.3351577E-1,1.5032199E-1,5.008405E-1],"categories":[],"categories_nodes":[],"categories_segments":[],"categories_sizes":[],"default_left":[1,1,1,0,0,0,0],"id":5,"left_children":[1,3,5,-1,-1,-1,-1],"loss_changes":[2.6601178E2,6.734262E1,1.17081696E2,0E0,0E0,0E0,0E0],"parents":[2147483647,0,0,1,1,2,2],"right_children":[2,4,6,-1,-1,-1,-1],"split_conditions":[4.585E-1,-2.05E0,1.35E1,1.3266458E-3,-2.3351577E-3,1.5032198E-3,5.0084046E-3],"split_indices":[3,77,80,0,0,0,0],"split_type":[0,0,0,0,0,0,0],"sum_hessian":[6.1192544E3,2.2934597E3,3.8257947E3,7.414946E2,1.5519651E3,2.0234812E3,1.8023136E3],"tree_param":{"num_deleted":"0","num_feature":"104","num_nodes":"7","size_leaf_vector":"0"}},{"base_weights":[-1.5260409E-1,1.1397211E-1,-3.1240436E-1,-1.3134088E-1,2.3118854E-1,-1.4882119E-1,-4.9589816E-1],"categories":[],"categories_nodes":[],"categories_segments":[],"categories_sizes":[],"default_left":[1,1,1,0,0,0,0],"id":6,"left_children":[1,3,5,-1,-1,-1,-1],"loss_changes":[2.6073914E2,6.600548E1,1.14785645E2,0E0,0E0,0E0,0E0],"parents":[2147483647,0,0,1,1,2,2],"right_children":[2,4,6,-1,-1,-1,-1],"split_conditions":[4.585E-1,-2.05E0,1.35E1,-1.3134087E-3,2.3118854E-3,-1.4882119E-3,-4.9589816E-3],"split_indices":[3,77,80,0,0,0,0],"split_type":[0,0,0,0,0,0,0],"sum_hessian":[6.118953E3,2.2934104E3,3.825543E3,7.4148804E2,1.5519222E3,2.023458E3,1.8020848E3],"tree_param":{"num_deleted":"0","num_feature":"104","num_nodes":"7","size_leaf_vector":"0"}},{"base_weights":[1.5260415E-1,-1.1397206E-1,3.1240442E-1,1.3134086E-1,-2.3118843E-1,1.4882131E-1,4.9589816E-1],"categories":[],"categories_nodes":[],"categories_segments":[],"categories_sizes":[],"default_left":[1,1,1,0,0,0,0],"id":7,"left_children":[1,3,5,-1,-1,-1,-1],"loss_changes":[2.6073923E2,6.6005424E1,1.1478552E2,0E0,0E0,0E0,0E0],"parents":[2147483647,0,0,1,1,2,2],"right_children":[2,4,6,-1,-1,-1,-1],"split_conditions":[4.585E-1,-2.05E0,1.35E1,1.3134086E-3,-2.3118842E-3,1.4882131E-3,4.9589816E-3],"split_indices":[3,77,80,0,0,0,0],"split_type":[0,0,0,0,0,0,0],"sum_hessian":[6.118953E3,2.2934104E3,3.825543E3,7.4148804E2,1.5519224E3,2.023458E3,1.8020848E3],"tree_param":{"num_deleted":"0","num_feature":"104","num_nodes":"7","size_leaf_vector":"0"}},{"base_weights":[-1.5108936E-1,-2.849991E-1,1.6176334E-1,-1.2237605E-1,-4.6901014E-1,-8.7060496E-2,2.7902108E-1],"categories":[],"categories_nodes":[],"categories_segments":[],"categories_sizes":[],"default_left":[1,1,1,0,0,0,0],"id":8,"left_children":[1,3,5,-1,-1,-1,-1],"loss_changes":[2.5641815E2,1.2818884E2,5.3559395E1,0E0,0E0,0E0,0E0],"parents":[2147483647,0,0,1,1,2,2],"right_children":[2,4,6,-1,-1,-1,-1],"split_conditions":[1.95E1,1.35E1,-2.05E0,-1.2237604E-3,-4.6901014E-3,-8.7060494E-4,2.7902108E-3],"split_indices":[28,80,77,0,0,0,0],"split_type":[0,0,0,0,0,0,0],"sum_hessian":[6.1185376E3,4.2846685E3,1.8338694E3,2.2754043E3,2.0092642E3,5.874799E2,1.2463895E3],"tree_param":{"num_deleted":"0","num_feature":"104","num_nodes":"7","size_leaf_vector":"0"}},{"base_weights":[1.5108936E-1,2.849991E-1,-1.6176328E-1,1.22376055E-1,4.690101E-1,8.7060496E-2,-2.79021E-1],"categories":[],"categories_nodes":[],"categories_segments":[],"categories_sizes":[],"default_left":[1,1,1,0,0,0,0],"id":9,"left_children":[1,3,5,-1,-1,-1,-1],"loss_changes":[2.564181E2,1.2818875E2,5.3559372E1,0E0,0E0,0E0,0E0],"parents":[2147483647,0,0,1,1,2,2],"right_children":[2,4,6,-1,-1,-1,-1],"split_conditions":[1.95E1,1.35E1,-2.05E0,1.2237605E-3,4.690101E-3,8.7060494E-4,-2.7902098E-3],"split_indices":[28,80,77,0,0,0,0],"split_type":[0,0,0,0,0,0,0],"sum_hessian":[6.1185376E3,4.284668E3,1.8338695E3,2.2754043E3,2.009264E3,5.874799E2,1.2463895E3],"tree_param":{"num_deleted":"0","num_feature":"104","num_nodes":"7","size_leaf_vector":"0"}},{"base_weights":[-1.4959124E-1,1.0247979E-1,-3.1270316E-1,-1.3693105E-1,2.1542834E-1,-4.5728227E-1,-1.1185637E-1],"categories":[],"categories_nodes":[],"categories_segments":[],"categories_sizes":[],"default_left":[1,1,1,0,0,0,0],"id":10,"left_children":[1,3,5,-1,-1,-1,-1],"loss_changes":[2.516215E2,6.5056015E1,1.07835175E2,0E0,0E0,0E0,0E0],"parents":[2147483647,0,0,1,1,2,2],"right_children":[2,4,6,-1,-1,-1,-1],"split_conditions":[4.6850002E-1,-2.05E0,1.55E0,-1.3693104E-3,2.1542832E-3,-4.5728227E-3,-1.1185637E-3],"split_indices":[3,77,77,0,0,0,0],"split_type":[0,0,0,0,0,0,0],"sum_hessian":[6.118047E3,2.4037283E3,3.7143186E3,7.704453E2,1.6332831E3,2.1589363E3,1.5553823E3],"tree_param":{"num_deleted":"0","num_feature":"104","num_nodes":"7","size_leaf_vector":"0"}},{"base_weights":[1.4959122E-1,-1.0247984E-1,3.1270316E-1,1.3693108E-1,-2.1542843E-1,4.5728222E-1,1.1185645E-1],"categories":[],"categories_nodes":[],"categories_segments":[],"categories_sizes":[],"default_left":[1,1,1,0,0,0,0],"id":11,"left_children":[1,3,5,-1,-1,-1,-1],"loss_changes":[2.5162155E2,6.505605E1,1.0783508E2,0E0,0E0,0E0,0E0],"parents":[2147483647,0,0,1,1,2,2],"right_children":[2,4,6,-1,-1,-1,-1],"split_conditions":[4.6850002E-1,-2.05E0,1.55E0,1.3693108E-3,-2.1542842E-3,4.5728222E-3,1.1185645E-3],"split_indices":[3,77,77,0,0,0,0],"split_type":[0,0,0,0,0,0,0],"sum_hessian":[6.118047E3,2.4037283E3,3.7143184E3,7.704454E2,1.633283E3,2.1589363E3,1.5553822E3],"tree_param":{"num_deleted":"0","num_feature":"104","num_nodes":"7","size_leaf_vector":"0"}},{"base_weights":[-1.4811045E-1,-2.7964732E-1,1.5916014E-1,-1.1975818E-1,-4.6062982E-1,-8.479443E-2,2.7413246E-1],"categories":[],"categories_nodes":[],"categories_segments":[],"categories_sizes":[],"default_left":[1,1,1,0,0,0,0],"id":12,"left_children":[1,3,5,-1,-1,-1,-1],"loss_changes":[2.4733691E2,1.2393344E2,5.1483135E1,0E0,0E0,0E0,0E0],"parents":[2147483647,0,0,1,1,2,2],"right_children":[2,4,6,-1,-1,-1,-1],"split_conditions":[1.95E1,1.35E1,-2.05E0,-1.1975818E-3,-4.606298E-3,-8.479443E-4,2.7413245E-3],"split_indices":[28,80,77,0,0,0,0],"split_type":[0,0,0,0,0,0,0],"sum_hessian":[6.117462E3,4.2837554E3,1.8337068E3,2.2753005E3,2.0084546E3,5.874614E2,1.2462455E3],"tree_param":{"num_deleted":"0","num_feature":"104","num_nodes":"7","size_leaf_vector":"0"}},{"base_weights":[1.4811043E-1,2.796473E-1,-1.5916014E-1,1.1975818E-1,4.6062976E-1,8.479444E-2,-2.7413246E-1],"categories":[],"categories_nodes":[],"categories_segments":[],"categories_sizes":[],"default_left":[1,1,1,0,0,0,0],"id":13,"left_children":[1,3,5,-1,-1,-1,-1],"loss_changes":[2.473369E2,1.2393335E2,5.1483135E1,0E0,0E0,0E0,0E0],"parents":[2147483647,0,0,1,1,2,2],"right_children":[2,4,6,-1,-1,-1,-1],"split_conditions":[1.95E1,1.35E1,-2.05E0,1.1975818E-3,4.6062977E-3,8.4794435E-4,-2.7413245E-3],"split_indices":[28,80,77,0,0,0,0],"split_type":[0,0,0,0,0,0,0],"sum_hessian":[6.1174624E3,4.2837554E3,1.8337068E3,2.2753005E3,2.0084547E3,5.874614E2,1.2462455E3],"tree_param":{"num_deleted":"0","num_feature":"104","num_nodes":"7","size_leaf_vector":"0"}},{"base_weights":[-1.4664668E-1,1.0092005E-1,-3.0687347E-1,-1.338714E-1,2.1169394E-1,-4.4907027E-1,-1.094147E-1],"categories":[],"categories_nodes":[],"categories_segments":[],"categories_sizes":[],"default_left":[1,1,1,0,0,0,0],"id":14,"left_children":[1,3,5,-1,-1,-1,-1],"loss_changes":[2.4270358E2,6.2566322E1,1.04240326E2,0E0,0E0,0E0,0E0],"parents":[2147483647,0,0,1,1,2,2],"right_children":[2,4,6,-1,-1,-1,-1],"split_conditions":[4.6850002E-1,-2.05E0,1.55E0,-1.338714E-3,2.1169393E-3,-4.490703E-3,-1.094147E-3],"split_indices":[3,77,77,0,0,0,0],"split_type":[0,0,0,0,0,0,0],"sum_hessian":[6.116773E3,2.4034963E3,3.7132766E3,7.703942E2,1.633102E3,2.1579727E3,1.555304E3],"tree_param":{"num_deleted":"0","num_feature":"104","num_nodes":"7","size_leaf_vector":"0"}},{"base_weights":[1.466467E-1,-1.0092003E-1,3.068735E-1,1.3387132E-1,-2.1169387E-1,4.490703E-1,1.094147E-1],"categories":[],"categories_nodes":[],"categories_segments":[],"categories_sizes":[],"default_left":[1,1,1,0,0,0,0],"id":15,"left_children":[1,3,5,-1,-1,-1,-1],"loss_changes":[2.427036E2,6.256626E1,1.0424039E2,0E0,0E0,0E0,0E0],"parents":[2147483647,0,0,1,1,2,2],"right_children":[2,4,6,-1,-1,-1,-1],"split_conditions":[4.6850002E-1,-2.05E0,1.55E0,1.3387131E-3,-2.1169386E-3,4.490703E-3,1.094147E-3],"split_indices":[3,77,77,0,0,0,0],"split_type":[0,0,0,0,0,0,0],"sum_hessian":[6.116773E3,2.4034963E3,3.7132766E3,7.703942E2,1.6331022E3,2.1579727E3,1.555304E3],"tree_param":{"num_deleted":"0","num_feature":"104","num_nodes":"7","size_leaf_vector":"0"}},{"base_weights":[-1.4519966E-1,-2.744176E-1,1.5660334E-1,-1.1719702E-1,-4.524649E-1,-7.982142E-3,3.2068712E-1],"categories":[],"categories_nodes":[],"categories_segments":[],"categories_sizes":[],"default_left":[1,1,1,0,0,0,0],"id":16,"left_children":[1,3,5,-1,-1,-1,-1],"loss_changes":[2.3859586E2,1.19854126E2,4.954424E1,0E0,0E0,0E0,0E0],"parents":[2147483647,0,0,1,1,2,2],"right_children":[2,4,6,-1,-1,-1,-1],"split_conditions":[1.95E1,1.35E1,-5E-2,-1.1719702E-3,-4.524649E-3,-7.9821424E-5,3.206871E-3],"split_indices":[28,80,77,0,0,0,0],"split_type":[0,0,0,0,0,0,0],"sum_hessian":[6.1159966E3,4.2825146E3,1.8334822E3,2.2751519E3,2.0073625E3,9.1581665E2,9.1766547E2],"tree_param":{"num_deleted":"0","num_feature":"104","num_nodes":"7","size_leaf_vector":"0"}},{"base_weights":[1.4519964E-1,2.7441758E-1,-1.5660332E-1,1.1719706E-1,4.5246485E-1,7.982206E-3,-3.2068714E-1],"categories":[],"categories_nodes":[],"categories_segments":[],"categories_sizes":[],"default_left":[1,1,1,0,0,0,0],"id":17,"left_children":[1,3,5,-1,-1,-1,-1],"loss_changes":[2.3859583E2,1.19854034E2,4.954426E1,0E0,0E0,0E0,0E0],"parents":[2147483647,0,0,1,1,2,2],"right_children":[2,4,6,-1,-1,-1,-1],"split_conditions":[1.95E1,1.35E1,-5E-2,1.1719705E-3,4.524648E-3,7.982206E-5,-3.2068714E-3],"split_indices":[28,80,77,0,0,0,0],"split_type":[0,0,0,0,0,0,0],"sum_hessian":[6.1159966E3,4.282514E3,1.8334822E3,2.2751519E3,2.0073624E3,9.1581665E2,9.176655E2],"tree_param":{"num_deleted":"0","num_feature":"104","num_nodes":"7","size_leaf_vector":"0"}},{"base_weights":[-1.4376828E-1,9.9386945E-2,-3.0117878E-1,-1.314414E-1,2.0829736E-1,-4.4106674E-1,-1.0702711E-1],"categories":[],"categories_nodes":[],"categories_segments":[],"categories_sizes":[],"default_left":[1,1,1,0,0,0,0],"id":18,"left_children":[1,3,5,-1,-1,-1,-1],"loss_changes":[2.3412659E2,6.0468445E1,1.0079401E2,0E0,0E0,0E0,0E0],"parents":[2147483647,0,0,1,1,2,2],"right_children":[2,4,6,-1,-1,-1,-1],"split_conditions":[4.6850002E-1,-2.05E0,1.55E0,-1.314414E-3,2.0829735E-3,-4.4106673E-3,-1.0702711E-3],"split_indices":[3,77,77,0,0,0,0],"split_type":[0,0,0,0,0,0,0],"sum_hessian":[6.1151455E3,2.4032166E3,3.711929E3,7.703353E2,1.6328812E3,2.1567212E3,1.5552079E3],"tree_param":{"num_deleted":"0","num_feature":"104","num_nodes":"7","size_leaf_vector":"0"}},{"base_weights":[1.4376828E-1,-9.938695E-2,3.011788E-1,1.3144138E-1,-2.0829736E-1,4.4106674E-1,1.0702714E-1],"categories":[],"categories_nodes":[],"categories_segments":[],"categories_sizes":[],"default_left":[1,1,1,0,0,0,0],"id":19,"left_children":[1,3,5,-1,-1,-1,-1],"loss_changes":[2.3412659E2,6.046845E1,1.0079401E2,0E0,0E0,0E0,0E0],"parents":[2147483647,0,0,1,1,2,2],"right_children":[2,4,6,-1,-1,-1,-1],"split_conditions":[4.6850002E-1,-2.05E0,1.55E0,1.3144139E-3,-2.0829735E-3,4.4106673E-3,1.0702714E-3],"split_indices":[3,77,77,0,0,0,0],"split_type":[0,0,0,0,0,0,0],"sum_hessian":[6.1151455E3,2.4032166E3,3.711929E3,7.703353E2,1.6328812E3,2.1567212E3,1.5552079E3],"tree_param":{"num_deleted":"0","num_feature":"104","num_nodes":"7","size_leaf_vector":"0"}},{"base_weights":[-1.4235386E-1,-3.392131E-1,4.890333E-2,-4.3592453E-1,-8.7965086E-2,-1.8756884E-1,1.7746538E-1],"categories":[],"categories_nodes":[],"categories_segments":[],"categories_sizes":[],"default_left":[1,1,1,0,0,0,0],"id":20,"left_children":[1,3,5,-1,-1,-1,-1],"loss_changes":[2.3025809E2,7.318747E1,9.435658E1,0E0,0E0,0E0,0E0],"parents":[2147483647,0,0,1,1,2,2],"right_children":[2,4,6,-1,-1,-1,-1],"split_conditions":[1.45E1,3.75E0,-1.55E0,-4.3592453E-3,-8.796508E-4,-1.8756884E-3,1.7746538E-3],"split_indices":[51,77,77,0,0,0,0],"split_type":[0,0,0,0,0,0,0],"sum_hessian":[6.114191E3,3.0125884E3,3.1016025E3,2.1747427E3,8.378459E2,1.0921973E3,2.0094053E3],"tree_param":{"num_deleted":"0","num_feature":"104","num_nodes":"7","size_leaf_vector":"0"}},{"base_weights":[1.4235382E-1,3.3921298E-1,-4.8903335E-2,4.359244E-1,8.7965E-2,1.875688E-1,-1.7746536E-1],"categories":[],"categories_nodes":[],"categories_segments":[],"categories_sizes":[],"default_left":[1,1,1,0,0,0,0],"id":21,"left_children":[1,3,5,-1,-1,-1,-1],"loss_changes":[2.3025797E2,7.318747E1,9.435655E1,0E0,0E0,0E0,0E0],"parents":[2147483647,0,0,1,1,2,2],"right_children":[2,4,6,-1,-1,-1,-1],"split_conditions":[1.45E1,3.75E0,-1.55E0,4.359244E-3,8.7964995E-4,1.875688E-3,-1.7746536E-3],"split_indices":[51,77,77,0,0,0,0],"split_type":[0,0,0,0,0,0,0],"sum_hessian":[6.114191E3,3.0125886E3,3.1016025E3,2.1747427E3,8.3784595E2,1.0921971E3,2.0094053E3],"tree_param":{"num_deleted":"0","num_feature":"104","num_nodes":"7","size_leaf_vector":"0"}},{"base_weights":[-1.4095165E-1,-2.6715663E-1,1.5371534E-1,-1.1337894E-1,-4.4145182E-1,-6.887285E-3,3.1386206E-1],"categories":[],"categories_nodes":[],"categories_segments":[],"categories_sizes":[],"default_left":[1,1,1,0,0,0,0],"id":22,"left_children":[1,3,5,-1,-1,-1,-1],"loss_changes":[2.2742285E2,1.14697876E2,4.7175346E1,0E0,0E0,0E0,0E0],"parents":[2147483647,0,0,1,1,2,2],"right_children":[2,4,6,-1,-1,-1,-1],"split_conditions":[1.95E1,1.35E1,-5E-2,-1.1337894E-3,-4.414518E-3,-6.887285E-5,3.1386204E-3],"split_indices":[28,80,77,0,0,0,0],"split_type":[0,0,0,0,0,0,0],"sum_hessian":[6.1133135E3,4.280207E3,1.8331064E3,2.2748215E3,2.0053857E3,9.1572815E2,9.1737823E2],"tree_param":{"num_deleted":"0","num_feature":"104","num_nodes":"7","size_leaf_vector":"0"}},{"base_weights":[1.4095165E-1,2.6715663E-1,-1.5371536E-1,1.13378994E-1,4.414518E-1,6.887297E-3,-3.1386206E-1],"categories":[],"categories_nodes":[],"categories_segments":[],"categories_sizes":[],"default_left":[1,1,1,0,0,0,0],"id":23,"left_children":[1,3,5,-1,-1,-1,-1],"loss_changes":[2.2742288E2,1.14697815E2,4.7175358E1,0E0,0E0,0E0,0E0],"parents":[2147483647,0,0,1,1,2,2],"right_children":[2,4,6,-1,-1,-1,-1],"split_conditions":[1.95E1,1.35E1,-5E-2,1.1337899E-3,4.414518E-3,6.887297E-5,-3.1386204E-3],"split_indices":[28,80,77,0,0,0,0],"split_type":[0,0,0,0,0,0,0],"sum_hessian":[6.1133135E3,4.280207E3,1.8331064E3,2.2748215E3,2.0053857E3,9.157282E2,9.173783E2],"tree_param":{"num_deleted":"0","num_feature":"104","num_nodes":"7","size_leaf_vector":"0"}},{"base_weights":[-1.395677E-1,-3.3339185E-1,4.8683327E-2,-4.2868108E-1,-8.5982434E-2,-1.8394774E-1,1.7514639E-1],"categories":[],"categories_nodes":[],"categories_segments":[],"categories_sizes":[],"default_left":[1,1,1,0,0,0,0],"id":24,"left_children":[1,3,5,-1,-1,-1,-1],"loss_changes":[2.2307304E2,7.097604E1,9.1292725E1,0E0,0E0,0E0,0E0],"parents":[2147483647,0,0,1,1,2,2],"right_children":[2,4,6,-1,-1,-1,-1],"split_conditions":[1.45E1,3.75E0,-1.55E0,-4.2868108E-3,-8.598243E-4,-1.8394773E-3,1.7514639E-3],"split_indices":[51,77,77,0,0,0,0],"split_type":[0,0,0,0,0,0,0],"sum_hessian":[6.112223E3,3.011154E3,3.101069E3,2.1733572E3,8.377969E2,1.091951E3,2.009118E3],"tree_param":{"num_deleted":"0","num_feature":"104","num_nodes":"7","size_leaf_vector":"0"}},{"base_weights":[1.3956767E-1,3.333918E-1,-4.8683334E-2,4.2868102E-1,8.5982405E-2,1.8394771E-1,-1.7514639E-1],"categories":[],"categories_nodes":[],"categories_segments":[],"categories_sizes":[],"default_left":[1,1,1,0,0,0,0],"id":25,"left_children":[1,3,5,-1,-1,-1,-1],"loss_changes":[2.2307298E2,7.097601E1,9.129271E1,0E0,0E0,0E0,0E0],"parents":[2147483647,0,0,1,1,2,2],"right_children":[2,4,6,-1,-1,-1,-1],"split_conditions":[1.45E1,3.75E0,-1.55E0,4.2868103E-3,8.59824E-4,1.8394771E-3,-1.7514639E-3],"split_indices":[51,77,77,0,0,0,0],"split_type":[0,0,0,0,0,0,0],"sum_hessian":[6.112223E3,3.011154E3,3.101069E3,2.1733572E3,8.377968E2,1.091951E3,2.009118E3],"tree_param":{"num_deleted":"0","num_feature":"104","num_nodes":"7","size_leaf_vector":"0"}},{"base_weights":[-1.3819657E-1,-2.6244298E-1,1.5182073E-1,-1.1096446E-1,-4.3424875E-1,-5.9465687E-3,3.0917364E-1],"categories":[],"categories_nodes":[],"categories_segments":[],"categories_sizes":[],"default_left":[1,1,1,0,0,0,0],"id":26,"left_children":[1,3,5,-1,-1,-1,-1],"loss_changes":[2.2028401E2,1.11322235E2,4.5526367E1,0E0,0E0,0E0,0E0],"parents":[2147483647,0,0,1,1,2,2],"right_children":[2,4,6,-1,-1,-1,-1],"split_conditions":[1.95E1,1.35E1,-5E-2,-1.1096447E-3,-4.3424875E-3,-5.9465685E-5,3.0917365E-3],"split_indices":[28,80,77,0,0,0,0],"split_type":[0,0,0,0,0,0,0],"sum_hessian":[6.111188E3,4.278381E3,1.8328074E3,2.2745718E3,2.003809E3,9.15679E2,9.171283E2],"tree_param":{"num_deleted":"0","num_feature":"104","num_nodes":"7","size_leaf_vector":"0"}},{"base_weights":[1.3819657E-1,2.62443E-1,-1.5182075E-1,1.10964514E-1,4.3424875E-1,5.946536E-3,-3.0917364E-1],"categories":[],"categories_nodes":[],"categories_segments":[],"categories_sizes":[],"default_left":[1,1,1,0,0,0,0],"id":27,"left_children":[1,3,5,-1,-1,-1,-1],"loss_changes":[2.2028406E2,1.11322174E2,4.5526356E1,0E0,0E0,0E0,0E0],"parents":[2147483647,0,0,1,1,2,2],"right_children":[2,4,6,-1,-1,-1,-1],"split_conditions":[1.95E1,1.35E1,-5E-2,1.1096451E-3,4.3424875E-3,5.946536E-5,-3.0917365E-3],"split_indices":[28,80,77,0,0,0,0],"split_type":[0,0,0,0,0,0,0],"sum_hessian":[6.111188E3,4.2783804E3,1.8328073E3,2.2745718E3,2.0038088E3,9.15679E2,9.171283E2],"tree_param":{"num_deleted":"0","num_feature":"104","num_nodes":"7","size_leaf_vector":"0"}},{"base_weights":[-1.368431E-1,1.05955414E-1,-2.825796E-1,-1.16034605E-1,2.1206157E-1,-3.92579E-1,-4.907815E-2],"categories":[],"categories_nodes":[],"categories_segments":[],"categories_sizes":[],"default_left":[1,1,1,0,0,0,0],"id":28,"left_children":[1,3,5,-1,-1,-1,-1],"loss_changes":[2.1626338E2,5.4032654E1,9.807306E1,0E0,0E0,0E0,0E0],"parents":[2147483647,0,0,1,1,2,2],"right_children":[2,4,6,-1,-1,-1,-1],"split_conditions":[4.585E-1,-2.05E0,2.95E0,-1.160346E-3,2.1206157E-3,-3.9257896E-3,-4.907815E-4],"split_indices":[3,77,77,0,0,0,0],"split_type":[0,0,0,0,0,0,0],"sum_hessian":[6.109947E3,2.2918965E3,3.81805E3,7.411681E2,1.5507284E3,2.5949316E3,1.2231185E3],"tree_param":{"num_deleted":"0","num_feature":"104","num_nodes":"7","size_leaf_vector":"0"}},{"base_weights":[1.368431E-1,-1.0595545E-1,2.8257963E-1,1.1603462E-1,-2.1206164E-1,3.92579E-1,4.9078215E-2],"categories":[],"categories_nodes":[],"categories_segments":[],"categories_sizes":[],"default_left":[1,1,1,0,0,0,0],"id":29,"left_children":[1,3,5,-1,-1,-1,-1],"loss_changes":[2.1626346E2,5.4032684E1,9.807303E1,0E0,0E0,0E0,0E0],"parents":[2147483647,0,0,1,1,2,2],"right_children":[2,4,6,-1,-1,-1,-1],"split_conditions":[4.585E-1,-2.05E0,2.95E0,1.1603462E-3,-2.1206164E-3,3.9257896E-3,4.9078214E-4],"split_indices":[3,77,77,0,0,0,0],"split_type":[0,0,0,0,0,0,0],"sum_hessian":[6.109947E3,2.2918965E3,3.8180503E3,7.411681E2,1.5507284E3,2.5949316E3,1.2231187E3],"tree_param":{"num_deleted":"0","num_feature":"104","num_nodes":"7","size_leaf_vector":"0"}},{"base_weights":[-1.355046E-1,-3.2512185E-1,4.8567154E-2,-4.182281E-1,-8.363461E-2,-1.7873172E-1,1.7211582E-1],"categories":[],"categories_nodes":[],"categories_segments":[],"categories_sizes":[],"default_left":[1,1,1,0,0,0,0],"id":30,"left_children":[1,3,5,-1,-1,-1,-1],"loss_changes":[2.1326147E2,6.763312E1,8.71151E1,0E0,0E0,0E0,0E0],"parents":[2147483647,0,0,1,1,2,2],"right_children":[2,4,6,-1,-1,-1,-1],"split_conditions":[1.45E1,3.75E0,-1.55E0,-4.182281E-3,-8.3634607E-4,-1.7873172E-3,1.7211582E-3],"split_indices":[51,77,77,0,0,0,0],"split_type":[0,0,0,0,0,0,0],"sum_hessian":[6.108636E3,3.008615E3,3.100021E3,2.1708892E3,8.377259E2,1.0914948E3,2.0085262E3],"tree_param":{"num_deleted":"0","num_feature":"104","num_nodes":"7","size_leaf_vector":"0"}},{"base_weights":[1.3550462E-1,3.2512185E-1,-4.8567135E-2,4.182281E-1,8.363464E-2,1.7873177E-1,-1.721158E-1],"categories":[],"categories_nodes":[],"categories_segments":[],"categories_sizes":[],"default_left":[1,1,1,0,0,0,0],"id":31,"left_children":[1,3,5,-1,-1,-1,-1],"loss_changes":[2.1326147E2,6.763309E1,8.711512E1,0E0,0E0,0E0,0E0],"parents":[2147483647,0,0,1,1,2,2],"right_children":[2,4,6,-1,-1,-1,-1],"split_conditions":[1.45E1,3.75E0,-1.55E0,4.182281E-3,8.3634636E-4,1.7873177E-3,-1.721158E-3],"split_indices":[51,77,77,0,0,0,0],"split_type":[0,0,0,0,0,0,0],"sum_hessian":[6.108636E3,3.008615E3,3.100021E3,2.1708892E3,8.3772595E2,1.0914948E3,2.0085262E3],"tree_param":{"num_deleted":"0","num_feature":"104","num_nodes":"7","size_leaf_vector":"0"}},{"base_weights":[-1.3417819E-1,-2.4663313E-1,1.7225733E-1,-9.7315304E-2,-4.1479728E-1,-7.907255E-3,2.9655364E-1],"categories":[],"categories_nodes":[],"categories_segments":[],"categories_sizes":[],"default_left":[1,1,1,0,0,0,0],"id":32,"left_children":[1,3,5,-1,-1,-1,-1],"loss_changes":[2.1053864E2,1.1217438E2,3.673803E1,0E0,0E0,0E0,0E0],"parents":[2147483647,0,0,1,1,2,2],"right_children":[2,4,6,-1,-1,-1,-1],"split_conditions":[2.05E1,1.35E1,4.7E-1,-9.7315304E-4,-4.1479724E-3,-7.9072546E-5,2.9655364E-3],"split_indices":[28,80,55,0,0,0,0],"split_type":[0,0,0,0,0,0,0],"sum_hessian":[6.1073853E3,4.467945E3,1.6394402E3,2.3674214E3,2.1005237E3,6.696846E2,9.6975555E2],"tree_param":{"num_deleted":"0","num_feature":"104","num_nodes":"7","size_leaf_vector":"0"}},{"base_weights":[1.341782E-1,2.4663313E-1,-1.7225727E-1,9.731528E-2,4.1479728E-1,7.907264E-3,-2.9655355E-1],"categories":[],"categories_nodes":[],"categories_segments":[],"categories_sizes":[],"default_left":[1,1,1,0,0,0,0],"id":33,"left_children":[1,3,5,-1,-1,-1,-1],"loss_changes":[2.1053856E2,1.1217438E2,3.6738007E1,0E0,0E0,0E0,0E0],"parents":[2147483647,0,0,1,1,2,2],"right_children":[2,4,6,-1,-1,-1,-1],"split_conditions":[2.05E1,1.35E1,4.7E-1,9.731528E-4,4.1479724E-3,7.907264E-5,-2.9655355E-3],"split_indices":[28,80,55,0,0,0,0],"split_type":[0,0,0,0,0,0,0],"sum_hessian":[6.1073853E3,4.467945E3,1.6394401E3,2.3674214E3,2.1005237E3,6.696846E2,9.6975555E2],"tree_param":{"num_deleted":"0","num_feature":"104","num_nodes":"7","size_leaf_vector":"0"}},{"base_weights":[-1.3286763E-1,-3.1968057E-1,4.8404515E-2,-4.1145644E-1,-8.1836425E-2,1.8384776E-1,-1.5295227E-1],"categories":[],"categories_nodes":[],"categories_segments":[],"categories_sizes":[],"default_left":[1,1,1,0,0,0,0],"id":34,"left_children":[1,3,5,-1,-1,-1,-1],"loss_changes":[2.0682217E2,6.561859E1,8.458143E1,0E0,0E0,0E0,0E0],"parents":[2147483647,0,0,1,1,2,2],"right_children":[2,4,6,-1,-1,-1,-1],"split_conditions":[1.45E1,3.75E0,1.65E1,-4.114564E-3,-8.183642E-4,1.8384776E-3,-1.5295227E-3],"split_indices":[51,77,80,0,0,0,0],"split_type":[0,0,0,0,0,0,0],"sum_hessian":[6.1059814E3,3.006658E3,3.0993232E3,2.1689895E3,8.3766833E2,1.8529907E3,1.2463326E3],"tree_param":{"num_deleted":"0","num_feature":"104","num_nodes":"7","size_leaf_vector":"0"}},{"base_weights":[1.3286768E-1,3.1968063E-1,-4.840449E-2,4.1145647E-1,8.183654E-2,-1.838477E-1,1.5295228E-1],"categories":[],"categories_nodes":[],"categories_segments":[],"categories_sizes":[],"default_left":[1,1,1,0,0,0,0],"id":35,"left_children":[1,3,5,-1,-1,-1,-1],"loss_changes":[2.0682224E2,6.56185E1,8.4581406E1,0E0,0E0,0E0,0E0],"parents":[2147483647,0,0,1,1,2,2],"right_children":[2,4,6,-1,-1,-1,-1],"split_conditions":[1.45E1,3.75E0,1.65E1,4.1145645E-3,8.1836537E-4,-1.8384769E-3,1.5295228E-3],"split_indices":[51,77,80,0,0,0,0],"split_type":[0,0,0,0,0,0,0],"sum_hessian":[6.1059814E3,3.006658E3,3.0993235E3,2.1689897E3,8.3766833E2,1.8529907E3,1.2463326E3],"tree_param":{"num_deleted":"0","num_feature":"104","num_nodes":"7","size_leaf_vector":"0"}},{"base_weights":[-1.315694E-1,-2.4234474E-1,1.701892E-1,-1.4282921E-1,-4.8834333E-1,3.1374283E-2,3.2579756E-1],"categories":[],"categories_nodes":[],"categories_segments":[],"categories_sizes":[],"default_left":[1,1,1,0,0,0,0],"id":36,"left_children":[1,3,5,-1,-1,-1,-1],"loss_changes":[2.0413638E2,1.09273865E2,3.541707E1,0E0,0E0,0E0,0E0],"parents":[2147483647,0,0,1,1,2,2],"right_children":[2,4,6,-1,-1,-1,-1],"split_conditions":[2.05E1,1.95E1,5.135E-1,-1.428292E-3,-4.883433E-3,3.137428E-4,3.2579754E-3],"split_indices":[28,80,55,0,0,0,0],"split_type":[0,0,0,0,0,0,0],"sum_hessian":[6.1046216E3,4.465527E3,1.6390945E3,3.180484E3,1.285043E3,8.66928E2,7.721665E2],"tree_param":{"num_deleted":"0","num_feature":"104","num_nodes":"7","size_leaf_vector":"0"}},{"base_weights":[1.3156939E-1,2.4234472E-1,-1.7018922E-1,1.428292E-1,4.8834324E-1,-3.1374328E-2,-3.2579753E-1],"categories":[],"categories_nodes":[],"categories_segments":[],"categories_sizes":[],"default_left":[1,1,1,0,0,0,0],"id":37,"left_children":[1,3,5,-1,-1,-1,-1],"loss_changes":[2.0413635E2,1.09273834E2,3.5417057E1,0E0,0E0,0E0,0E0],"parents":[2147483647,0,0,1,1,2,2],"right_children":[2,4,6,-1,-1,-1,-1],"split_conditions":[2.05E1,1.95E1,5.135E-1,1.4282919E-3,4.8834323E-3,-3.1374328E-4,-3.2579752E-3],"split_indices":[28,80,55,0,0,0,0],"split_type":[0,0,0,0,0,0,0],"sum_hessian":[6.1046216E3,4.465527E3,1.6390945E3,3.180484E3,1.285043E3,8.6692804E2,7.7216644E2],"tree_param":{"num_deleted":"0","num_feature":"104","num_nodes":"7","size_leaf_vector":"0"}},{"base_weights":[-1.3028498E-1,-3.1435674E-1,4.824501E-2,-2.4303122E-1,-6.148969E-1,-1.7242196E-1,1.6816077E-1],"categories":[],"categories_nodes":[],"categories_segments":[],"categories_sizes":[],"default_left":[1,1,1,0,0,0,0],"id":38,"left_children":[1,3,5,-1,-1,-1,-1],"loss_changes":[2.0061316E2,6.427878E1,8.204914E1,0E0,0E0,0E0,0E0],"parents":[2147483647,0,0,1,1,2,2],"right_children":[2,4,6,-1,-1,-1,-1],"split_conditions":[1.45E1,2.25E1,-1.55E0,-2.430312E-3,-6.148969E-3,-1.7242195E-3,1.6816077E-3],"split_indices":[51,80,77,0,0,0,0],"split_type":[0,0,0,0,0,0,0],"sum_hessian":[6.1031924E3,3.004583E3,3.0986094E3,2.4297522E3,5.7483093E2,1.0908351E3,2.0077744E3],"tree_param":{"num_deleted":"0","num_feature":"104","num_nodes":"7","size_leaf_vector":"0"}},{"base_weights":[1.3028498E-1,3.1435674E-1,-4.8244998E-2,2.4303123E-1,6.148968E-1,1.7242196E-1,-1.6816075E-1],"categories":[],"categories_nodes":[],"categories_segments":[],"categories_sizes":[],"default_left":[1,1,1,0,0,0,0],"id":39,"left_children":[1,3,5,-1,-1,-1,-1],"loss_changes":[2.0061313E2,6.427875E1,8.204914E1,0E0,0E0,0E0,0E0],"parents":[2147483647,0,0,1,1,2,2],"right_children":[2,4,6,-1,-1,-1,-1],"split_conditions":[1.45E1,2.25E1,-1.55E0,2.4303123E-3,6.1489674E-3,1.7242195E-3,-1.6816074E-3],"split_indices":[51,80,77,0,0,0,0],"split_type":[0,0,0,0,0,0,0],"sum_hessian":[6.1031924E3,3.004583E3,3.0986094E3,2.429752E3,5.7483093E2,1.0908351E3,2.0077743E3],"tree_param":{"num_deleted":"0","num_feature":"104","num_nodes":"7","size_leaf_vector":"0"}},{"base_weights":[-1.2901466E-1,-2.3812297E-1,1.6810901E-1,-9.276534E-2,-4.0210077E-1,3.1634297E-2,3.211454E-1],"categories":[],"categories_nodes":[],"categories_segments":[],"categories_sizes":[],"default_left":[1,1,1,0,0,0,0],"id":40,"left_children":[1,3,5,-1,-1,-1,-1],"loss_changes":[1.978827E2,1.0636505E2,3.423591E1,0E0,0E0,0E0,0E0],"parents":[2147483647,0,0,1,1,2,2],"right_children":[2,4,6,-1,-1,-1,-1],"split_conditions":[2.05E1,1.35E1,5.135E-1,-9.2765334E-4,-4.0210076E-3,3.1634298E-4,3.2114538E-3],"split_indices":[28,80,55,0,0,0,0],"split_type":[0,0,0,0,0,0,0],"sum_hessian":[6.10174E3,4.463042E3,1.6386979E3,2.3666755E3,2.0963667E3,8.668581E2,7.718398E2],"tree_param":{"num_deleted":"0","num_feature":"104","num_nodes":"7","size_leaf_vector":"0"}},{"base_weights":[1.2901466E-1,2.3812297E-1,-1.6810903E-1,9.2765346E-2,4.0210077E-1,-3.1634293E-2,-3.211454E-1],"categories":[],"categories_nodes":[],"categories_segments":[],"categories_sizes":[],"default_left":[1,1,1,0,0,0,0],"id":41,"left_children":[1,3,5,-1,-1,-1,-1],"loss_changes":[1.9788274E2,1.0636502E2,3.4235916E1,0E0,0E0,0E0,0E0],"parents":[2147483647,0,0,1,1,2,2],"right_children":[2,4,6,-1,-1,-1,-1],"split_conditions":[2.05E1,1.35E1,5.135E-1,9.2765345E-4,4.0210076E-3,-3.1634292E-4,-3.2114538E-3],"split_indices":[28,80,55,0,0,0,0],"split_type":[0,0,0,0,0,0,0],"sum_hessian":[6.10174E3,4.463042E3,1.6386979E3,2.3666755E3,2.0963667E3,8.668581E2,7.7183984E2],"tree_param":{"num_deleted":"0","num_feature":"104","num_nodes":"7","size_leaf_vector":"0"}},{"base_weights":[-1.2775943E-1,9.396545E-2,-2.7161306E-1,1.7927803E-1,-1.4894485E-1,-1.632778E-1,-4.8834136E-1],"categories":[],"categories_nodes":[],"categories_segments":[],"categories_sizes":[],"default_left":[1,1,1,0,0,0,0],"id":42,"left_children":[1,3,5,-1,-1,-1,-1],"loss_changes":[1.9462582E2,4.9793755E1,8.680786E1,0E0,0E0,0E0,0E0],"parents":[2147483647,0,0,1,1,2,2],"right_children":[2,4,6,-1,-1,-1,-1],"split_conditions":[4.6850002E-1,2.25E1,1.95E1,1.7927802E-3,-1.4894485E-3,-1.632778E-3,-4.8834137E-3],"split_indices":[3,103,103,0,0,0,0],"split_type":[0,0,0,0,0,0,0],"sum_hessian":[6.100102E3,2.4005012E3,3.6996006E3,1.7767502E3,6.23751E2,2.4677888E3,1.2318119E3],"tree_param":{"num_deleted":"0","num_feature":"104","num_nodes":"7","size_leaf_vector":"0"}},{"base_weights":[1.2775944E-1,-9.396546E-2,2.716131E-1,-1.7927806E-1,1.4894485E-1,1.6327783E-1,4.883414E-1],"categories":[],"categories_nodes":[],"categories_segments":[],"categories_sizes":[],"default_left":[1,1,1,0,0,0,0],"id":43,"left_children":[1,3,5,-1,-1,-1,-1],"loss_changes":[1.9462589E2,4.9793755E1,8.680783E1,0E0,0E0,0E0,0E0],"parents":[2147483647,0,0,1,1,2,2],"right_children":[2,4,6,-1,-1,-1,-1],"split_conditions":[4.6850002E-1,2.25E1,1.95E1,-1.7927806E-3,1.4894485E-3,1.6327783E-3,4.8834137E-3],"split_indices":[3,103,103,0,0,0,0],"split_type":[0,0,0,0,0,0,0],"sum_hessian":[6.100102E3,2.4005012E3,3.6996008E3,1.7767504E3,6.237509E2,2.4677888E3,1.2318119E3],"tree_param":{"num_deleted":"0","num_feature":"104","num_nodes":"7","size_leaf_vector":"0"}},{"base_weights":[-1.2651795E-1,-3.0671316E-1,4.8126873E-2,-3.9638534E-1,-7.481104E-2,1.7860024E-1,-1.4590473E-1],"categories":[],"categories_nodes":[],"categories_segments":[],"categories_sizes":[],"default_left":[1,1,1,0,0,0,0],"id":44,"left_children":[1,3,5,-1,-1,-1,-1],"loss_changes":[1.9196484E2,6.2400574E1,7.846208E1,0E0,0E0,0E0,0E0],"parents":[2147483647,0,0,1,1,2,2],"right_children":[2,4,6,-1,-1,-1,-1],"split_conditions":[1.45E1,3.75E0,1.65E1,-3.963853E-3,-7.481104E-4,1.7860023E-3,-1.4590473E-3],"split_indices":[51,77,80,0,0,0,0],"split_type":[0,0,0,0,0,0,0],"sum_hessian":[6.0984316E3,3.001148E3,3.0972837E3,2.1637551E3,8.3739264E2,1.8520098E3,1.245274E3],"tree_param":{"num_deleted":"0","num_feature":"104","num_nodes":"7","size_leaf_vector":"0"}},{"base_weights":[1.2651794E-1,3.0671316E-1,-4.8126876E-2,3.9638537E-1,7.481092E-2,-1.7860022E-1,1.459047E-1],"categories":[],"categories_nodes":[],"categories_segments":[],"categories_sizes":[],"default_left":[1,1,1,0,0,0,0],"id":45,"left_children":[1,3,5,-1,-1,-1,-1],"loss_changes":[1.9196484E2,6.2400604E1,7.846206E1,0E0,0E0,0E0,0E0],"parents":[2147483647,0,0,1,1,2,2],"right_children":[2,4,6,-1,-1,-1,-1],"split_conditions":[1.45E1,3.75E0,1.65E1,3.9638537E-3,7.481092E-4,-1.7860022E-3,1.459047E-3],"split_indices":[51,77,80,0,0,0,0],"split_type":[0,0,0,0,0,0,0],"sum_hessian":[6.0984316E3,3.001148E3,3.0972837E3,2.1637551E3,8.3739264E2,1.8520098E3,1.245274E3],"tree_param":{"num_deleted":"0","num_feature":"104","num_nodes":"7","size_leaf_vector":"0"}},{"base_weights":[-1.2528776E-1,-2.3201369E-1,1.6517276E-1,-1.357871E-1,-4.7047126E-1,3.1913746E-2,3.1468317E-1],"categories":[],"categories_nodes":[],"categories_segments":[],"categories_sizes":[],"default_left":[1,1,1,0,0,0,0],"id":46,"left_children":[1,3,5,-1,-1,-1,-1],"loss_changes":[1.8906761E2,1.022681E2,3.2646523E1,0E0,0E0,0E0,0E0],"parents":[2147483647,0,0,1,1,2,2],"right_children":[2,4,6,-1,-1,-1,-1],"split_conditions":[2.05E1,1.95E1,5.135E-1,-1.357871E-3,-4.7047124E-3,3.1913744E-4,3.1468316E-3],"split_indices":[28,80,55,0,0,0,0],"split_type":[0,0,0,0,0,0,0],"sum_hessian":[6.096784E3,4.458696E3,1.6380885E3,3.177874E3,1.2808219E3,8.6675824E2,7.7133026E2],"tree_param":{"num_deleted":"0","num_feature":"104","num_nodes":"7","size_leaf_vector":"0"}},{"base_weights":[1.2528776E-1,2.3201369E-1,-1.6517273E-1,1.3578711E-1,4.7047123E-1,-3.1913705E-2,-3.1468317E-1],"categories":[],"categories_nodes":[],"categories_segments":[],"categories_sizes":[],"default_left":[1,1,1,0,0,0,0],"id":47,"left_children":[1,3,5,-1,-1,-1,-1],"loss_changes":[1.8906757E2,1.0226807E2,3.264653E1,0E0,0E0,0E0,0E0],"parents":[2147483647,0,0,1,1,2,2],"right_children":[2,4,6,-1,-1,-1,-1],"split_conditions":[2.05E1,1.95E1,5.135E-1,1.3578711E-3,4.7047124E-3,-3.1913703E-4,-3.1468316E-3],"split_indices":[28,80,55,0,0,0,0],"split_type":[0,0,0,0,0,0,0],"sum_hessian":[6.096784E3,4.458696E3,1.6380885E3,3.1778738E3,1.2808219E3,8.667582E2,7.7133026E2],"tree_param":{"num_deleted":"0","num_feature":"104","num_nodes":"7","size_leaf_vector":"0"}},{"base_weights":[-1.2407066E-1,-3.0165455E-1,4.7947966E-2,-2.0679796E-2,-3.7381262E-1,-1.7820677E-1,1.5689509E-1],"categories":[],"categories_nodes":[],"categories_segments":[],"categories_sizes":[],"default_left":[1,1,1,0,0,0,0],"id":48,"left_children":[1,3,5,-1,-1,-1,-1],"loss_changes":[1.8623547E2,6.080893E1,7.634493E1,0E0,0E0,0E0,0E0],"parents":[2147483647,0,0,1,1,2,2],"right_children":[2,4,6,-1,-1,-1,-1],"split_conditions":[1.45E1,5.5E0,-1.95E0,-2.0679795E-4,-3.738126E-3,-1.7820677E-3,1.5689508E-3],"split_indices":[51,103,77,0,0,0,0],"split_type":[0,0,0,0,0,0,0],"sum_hessian":[6.095067E3,2.9986494E3,3.0964175E3,6.1299756E2,2.3856519E3,1.0064895E3,2.089928E3],"tree_param":{"num_deleted":"0","num_feature":"104","num_nodes":"7","size_leaf_vector":"0"}},{"base_weights":[1.2407064E-1,3.0165452E-1,-4.7947988E-2,2.0679684E-2,3.7381262E-1,1.7820679E-1,-1.5689513E-1],"categories":[],"categories_nodes":[],"categories_segments":[],"categories_sizes":[],"default_left":[1,1,1,0,0,0,0],"id":49,"left_children":[1,3,5,-1,-1,-1,-1],"loss_changes":[1.8623553E2,6.080896E1,7.634496E1,0E0,0E0,0E0,0E0],"parents":[2147483647,0,0,1,1,2,2],"right_children":[2,4,6,-1,-1,-1,-1],"split_conditions":[1.45E1,5.5E0,-1.95E0,2.0679685E-4,3.738126E-3,1.7820678E-3,-1.5689513E-3],"split_indices":[51,103,77,0,0,0,0],"split_type":[0,0,0,0,0,0,0],"sum_hessian":[6.095067E3,2.9986494E3,3.0964175E3,6.1299756E2,2.3856519E3,1.0064895E3,2.089928E3],"tree_param":{"num_deleted":"0","num_feature":"104","num_nodes":"7","size_leaf_vector":"0"}},{"base_weights":[-1.22866094E-1,-2.2799939E-1,1.631519E-1,-8.723088E-2,-3.8718134E-1,-3.995665E-3,2.7863014E-1],"categories":[],"categories_nodes":[],"categories_segments":[],"categories_sizes":[],"default_left":[1,1,1,0,0,0,0],"id":50,"left_children":[1,3,5,-1,-1,-1,-1],"loss_changes":[1.8329382E2,9.983151E1,3.1629436E1,0E0,0E0,0E0,0E0],"parents":[2147483647,0,0,1,1,2,2],"right_children":[2,4,6,-1,-1,-1,-1],"split_conditions":[2.05E1,1.35E1,4.7E-1,-8.723088E-4,-3.8718134E-3,-3.995665E-5,2.7863013E-3],"split_indices":[28,80,55,0,0,0,0],"split_type":[0,0,0,0,0,0,0],"sum_hessian":[6.09333E3,4.4557183E3,1.6376116E3,2.365445E3,2.0902732E3,6.695071E2,9.681045E2],"tree_param":{"num_deleted":"0","num_feature":"104","num_nodes":"7","size_leaf_vector":"0"}},{"base_weights":[1.2286607E-1,2.2799937E-1,-1.6315192E-1,8.723086E-2,3.871813E-1,3.995663E-3,-2.7863017E-1],"categories":[],"categories_nodes":[],"categories_segments":[],"categories_sizes":[],"default_left":[1,1,1,0,0,0,0],"id":51,"left_children":[1,3,5,-1,-1,-1,-1],"loss_changes":[1.8329382E2,9.983153E1,3.162944E1,0E0,0E0,0E0,0E0],"parents":[2147483647,0,0,1,1,2,2],"right_children":[2,4,6,-1,-1,-1,-1],"split_conditions":[2.05E1,1.35E1,4.7E-1,8.723086E-4,3.871813E-3,3.995663E-5,-2.7863015E-3],"split_indices":[28,80,55,0,0,0,0],"split_type":[0,0,0,0,0,0,0],"sum_hessian":[6.09333E3,4.4557183E3,1.6376116E3,2.365445E3,2.0902732E3,6.695071E2,9.6810455E2],"tree_param":{"num_deleted":"0","num_feature":"104","num_nodes":"7","size_leaf_vector":"0"}},{"base_weights":[-1.2167639E-1,-2.9668912E-1,4.775241E-2,-2.2789918E-1,-5.877472E-1,-1.7479889E-1,1.5494303E-1],"categories":[],"categories_nodes":[],"categories_segments":[],"categories_sizes":[],"default_left":[1,1,1,0,0,0,0],"id":52,"left_children":[1,3,5,-1,-1,-1,-1],"loss_changes":[1.8066766E2,5.987082E1,7.3894226E1,0E0,0E0,0E0,0E0],"parents":[2147483647,0,0,1,1,2,2],"right_children":[2,4,6,-1,-1,-1,-1],"split_conditions":[1.45E1,2.25E1,-1.95E0,-2.2789917E-3,-5.877472E-3,-1.7479889E-3,1.5494303E-3],"split_indices":[51,80,77,0,0,0,0],"split_type":[0,0,0,0,0,0,0],"sum_hessian":[6.0914146E3,2.9959622E3,3.0954524E3,2.4246846E3,5.7127765E2,1.006047E3,2.0894055E3],"tree_param":{"num_deleted":"0","num_feature":"104","num_nodes":"7","size_leaf_vector":"0"}},{"base_weights":[1.216764E-1,2.9668915E-1,-4.7752414E-2,2.2789921E-1,5.877472E-1,1.747989E-1,-1.5494305E-1],"categories":[],"categories_nodes":[],"categories_segments":[],"categories_sizes":[],"default_left":[1,1,1,0,0,0,0],"id":53,"left_children":[1,3,5,-1,-1,-1,-1],"loss_changes":[1.806677E2,5.987082E1,7.389424E1,0E0,0E0,0E0,0E0],"parents":[2147483647,0,0,1,1,2,2],"right_children":[2,4,6,-1,-1,-1,-1],"split_conditions":[1.45E1,2.25E1,-1.95E0,2.278992E-3,5.877472E-3,1.747989E-3,-1.5494304E-3],"split_indices":[51,80,77,0,0,0,0],"split_type":[0,0,0,0,0,0,0],"sum_hessian":[6.0914146E3,2.9959622E3,3.0954524E3,2.4246846E3,5.7127765E2,1.006047E3,2.0894055E3],"tree_param":{"num_deleted":"0","num_feature":"104","num_nodes":"7","size_leaf_vector":"0"}},{"base_weights":[-1.20497644E-1,-2.355221E-1,1.3358904E-1,-9.5102794E-2,-3.9317986E-1,2.0168349E-1,-1.2738958E-1],"categories":[],"categories_nodes":[],"categories_segments":[],"categories_sizes":[],"default_left":[1,1,1,0,0,0,0],"id":54,"left_children":[1,3,5,-1,-1,-1,-1],"loss_changes":[1.7803613E2,9.278734E1,3.376645E1,0E0,0E0,0E0,0E0],"parents":[2147483647,0,0,1,1,2,2],"right_children":[2,4,6,-1,-1,-1,-1],"split_conditions":[1.95E1,1.35E1,2.35E1,-9.510279E-4,-3.9317985E-3,2.016835E-3,-1.2738957E-3],"split_indices":[27,80,81,0,0,0,0],"split_type":[0,0,0,0,0,0,0],"sum_hessian":[6.089589E3,4.191968E3,1.8976211E3,2.2180474E3,1.9739204E3,1.5051304E3,3.9249078E2],"tree_param":{"num_deleted":"0","num_feature":"104","num_nodes":"7","size_leaf_vector":"0"}},{"base_weights":[1.2049764E-1,2.355221E-1,-1.3358907E-1,9.51028E-2,3.931799E-1,-2.0168349E-1,1.2738949E-1],"categories":[],"categories_nodes":[],"categories_segments":[],"categories_sizes":[],"default_left":[1,1,1,0,0,0,0],"id":55,"left_children":[1,3,5,-1,-1,-1,-1],"loss_changes":[1.7803613E2,9.27874E1,3.3766438E1,0E0,0E0,0E0,0E0],"parents":[2147483647,0,0,1,1,2,2],"right_children":[2,4,6,-1,-1,-1,-1],"split_conditions":[1.95E1,1.35E1,2.35E1,9.51028E-4,3.931799E-3,-2.016835E-3,1.2738949E-3],"split_indices":[27,80,81,0,0,0,0],"split_type":[0,0,0,0,0,0,0],"sum_hessian":[6.089589E3,4.191968E3,1.8976211E3,2.2180474E3,1.9739204E3,1.5051304E3,3.9249078E2],"tree_param":{"num_deleted":"0","num_feature":"104","num_nodes":"7","size_leaf_vector":"0"}},{"base_weights":[-1.1933264E-1,1.3984984E-1,-2.3047145E-1,-4.400396E-2,2.4635999E-1,-1.3666984E-1,-4.574069E-1],"categories":[],"categories_nodes":[],"categories_segments":[],"categories_sizes":[],"default_left":[1,1,1,0,0,0,0],"id":56,"left_children":[1,3,5,-1,-1,-1,-1],"loss_changes":[1.7541602E2,3.5805363E1,9.065602E1,0E0,0E0,0E0,0E0],"parents":[2147483647,0,0,1,1,2,2],"right_children":[2,4,6,-1,-1,-1,-1],"split_conditions":[-2.15E0,-1.45E0,1.95E1,-4.4003958E-4,2.4636E-3,-1.3666984E-3,-4.574069E-3],"split_indices":[25,77,80,0,0,0,0],"split_type":[0,0,0,0,0,0,0],"sum_hessian":[6.087608E3,1.8269021E3,4.2607056E3,6.7035223E2,1.1565499E3,3.0157686E3,1.244937E3],"tree_param":{"num_deleted":"0","num_feature":"104","num_nodes":"7","size_leaf_vector":"0"}},{"base_weights":[1.19332634E-1,-1.3984983E-1,2.3047143E-1,4.400393E-2,-2.4635994E-1,1.3666981E-1,4.5740694E-1],"categories":[],"categories_nodes":[],"categories_segments":[],"categories_sizes":[],"default_left":[1,1,1,0,0,0,0],"id":57,"left_children":[1,3,5,-1,-1,-1,-1],"loss_changes":[1.7541599E2,3.5805347E1,9.065602E1,0E0,0E0,0E0,0E0],"parents":[2147483647,0,0,1,1,2,2],"right_children":[2,4,6,-1,-1,-1,-1],"split_conditions":[-2.15E0,-1.45E0,1.95E1,4.400393E-4,-2.4635994E-3,1.3666981E-3,4.5740693E-3],"split_indices":[25,77,80,0,0,0,0],"split_type":[0,0,0,0,0,0,0],"sum_hessian":[6.087608E3,1.8269022E3,4.2607056E3,6.7035223E2,1.1565499E3,3.0157688E3,1.244937E3],"tree_param":{"num_deleted":"0","num_feature":"104","num_nodes":"7","size_leaf_vector":"0"}},{"base_weights":[-1.1817759E-1,-2.896184E-1,4.76455E-2,-1.5067863E-2,-3.6030087E-1,-9.655875E-2,2.0727907E-1],"categories":[],"categories_nodes":[],"categories_segments":[],"categories_sizes":[],"default_left":[1,1,1,0,0,0,0],"id":58,"left_children":[1,3,5,-1,-1,-1,-1],"loss_changes":[1.7305142E2,5.8072464E1,7.126404E1,0E0,0E0,0E0,0E0],"parents":[2147483647,0,0,1,1,2,2],"right_children":[2,4,6,-1,-1,-1,-1],"split_conditions":[1.45E1,5.5E0,3.5000002E-1,-1.5067864E-4,-3.6030086E-3,-9.655875E-4,2.0727906E-3],"split_indices":[51,103,77,0,0,0,0],"split_type":[0,0,0,0,0,0,0],"sum_hessian":[6.0856914E3,2.991795E3,3.0938967E3,6.127839E2,2.379011E3,1.6257122E3,1.4681846E3],"tree_param":{"num_deleted":"0","num_feature":"104","num_nodes":"7","size_leaf_vector":"0"}},{"base_weights":[1.18177615E-1,2.8961846E-1,-4.7645517E-2,1.5067892E-2,3.6030093E-1,9.655875E-2,-2.072791E-1],"categories":[],"categories_nodes":[],"categories_segments":[],"categories_sizes":[],"default_left":[1,1,1,0,0,0,0],"id":59,"left_children":[1,3,5,-1,-1,-1,-1],"loss_changes":[1.7305147E2,5.807251E1,7.126405E1,0E0,0E0,0E0,0E0],"parents":[2147483647,0,0,1,1,2,2],"right_children":[2,4,6,-1,-1,-1,-1],"split_conditions":[1.45E1,5.5E0,3.5000002E-1,1.5067891E-4,3.6030093E-3,9.655875E-4,-2.0727909E-3],"split_indices":[51,103,77,0,0,0,0],"split_type":[0,0,0,0,0,0,0],"sum_hessian":[6.0856914E3,2.991795E3,3.0938967E3,6.127839E2,2.379011E3,1.6257122E3,1.4681844E3],"tree_param":{"num_deleted":"0","num_feature":"104","num_nodes":"7","size_leaf_vector":"0"}},{"base_weights":[-1.1703361E-1,-2.2676112E-1,1.3821891E-1,-9.16134E-2,-3.8132703E-1,7.0230393E-3,2.8542513E-1],"categories":[],"categories_nodes":[],"categories_segments":[],"categories_sizes":[],"default_left":[1,1,1,0,0,0,0],"id":60,"left_children":[1,3,5,-1,-1,-1,-1],"loss_changes":[1.7045502E2,8.8866E1,3.5339462E1,0E0,0E0,0E0,0E0],"parents":[2147483647,0,0,1,1,2,2],"right_children":[2,4,6,-1,-1,-1,-1],"split_conditions":[1.95E1,1.35E1,5.135E-1,-9.161339E-4,-3.8132702E-3,7.023039E-5,2.8542513E-3],"split_indices":[28,80,55,0,0,0,0],"split_type":[0,0,0,0,0,0,0],"sum_hessian":[6.0837725E3,4.2548267E3,1.8289459E3,2.270854E3,1.9839728E3,9.6761646E2,8.613295E2],"tree_param":{"num_deleted":"0","num_feature":"104","num_nodes":"7","size_leaf_vector":"0"}},{"base_weights":[1.1703359E-1,2.267611E-1,-1.3821891E-1,9.161338E-2,3.8132703E-1,-7.0230314E-3,-2.8542513E-1],"categories":[],"categories_nodes":[],"categories_segments":[],"categories_sizes":[],"default_left":[1,1,1,0,0,0,0],"id":61,"left_children":[1,3,5,-1,-1,-1,-1],"loss_changes":[1.7045502E2,8.8866E1,3.533947E1,0E0,0E0,0E0,0E0],"parents":[2147483647,0,0,1,1,2,2],"right_children":[2,4,6,-1,-1,-1,-1],"split_conditions":[1.95E1,1.35E1,5.135E-1,9.161338E-4,3.8132702E-3,-7.0230315E-5,-2.8542513E-3],"split_indices":[28,80,55,0,0,0,0],"split_type":[0,0,0,0,0,0,0],"sum_hessian":[6.0837725E3,4.2548267E3,1.828946E3,2.270854E3,1.9839728E3,9.676165E2,8.613295E2],"tree_param":{"num_deleted":"0","num_feature":"104","num_nodes":"7","size_leaf_vector":"0"}},{"base_weights":[-1.1590526E-1,-2.84821E-1,4.7361687E-2,-2.1785218E-1,-5.6924754E-1,-9.4496846E-2,2.0440534E-1],"categories":[],"categories_nodes":[],"categories_segments":[],"categories_sizes":[],"default_left":[1,1,1,0,0,0,0],"id":62,"left_children":[1,3,5,-1,-1,-1,-1],"loss_changes":[1.6776184E2,5.6823486E1,6.89447E1,0E0,0E0,0E0,0E0],"parents":[2147483647,0,0,1,1,2,2],"right_children":[2,4,6,-1,-1,-1,-1],"split_conditions":[1.45E1,2.25E1,3.5000002E-1,-2.1785216E-3,-5.6924755E-3,-9.4496843E-4,2.0440533E-3],"split_indices":[51,80,77,0,0,0,0],"split_type":[0,0,0,0,0,0,0],"sum_hessian":[6.0816084E3,2.988729E3,3.0928792E3,2.4205674E3,5.681617E2,1.6252126E3,1.4676666E3],"tree_param":{"num_deleted":"0","num_feature":"104","num_nodes":"7","size_leaf_vector":"0"}},{"base_weights":[1.15905255E-1,2.84821E-1,-4.7361694E-2,2.1785219E-1,5.6924754E-1,9.449682E-2,-2.0440534E-1],"categories":[],"categories_nodes":[],"categories_segments":[],"categories_sizes":[],"default_left":[1,1,1,0,0,0,0],"id":63,"left_children":[1,3,5,-1,-1,-1,-1],"loss_changes":[1.6776184E2,5.6823486E1,6.894468E1,0E0,0E0,0E0,0E0],"parents":[2147483647,0,0,1,1,2,2],"right_children":[2,4,6,-1,-1,-1,-1],"split_conditions":[1.45E1,2.25E1,3.5000002E-1,2.1785218E-3,5.6924755E-3,9.4496814E-4,-2.0440533E-3],"split_indices":[51,80,77,0,0,0,0],"split_type":[0,0,0,0,0,0,0],"sum_hessian":[6.0816084E3,2.988729E3,3.0928792E3,2.4205674E3,5.681617E2,1.6252126E3,1.4676666E3],"tree_param":{"num_deleted":"0","num_feature":"104","num_nodes":"7","size_leaf_vector":"0"}},{"base_weights":[-1.14785634E-1,-2.1490015E-1,1.5713584E-1,-1.23930186E-1,-4.415529E-1,3.2815795E-2,2.9687402E-1],"categories":[],"categories_nodes":[],"categories_segments":[],"categories_sizes":[],"default_left":[1,1,1,0,0,0,0],"id":64,"left_children":[1,3,5,-1,-1,-1,-1],"loss_changes":[1.6556784E2,9.158963E1,2.8426258E1,0E0,0E0,0E0,0E0],"parents":[2147483647,0,0,1,1,2,2],"right_children":[2,4,6,-1,-1,-1,-1],"split_conditions":[2.05E1,1.95E1,5.135E-1,-1.2393019E-3,-4.415529E-3,3.2815794E-4,2.9687402E-3],"split_indices":[28,80,55,0,0,0,0],"split_type":[0,0,0,0,0,0,0],"sum_hessian":[6.079606E3,4.443743E3,1.6358627E3,3.1721196E3,1.2716237E3,8.663431E2,7.695196E2],"tree_param":{"num_deleted":"0","num_feature":"104","num_nodes":"7","size_leaf_vector":"0"}},{"base_weights":[1.14785634E-1,2.1490017E-1,-1.5713586E-1,1.239302E-1,4.415529E-1,-3.2815766E-2,-2.968741E-1],"categories":[],"categories_nodes":[],"categories_segments":[],"categories_sizes":[],"default_left":[1,1,1,0,0,0,0],"id":65,"left_children":[1,3,5,-1,-1,-1,-1],"loss_changes":[1.6556787E2,9.158963E1,2.8426281E1,0E0,0E0,0E0,0E0],"parents":[2147483647,0,0,1,1,2,2],"right_children":[2,4,6,-1,-1,-1,-1],"split_conditions":[2.05E1,1.95E1,5.135E-1,1.239302E-3,4.415529E-3,-3.2815765E-4,-2.9687409E-3],"split_indices":[28,80,55,0,0,0,0],"split_type":[0,0,0,0,0,0,0],"sum_hessian":[6.079606E3,4.443743E3,1.6358627E3,3.1721194E3,1.2716237E3,8.663431E2,7.695196E2],"tree_param":{"num_deleted":"0","num_feature":"104","num_nodes":"7","size_leaf_vector":"0"}},{"base_weights":[-1.136784E-1,-2.4882028E-1,8.488575E-2,-1.2322095E-2,-3.37991E-1,1.979939E-1,-8.4442616E-2],"categories":[],"categories_nodes":[],"categories_segments":[],"categories_sizes":[],"default_left":[1,1,1,0,0,0,0],"id":66,"left_children":[1,3,5,-1,-1,-1,-1],"loss_changes":[1.6313303E2,7.627614E1,4.7176956E1,0E0,0E0,0E0,0E0],"parents":[2147483647,0,0,1,1,2,2],"right_children":[2,4,6,-1,-1,-1,-1],"split_conditions":[1.65E1,7.5E0,1.65E1,-1.2322095E-4,-3.37991E-3,1.979939E-3,-8.4442616E-4],"split_indices":[27,103,80,0,0,0,0],"split_type":[0,0,0,0,0,0,0],"sum_hessian":[6.0774785E3,3.6161143E3,2.4613645E3,9.904324E2,2.625682E3,1.4755533E3,9.858111E2],"tree_param":{"num_deleted":"0","num_feature":"104","num_nodes":"7","size_leaf_vector":"0"}},{"base_weights":[1.1367839E-1,2.4882025E-1,-8.4885746E-2,1.23221E-2,3.3799097E-1,-1.9799387E-1,8.444259E-2],"categories":[],"categories_nodes":[],"categories_segments":[],"categories_sizes":[],"default_left":[1,1,1,0,0,0,0],"id":67,"left_children":[1,3,5,-1,-1,-1,-1],"loss_changes":[1.6313301E2,7.627612E1,4.7176937E1,0E0,0E0,0E0,0E0],"parents":[2147483647,0,0,1,1,2,2],"right_children":[2,4,6,-1,-1,-1,-1],"split_conditions":[1.65E1,7.5E0,1.65E1,1.2322099E-4,3.3799096E-3,-1.9799387E-3,8.4442593E-4],"split_indices":[27,103,80,0,0,0,0],"split_type":[0,0,0,0,0,0,0],"sum_hessian":[6.077479E3,3.6161143E3,2.4613645E3,9.9043243E2,2.625682E3,1.4755533E3,9.858111E2],"tree_param":{"num_deleted":"0","num_feature":"104","num_nodes":"7","size_leaf_vector":"0"}},{"base_weights":[-1.1258216E-1,-2.1473539E-1,1.465935E-1,-6.1384056E-2,-3.4803557E-1,2.0834665E-1,-1.3722228E-1],"categories":[],"categories_nodes":[],"categories_segments":[],"categories_sizes":[],"default_left":[1,1,1,0,0,0,0],"id":68,"left_children":[1,3,5,-1,-1,-1,-1],"loss_changes":[1.6090631E2,8.908159E1,3.0147343E1,0E0,0E0,0E0,0E0],"parents":[2147483647,0,0,1,1,2,2],"right_children":[2,4,6,-1,-1,-1,-1],"split_conditions":[2.15E1,1.15E1,2.45E1,-6.1384053E-4,-3.4803557E-3,2.0834664E-3,-1.3722227E-3],"split_indices":[51,80,81,0,0,0,0],"split_type":[0,0,0,0,0,0,0],"sum_hessian":[6.075336E3,4.357868E3,1.7174679E3,2.0271978E3,2.3306704E3,1.4107749E3,3.0669302E2],"tree_param":{"num_deleted":"0","num_feature":"104","num_nodes":"7","size_leaf_vector":"0"}},{"base_weights":[1.1258217E-1,2.147354E-1,-1.465935E-1,6.1384074E-2,3.4803557E-1,-2.0834664E-1,1.3722228E-1],"categories":[],"categories_nodes":[],"categories_segments":[],"categories_sizes":[],"default_left":[1,1,1,0,0,0,0],"id":69,"left_children":[1,3,5,-1,-1,-1,-1],"loss_changes":[1.6090631E2,8.908157E1,3.0147346E1,0E0,0E0,0E0,0E0],"parents":[2147483647,0,0,1,1,2,2],"right_children":[2,4,6,-1,-1,-1,-1],"split_conditions":[2.15E1,1.15E1,2.45E1,6.138407E-4,3.4803557E-3,-2.0834664E-3,1.3722227E-3],"split_indices":[51,80,81,0,0,0,0],"split_type":[0,0,0,0,0,0,0],"sum_hessian":[6.075336E3,4.357868E3,1.7174679E3,2.0271978E3,2.3306704E3,1.4107749E3,3.0669302E2],"tree_param":{"num_deleted":"0","num_feature":"104","num_nodes":"7","size_leaf_vector":"0"}},{"base_weights":[-1.1149651E-1,-2.7608427E-1,4.7377963E-2,-1.0014343E-2,-3.4481832E-1,1.4086705E-1,-1.7924505E-1],"categories":[],"categories_nodes":[],"categories_segments":[],"categories_sizes":[],"default_left":[1,1,1,0,0,0,0],"id":70,"left_children":[1,3,5,-1,-1,-1,-1],"loss_changes":[1.5884616E2,5.4560867E1,6.552628E1,0E0,0E0,0E0,0E0],"parents":[2147483647,0,0,1,1,2,2],"right_children":[2,4,6,-1,-1,-1,-1],"split_conditions":[1.45E1,5.5E0,2.15E1,-1.0014343E-4,-3.4481832E-3,1.4086706E-3,-1.7924506E-3],"split_indices":[51,103,103,0,0,0,0],"split_type":[0,0,0,0,0,0,0],"sum_hessian":[6.073203E3,2.9826038E3,3.090599E3,6.125528E2,2.370051E3,2.1882544E3,9.02345E2],"tree_param":{"num_deleted":"0","num_feature":"104","num_nodes":"7","size_leaf_vector":"0"}},{"base_weights":[1.11496516E-1,2.7608427E-1,-4.737795E-2,1.0014315E-2,3.448183E-1,-1.4086704E-1,1.7924508E-1],"categories":[],"categories_nodes":[],"categories_segments":[],"categories_sizes":[],"default_left":[1,1,1,0,0,0,0],"id":71,"left_children":[1,3,5,-1,-1,-1,-1],"loss_changes":[1.5884616E2,5.4560837E1,6.552629E1,0E0,0E0,0E0,0E0],"parents":[2147483647,0,0,1,1,2,2],"right_children":[2,4,6,-1,-1,-1,-1],"split_conditions":[1.45E1,5.5E0,2.15E1,1.0014315E-4,3.448183E-3,-1.4086703E-3,1.7924508E-3],"split_indices":[51,103,103,0,0,0,0],"split_type":[0,0,0,0,0,0,0],"sum_hessian":[6.073203E3,2.9826038E3,3.090599E3,6.125528E2,2.370051E3,2.1882544E3,9.02345E2],"tree_param":{"num_deleted":"0","num_feature":"104","num_nodes":"7","size_leaf_vector":"0"}},{"base_weights":[-1.1042226E-1,1.3412867E-1,-2.1550795E-1,-3.8926244E-2,2.3448186E-1,-1.2588535E-1,-4.3342155E-1],"categories":[],"categories_nodes":[],"categories_segments":[],"categories_sizes":[],"default_left":[1,1,1,0,0,0,0],"id":72,"left_children":[1,3,5,-1,-1,-1,-1],"loss_changes":[1.5607277E2,3.1713718E1,8.289749E1,0E0,0E0,0E0,0E0],"parents":[2147483647,0,0,1,1,2,2],"right_children":[2,4,6,-1,-1,-1,-1],"split_conditions":[-2.15E0,-1.45E0,1.95E1,-3.8926242E-4,2.3448186E-3,-1.2588535E-3,-4.3342155E-3],"split_indices":[25,77,80,0,0,0,0],"split_type":[0,0,0,0,0,0,0],"sum_hessian":[6.071028E3,1.824606E3,4.246422E3,6.699378E2,1.1546682E3,3.010042E3,1.23638E3],"tree_param":{"num_deleted":"0","num_feature":"104","num_nodes":"7","size_leaf_vector":"0"}},{"base_weights":[1.10422246E-1,-1.3412869E-1,2.1550794E-1,3.8926225E-2,-2.3448186E-1,1.2588532E-1,4.3342152E-1],"categories":[],"categories_nodes":[],"categories_segments":[],"categories_sizes":[],"default_left":[1,1,1,0,0,0,0],"id":73,"left_children":[1,3,5,-1,-1,-1,-1],"loss_changes":[1.5607275E2,3.1713703E1,8.289751E1,0E0,0E0,0E0,0E0],"parents":[2147483647,0,0,1,1,2,2],"right_children":[2,4,6,-1,-1,-1,-1],"split_conditions":[-2.15E0,-1.45E0,1.95E1,3.8926225E-4,-2.3448186E-3,1.2588532E-3,4.334215E-3],"split_indices":[25,77,80,0,0,0,0],"split_type":[0,0,0,0,0,0,0],"sum_hessian":[6.071028E3,1.824606E3,4.246422E3,6.699378E2,1.1546682E3,3.010042E3,1.23638E3],"tree_param":{"num_deleted":"0","num_feature":"104","num_nodes":"7","size_leaf_vector":"0"}},{"base_weights":[-1.0935928E-1,-2.7152523E-1,4.7057707E-2,-2.0657577E-1,-5.487942E-1,-8.937547E-2,1.9806567E-1],"categories":[],"categories_nodes":[],"categories_segments":[],"categories_sizes":[],"default_left":[1,1,1,0,0,0,0],"id":74,"left_children":[1,3,5,-1,-1,-1,-1],"loss_changes":[1.5397632E2,5.3556946E1,6.3690086E1,0E0,0E0,0E0,0E0],"parents":[2147483647,0,0,1,1,2,2],"right_children":[2,4,6,-1,-1,-1,-1],"split_conditions":[1.45E1,2.25E1,3.5000002E-1,-2.0657575E-3,-5.487942E-3,-8.937547E-4,1.9806565E-3],"split_indices":[51,80,77,0,0,0,0],"split_type":[0,0,0,0,0,0,0],"sum_hessian":[6.0687983E3,2.9792808E3,3.0895176E3,2.4152583E3,5.640224E2,1.6233007E3,1.4662169E3],"tree_param":{"num_deleted":"0","num_feature":"104","num_nodes":"7","size_leaf_vector":"0"}},{"base_weights":[1.09359294E-1,2.7152526E-1,-4.70577E-2,2.0657578E-1,5.487942E-1,8.937545E-2,-1.9806564E-1],"categories":[],"categories_nodes":[],"categories_segments":[],"categories_sizes":[],"default_left":[1,1,1,0,0,0,0],"id":75,"left_children":[1,3,5,-1,-1,-1,-1],"loss_changes":[1.5397632E2,5.355693E1,6.3690056E1,0E0,0E0,0E0,0E0],"parents":[2147483647,0,0,1,1,2,2],"right_children":[2,4,6,-1,-1,-1,-1],"split_conditions":[1.45E1,2.25E1,3.5000002E-1,2.0657578E-3,5.487942E-3,8.937545E-4,-1.9806563E-3],"split_indices":[51,80,77,0,0,0,0],"split_type":[0,0,0,0,0,0,0],"sum_hessian":[6.0687983E3,2.9792808E3,3.0895176E3,2.4152583E3,5.640224E2,1.6233007E3,1.4662169E3],"tree_param":{"num_deleted":"0","num_feature":"104","num_nodes":"7","size_leaf_vector":"0"}},{"base_weights":[-1.0830701E-1,-2.0446388E-1,1.5246439E-1,-1.168209E-1,-4.237662E-1,3.351794E-2,2.8634155E-1],"categories":[],"categories_nodes":[],"categories_segments":[],"categories_sizes":[],"default_left":[1,1,1,0,0,0,0],"id":76,"left_children":[1,3,5,-1,-1,-1,-1],"loss_changes":[1.5217542E2,8.5161606E1,2.6029427E1,0E0,0E0,0E0,0E0],"parents":[2147483647,0,0,1,1,2,2],"right_children":[2,4,6,-1,-1,-1,-1],"split_conditions":[2.05E1,1.95E1,5.135E-1,-1.168209E-3,-4.237662E-3,3.3517941E-4,2.8634155E-3],"split_indices":[28,80,55,0,0,0,0],"split_type":[0,0,0,0,0,0,0],"sum_hessian":[6.0665747E3,4.43239E3,1.6341842E3,3.167892E3,1.2644983E3,8.6600824E2,7.68176E2],"tree_param":{"num_deleted":"0","num_feature":"104","num_nodes":"7","size_leaf_vector":"0"}},{"base_weights":[1.0830701E-1,2.044639E-1,-1.524644E-1,1.16820894E-1,4.2376626E-1,-3.351794E-2,-2.8634158E-1],"categories":[],"categories_nodes":[],"categories_segments":[],"categories_sizes":[],"default_left":[1,1,1,0,0,0,0],"id":77,"left_children":[1,3,5,-1,-1,-1,-1],"loss_changes":[1.5217543E2,8.516165E1,2.6029438E1,0E0,0E0,0E0,0E0],"parents":[2147483647,0,0,1,1,2,2],"right_children":[2,4,6,-1,-1,-1,-1],"split_conditions":[2.05E1,1.95E1,5.135E-1,1.1682089E-3,4.2376625E-3,-3.3517941E-4,-2.8634157E-3],"split_indices":[28,80,55,0,0,0,0],"split_type":[0,0,0,0,0,0,0],"sum_hessian":[6.0665747E3,4.43239E3,1.6341843E3,3.167892E3,1.2644983E3,8.6600824E2,7.68176E2],"tree_param":{"num_deleted":"0","num_feature":"104","num_nodes":"7","size_leaf_vector":"0"}},{"base_weights":[-1.07266136E-1,8.3464794E-2,-2.3658562E-1,1.601467E-1,-1.3481584E-1,-3.3281276E-1,-3.4545343E-2],"categories":[],"categories_nodes":[],"categories_segments":[],"categories_sizes":[],"default_left":[1,1,1,0,0,0,0],"id":78,"left_children":[1,3,5,-1,-1,-1,-1],"loss_changes":[1.4962018E2,4.1054504E1,7.026614E1,0E0,0E0,0E0,0E0],"parents":[2147483647,0,0,1,1,2,2],"right_children":[2,4,6,-1,-1,-1,-1],"split_conditions":[4.735E-1,2.25E1,2.95E0,1.6014669E-3,-1.3481583E-3,-3.3281276E-3,-3.4545342E-4],"split_indices":[3,103,77,0,0,0,0],"split_type":[0,0,0,0,0,0,0],"sum_hessian":[6.0642363E3,2.4504568E3,3.6137793E3,1.8136045E3,6.368523E2,2.4474622E3,1.1663173E3],"tree_param":{"num_deleted":"0","num_feature":"104","num_nodes":"7","size_leaf_vector":"0"}},{"base_weights":[1.0726613E-1,-8.3464794E-2,2.365856E-1,-1.601467E-1,1.3481581E-1,3.3281273E-1,3.454533E-2],"categories":[],"categories_nodes":[],"categories_segments":[],"categories_sizes":[],"default_left":[1,1,1,0,0,0,0],"id":79,"left_children":[1,3,5,-1,-1,-1,-1],"loss_changes":[1.4962018E2,4.1054497E1,7.026616E1,0E0,0E0,0E0,0E0],"parents":[2147483647,0,0,1,1,2,2],"right_children":[2,4,6,-1,-1,-1,-1],"split_conditions":[4.735E-1,2.25E1,2.95E0,-1.6014669E-3,1.3481581E-3,3.328127E-3,3.4545327E-4],"split_indices":[3,103,77,0,0,0,0],"split_type":[0,0,0,0,0,0,0],"sum_hessian":[6.0642363E3,2.4504568E3,3.6137793E3,1.8136045E3,6.3685236E2,2.4474622E3,1.1663173E3],"tree_param":{"num_deleted":"0","num_feature":"104","num_nodes":"7","size_leaf_vector":"0"}},{"base_weights":[-1.0623665E-1,-2.6510802E-1,4.6830647E-2,-5.2028666E-3,-3.3245727E-1,-8.679552E-2,1.9472761E-1],"categories":[],"categories_nodes":[],"categories_segments":[],"categories_sizes":[],"default_left":[1,1,1,0,0,0,0],"id":80,"left_children":[1,3,5,-1,-1,-1,-1],"loss_changes":[1.4744844E2,5.2076767E1,6.1057995E1,0E0,0E0,0E0,0E0],"parents":[2147483647,0,0,1,1,2,2],"right_children":[2,4,6,-1,-1,-1,-1],"split_conditions":[1.45E1,5.5E0,3.5000002E-1,-5.2028667E-5,-3.3245727E-3,-8.6795515E-4,1.9472761E-3],"split_indices":[51,103,77,0,0,0,0],"split_type":[0,0,0,0,0,0,0],"sum_hessian":[6.061833E3,2.9741626E3,3.0876702E3,6.1230695E2,2.3618557E3,1.6223114E3,1.4653589E3],"tree_param":{"num_deleted":"0","num_feature":"104","num_nodes":"7","size_leaf_vector":"0"}},{"base_weights":[1.0623665E-1,2.6510805E-1,-4.6830673E-2,5.202949E-3,3.3245727E-1,8.67955E-2,-1.9472766E-1],"categories":[],"categories_nodes":[],"categories_segments":[],"categories_sizes":[],"default_left":[1,1,1,0,0,0,0],"id":81,"left_children":[1,3,5,-1,-1,-1,-1],"loss_changes":[1.474485E2,5.207672E1,6.1058002E1,0E0,0E0,0E0,0E0],"parents":[2147483647,0,0,1,1,2,2],"right_children":[2,4,6,-1,-1,-1,-1],"split_conditions":[1.45E1,5.5E0,3.5000002E-1,5.202949E-5,3.3245727E-3,8.67955E-4,-1.9472765E-3],"split_indices":[51,103,77,0,0,0,0],"split_type":[0,0,0,0,0,0,0],"sum_hessian":[6.0618325E3,2.9741626E3,3.0876702E3,6.1230695E2,2.3618557E3,1.6223114E3,1.4653588E3],"tree_param":{"num_deleted":"0","num_feature":"104","num_nodes":"7","size_leaf_vector":"0"}},{"base_weights":[-1.0521547E-1,-1.9511163E-1,1.6209035E-1,-4.4174034E-2,-3.269965E-1,2.1498941E-1,-1.4103463E-1],"categories":[],"categories_nodes":[],"categories_segments":[],"categories_sizes":[],"default_left":[1,1,1,0,0,0,0],"id":82,"left_children":[1,3,5,-1,-1,-1,-1],"loss_changes":[1.456643E2,9.027553E1,2.4496254E1,0E0,0E0,0E0,0E0],"parents":[2147483647,0,0,1,1,2,2],"right_children":[2,4,6,-1,-1,-1,-1],"split_conditions":[2.25E1,1.15E1,2.55E1,-4.4174033E-4,-3.269965E-3,2.1498941E-3,-1.4103462E-3],"split_indices":[51,80,81,0,0,0,0],"split_type":[0,0,0,0,0,0,0],"sum_hessian":[6.059511E3,4.5347305E3,1.5247805E3,2.1152437E3,2.419487E3,1.2984718E3,2.263087E2],"tree_param":{"num_deleted":"0","num_feature":"104","num_nodes":"7","size_leaf_vector":"0"}},{"base_weights":[1.0521545E-1,1.9511162E-1,-1.6209038E-1,4.4174034E-2,3.2699648E-1,-2.1498945E-1,1.4103454E-1],"categories":[],"categories_nodes":[],"categories_segments":[],"categories_sizes":[],"default_left":[1,1,1,0,0,0,0],"id":83,"left_children":[1,3,5,-1,-1,-1,-1],"loss_changes":[1.4566434E2,9.027551E1,2.449625E1,0E0,0E0,0E0,0E0],"parents":[2147483647,0,0,1,1,2,2],"right_children":[2,4,6,-1,-1,-1,-1],"split_conditions":[2.25E1,1.15E1,2.55E1,4.4174033E-4,3.2699646E-3,-2.1498946E-3,1.4103454E-3],"split_indices":[51,80,81,0,0,0,0],"split_type":[0,0,0,0,0,0,0],"sum_hessian":[6.059511E3,4.5347305E3,1.5247805E3,2.1152437E3,2.419487E3,1.2984718E3,2.263087E2],"tree_param":{"num_deleted":"0","num_feature":"104","num_nodes":"7","size_leaf_vector":"0"}},{"base_weights":[-1.0420434E-1,-1.9766259E-1,1.489683E-1,-1.11931704E-1,-4.127933E-1,3.331697E-2,2.7927604E-1],"categories":[],"categories_nodes":[],"categories_segments":[],"categories_sizes":[],"default_left":[1,1,1,0,0,0,0],"id":84,"left_children":[1,3,5,-1,-1,-1,-1],"loss_changes":[1.4337251E2,8.156946E1,2.4615067E1,0E0,0E0,0E0,0E0],"parents":[2147483647,0,0,1,1,2,2],"right_children":[2,4,6,-1,-1,-1,-1],"split_conditions":[2.05E1,1.95E1,5.135E-1,-1.119317E-3,-4.127933E-3,3.3316968E-4,2.7927603E-3],"split_indices":[28,80,55,0,0,0,0],"split_type":[0,0,0,0,0,0,0],"sum_hessian":[6.057181E3,4.4242104E3,1.6329705E3,3.1646135E3,1.2595972E3,8.65804E2,7.671665E2],"tree_param":{"num_deleted":"0","num_feature":"104","num_nodes":"7","size_leaf_vector":"0"}},{"base_weights":[1.0420433E-1,1.9766256E-1,-1.4896828E-1,1.1193169E-1,4.1279328E-1,-3.3316966E-2,-2.7927604E-1],"categories":[],"categories_nodes":[],"categories_segments":[],"categories_sizes":[],"default_left":[1,1,1,0,0,0,0],"id":85,"left_children":[1,3,5,-1,-1,-1,-1],"loss_changes":[1.4337244E2,8.156947E1,2.4615067E1,0E0,0E0,0E0,0E0],"parents":[2147483647,0,0,1,1,2,2],"right_children":[2,4,6,-1,-1,-1,-1],"split_conditions":[2.05E1,1.95E1,5.135E-1,1.1193169E-3,4.1279327E-3,-3.3316965E-4,-2.7927603E-3],"split_indices":[28,80,55,0,0,0,0],"split_type":[0,0,0,0,0,0,0],"sum_hessian":[6.057181E3,4.424211E3,1.6329706E3,3.1646135E3,1.2595972E3,8.65804E2,7.671665E2],"tree_param":{"num_deleted":"0","num_feature":"104","num_nodes":"7","size_leaf_vector":"0"}},{"base_weights":[-1.0320501E-1,-2.590937E-1,4.6822835E-2,-1.9608852E-1,-5.296225E-1,-1.5213606E-1,1.4250542E-1],"categories":[],"categories_nodes":[],"categories_segments":[],"categories_sizes":[],"default_left":[1,1,1,0,0,0,0],"id":86,"left_children":[1,3,5,-1,-1,-1,-1],"loss_changes":[1.4164125E2,5.0519028E1,5.878322E1,0E0,0E0,0E0,0E0],"parents":[2147483647,0,0,1,1,2,2],"right_children":[2,4,6,-1,-1,-1,-1],"split_conditions":[1.45E1,2.25E1,-1.95E0,-1.9608852E-3,-5.2962247E-3,-1.5213606E-3,1.4250542E-3],"split_indices":[51,80,77,0,0,0,0],"split_type":[0,0,0,0,0,0,0],"sum_hessian":[6.054724E3,2.9690063E3,3.0857175E3,2.4095547E3,5.594517E2,1.00187177E3,2.0838457E3],"tree_param":{"num_deleted":"0","num_feature":"104","num_nodes":"7","size_leaf_vector":"0"}},{"base_weights":[1.0320502E-1,2.590937E-1,-4.682282E-2,1.9608852E-1,5.296225E-1,1.5213606E-1,-1.4250539E-1],"categories":[],"categories_nodes":[],"categories_segments":[],"categories_sizes":[],"default_left":[1,1,1,0,0,0,0],"id":87,"left_children":[1,3,5,-1,-1,-1,-1],"loss_changes":[1.4164124E2,5.0519028E1,5.8783207E1,0E0,0E0,0E0,0E0],"parents":[2147483647,0,0,1,1,2,2],"right_children":[2,4,6,-1,-1,-1,-1],"split_conditions":[1.45E1,2.25E1,-1.95E0,1.9608852E-3,5.2962247E-3,1.5213606E-3,-1.4250539E-3],"split_indices":[51,80,77,0,0,0,0],"split_type":[0,0,0,0,0,0,0],"sum_hessian":[6.0547236E3,2.9690063E3,3.0857175E3,2.4095547E3,5.594517E2,1.00187177E3,2.0838457E3],"tree_param":{"num_deleted":"0","num_feature":"104","num_nodes":"7","size_leaf_vector":"0"}},{"base_weights":[-1.0221612E-1,-2.2765902E-1,8.144096E-2,-3.9100326E-3,-3.1257054E-1,1.8621717E-1,-7.5375386E-2],"categories":[],"categories_nodes":[],"categories_segments":[],"categories_sizes":[],"default_left":[1,1,1,0,0,0,0],"id":88,"left_children":[1,3,5,-1,-1,-1,-1],"loss_changes":[1.394768E2,6.833623E1,4.03899E1,0E0,0E0,0E0,0E0],"parents":[2147483647,0,0,1,1,2,2],"right_children":[2,4,6,-1,-1,-1,-1],"split_conditions":[1.65E1,7.5E0,1.65E1,-3.9100323E-5,-3.1257053E-3,1.8621717E-3,-7.537538E-4],"split_indices":[27,103,80,0,0,0,0],"split_type":[0,0,0,0,0,0,0],"sum_hessian":[6.0522764E3,3.5959219E3,2.4563545E3,9.895145E2,2.6064075E3,1.4723933E3,9.839611E2],"tree_param":{"num_deleted":"0","num_feature":"104","num_nodes":"7","size_leaf_vector":"0"}},{"base_weights":[1.02216125E-1,2.2765903E-1,-8.144096E-2,3.9100437E-3,3.1257057E-1,-1.8621717E-1,7.5375386E-2],"categories":[],"categories_nodes":[],"categories_segments":[],"categories_sizes":[],"default_left":[1,1,1,0,0,0,0],"id":89,"left_children":[1,3,5,-1,-1,-1,-1],"loss_changes":[1.394768E2,6.833621E1,4.03899E1,0E0,0E0,0E0,0E0],"parents":[2147483647,0,0,1,1,2,2],"right_children":[2,4,6,-1,-1,-1,-1],"split_conditions":[1.65E1,7.5E0,1.65E1,3.9100436E-5,3.1257058E-3,-1.8621717E-3,7.537538E-4],"split_indices":[27,103,80,0,0,0,0],"split_type":[0,0,0,0,0,0,0],"sum_hessian":[6.0522764E3,3.5959219E3,2.4563545E3,9.895145E2,2.6064075E3,1.4723933E3,9.839611E2],"tree_param":{"num_deleted":"0","num_feature":"104","num_nodes":"7","size_leaf_vector":"0"}},{"base_weights":[-1.0123634E-1,-1.8869944E-1,1.585581E-1,-4.137423E-2,-3.17751E-1,2.101285E-1,-1.368606E-1],"categories":[],"categories_nodes":[],"categories_segments":[],"categories_sizes":[],"default_left":[1,1,1,0,0,0,0],"id":90,"left_children":[1,3,5,-1,-1,-1,-1],"loss_changes":[1.375186E2,8.606134E1,2.3254986E1,0E0,0E0,0E0,0E0],"parents":[2147483647,0,0,1,1,2,2],"right_children":[2,4,6,-1,-1,-1,-1],"split_conditions":[2.25E1,1.15E1,2.55E1,-4.1374227E-4,-3.1775099E-3,2.101285E-3,-1.3686059E-3],"split_indices":[51,80,81,0,0,0,0],"split_type":[0,0,0,0,0,0,0],"sum_hessian":[6.049792E3,4.526247E3,1.5235449E3,2.1141057E3,2.4121416E3,1.2973575E3,2.261873E2],"tree_param":{"num_deleted":"0","num_feature":"104","num_nodes":"7","size_leaf_vector":"0"}},{"base_weights":[1.0123634E-1,1.8869944E-1,-1.5855812E-1,4.1374236E-2,3.17751E-1,-2.101285E-1,1.3686052E-1],"categories":[],"categories_nodes":[],"categories_segments":[],"categories_sizes":[],"default_left":[1,1,1,0,0,0,0],"id":91,"left_children":[1,3,5,-1,-1,-1,-1],"loss_changes":[1.375186E2,8.606137E1,2.3254982E1,0E0,0E0,0E0,0E0],"parents":[2147483647,0,0,1,1,2,2],"right_children":[2,4,6,-1,-1,-1,-1],"split_conditions":[2.25E1,1.15E1,2.55E1,4.1374235E-4,3.1775099E-3,-2.101285E-3,1.3686052E-3],"split_indices":[51,80,81,0,0,0,0],"split_type":[0,0,0,0,0,0,0],"sum_hessian":[6.049792E3,4.526247E3,1.5235449E3,2.1141057E3,2.4121414E3,1.2973575E3,2.261873E2],"tree_param":{"num_deleted":"0","num_feature":"104","num_nodes":"7","size_leaf_vector":"0"}},{"base_weights":[-1.00265406E-1,-2.5304863E-1,4.6591908E-2,-1.9096512E-1,-5.2044207E-1,1.3342512E-1,-1.641705E-1],"categories":[],"categories_nodes":[],"categories_segments":[],"categories_sizes":[],"default_left":[1,1,1,0,0,0,0],"id":92,"left_children":[1,3,5,-1,-1,-1,-1],"loss_changes":[1.3572061E2,4.911383E1,5.6477882E1,0E0,0E0,0E0,0E0],"parents":[2147483647,0,0,1,1,2,2],"right_children":[2,4,6,-1,-1,-1,-1],"split_conditions":[1.45E1,2.25E1,2.15E1,-1.9096511E-3,-5.2044205E-3,1.3342511E-3,-1.641705E-3],"split_indices":[51,80,103,0,0,0,0],"split_type":[0,0,0,0,0,0,0],"sum_hessian":[6.0473496E3,2.9635222E3,3.0838276E3,2.4064954E3,5.570268E2,2.1842803E3,8.9954724E2],"tree_param":{"num_deleted":"0","num_feature":"104","num_nodes":"7","size_leaf_vector":"0"}},{"base_weights":[1.0026541E-1,2.5304863E-1,-4.6591904E-2,1.9096513E-1,5.2044207E-1,-1.3342512E-1,1.641705E-1],"categories":[],"categories_nodes":[],"categories_segments":[],"categories_sizes":[],"default_left":[1,1,1,0,0,0,0],"id":93,"left_children":[1,3,5,-1,-1,-1,-1],"loss_changes":[1.3572064E2,4.9113815E1,5.6477882E1,0E0,0E0,0E0,0E0],"parents":[2147483647,0,0,1,1,2,2],"right_children":[2,4,6,-1,-1,-1,-1],"split_conditions":[1.45E1,2.25E1,2.15E1,1.9096512E-3,5.2044205E-3,-1.3342511E-3,1.641705E-3],"split_indices":[51,80,103,0,0,0,0],"split_type":[0,0,0,0,0,0,0],"sum_hessian":[6.0473496E3,2.9635222E3,3.0838276E3,2.4064954E3,5.570268E2,2.1842803E3,8.9954724E2],"tree_param":{"num_deleted":"0","num_feature":"104","num_nodes":"7","size_leaf_vector":"0"}},{"base_weights":[-9.930571E-2,-1.896941E-1,1.4520225E-1,-1.0659454E-1,-3.9911094E-1,5.6570463E-2,3.059037E-1],"categories":[],"categories_nodes":[],"categories_segments":[],"categories_sizes":[],"default_left":[1,1,1,0,0,0,0],"id":94,"left_children":[1,3,5,-1,-1,-1,-1],"loss_changes":[1.3364491E2,7.67807E1,2.323251E1,0E0,0E0,0E0,0E0],"parents":[2147483647,0,0,1,1,2,2],"right_children":[2,4,6,-1,-1,-1,-1],"split_conditions":[2.05E1,1.95E1,5.675E-1,-1.0659454E-3,-3.9911093E-3,5.657046E-4,3.059037E-3],"split_indices":[28,80,55,0,0,0,0],"split_type":[0,0,0,0,0,0,0],"sum_hessian":[6.044847E3,4.413509E3,1.6313383E3,3.1607769E3,1.2527322E3,1.0523094E3,5.790289E2],"tree_param":{"num_deleted":"0","num_feature":"104","num_nodes":"7","size_leaf_vector":"0"}},{"base_weights":[9.930571E-2,1.896941E-1,-1.4520222E-1,1.0659454E-1,3.991109E-1,-5.6570467E-2,-3.0590364E-1],"categories":[],"categories_nodes":[],"categories_segments":[],"categories_sizes":[],"default_left":[1,1,1,0,0,0,0],"id":95,"left_children":[1,3,5,-1,-1,-1,-1],"loss_changes":[1.336449E2,7.67807E1,2.3232494E1,0E0,0E0,0E0,0E0],"parents":[2147483647,0,0,1,1,2,2],"right_children":[2,4,6,-1,-1,-1,-1],"split_conditions":[2.05E1,1.95E1,5.675E-1,1.0659454E-3,3.991109E-3,-5.6570466E-4,-3.0590363E-3],"split_indices":[28,80,55,0,0,0,0],"split_type":[0,0,0,0,0,0,0],"sum_hessian":[6.044847E3,4.413509E3,1.6313384E3,3.1607769E3,1.252732E3,1.0523094E3,5.7902893E2],"tree_param":{"num_deleted":"0","num_feature":"104","num_nodes":"7","size_leaf_vector":"0"}},{"base_weights":[-9.835491E-2,-2.4900815E-1,4.6332333E-2,1.6683595E-3,-3.1431305E-1,-8.078695E-2,1.8698789E-1],"categories":[],"categories_nodes":[],"categories_segments":[],"categories_sizes":[],"default_left":[1,1,1,0,0,0,0],"id":96,"left_children":[1,3,5,-1,-1,-1,-1],"loss_changes":[1.3174088E2,4.8469467E1,5.514871E1,0E0,0E0,0E0,0E0],"parents":[2147483647,0,0,1,1,2,2],"right_children":[2,4,6,-1,-1,-1,-1],"split_conditions":[1.45E1,5.5E0,3.5000002E-1,1.6683594E-5,-3.1431306E-3,-8.078695E-4,1.8698788E-3],"split_indices":[51,103,77,0,0,0,0],"split_type":[0,0,0,0,0,0,0],"sum_hessian":[6.042295E3,2.9597659E3,3.082529E3,6.1190576E2,2.34786E3,1.6194004E3,1.4631285E3],"tree_param":{"num_deleted":"0","num_feature":"104","num_nodes":"7","size_leaf_vector":"0"}},{"base_weights":[9.835492E-2,2.4900815E-1,-4.6332326E-2,-1.6683586E-3,3.1431305E-1,8.078695E-2,-1.8698789E-1],"categories":[],"categories_nodes":[],"categories_segments":[],"categories_sizes":[],"default_left":[1,1,1,0,0,0,0],"id":97,"left_children":[1,3,5,-1,-1,-1,-1],"loss_changes":[1.3174089E2,4.8469467E1,5.514871E1,0E0,0E0,0E0,0E0],"parents":[2147483647,0,0,1,1,2,2],"right_children":[2,4,6,-1,-1,-1,-1],"split_conditions":[1.45E1,5.5E0,3.5000002E-1,-1.6683585E-5,3.1431306E-3,8.078695E-4,-1.8698788E-3],"split_indices":[51,103,77,0,0,0,0],"split_type":[0,0,0,0,0,0,0],"sum_hessian":[6.042295E3,2.9597659E3,3.0825288E3,6.1190576E2,2.34786E3,1.6194005E3,1.4631284E3],"tree_param":{"num_deleted":"0","num_feature":"104","num_nodes":"7","size_leaf_vector":"0"}},{"base_weights":[-9.741293E-2,-1.7563497E-1,1.7805016E-1,-3.395102E-2,-2.9943106E-1,2.1372025E-1,-2.0236911E-1],"categories":[],"categories_nodes":[],"categories_segments":[],"categories_sizes":[],"default_left":[1,1,1,0,0,0,0],"id":98,"left_children":[1,3,5,-1,-1,-1,-1],"loss_changes":[1.3019345E2,8.2520035E1,1.8178879E1,0E0,0E0,0E0,0E0],"parents":[2147483647,0,0,1,1,2,2],"right_children":[2,4,6,-1,-1,-1,-1],"split_conditions":[2.35E1,1.15E1,2.75E1,-3.395102E-4,-2.9943106E-3,2.1372025E-3,-2.023691E-3],"split_indices":[51,80,81,0,0,0,0],"split_type":[0,0,0,0,0,0,0],"sum_hessian":[6.039769E3,4.7042783E3,1.3354907E3,2.194248E3,2.5100305E3,1.2214038E3,1.14086975E2],"tree_param":{"num_deleted":"0","num_feature":"104","num_nodes":"7","size_leaf_vector":"0"}},{"base_weights":[9.741293E-2,1.7563497E-1,-1.7805018E-1,3.395106E-2,2.9943103E-1,-2.1372026E-1,2.0236911E-1],"categories":[],"categories_nodes":[],"categories_segments":[],"categories_sizes":[],"default_left":[1,1,1,0,0,0,0],"id":99,"left_children":[1,3,5,-1,-1,-1,-1],"loss_changes":[1.3019347E2,8.2520004E1,1.8178883E1,0E0,0E0,0E0,0E0],"parents":[2147483647,0,0,1,1,2,2],"right_children":[2,4,6,-1,-1,-1,-1],"split_conditions":[2.35E1,1.15E1,2.75E1,3.395106E-4,2.99431E-3,-2.1372025E-3,2.023691E-3],"split_indices":[51,80,81,0,0,0,0],"split_type":[0,0,0,0,0,0,0],"sum_hessian":[6.039769E3,4.7042783E3,1.3354908E3,2.194248E3,2.5100305E3,1.2214038E3,1.14086975E2],"tree_param":{"num_deleted":"0","num_feature":"104","num_nodes":"7","size_leaf_vector":"0"}},{"base_weights":[-9.647869E-2,-2.1706149E-1,7.968497E-2,-4.2469535E-4,-2.9960203E-1,1.8031809E-1,-7.090878E-2],"categories":[],"categories_nodes":[],"categories_segments":[],"categories_sizes":[],"default_left":[1,1,1,0,0,0,0],"id":100,"left_children":[1,3,5,-1,-1,-1,-1],"loss_changes":[1.2828545E2,6.410315E1,3.7208614E1,0E0,0E0,0E0,0E0],"parents":[2147483647,0,0,1,1,2,2],"right_children":[2,4,6,-1,-1,-1,-1],"split_conditions":[1.65E1,7.5E0,1.65E1,-4.2469533E-6,-2.9960203E-3,1.8031808E-3,-7.0908776E-4],"split_indices":[27,103,80,0,0,0,0],"split_type":[0,0,0,0,0,0,0],"sum_hessian":[6.037334E3,3.5839282E3,2.453406E3,9.890534E2,2.5948748E3,1.4705349E3,9.82871E2],"tree_param":{"num_deleted":"0","num_feature":"104","num_nodes":"7","size_leaf_vector":"0"}},{"base_weights":[9.64787E-2,2.170615E-1,-7.968497E-2,4.24715E-4,2.9960206E-1,-1.8031809E-1,7.090878E-2],"categories":[],"categories_nodes":[],"categories_segments":[],"categories_sizes":[],"default_left":[1,1,1,0,0,0,0],"id":101,"left_children":[1,3,5,-1,-1,-1,-1],"loss_changes":[1.2828546E2,6.410312E1,3.7208614E1,0E0,0E0,0E0,0E0],"parents":[2147483647,0,0,1,1,2,2],"right_children":[2,4,6,-1,-1,-1,-1],"split_conditions":[1.65E1,7.5E0,1.65E1,4.2471497E-6,2.9960205E-3,-1.8031808E-3,7.0908776E-4],"split_indices":[27,103,80,0,0,0,0],"split_type":[0,0,0,0,0,0,0],"sum_hessian":[6.037334E3,3.5839282E3,2.4534058E3,9.890534E2,2.5948748E3,1.4705349E3,9.82871E2],"tree_param":{"num_deleted":"0","num_feature":"104","num_nodes":"7","size_leaf_vector":"0"}},{"base_weights":[-9.555622E-2,-2.432935E-1,4.614619E-2,-1.8259169E-1,-5.060975E-1,1.3026762E-1,-1.5815686E-1],"categories":[],"categories_nodes":[],"categories_segments":[],"categories_sizes":[],"default_left":[1,1,1,0,0,0,0],"id":102,"left_children":[1,3,5,-1,-1,-1,-1],"loss_changes":[1.2636722E2,4.7049225E1,5.2982124E1,0E0,0E0,0E0,0E0],"parents":[2147483647,0,0,1,1,2,2],"right_children":[2,4,6,-1,-1,-1,-1],"split_conditions":[1.45E1,2.25E1,2.15E1,-1.8259169E-3,-5.060975E-3,1.3026762E-3,-1.5815685E-3],"split_indices":[51,80,103,0,0,0,0],"split_type":[0,0,0,0,0,0,0],"sum_hessian":[6.0347114E3,2.9540925E3,3.0806191E3,2.4011711E3,5.529215E2,2.1823872E3,8.982318E2],"tree_param":{"num_deleted":"0","num_feature":"104","num_nodes":"7","size_leaf_vector":"0"}},{"base_weights":[9.555622E-2,2.432935E-1,-4.6146184E-2,1.8259168E-1,5.060976E-1,-1.3026762E-1,1.5815689E-1],"categories":[],"categories_nodes":[],"categories_segments":[],"categories_sizes":[],"default_left":[1,1,1,0,0,0,0],"id":103,"left_children":[1,3,5,-1,-1,-1,-1],"loss_changes":[1.263672E2,4.7049255E1,5.2982132E1,0E0,0E0,0E0,0E0],"parents":[2147483647,0,0,1,1,2,2],"right_children":[2,4,6,-1,-1,-1,-1],"split_conditions":[1.45E1,2.25E1,2.15E1,1.8259167E-3,5.060976E-3,-1.3026762E-3,1.5815689E-3],"split_indices":[51,80,103,0,0,0,0],"split_type":[0,0,0,0,0,0,0],"sum_hessian":[6.0347114E3,2.9540925E3,3.0806191E3,2.401171E3,5.5292145E2,2.1823872E3,8.982318E2],"tree_param":{"num_deleted":"0","num_feature":"104","num_nodes":"7","size_leaf_vector":"0"}},{"base_weights":[-9.4643466E-2,-1.7134964E-1,1.7525838E-1,-3.2337252E-2,-2.9304466E-1,2.1027148E-1,-1.9810984E-1],"categories":[],"categories_nodes":[],"categories_segments":[],"categories_sizes":[],"default_left":[1,1,1,0,0,0,0],"id":104,"left_children":[1,3,5,-1,-1,-1,-1],"loss_changes":[1.24934105E2,7.94747E1,1.7502327E1,0E0,0E0,0E0,0E0],"parents":[2147483647,0,0,1,1,2,2],"right_children":[2,4,6,-1,-1,-1,-1],"split_conditions":[2.35E1,1.15E1,2.75E1,-3.2337251E-4,-2.9304465E-3,2.1027147E-3,-1.9810982E-3],"split_indices":[51,80,81,0,0,0,0],"split_type":[0,0,0,0,0,0,0],"sum_hessian":[6.0320986E3,4.6974478E3,1.3346509E3,2.1933018E3,2.504146E3,1.2206222E3,1.1402862E2],"tree_param":{"num_deleted":"0","num_feature":"104","num_nodes":"7","size_leaf_vector":"0"}},{"base_weights":[9.4643466E-2,1.7134966E-1,-1.752584E-1,3.233725E-2,2.930447E-1,-2.1027148E-1,1.9810984E-1],"categories":[],"categories_nodes":[],"categories_segments":[],"categories_sizes":[],"default_left":[1,1,1,0,0,0,0],"id":105,"left_children":[1,3,5,-1,-1,-1,-1],"loss_changes":[1.24934135E2,7.947473E1,1.7502316E1,0E0,0E0,0E0,0E0],"parents":[2147483647,0,0,1,1,2,2],"right_children":[2,4,6,-1,-1,-1,-1],"split_conditions":[2.35E1,1.15E1,2.75E1,3.233725E-4,2.9304468E-3,-2.1027147E-3,1.9810982E-3],"split_indices":[51,80,81,0,0,0,0],"split_type":[0,0,0,0,0,0,0],"sum_hessian":[6.0320986E3,4.6974478E3,1.3346509E3,2.1933018E3,2.504146E3,1.2206223E3,1.1402862E2],"tree_param":{"num_deleted":"0","num_feature":"104","num_nodes":"7","size_leaf_vector":"0"}},{"base_weights":[-9.373686E-2,-1.8061142E-1,1.4083722E-1,-1.0020894E-1,-3.842229E-1,2.794653E-1,4.4681154E-2],"categories":[],"categories_nodes":[],"categories_segments":[],"categories_sizes":[],"default_left":[1,1,1,0,0,0,0],"id":106,"left_children":[1,3,5,-1,-1,-1,-1],"loss_changes":[1.2292015E2,7.201314E1,2.1720478E1,0E0,0E0,0E0,0E0],"parents":[2147483647,0,0,1,1,2,2],"right_children":[2,4,6,-1,-1,-1,-1],"split_conditions":[2.05E1,1.95E1,-6.3500004E0,-1.0020894E-3,-3.8422288E-3,2.7946527E-3,4.4681152E-4],"split_indices":[28,80,25,0,0,0,0],"split_type":[0,0,0,0,0,0,0],"sum_hessian":[6.029599E3,4.4002104E3,1.6293889E3,3.1556096E3,1.2446008E3,6.665371E2,9.628518E2],"tree_param":{"num_deleted":"0","num_feature":"104","num_nodes":"7","size_leaf_vector":"0"}},{"base_weights":[9.373686E-2,1.8061142E-1,-1.4083722E-1,1.0020895E-1,3.8422284E-1,-2.7946526E-1,-4.4681154E-2],"categories":[],"categories_nodes":[],"categories_segments":[],"categories_sizes":[],"default_left":[1,1,1,0,0,0,0],"id":107,"left_children":[1,3,5,-1,-1,-1,-1],"loss_changes":[1.2292012E2,7.201312E1,2.1720478E1,0E0,0E0,0E0,0E0],"parents":[2147483647,0,0,1,1,2,2],"right_children":[2,4,6,-1,-1,-1,-1],"split_conditions":[2.05E1,1.95E1,-6.3500004E0,1.0020895E-3,3.8422283E-3,-2.7946525E-3,-4.4681152E-4],"split_indices":[28,80,25,0,0,0,0],"split_type":[0,0,0,0,0,0,0],"sum_hessian":[6.029599E3,4.4002104E3,1.6293888E3,3.1556096E3,1.2446008E3,6.6653705E2,9.6285175E2],"tree_param":{"num_deleted":"0","num_feature":"104","num_nodes":"7","size_leaf_vector":"0"}},{"base_weights":[-9.283917E-2,-2.3789993E-1,4.6121564E-2,5.074513E-3,-3.0147684E-1,-7.680161E-2,1.8209092E-1],"categories":[],"categories_nodes":[],"categories_segments":[],"categories_sizes":[],"default_left":[1,1,1,0,0,0,0],"id":108,"left_children":[1,3,5,-1,-1,-1,-1],"loss_changes":[1.2152339E2,4.5563614E1,5.148591E1,0E0,0E0,0E0,0E0],"parents":[2147483647,0,0,1,1,2,2],"right_children":[2,4,6,-1,-1,-1,-1],"split_conditions":[1.45E1,5.5E0,3.5000002E-1,5.074513E-5,-3.0147682E-3,-7.680161E-4,1.8209092E-3],"split_indices":[51,103,77,0,0,0,0],"split_type":[0,0,0,0,0,0,0],"sum_hessian":[6.0270757E3,2.9484666E3,3.078609E3,6.116852E2,2.3367812E3,1.617102E3,1.4615068E3],"tree_param":{"num_deleted":"0","num_feature":"104","num_nodes":"7","size_leaf_vector":"0"}},{"base_weights":[9.283917E-2,2.3789991E-1,-4.6121553E-2,-5.074623E-3,3.0147687E-1,7.680161E-2,-1.8209091E-1],"categories":[],"categories_nodes":[],"categories_segments":[],"categories_sizes":[],"default_left":[1,1,1,0,0,0,0],"id":109,"left_children":[1,3,5,-1,-1,-1,-1],"loss_changes":[1.2152339E2,4.556366E1,5.1485897E1,0E0,0E0,0E0,0E0],"parents":[2147483647,0,0,1,1,2,2],"right_children":[2,4,6,-1,-1,-1,-1],"split_conditions":[1.45E1,5.5E0,3.5000002E-1,-5.074623E-5,3.0147687E-3,7.680161E-4,-1.8209091E-3],"split_indices":[51,103,77,0,0,0,0],"split_type":[0,0,0,0,0,0,0],"sum_hessian":[6.0270757E3,2.9484666E3,3.078609E3,6.116852E2,2.3367812E3,1.617102E3,1.4615068E3],"tree_param":{"num_deleted":"0","num_feature":"104","num_nodes":"7","size_leaf_vector":"0"}},{"base_weights":[-9.19519E-2,-2.0096155E-1,8.989478E-2,-3.925771E-1,-1.15494035E-1,-9.669485E-3,2.3212531E-1],"categories":[],"categories_nodes":[],"categories_segments":[],"categories_sizes":[],"default_left":[1,1,1,0,0,0,0],"id":110,"left_children":[1,3,5,-1,-1,-1,-1],"loss_changes":[1.1946048E2,6.1654312E1,3.1991484E1,0E0,0E0,0E0,0E0],"parents":[2147483647,0,0,1,1,2,2],"right_children":[2,4,6,-1,-1,-1,-1],"split_conditions":[1.75E1,-1.75E0,2.55E1,-3.925771E-3,-1.1549403E-3,-9.669484E-5,2.321253E-3],"split_indices":[27,77,51,0,0,0,0],"split_type":[0,0,0,0,0,0,0],"sum_hessian":[6.0244336E3,3.7664788E3,2.257955E3,1.1606787E3,2.6058E3,1.3287412E3,9.292138E2],"tree_param":{"num_deleted":"0","num_feature":"104","num_nodes":"7","size_leaf_vector":"0"}},{"base_weights":[9.19519E-2,2.0096153E-1,-8.989477E-2,3.9257705E-1,1.1549405E-1,9.669486E-3,-2.321253E-1],"categories":[],"categories_nodes":[],"categories_segments":[],"categories_sizes":[],"default_left":[1,1,1,0,0,0,0],"id":111,"left_children":[1,3,5,-1,-1,-1,-1],"loss_changes":[1.1946048E2,6.165428E1,3.1991476E1,0E0,0E0,0E0,0E0],"parents":[2147483647,0,0,1,1,2,2],"right_children":[2,4,6,-1,-1,-1,-1],"split_conditions":[1.75E1,-1.75E0,2.55E1,3.9257705E-3,1.1549405E-3,9.6694865E-5,-2.3212528E-3],"split_indices":[27,77,51,0,0,0,0],"split_type":[0,0,0,0,0,0,0],"sum_hessian":[6.0244336E3,3.7664785E3,2.257955E3,1.1606787E3,2.6057998E3,1.3287412E3,9.292138E2],"tree_param":{"num_deleted":"0","num_feature":"104","num_nodes":"7","size_leaf_vector":"0"}},{"base_weights":[-9.107215E-2,-2.3393513E-1,4.5641117E-2,-1.7474331E-1,-4.917411E-1,-7.587023E-2,1.8005373E-1],"categories":[],"categories_nodes":[],"categories_segments":[],"categories_sizes":[],"default_left":[1,1,1,0,0,0,0],"id":112,"left_children":[1,3,5,-1,-1,-1,-1],"loss_changes":[1.17645E2,4.4860245E1,5.0293983E1,0E0,0E0,0E0,0E0],"parents":[2147483647,0,0,1,1,2,2],"right_children":[2,4,6,-1,-1,-1,-1],"split_conditions":[1.45E1,2.25E1,3.5000002E-1,-1.7474331E-3,-4.9174107E-3,-7.587023E-4,1.8005372E-3],"split_indices":[51,80,77,0,0,0,0],"split_type":[0,0,0,0,0,0,0],"sum_hessian":[6.0218726E3,2.9443582E3,3.0775144E3,2.3959336E3,5.484246E2,1.6165554E3,1.4609589E3],"tree_param":{"num_deleted":"0","num_feature":"104","num_nodes":"7","size_leaf_vector":"0"}},{"base_weights":[9.107214E-2,2.3393512E-1,-4.5641106E-2,1.7474331E-1,4.9174097E-1,7.587023E-2,-1.800537E-1],"categories":[],"categories_nodes":[],"categories_segments":[],"categories_sizes":[],"default_left":[1,1,1,0,0,0,0],"id":113,"left_children":[1,3,5,-1,-1,-1,-1],"loss_changes":[1.1764498E2,4.4860214E1,5.0293972E1,0E0,0E0,0E0,0E0],"parents":[2147483647,0,0,1,1,2,2],"right_children":[2,4,6,-1,-1,-1,-1],"split_conditions":[1.45E1,2.25E1,3.5000002E-1,1.7474331E-3,4.9174097E-3,7.587023E-4,-1.8005369E-3],"split_indices":[51,80,77,0,0,0,0],"split_type":[0,0,0,0,0,0,0],"sum_hessian":[6.0218726E3,2.9443582E3,3.0775144E3,2.3959336E3,5.484247E2,1.6165554E3,1.4609589E3],"tree_param":{"num_deleted":"0","num_feature":"104","num_nodes":"7","size_leaf_vector":"0"}},{"base_weights":[-9.0203166E-2,-1.6425839E-1,1.6998962E-1,-2.9018736E-2,-2.8303754E-1,2.0440464E-1,-1.9671185E-1],"categories":[],"categories_nodes":[],"categories_segments":[],"categories_sizes":[],"default_left":[1,1,1,0,0,0,0],"id":114,"left_children":[1,3,5,-1,-1,-1,-1],"loss_changes":[1.1602875E2,7.528012E1,1.6879257E1,0E0,0E0,0E0,0E0],"parents":[2147483647,0,0,1,1,2,2],"right_children":[2,4,6,-1,-1,-1,-1],"split_conditions":[2.35E1,1.15E1,2.75E1,-2.9018734E-4,-2.8303755E-3,2.0440463E-3,-1.9671186E-3],"split_indices":[51,80,81,0,0,0,0],"split_type":[0,0,0,0,0,0,0],"sum_hessian":[6.019188E3,4.6858774E3,1.3333105E3,2.191697E3,2.4941804E3,1.2193197E3,1.13990845E2],"tree_param":{"num_deleted":"0","num_feature":"104","num_nodes":"7","size_leaf_vector":"0"}},{"base_weights":[9.020317E-2,1.642584E-1,-1.699896E-1,2.9018734E-2,2.8303754E-1,-2.0440462E-1,1.967119E-1],"categories":[],"categories_nodes":[],"categories_segments":[],"categories_sizes":[],"default_left":[1,1,1,0,0,0,0],"id":115,"left_children":[1,3,5,-1,-1,-1,-1],"loss_changes":[1.16028725E2,7.5280136E1,1.6879257E1,0E0,0E0,0E0,0E0],"parents":[2147483647,0,0,1,1,2,2],"right_children":[2,4,6,-1,-1,-1,-1],"split_conditions":[2.35E1,1.15E1,2.75E1,2.9018734E-4,2.8303755E-3,-2.044046E-3,1.9671188E-3],"split_indices":[51,80,81,0,0,0,0],"split_type":[0,0,0,0,0,0,0],"sum_hessian":[6.019188E3,4.6858774E3,1.3333107E3,2.191697E3,2.4941804E3,1.2193198E3,1.13990845E2],"tree_param":{"num_deleted":"0","num_feature":"104","num_nodes":"7","size_leaf_vector":"0"}},{"base_weights":[-8.93405E-2,-2.0360836E-1,7.706265E-2,2.7937846E-2,-2.756119E-1,1.7345087E-1,-6.713831E-2],"categories":[],"categories_nodes":[],"categories_segments":[],"categories_sizes":[],"default_left":[1,1,1,0,0,0,0],"id":116,"left_children":[1,3,5,-1,-1,-1,-1],"loss_changes":[1.14437546E2,5.9493378E1,3.4073677E1,0E0,0E0,0E0,0E0],"parents":[2147483647,0,0,1,1,2,2],"right_children":[2,4,6,-1,-1,-1,-1],"split_conditions":[1.65E1,6.5E0,1.65E1,2.7937847E-4,-2.756119E-3,1.7345087E-3,-6.7138305E-4],"split_indices":[27,103,80,0,0,0,0],"split_type":[0,0,0,0,0,0,0],"sum_hessian":[6.0166006E3,3.5669666E3,2.4496343E3,8.4624774E2,2.7207188E3,1.4681057E3,9.8152844E2],"tree_param":{"num_deleted":"0","num_feature":"104","num_nodes":"7","size_leaf_vector":"0"}},{"base_weights":[8.93405E-2,2.0360836E-1,-7.706265E-2,-2.7937846E-2,2.756119E-1,-1.7345087E-1,6.713832E-2],"categories":[],"categories_nodes":[],"categories_segments":[],"categories_sizes":[],"default_left":[1,1,1,0,0,0,0],"id":117,"left_children":[1,3,5,-1,-1,-1,-1],"loss_changes":[1.14437546E2,5.9493378E1,3.4073685E1,0E0,0E0,0E0,0E0],"parents":[2147483647,0,0,1,1,2,2],"right_children":[2,4,6,-1,-1,-1,-1],"split_conditions":[1.65E1,6.5E0,1.65E1,-2.7937847E-4,2.756119E-3,-1.7345087E-3,6.713832E-4],"split_indices":[27,103,80,0,0,0,0],"split_type":[0,0,0,0,0,0,0],"sum_hessian":[6.0166006E3,3.5669666E3,2.4496343E3,8.4624774E2,2.7207188E3,1.4681057E3,9.8152844E2],"tree_param":{"num_deleted":"0","num_feature":"104","num_nodes":"7","size_leaf_vector":"0"}},{"base_weights":[-8.848795E-2,-2.2860485E-1,4.5414735E-2,-1.7023158E-1,-4.837396E-1,1.2600338E-1,-1.5049799E-1],"categories":[],"categories_nodes":[],"categories_segments":[],"categories_sizes":[],"default_left":[1,1,1,0,0,0,0],"id":118,"left_children":[1,3,5,-1,-1,-1,-1],"loss_changes":[1.1286156E2,4.3694275E1,4.859136E1,0E0,0E0,0E0,0E0],"parents":[2147483647,0,0,1,1,2,2],"right_children":[2,4,6,-1,-1,-1,-1],"split_conditions":[1.45E1,2.25E1,2.15E1,-1.7023158E-3,-4.837396E-3,1.2600338E-3,-1.5049798E-3],"split_indices":[51,80,103,0,0,0,0],"split_type":[0,0,0,0,0,0,0],"sum_hessian":[6.0138706E3,2.9383987E3,3.0754722E3,2.3926436E3,5.4575507E2,2.1793528E3,8.961194E2],"tree_param":{"num_deleted":"0","num_feature":"104","num_nodes":"7","size_leaf_vector":"0"}},{"base_weights":[8.848795E-2,2.2860487E-1,-4.541475E-2,1.7023157E-1,4.837397E-1,-1.260034E-1,1.5049797E-1],"categories":[],"categories_nodes":[],"categories_segments":[],"categories_sizes":[],"default_left":[1,1,1,0,0,0,0],"id":119,"left_children":[1,3,5,-1,-1,-1,-1],"loss_changes":[1.1286159E2,4.3694275E1,4.859136E1,0E0,0E0,0E0,0E0],"parents":[2147483647,0,0,1,1,2,2],"right_children":[2,4,6,-1,-1,-1,-1],"split_conditions":[1.45E1,2.25E1,2.15E1,1.7023156E-3,4.837397E-3,-1.2600339E-3,1.5049797E-3],"split_indices":[51,80,103,0,0,0,0],"split_type":[0,0,0,0,0,0,0],"sum_hessian":[6.013871E3,2.9383987E3,3.0754722E3,2.3926436E3,5.457551E2,2.1793528E3,8.9611945E2],"tree_param":{"num_deleted":"0","num_feature":"104","num_nodes":"7","size_leaf_vector":"0"}},{"base_weights":[-8.764489E-2,-1.706126E-1,1.3584271E-1,-9.325077E-2,-3.6775097E-1,2.7121553E-1,4.200386E-2],"categories":[],"categories_nodes":[],"categories_segments":[],"categories_sizes":[],"default_left":[1,1,1,0,0,0,0],"id":120,"left_children":[1,3,5,-1,-1,-1,-1],"loss_changes":[1.1150151E2,6.6839516E1,2.0672514E1,0E0,0E0,0E0,0E0],"parents":[2147483647,0,0,1,1,2,2],"right_children":[2,4,6,-1,-1,-1,-1],"split_conditions":[2.05E1,1.95E1,-6.3500004E0,-9.325076E-4,-3.6775097E-3,2.7121552E-3,4.200386E-4],"split_indices":[28,80,25,0,0,0,0],"split_type":[0,0,0,0,0,0,0],"sum_hessian":[6.0111235E3,4.383884E3,1.6272399E3,3.1494407E3,1.2344432E3,6.654153E2,9.6182465E2],"tree_param":{"num_deleted":"0","num_feature":"104","num_nodes":"7","size_leaf_vector":"0"}},{"base_weights":[8.76449E-2,1.7061262E-1,-1.3584271E-1,9.32508E-2,3.6775094E-1,-2.7121553E-1,-4.2003855E-2],"categories":[],"categories_nodes":[],"categories_segments":[],"categories_sizes":[],"default_left":[1,1,1,0,0,0,0],"id":121,"left_children":[1,3,5,-1,-1,-1,-1],"loss_changes":[1.1150151E2,6.683947E1,2.067252E1,0E0,0E0,0E0,0E0],"parents":[2147483647,0,0,1,1,2,2],"right_children":[2,4,6,-1,-1,-1,-1],"split_conditions":[2.05E1,1.95E1,-6.3500004E0,9.3250803E-4,3.6775093E-3,-2.7121552E-3,-4.2003853E-4],"split_indices":[28,80,25,0,0,0,0],"split_type":[0,0,0,0,0,0,0],"sum_hessian":[6.0111235E3,4.383884E3,1.62724E3,3.1494407E3,1.2344432E3,6.654153E2,9.6182465E2],"tree_param":{"num_deleted":"0","num_feature":"104","num_nodes":"7","size_leaf_vector":"0"}},{"base_weights":[-8.680721E-2,-2.2498457E-1,4.511316E-2,1.04661025E-2,-2.8692263E-1,-7.295938E-2,1.7569987E-1],"categories":[],"categories_nodes":[],"categories_segments":[],"categories_sizes":[],"default_left":[1,1,1,0,0,0,0],"id":122,"left_children":[1,3,5,-1,-1,-1,-1],"loss_changes":[1.0955365E2,4.2809647E1,4.7428207E1,0E0,0E0,0E0,0E0],"parents":[2147483647,0,0,1,1,2,2],"right_children":[2,4,6,-1,-1,-1,-1],"split_conditions":[1.45E1,5.5E0,3.5000002E-1,1.0466102E-4,-2.8692263E-3,-7.2959374E-4,1.7569987E-3],"split_indices":[51,103,77,0,0,0,0],"split_type":[0,0,0,0,0,0,0],"sum_hessian":[6.0084937E3,2.9343071E3,3.0741865E3,6.1131024E2,2.3229968E3,1.6146816E3,1.4595049E3],"tree_param":{"num_deleted":"0","num_feature":"104","num_nodes":"7","size_leaf_vector":"0"}},{"base_weights":[8.680723E-2,2.2498459E-1,-4.5113154E-2,-1.0466133E-2,2.8692266E-1,7.295939E-2,-1.7569987E-1],"categories":[],"categories_nodes":[],"categories_segments":[],"categories_sizes":[],"default_left":[1,1,1,0,0,0,0],"id":123,"left_children":[1,3,5,-1,-1,-1,-1],"loss_changes":[1.09553665E2,4.280966E1,4.742822E1,0E0,0E0,0E0,0E0],"parents":[2147483647,0,0,1,1,2,2],"right_children":[2,4,6,-1,-1,-1,-1],"split_conditions":[1.45E1,5.5E0,3.5000002E-1,-1.0466133E-4,2.8692265E-3,7.295939E-4,-1.7569987E-3],"split_indices":[51,103,77,0,0,0,0],"split_type":[0,0,0,0,0,0,0],"sum_hessian":[6.0084937E3,2.9343071E3,3.0741865E3,6.1131024E2,2.3229968E3,1.6146816E3,1.4595049E3],"tree_param":{"num_deleted":"0","num_feature":"104","num_nodes":"7","size_leaf_vector":"0"}},{"base_weights":[-8.597927E-2,-1.5769844E-1,1.656346E-1,-2.621467E-2,-2.7355573E-1,1.9928214E-1,-1.9270727E-1],"categories":[],"categories_nodes":[],"categories_segments":[],"categories_sizes":[],"default_left":[1,1,1,0,0,0,0],"id":124,"left_children":[1,3,5,-1,-1,-1,-1],"loss_changes":[1.0842109E2,7.120705E1,1.6109081E1,0E0,0E0,0E0,0E0],"parents":[2147483647,0,0,1,1,2,2],"right_children":[2,4,6,-1,-1,-1,-1],"split_conditions":[2.35E1,1.15E1,2.75E1,-2.621467E-4,-2.7355573E-3,1.9928215E-3,-1.9270726E-3],"split_indices":[51,80,81,0,0,0,0],"split_type":[0,0,0,0,0,0,0],"sum_hessian":[6.005745E3,4.6738887E3,1.3318564E3,2.1898757E3,2.4840132E3,1.2179385E3,1.1391794E2],"tree_param":{"num_deleted":"0","num_feature":"104","num_nodes":"7","size_leaf_vector":"0"}},{"base_weights":[8.597925E-2,1.5769844E-1,-1.6563462E-1,2.6214672E-2,2.7355573E-1,-1.9928215E-1,1.9270729E-1],"categories":[],"categories_nodes":[],"categories_segments":[],"categories_sizes":[],"default_left":[1,1,1,0,0,0,0],"id":125,"left_children":[1,3,5,-1,-1,-1,-1],"loss_changes":[1.0842108E2,7.120703E1,1.6109085E1,0E0,0E0,0E0,0E0],"parents":[2147483647,0,0,1,1,2,2],"right_children":[2,4,6,-1,-1,-1,-1],"split_conditions":[2.35E1,1.15E1,2.75E1,2.6214673E-4,2.7355573E-3,-1.9928215E-3,1.9270728E-3],"split_indices":[51,80,81,0,0,0,0],"split_type":[0,0,0,0,0,0,0],"sum_hessian":[6.005745E3,4.6738887E3,1.3318564E3,2.1898757E3,2.4840132E3,1.2179385E3,1.1391793E2],"tree_param":{"num_deleted":"0","num_feature":"104","num_nodes":"7","size_leaf_vector":"0"}},{"base_weights":[-8.515808E-2,4.9322285E-3,-2.838934E-1,9.692703E-2,-1.7695892E-1,-3.4275284E-1,-2.8249988E-2],"categories":[],"categories_nodes":[],"categories_segments":[],"categories_sizes":[],"default_left":[1,1,1,0,0,0,0],"id":126,"left_children":[1,3,5,-1,-1,-1,-1],"loss_changes":[1.0749936E2,6.916275E1,2.8170532E1,0E0,0E0,0E0,0E0],"parents":[2147483647,0,0,1,1,2,2],"right_children":[2,4,6,-1,-1,-1,-1],"split_conditions":[2.85E0,1.85E1,5.3500004E0,9.692703E-4,-1.7695891E-3,-3.4275283E-3,-2.8249988E-4],"split_indices":[25,80,77,0,0,0,0],"split_type":[0,0,0,0,0,0,0],"sum_hessian":[6.0030884E3,4.13128E3,1.8718086E3,2.7439458E3,1.3873341E3,1.5212213E3,3.505873E2],"tree_param":{"num_deleted":"0","num_feature":"104","num_nodes":"7","size_leaf_vector":"0"}},{"base_weights":[8.515808E-2,-4.9322266E-3,2.838934E-1,-9.692703E-2,1.7695892E-1,3.427528E-1,2.825002E-2],"categories":[],"categories_nodes":[],"categories_segments":[],"categories_sizes":[],"default_left":[1,1,1,0,0,0,0],"id":127,"left_children":[1,3,5,-1,-1,-1,-1],"loss_changes":[1.0749936E2,6.916276E1,2.8170517E1,0E0,0E0,0E0,0E0],"parents":[2147483647,0,0,1,1,2,2],"right_children":[2,4,6,-1,-1,-1,-1],"split_conditions":[2.85E0,1.85E1,5.3500004E0,-9.692703E-4,1.7695891E-3,3.427528E-3,2.825002E-4],"split_indices":[25,80,77,0,0,0,0],"split_type":[0,0,0,0,0,0,0],"sum_hessian":[6.0030884E3,4.13128E3,1.8718086E3,2.7439458E3,1.3873341E3,1.5212213E3,3.5058734E2],"tree_param":{"num_deleted":"0","num_feature":"104","num_nodes":"7","size_leaf_vector":"0"}},{"base_weights":[-8.434236E-2,-1.7189176E-1,1.17147684E-1,2.3120947E-2,-2.4563585E-1,2.63897E-1,2.67567E-2],"categories":[],"categories_nodes":[],"categories_segments":[],"categories_sizes":[],"default_left":[1,1,1,0,0,0,0],"id":128,