{"learner":{"attributes":{"best_iteration":"499","best_ntree_limit":"500"},"feature_names":[],"feature_types":[],"gradient_booster":{"model":{"gbtree_model_param":{"num_parallel_tree":"1","num_trees":"1000","size_leaf_vector":"0"},"tree_info":[0,1,0,1,0,1,0,1,0,1,0,1,0,1,0,1,0,1,0,1,0,1,0,1,0,1,0,1,0,1,0,1,0,1,0,1,0,1,0,1,0,1,0,1,0,1,0,1,0,1,0,1,0,1,0,1,0,1,0,1,0,1,0,1,0,1,0,1,0,1,0,1,0,1,0,1,0,1,0,1,0,1,0,1,0,1,0,1,0,1,0,1,0,1,0,1,0,1,0,1,0,1,0,1,0,1,0,1,0,1,0,1,0,1,0,1,0,1,0,1,0,1,0,1,0,1,0,1,0,1,0,1,0,1,0,1,0,1,0,1,0,1,0,1,0,1,0,1,0,1,0,1,0,1,0,1,0,1,0,1,0,1,0,1,0,1,0,1,0,1,0,1,0,1,0,1,0,1,0,1,0,1,0,1,0,1,0,1,0,1,0,1,0,1,0,1,0,1,0,1,0,1,0,1,0,1,0,1,0,1,0,1,0,1,0,1,0,1,0,1,0,1,0,1,0,1,0,1,0,1,0,1,0,1,0,1,0,1,0,1,0,1,0,1,0,1,0,1,0,1,0,1,0,1,0,1,0,1,0,1,0,1,0,1,0,1,0,1,0,1,0,1,0,1,0,1,0,1,0,1,0,1,0,1,0,1,0,1,0,1,0,1,0,1,0,1,0,1,0,1,0,1,0,1,0,1,0,1,0,1,0,1,0,1,0,1,0,1,0,1,0,1,0,1,0,1,0,1,0,1,0,1,0,1,0,1,0,1,0,1,0,1,0,1,0,1,0,1,0,1,0,1,0,1,0,1,0,1,0,1,0,1,0,1,0,1,0,1,0,1,0,1,0,1,0,1,0,1,0,1,0,1,0,1,0,1,0,1,0,1,0,1,0,1,0,1,0,1,0,1,0,1,0,1,0,1,0,1,0,1,0,1,0,1,0,1,0,1,0,1,0,1,0,1,0,1,0,1,0,1,0,1,0,1,0,1,0,1,0,1,0,1,0,1,0,1,0,1,0,1,0,1,0,1,0,1,0,1,0,1,0,1,0,1,0,1,0,1,0,1,0,1,0,1,0,1,0,1,0,1,0,1,0,1,0,1,0,1,0,1,0,1,0,1,0,1,0,1,0,1,0,1,0,1,0,1,0,1,0,1,0,1,0,1,0,1,0,1,0,1,0,1,0,1,0,1,0,1,0,1,0,1,0,1,0,1,0,1,0,1,0,1,0,1,0,1,0,1,0,1,0,1,0,1,0,1,0,1,0,1,0,1,0,1,0,1,0,1,0,1,0,1,0,1,0,1,0,1,0,1,0,1,0,1,0,1,0,1,0,1,0,1,0,1,0,1,0,1,0,1,0,1,0,1,0,1,0,1,0,1,0,1,0,1,0,1,0,1,0,1,0,1,0,1,0,1,0,1,0,1,0,1,0,1,0,1,0,1,0,1,0,1,0,1,0,1,0,1,0,1,0,1,0,1,0,1,0,1,0,1,0,1,0,1,0,1,0,1,0,1,0,1,0,1,0,1,0,1,0,1,0,1,0,1,0,1,0,1,0,1,0,1,0,1,0,1,0,1,0,1,0,1,0,1,0,1,0,1,0,1,0,1,0,1,0,1,0,1,0,1,0,1,0,1,0,1,0,1,0,1,0,1,0,1,0,1,0,1,0,1,0,1,0,1,0,1,0,1,0,1,0,1,0,1,0,1,0,1,0,1,0,1,0,1,0,1,0,1,0,1,0,1,0,1,0,1,0,1,0,1,0,1,0,1,0,1,0,1,0,1,0,1,0,1,0,1,0,1,0,1,0,1,0,1,0,1,0,1,0,1,0,1,0,1,0,1,0,1,0,1,0,1,0,1,0,1,0,1,0,1,0,1,0,1,0,1,0,1,0,1,0,1,0,1,0,1,0,1,0,1,0,1,0,1,0,1,0,1,0,1,0,1,0,1,0,1,0,1,0,1,0,1,0,1,0,1,0,1,0,1,0,1,0,1,0,1,0,1,0,1,0,1,0,1,0,1,0,1,0,1,0,1,0,1,0,1,0,1,0,1,0,1,0,1,0,1,0,1,0,1,0,1,0,1,0,1,0,1,0,1,0,1,0,1,0,1,0,1,0,1,0,1,0,1,0,1,0,1,0,1,0,1,0,1,0,1,0,1,0,1,0,1,0,1,0,1,0,1,0,1,0,1,0,1,0,1,0,1,0,1,0,1,0,1,0,1,0,1,0,1,0,1,0,1,0,1,0,1,0,1],"trees":[{"base_weights":[-1.5686116E-1,1.17148444E-1,-3.2004142E-1,-5.9646238E-2,3.1491712E-1,-4.391956E-1,-6.395112E-2],"categories":[],"categories_nodes":[],"categories_segments":[],"categories_sizes":[],"default_left":[1,1,1,0,0,0,0],"id":0,"left_children":[1,3,5,-1,-1,-1,-1],"loss_changes":[2.7553638E2,8.045451E1,1.1781784E2,0E0,0E0,0E0,0E0],"parents":[2147483647,0,0,1,1,2,2],"right_children":[2,4,6,-1,-1,-1,-1],"split_conditions":[4.585E-1,5.135E-1,2.95E0,-5.9646234E-4,3.1491711E-3,-4.391956E-3,-6.3951116E-4],"split_indices":[3,55,77,0,0,0,0],"split_type":[0,0,0,0,0,0,0],"sum_hessian":[6.1605E3,2.2995E3,3.861E3,1.2145E3,1.085E3,2.6345E3,1.2265E3],"tree_param":{"num_deleted":"0","num_feature":"104","num_nodes":"7","size_leaf_vector":"0"}},{"base_weights":[1.5686116E-1,-1.17148444E-1,3.2004142E-1,5.9646238E-2,-3.1491712E-1,4.391956E-1,6.395112E-2],"categories":[],"categories_nodes":[],"categories_segments":[],"categories_sizes":[],"default_left":[1,1,1,0,0,0,0],"id":1,"left_children":[1,3,5,-1,-1,-1,-1],"loss_changes":[2.7553638E2,8.045451E1,1.1781784E2,0E0,0E0,0E0,0E0],"parents":[2147483647,0,0,1,1,2,2],"right_children":[2,4,6,-1,-1,-1,-1],"split_conditions":[4.585E-1,5.135E-1,2.95E0,5.9646234E-4,-3.1491711E-3,4.391956E-3,6.3951116E-4],"split_indices":[3,55,77,0,0,0,0],"split_type":[0,0,0,0,0,0,0],"sum_hessian":[6.1605E3,2.2995E3,3.861E3,1.2145E3,1.085E3,2.6345E3,1.2265E3],"tree_param":{"num_deleted":"0","num_feature":"104","num_nodes":"7","size_leaf_vector":"0"}},{"base_weights":[-1.5529452E-1,1.1597866E-1,-3.1684658E-1,-1.557951E-1,2.4278526E-1,-4.3481374E-1,-6.33122E-2],"categories":[],"categories_nodes":[],"categories_segments":[],"categories_sizes":[],"default_left":[1,1,1,0,0,0,0],"id":2,"left_children":[1,3,5,-1,-1,-1,-1],"loss_changes":[2.7006012E2,7.93189E1,1.15478455E2,0E0,0E0,0E0,0E0],"parents":[2147483647,0,0,1,1,2,2],"right_children":[2,4,6,-1,-1,-1,-1],"split_conditions":[4.585E-1,-2.05E0,2.95E0,-1.557951E-3,2.4278525E-3,-4.3481374E-3,-6.33122E-4],"split_indices":[3,77,77,0,0,0,0],"split_type":[0,0,0,0,0,0,0],"sum_hessian":[6.1604375E3,2.299489E3,3.8609485E3,7.3149963E2,1.5679893E3,2.634449E3,1.2264994E3],"tree_param":{"num_deleted":"0","num_feature":"104","num_nodes":"7","size_leaf_vector":"0"}},{"base_weights":[1.5529457E-1,-1.1597861E-1,3.1684658E-1,1.5579519E-1,-2.4278523E-1,4.3481374E-1,6.331223E-2],"categories":[],"categories_nodes":[],"categories_segments":[],"categories_sizes":[],"default_left":[1,1,1,0,0,0,0],"id":3,"left_children":[1,3,5,-1,-1,-1,-1],"loss_changes":[2.7006006E2,7.9318924E1,1.15478455E2,0E0,0E0,0E0,0E0],"parents":[2147483647,0,0,1,1,2,2],"right_children":[2,4,6,-1,-1,-1,-1],"split_conditions":[4.585E-1,-2.05E0,2.95E0,1.5579518E-3,-2.4278522E-3,4.3481374E-3,6.331223E-4],"split_indices":[3,77,77,0,0,0,0],"split_type":[0,0,0,0,0,0,0],"sum_hessian":[6.1604375E3,2.2994888E3,3.8609487E3,7.314996E2,1.5679893E3,2.6344492E3,1.2264995E3],"tree_param":{"num_deleted":"0","num_feature":"104","num_nodes":"7","size_leaf_vector":"0"}},{"base_weights":[-1.5374675E-1,1.14820585E-1,-3.1369174E-1,-5.912688E-2,3.0940986E-1,-4.3049186E-1,-6.26796E-2],"categories":[],"categories_nodes":[],"categories_segments":[],"categories_sizes":[],"default_left":[1,1,1,0,0,0,0],"id":4,"left_children":[1,3,5,-1,-1,-1,-1],"loss_changes":[2.6469904E2,7.788503E1,1.1319412E2,0E0,0E0,0E0,0E0],"parents":[2147483647,0,0,1,1,2,2],"right_children":[2,4,6,-1,-1,-1,-1],"split_conditions":[4.585E-1,5.135E-1,2.95E0,-5.9126876E-4,3.0940985E-3,-4.3049185E-3,-6.2679604E-4],"split_indices":[3,55,77,0,0,0,0],"split_type":[0,0,0,0,0,0,0],"sum_hessian":[6.160259E3,2.2994617E3,3.8607969E3,1.214495E3,1.0849667E3,2.6342988E3,1.226498E3],"tree_param":{"num_deleted":"0","num_feature":"104","num_nodes":"7","size_leaf_vector":"0"}},{"base_weights":[1.5374678E-1,-1.1482059E-1,3.136918E-1,5.9126865E-2,-3.0940986E-1,4.3049195E-1,6.267958E-2],"categories":[],"categories_nodes":[],"categories_segments":[],"categories_sizes":[],"default_left":[1,1,1,0,0,0,0],"id":5,"left_children":[1,3,5,-1,-1,-1,-1],"loss_changes":[2.6469916E2,7.7885025E1,1.13194244E2,0E0,0E0,0E0,0E0],"parents":[2147483647,0,0,1,1,2,2],"right_children":[2,4,6,-1,-1,-1,-1],"split_conditions":[4.585E-1,5.135E-1,2.95E0,5.9126865E-4,-3.0940985E-3,4.3049194E-3,6.267958E-4],"split_indices":[3,55,77,0,0,0,0],"split_type":[0,0,0,0,0,0,0],"sum_hessian":[6.1602583E3,2.2994617E3,3.8607966E3,1.214495E3,1.0849667E3,2.6342986E3,1.226498E3],"tree_param":{"num_deleted":"0","num_feature":"104","num_nodes":"7","size_leaf_vector":"0"}},{"base_weights":[-1.522171E-1,1.1367589E-1,-3.105763E-1,-1.5372546E-1,2.3844734E-1,-4.262287E-1,-6.2053442E-2],"categories":[],"categories_nodes":[],"categories_segments":[],"categories_sizes":[],"default_left":[1,1,1,0,0,0,0],"id":6,"left_children":[1,3,5,-1,-1,-1,-1],"loss_changes":[2.5945236E2,7.678776E1,1.10963196E2,0E0,0E0,0E0,0E0],"parents":[2147483647,0,0,1,1,2,2],"right_children":[2,4,6,-1,-1,-1,-1],"split_conditions":[4.585E-1,-2.05E0,2.95E0,-1.5372545E-3,2.3844733E-3,-4.2622867E-3,-6.205344E-4],"split_indices":[3,77,77,0,0,0,0],"split_type":[0,0,0,0,0,0,0],"sum_hessian":[6.1599604E3,2.299413E3,3.8605474E3,7.3149426E2,1.5679188E3,2.6340518E3,1.2264956E3],"tree_param":{"num_deleted":"0","num_feature":"104","num_nodes":"7","size_leaf_vector":"0"}},{"base_weights":[1.5221716E-1,-1.13675885E-1,3.1057638E-1,1.5372548E-1,-2.3844734E-1,4.2622882E-1,6.205353E-2],"categories":[],"categories_nodes":[],"categories_segments":[],"categories_sizes":[],"default_left":[1,1,1,0,0,0,0],"id":7,"left_children":[1,3,5,-1,-1,-1,-1],"loss_changes":[2.5945248E2,7.6787766E1,1.10963196E2,0E0,0E0,0E0,0E0],"parents":[2147483647,0,0,1,1,2,2],"right_children":[2,4,6,-1,-1,-1,-1],"split_conditions":[4.585E-1,-2.05E0,2.95E0,1.5372547E-3,-2.3844733E-3,4.262288E-3,6.205353E-4],"split_indices":[3,77,77,0,0,0,0],"split_type":[0,0,0,0,0,0,0],"sum_hessian":[6.1599604E3,2.299413E3,3.860547E3,7.3149426E2,1.5679188E3,2.6340518E3,1.2264955E3],"tree_param":{"num_deleted":"0","num_feature":"104","num_nodes":"7","size_leaf_vector":"0"}},{"base_weights":[-1.5070568E-1,1.1254268E-1,-3.0749944E-1,-5.8607545E-2,3.0401805E-1,-4.220229E-1,-6.143369E-2],"categories":[],"categories_nodes":[],"categories_segments":[],"categories_sizes":[],"default_left":[1,1,1,0,0,0,0],"id":8,"left_children":[1,3,5,-1,-1,-1,-1],"loss_changes":[2.543157E2,7.540269E1,1.08784E2,0E0,0E0,0E0,0E0],"parents":[2147483647,0,0,1,1,2,2],"right_children":[2,4,6,-1,-1,-1,-1],"split_conditions":[4.585E-1,5.135E-1,2.95E0,-5.860754E-4,3.0401805E-3,-4.220229E-3,-6.143369E-4],"split_indices":[3,55,77,0,0,0,0],"split_type":[0,0,0,0,0,0,0],"sum_hessian":[6.1595527E3,2.2993494E3,3.8602031E3,1.2144803E3,1.0848691E3,2.633711E3,1.2264921E3],"tree_param":{"num_deleted":"0","num_feature":"104","num_nodes":"7","size_leaf_vector":"0"}},{"base_weights":[1.5070568E-1,-1.1254263E-1,3.074994E-1,5.860756E-2,-3.0401796E-1,4.220229E-1,6.14336E-2],"categories":[],"categories_nodes":[],"categories_segments":[],"categories_sizes":[],"default_left":[1,1,1,0,0,0,0],"id":9,"left_children":[1,3,5,-1,-1,-1,-1],"loss_changes":[2.5431563E2,7.5402664E1,1.0878403E2,0E0,0E0,0E0,0E0],"parents":[2147483647,0,0,1,1,2,2],"right_children":[2,4,6,-1,-1,-1,-1],"split_conditions":[4.585E-1,5.135E-1,2.95E0,5.860756E-4,-3.0401796E-3,4.220229E-3,6.14336E-4],"split_indices":[3,55,77,0,0,0,0],"split_type":[0,0,0,0,0,0,0],"sum_hessian":[6.1595527E3,2.2993496E3,3.8602031E3,1.2144803E3,1.0848691E3,2.633711E3,1.2264922E3],"tree_param":{"num_deleted":"0","num_feature":"104","num_nodes":"7","size_leaf_vector":"0"}},{"base_weights":[-1.4921173E-1,1.1142245E-1,-3.044603E-1,-1.5168169E-1,2.341977E-1,-1.4596306E-1,-4.7959903E-1],"categories":[],"categories_nodes":[],"categories_segments":[],"categories_sizes":[],"default_left":[1,1,1,0,0,0,0],"id":10,"left_children":[1,3,5,-1,-1,-1,-1],"loss_changes":[2.4928784E2,7.434025E1,1.0710104E2,0E0,0E0,0E0,0E0],"parents":[2147483647,0,0,1,1,2,2],"right_children":[2,4,6,-1,-1,-1,-1],"split_conditions":[4.585E-1,-2.05E0,1.35E1,-1.5168169E-3,2.341977E-3,-1.4596306E-3,-4.79599E-3],"split_indices":[3,77,80,0,0,0,0],"split_type":[0,0,0,0,0,0,0],"sum_hessian":[6.1590327E3,2.2992651E3,3.8597673E3,7.3148236E2,1.5677828E3,2.0271072E3,1.83266E3],"tree_param":{"num_deleted":"0","num_feature":"104","num_nodes":"7","size_leaf_vector":"0"}},{"base_weights":[1.4921173E-1,-1.1142246E-1,3.044603E-1,1.5168172E-1,-2.3419774E-1,1.4596307E-1,4.7959903E-1],"categories":[],"categories_nodes":[],"categories_segments":[],"categories_sizes":[],"default_left":[1,1,1,0,0,0,0],"id":11,"left_children":[1,3,5,-1,-1,-1,-1],"loss_changes":[2.4928783E2,7.434028E1,1.0710104E2,0E0,0E0,0E0,0E0],"parents":[2147483647,0,0,1,1,2,2],"right_children":[2,4,6,-1,-1,-1,-1],"split_conditions":[4.585E-1,-2.05E0,1.35E1,1.5168171E-3,-2.3419773E-3,1.4596307E-3,4.79599E-3],"split_indices":[3,77,80,0,0,0,0],"split_type":[0,0,0,0,0,0,0],"sum_hessian":[6.1590327E3,2.2992651E3,3.8597673E3,7.314824E2,1.5677828E3,2.0271073E3,1.83266E3],"tree_param":{"num_deleted":"0","num_feature":"104","num_nodes":"7","size_leaf_vector":"0"}},{"base_weights":[-1.4773463E-1,1.10313274E-1,-3.0145535E-1,-5.808854E-2,2.9873803E-1,-4.1419366E-1,-5.9305202E-2],"categories":[],"categories_nodes":[],"categories_segments":[],"categories_sizes":[],"default_left":[1,1,1,0,0,0,0],"id":12,"left_children":[1,3,5,-1,-1,-1,-1],"loss_changes":[2.4436209E2,7.300411E1,1.0535965E2,0E0,0E0,0E0,0E0],"parents":[2147483647,0,0,1,1,2,2],"right_children":[2,4,6,-1,-1,-1,-1],"split_conditions":[4.585E-1,5.135E-1,2.95E0,-5.808854E-4,2.9873804E-3,-4.1419365E-3,-5.93052E-4],"split_indices":[3,55,77,0,0,0,0],"split_type":[0,0,0,0,0,0,0],"sum_hessian":[6.1584507E3,2.299167E3,3.8592834E3,1.2144564E3,1.0847107E3,2.6328103E3,1.2264731E3],"tree_param":{"num_deleted":"0","num_feature":"104","num_nodes":"7","size_leaf_vector":"0"}},{"base_weights":[1.4773457E-1,-1.1031332E-1,3.0145526E-1,5.808849E-2,-2.9873803E-1,4.1419357E-1,5.9305113E-2],"categories":[],"categories_nodes":[],"categories_segments":[],"categories_sizes":[],"default_left":[1,1,1,0,0,0,0],"id":13,"left_children":[1,3,5,-1,-1,-1,-1],"loss_changes":[2.44362E2,7.30041E1,1.0535962E2,0E0,0E0,0E0,0E0],"parents":[2147483647,0,0,1,1,2,2],"right_children":[2,4,6,-1,-1,-1,-1],"split_conditions":[4.585E-1,5.135E-1,2.95E0,5.8088487E-4,-2.9873804E-3,4.1419356E-3,5.9305114E-4],"split_indices":[3,55,77,0,0,0,0],"split_type":[0,0,0,0,0,0,0],"sum_hessian":[6.1584507E3,2.299167E3,3.8592837E3,1.2144563E3,1.0847107E3,2.6328105E3,1.2264733E3],"tree_param":{"num_deleted":"0","num_feature":"104","num_nodes":"7","size_leaf_vector":"0"}},{"base_weights":[-1.4627491E-1,1.3480894E-1,-2.8497043E-1,-1.2849185E-1,2.605067E-1,-1.2931642E-1,-4.556294E-1],"categories":[],"categories_nodes":[],"categories_segments":[],"categories_sizes":[],"default_left":[1,1,1,0,0,0,0],"id":14,"left_children":[1,3,5,-1,-1,-1,-1],"loss_changes":[2.4013696E2,6.7402E1,1.0949533E2,0E0,0E0,0E0,0E0],"parents":[2147483647,0,0,1,1,2,2],"right_children":[2,4,6,-1,-1,-1,-1],"split_conditions":[-1.6500001E0,-2.05E0,1.35E1,-1.2849185E-3,2.6050669E-3,-1.2931642E-3,-4.556294E-3],"split_indices":[25,77,80,0,0,0,0],"split_type":[0,0,0,0,0,0,0],"sum_hessian":[6.1577295E3,2.0345293E3,4.1232E3,6.574137E2,1.3771156E3,2.1573186E3,1.9658816E3],"tree_param":{"num_deleted":"0","num_feature":"104","num_nodes":"7","size_leaf_vector":"0"}},{"base_weights":[1.4627491E-1,-1.348089E-1,2.8497043E-1,1.2849186E-1,-2.6050663E-1,1.293164E-1,4.556294E-1],"categories":[],"categories_nodes":[],"categories_segments":[],"categories_sizes":[],"default_left":[1,1,1,0,0,0,0],"id":15,"left_children":[1,3,5,-1,-1,-1,-1],"loss_changes":[2.4013687E2,6.7401985E1,1.0949533E2,0E0,0E0,0E0,0E0],"parents":[2147483647,0,0,1,1,2,2],"right_children":[2,4,6,-1,-1,-1,-1],"split_conditions":[-1.6500001E0,-2.05E0,1.35E1,1.2849186E-3,-2.6050662E-3,1.293164E-3,4.556294E-3],"split_indices":[25,77,80,0,0,0,0],"split_type":[0,0,0,0,0,0,0],"sum_hessian":[6.1577295E3,2.0345294E3,4.1232E3,6.574137E2,1.3771157E3,2.1573186E3,1.9658816E3],"tree_param":{"num_deleted":"0","num_feature":"104","num_nodes":"7","size_leaf_vector":"0"}},{"base_weights":[-1.4482956E-1,1.0869206E-1,-2.9588532E-1,-2.1054068E-1,2.0498116E-1,-4.0688896E-1,-5.756222E-2],"categories":[],"categories_nodes":[],"categories_segments":[],"categories_sizes":[],"default_left":[1,1,1,0,0,0,0],"id":16,"left_children":[1,3,5,-1,-1,-1,-1],"loss_changes":[2.3585945E2,7.074001E1,1.0206787E2,0E0,0E0,0E0,0E0],"parents":[2147483647,0,0,1,1,2,2],"right_children":[2,4,6,-1,-1,-1,-1],"split_conditions":[4.585E-1,3.705E-1,2.95E0,-2.1054067E-3,2.0498117E-3,-4.0688897E-3,-5.756222E-4],"split_indices":[3,55,77,0,0,0,0],"split_type":[0,0,0,0,0,0,0],"sum_hessian":[6.157029E3,2.2989348E3,3.858094E3,5.3245844E2,1.7664764E3,2.631646E3,1.226448E3],"tree_param":{"num_deleted":"0","num_feature":"104","num_nodes":"7","size_leaf_vector":"0"}},{"base_weights":[1.4482956E-1,-1.0869205E-1,2.9588532E-1,2.1054068E-1,-2.0498115E-1,4.06889E-1,5.756222E-2],"categories":[],"categories_nodes":[],"categories_segments":[],"categories_sizes":[],"default_left":[1,1,1,0,0,0,0],"id":17,"left_children":[1,3,5,-1,-1,-1,-1],"loss_changes":[2.3585944E2,7.0740005E1,1.0206787E2,0E0,0E0,0E0,0E0],"parents":[2147483647,0,0,1,1,2,2],"right_children":[2,4,6,-1,-1,-1,-1],"split_conditions":[4.585E-1,3.705E-1,2.95E0,2.1054067E-3,-2.0498114E-3,4.0688897E-3,5.756222E-4],"split_indices":[3,55,77,0,0,0,0],"split_type":[0,0,0,0,0,0,0],"sum_hessian":[6.157029E3,2.2989348E3,3.858094E3,5.3245844E2,1.7664764E3,2.631646E3,1.226448E3],"tree_param":{"num_deleted":"0","num_feature":"104","num_nodes":"7","size_leaf_vector":"0"}},{"base_weights":[-1.4340271E-1,1.3276482E-1,-2.797E-1,-1.2613457E-1,2.5637108E-1,-1.2649073E-1,-4.47747E-1],"categories":[],"categories_nodes":[],"categories_segments":[],"categories_sizes":[],"default_left":[1,1,1,0,0,0,0],"id":18,"left_children":[1,3,5,-1,-1,-1,-1],"loss_changes":[2.3179774E2,6.516462E1,1.0609213E2,0E0,0E0,0E0,0E0],"parents":[2147483647,0,0,1,1,2,2],"right_children":[2,4,6,-1,-1,-1,-1],"split_conditions":[-1.6500001E0,-2.05E0,1.35E1,-1.2613457E-3,2.5637108E-3,-1.2649072E-3,-4.4774697E-3],"split_indices":[25,77,80,0,0,0,0],"split_type":[0,0,0,0,0,0,0],"sum_hessian":[6.15615E3,2.0342828E3,4.121867E3,6.5736957E2,1.3769133E3,2.1570376E3,1.9648296E3],"tree_param":{"num_deleted":"0","num_feature":"104","num_nodes":"7","size_leaf_vector":"0"}},{"base_weights":[1.4340271E-1,-1.3276483E-1,2.797E-1,1.2613451E-1,-2.5637108E-1,1.2649067E-1,4.4774708E-1],"categories":[],"categories_nodes":[],"categories_segments":[],"categories_sizes":[],"default_left":[1,1,1,0,0,0,0],"id":19,"left_children":[1,3,5,-1,-1,-1,-1],"loss_changes":[2.3179776E2,6.51646E1,1.06092255E2,0E0,0E0,0E0,0E0],"parents":[2147483647,0,0,1,1,2,2],"right_children":[2,4,6,-1,-1,-1,-1],"split_conditions":[-1.6500001E0,-2.05E0,1.35E1,1.2613451E-3,-2.5637108E-3,1.2649066E-3,4.4774706E-3],"split_indices":[25,77,80,0,0,0,0],"split_type":[0,0,0,0,0,0,0],"sum_hessian":[6.15615E3,2.0342828E3,4.121867E3,6.5736957E2,1.3769133E3,2.1570376E3,1.9648295E3],"tree_param":{"num_deleted":"0","num_feature":"104","num_nodes":"7","size_leaf_vector":"0"}},{"base_weights":[-1.4198989E-1,1.0709422E-1,-2.9044077E-1,-5.6607094E-2,2.9030898E-1,-3.9975744E-1,-5.5862684E-2],"categories":[],"categories_nodes":[],"categories_segments":[],"categories_sizes":[],"default_left":[1,1,1,0,0,0,0],"id":20,"left_children":[1,3,5,-1,-1,-1,-1],"loss_changes":[2.2767004E2,6.898891E1,9.889963E1,0E0,0E0,0E0,0E0],"parents":[2147483647,0,0,1,1,2,2],"right_children":[2,4,6,-1,-1,-1,-1],"split_conditions":[4.585E-1,5.135E-1,2.95E0,-5.660709E-4,2.9030899E-3,-3.9975746E-3,-5.5862684E-4],"split_indices":[3,55,77,0,0,0,0],"split_type":[0,0,0,0,0,0,0],"sum_hessian":[6.1552715E3,2.2986577E3,3.8566138E3,1.2143416E3,1.084316E3,2.6301997E3,1.2264141E3],"tree_param":{"num_deleted":"0","num_feature":"104","num_nodes":"7","size_leaf_vector":"0"}},{"base_weights":[1.419899E-1,-1.0709419E-1,2.904408E-1,5.6607127E-2,-2.9030895E-1,3.9975747E-1,5.586266E-2],"categories":[],"categories_nodes":[],"categories_segments":[],"categories_sizes":[],"default_left":[1,1,1,0,0,0,0],"id":21,"left_children":[1,3,5,-1,-1,-1,-1],"loss_changes":[2.2767001E2,6.898892E1,9.889963E1,0E0,0E0,0E0,0E0],"parents":[2147483647,0,0,1,1,2,2],"right_children":[2,4,6,-1,-1,-1,-1],"split_conditions":[4.585E-1,5.135E-1,2.95E0,5.6607125E-4,-2.9030894E-3,3.9975746E-3,5.586266E-4],"split_indices":[3,55,77,0,0,0,0],"split_type":[0,0,0,0,0,0,0],"sum_hessian":[6.1552715E3,2.2986577E3,3.8566138E3,1.2143416E3,1.084316E3,2.6301997E3,1.2264141E3],"tree_param":{"num_deleted":"0","num_feature":"104","num_nodes":"7","size_leaf_vector":"0"}},{"base_weights":[-1.4059499E-1,1.3075687E-1,-2.7454752E-1,-1.24041006E-1,2.5242022E-1,-1.2378732E-1,-4.3999162E-1],"categories":[],"categories_nodes":[],"categories_segments":[],"categories_sizes":[],"default_left":[1,1,1,0,0,0,0],"id":22,"left_children":[1,3,5,-1,-1,-1,-1],"loss_changes":[2.2376694E2,6.31143E1,1.02739136E2,0E0,0E0,0E0,0E0],"parents":[2147483647,0,0,1,1,2,2],"right_children":[2,4,6,-1,-1,-1,-1],"split_conditions":[-1.6500001E0,-2.05E0,1.35E1,-1.24041E-3,2.5242022E-3,-1.2378732E-3,-4.399916E-3],"split_indices":[25,77,80,0,0,0,0],"split_type":[0,0,0,0,0,0,0],"sum_hessian":[6.1542046E3,2.0339639E3,4.1202407E3,6.573226E2,1.3766412E3,2.1567034E3,1.9635376E3],"tree_param":{"num_deleted":"0","num_feature":"104","num_nodes":"7","size_leaf_vector":"0"}},{"base_weights":[1.4059496E-1,-1.3075693E-1,2.745475E-1,1.2404101E-1,-2.524203E-1,1.2378727E-1,4.3999162E-1],"categories":[],"categories_nodes":[],"categories_segments":[],"categories_sizes":[],"default_left":[1,1,1,0,0,0,0],"id":23,"left_children":[1,3,5,-1,-1,-1,-1],"loss_changes":[2.2376694E2,6.3114334E1,1.0273917E2,0E0,0E0,0E0,0E0],"parents":[2147483647,0,0,1,1,2,2],"right_children":[2,4,6,-1,-1,-1,-1],"split_conditions":[-1.6500001E0,-2.05E0,1.35E1,1.2404101E-3,-2.524203E-3,1.2378726E-3,4.399916E-3],"split_indices":[25,77,80,0,0,0,0],"split_type":[0,0,0,0,0,0,0],"sum_hessian":[6.1542046E3,2.0339637E3,4.120241E3,6.573226E2,1.3766411E3,2.1567034E3,1.9635376E3],"tree_param":{"num_deleted":"0","num_feature":"104","num_nodes":"7","size_leaf_vector":"0"}},{"base_weights":[-1.3921367E-1,-2.632392E-1,1.4904296E-1,-1.11242294E-1,-4.3288633E-1,-1.5016156E-2,3.331596E-1],"categories":[],"categories_nodes":[],"categories_segments":[],"categories_sizes":[],"default_left":[1,1,1,0,0,0,0],"id":24,"left_children":[1,3,5,-1,-1,-1,-1],"loss_changes":[2.2005772E2,1.10913055E2,5.594577E1,0E0,0E0,0E0,0E0],"parents":[2147483647,0,0,1,1,2,2],"right_children":[2,4,6,-1,-1,-1,-1],"split_conditions":[1.95E1,1.35E1,5.135E-1,-1.1124229E-3,-4.328863E-3,-1.5016156E-4,3.3315958E-3],"split_indices":[28,80,55,0,0,0,0],"split_type":[0,0,0,0,0,0,0],"sum_hessian":[6.153158E3,4.3021836E3,1.8509746E3,2.270006E3,2.0321775E3,9.792879E2,8.716867E2],"tree_param":{"num_deleted":"0","num_feature":"104","num_nodes":"7","size_leaf_vector":"0"}},{"base_weights":[1.3921367E-1,2.6323923E-1,-1.4904298E-1,1.1124232E-1,4.3288633E-1,1.5016082E-2,-3.331595E-1],"categories":[],"categories_nodes":[],"categories_segments":[],"categories_sizes":[],"default_left":[1,1,1,0,0,0,0],"id":25,"left_children":[1,3,5,-1,-1,-1,-1],"loss_changes":[2.2005774E2,1.10913025E2,5.594572E1,0E0,0E0,0E0,0E0],"parents":[2147483647,0,0,1,1,2,2],"right_children":[2,4,6,-1,-1,-1,-1],"split_conditions":[1.95E1,1.35E1,5.135E-1,1.1124231E-3,4.328863E-3,1.5016082E-4,-3.331595E-3],"split_indices":[28,80,55,0,0,0,0],"split_type":[0,0,0,0,0,0,0],"sum_hessian":[6.153158E3,4.3021836E3,1.8509746E3,2.2700063E3,2.0321775E3,9.792879E2,8.7168677E2],"tree_param":{"num_deleted":"0","num_feature":"104","num_nodes":"7","size_leaf_vector":"0"}},{"base_weights":[-1.378473E-1,-3.2785136E-1,4.750298E-2,-4.1737285E-1,-9.086884E-2,2.0140934E-1,-1.7432578E-1],"categories":[],"categories_nodes":[],"categories_segments":[],"categories_sizes":[],"default_left":[1,1,1,0,0,0,0],"id":26,"left_children":[1,3,5,-1,-1,-1,-1],"loss_changes":[2.1670883E2,6.442395E1,1.06402115E2,0E0,0E0,0E0,0E0],"parents":[2147483647,0,0,1,1,2,2],"right_children":[2,4,6,-1,-1,-1,-1],"split_conditions":[1.45E1,3.75E0,1.75E1,-4.1737286E-3,-9.0868835E-4,2.0140933E-3,-1.7432577E-3],"split_indices":[51,77,81,0,0,0,0],"split_type":[0,0,0,0,0,0,0],"sum_hessian":[6.152034E3,3.0375002E3,3.114534E3,2.20412E3,8.333802E2,1.8388317E3,1.2757024E3],"tree_param":{"num_deleted":"0","num_feature":"104","num_nodes":"7","size_leaf_vector":"0"}},{"base_weights":[1.3784732E-1,3.2785136E-1,-4.7502972E-2,4.1737285E-1,9.086884E-2,-2.0140934E-1,1.7432578E-1],"categories":[],"categories_nodes":[],"categories_segments":[],"categories_sizes":[],"default_left":[1,1,1,0,0,0,0],"id":27,"left_children":[1,3,5,-1,-1,-1,-1],"loss_changes":[2.1670883E2,6.442392E1,1.06402115E2,0E0,0E0,0E0,0E0],"parents":[2147483647,0,0,1,1,2,2],"right_children":[2,4,6,-1,-1,-1,-1],"split_conditions":[1.45E1,3.75E0,1.75E1,4.1737286E-3,9.0868835E-4,-2.0140933E-3,1.7432577E-3],"split_indices":[51,77,81,0,0,0,0],"split_type":[0,0,0,0,0,0,0],"sum_hessian":[6.152034E3,3.0375002E3,3.114534E3,2.20412E3,8.333802E2,1.8388317E3,1.2757024E3],"tree_param":{"num_deleted":"0","num_feature":"104","num_nodes":"7","size_leaf_vector":"0"}},{"base_weights":[-1.364947E-1,1.2839364E-1,-2.67311E-1,-1.2044516E-1,2.472321E-1,-1.20320015E-1,-4.2877895E-1],"categories":[],"categories_nodes":[],"categories_segments":[],"categories_sizes":[],"default_left":[1,1,1,0,0,0,0],"id":28,"left_children":[1,3,5,-1,-1,-1,-1],"loss_changes":[2.1320877E2,6.0191536E1,9.769766E1,0E0,0E0,0E0,0E0],"parents":[2147483647,0,0,1,1,2,2],"right_children":[2,4,6,-1,-1,-1,-1],"split_conditions":[-1.6500001E0,-2.05E0,1.35E1,-1.2044515E-3,2.4723208E-3,-1.2032001E-3,-4.2877896E-3],"split_indices":[25,77,80,0,0,0,0],"split_type":[0,0,0,0,0,0,0],"sum_hessian":[6.1509175E3,2.0334426E3,4.117475E3,6.5723285E2,1.3762098E3,2.1562744E3,1.9612007E3],"tree_param":{"num_deleted":"0","num_feature":"104","num_nodes":"7","size_leaf_vector":"0"}},{"base_weights":[1.3649468E-1,-1.2839362E-1,2.6731095E-1,1.2044521E-1,-2.472321E-1,1.2031999E-1,4.287789E-1],"categories":[],"categories_nodes":[],"categories_segments":[],"categories_sizes":[],"default_left":[1,1,1,0,0,0,0],"id":29,"left_children":[1,3,5,-1,-1,-1,-1],"loss_changes":[2.1320872E2,6.0191544E1,9.769763E1,0E0,0E0,0E0,0E0],"parents":[2147483647,0,0,1,1,2,2],"right_children":[2,4,6,-1,-1,-1,-1],"split_conditions":[-1.6500001E0,-2.05E0,1.35E1,1.204452E-3,-2.4723208E-3,1.2031998E-3,4.2877886E-3],"split_indices":[25,77,80,0,0,0,0],"split_type":[0,0,0,0,0,0,0],"sum_hessian":[6.150918E3,2.0334426E3,4.117475E3,6.5723285E2,1.3762098E3,2.1562744E3,1.9612008E3],"tree_param":{"num_deleted":"0","num_feature":"104","num_nodes":"7","size_leaf_vector":"0"}},{"base_weights":[-1.3515876E-1,-2.5639468E-1,1.4649913E-1,-1.0812958E-1,-4.2205006E-1,-1.3574452E-2,3.2621187E-1],"categories":[],"categories_nodes":[],"categories_segments":[],"categories_sizes":[],"default_left":[1,1,1,0,0,0,0],"id":30,"left_children":[1,3,5,-1,-1,-1,-1],"loss_changes":[2.1006387E2,1.0557123E2,5.32654E1,0E0,0E0,0E0,0E0],"parents":[2147483647,0,0,1,1,2,2],"right_children":[2,4,6,-1,-1,-1,-1],"split_conditions":[1.95E1,1.35E1,5.135E-1,-1.0812958E-3,-4.2205006E-3,-1.3574451E-4,3.2621187E-3],"split_indices":[28,80,55,0,0,0,0],"split_type":[0,0,0,0,0,0,0],"sum_hessian":[6.1496436E3,4.2991997E3,1.850444E3,2.2695535E3,2.029646E3,9.7918744E2,8.7125653E2],"tree_param":{"num_deleted":"0","num_feature":"104","num_nodes":"7","size_leaf_vector":"0"}},{"base_weights":[1.3515873E-1,2.5639465E-1,-1.4649913E-1,1.0812957E-1,4.2205E-1,1.3574495E-2,-3.2621196E-1],"categories":[],"categories_nodes":[],"categories_segments":[],"categories_sizes":[],"default_left":[1,1,1,0,0,0,0],"id":31,"left_children":[1,3,5,-1,-1,-1,-1],"loss_changes":[2.1006386E2,1.055712E2,5.326544E1,0E0,0E0,0E0,0E0],"parents":[2147483647,0,0,1,1,2,2],"right_children":[2,4,6,-1,-1,-1,-1],"split_conditions":[1.95E1,1.35E1,5.135E-1,1.0812957E-3,4.2205E-3,1.3574495E-4,-3.2621196E-3],"split_indices":[28,80,55,0,0,0,0],"split_type":[0,0,0,0,0,0,0],"sum_hessian":[6.1496436E3,4.2991997E3,1.8504438E3,2.2695535E3,2.0296461E3,9.7918744E2,8.712565E2],"tree_param":{"num_deleted":"0","num_feature":"104","num_nodes":"7","size_leaf_vector":"0"}},{"base_weights":[-1.3383707E-1,-3.197247E-1,4.740475E-2,-4.0747592E-1,-8.768018E-2,1.977264E-1,-1.6928254E-1],"categories":[],"categories_nodes":[],"categories_segments":[],"categories_sizes":[],"default_left":[1,1,1,0,0,0,0],"id":32,"left_children":[1,3,5,-1,-1,-1,-1],"loss_changes":[2.0718884E2,6.178125E1,1.014791E2,0E0,0E0,0E0,0E0],"parents":[2147483647,0,0,1,1,2,2],"right_children":[2,4,6,-1,-1,-1,-1],"split_conditions":[1.45E1,3.75E0,1.75E1,-4.0747593E-3,-8.768018E-4,1.977264E-3,-1.6928253E-3],"split_indices":[51,77,81,0,0,0,0],"split_type":[0,0,0,0,0,0,0],"sum_hessian":[6.1482993E3,3.0348708E3,3.1134287E3,2.2015608E3,8.3331006E2,1.8382642E3,1.2751646E3],"tree_param":{"num_deleted":"0","num_feature":"104","num_nodes":"7","size_leaf_vector":"0"}},{"base_weights":[1.3383707E-1,3.1972474E-1,-4.740476E-2,4.07476E-1,8.76801E-2,-1.9772641E-1,1.6928254E-1],"categories":[],"categories_nodes":[],"categories_segments":[],"categories_sizes":[],"default_left":[1,1,1,0,0,0,0],"id":33,"left_children":[1,3,5,-1,-1,-1,-1],"loss_changes":[2.0718886E2,6.178128E1,1.0147911E2,0E0,0E0,0E0,0E0],"parents":[2147483647,0,0,1,1,2,2],"right_children":[2,4,6,-1,-1,-1,-1],"split_conditions":[1.45E1,3.75E0,1.75E1,4.07476E-3,8.76801E-4,-1.9772642E-3,1.6928253E-3],"split_indices":[51,77,81,0,0,0,0],"split_type":[0,0,0,0,0,0,0],"sum_hessian":[6.1482993E3,3.0348708E3,3.1134287E3,2.2015608E3,8.333101E2,1.8382642E3,1.2751646E3],"tree_param":{"num_deleted":"0","num_feature":"104","num_nodes":"7","size_leaf_vector":"0"}},{"base_weights":[-1.325284E-1,1.030822E-1,-2.7311328E-1,-1.9754101E-1,1.9379102E-1,-3.6559093E-1,-1.9930545E-2],"categories":[],"categories_nodes":[],"categories_segments":[],"categories_sizes":[],"default_left":[1,1,1,0,0,0,0],"id":34,"left_children":[1,3,5,-1,-1,-1,-1],"loss_changes":[2.036692E2,6.270922E1,9.015289E1,0E0,0E0,0E0,0E0],"parents":[2147483647,0,0,1,1,2,2],"right_children":[2,4,6,-1,-1,-1,-1],"split_conditions":[4.585E-1,3.705E-1,3.75E0,-1.9754102E-3,1.9379101E-3,-3.6559093E-3,-1.9930545E-4],"split_indices":[3,55,77,0,0,0,0],"split_type":[0,0,0,0,0,0,0],"sum_hessian":[6.1469727E3,2.2972334E3,3.849739E3,5.3221436E2,1.7650192E3,2.8194583E3,1.0302808E3],"tree_param":{"num_deleted":"0","num_feature":"104","num_nodes":"7","size_leaf_vector":"0"}},{"base_weights":[1.3252842E-1,-1.030822E-1,2.731133E-1,1.9754101E-1,-1.9379103E-1,3.6559096E-1,1.993055E-2],"categories":[],"categories_nodes":[],"categories_segments":[],"categories_sizes":[],"default_left":[1,1,1,0,0,0,0],"id":35,"left_children":[1,3,5,-1,-1,-1,-1],"loss_changes":[2.0366924E2,6.2709217E1,9.015292E1,0E0,0E0,0E0,0E0],"parents":[2147483647,0,0,1,1,2,2],"right_children":[2,4,6,-1,-1,-1,-1],"split_conditions":[4.585E-1,3.705E-1,3.75E0,1.9754102E-3,-1.9379103E-3,3.6559096E-3,1.993055E-4],"split_indices":[3,55,77,0,0,0,0],"split_type":[0,0,0,0,0,0,0],"sum_hessian":[6.1469727E3,2.2972334E3,3.849739E3,5.3221436E2,1.7650192E3,2.8194583E3,1.0302808E3],"tree_param":{"num_deleted":"0","num_feature":"104","num_nodes":"7","size_leaf_vector":"0"}},{"base_weights":[-1.3123626E-1,-3.1416088E-1,4.703433E-2,-4.002668E-1,-8.667349E-2,1.9506334E-1,-1.6636068E-1],"categories":[],"categories_nodes":[],"categories_segments":[],"categories_sizes":[],"default_left":[1,1,1,0,0,0,0],"id":36,"left_children":[1,3,5,-1,-1,-1,-1],"loss_changes":[2.0045157E2,5.9390717E1,9.83901E1,0E0,0E0,0E0,0E0],"parents":[2147483647,0,0,1,1,2,2],"right_children":[2,4,6,-1,-1,-1,-1],"split_conditions":[1.45E1,3.75E0,1.75E1,-4.002668E-3,-8.667349E-4,1.9506334E-3,-1.6636067E-3],"split_indices":[51,77,81,0,0,0,0],"split_type":[0,0,0,0,0,0,0],"sum_hessian":[6.1454673E3,3.0327651E3,3.1127024E3,2.1994824E3,8.3328253E2,1.8378787E3,1.2748237E3],"tree_param":{"num_deleted":"0","num_feature":"104","num_nodes":"7","size_leaf_vector":"0"}},{"base_weights":[1.3123623E-1,3.141608E-1,-4.703433E-2,4.002667E-1,8.667346E-2,-1.9506332E-1,1.6636066E-1],"categories":[],"categories_nodes":[],"categories_segments":[],"categories_sizes":[],"default_left":[1,1,1,0,0,0,0],"id":37,"left_children":[1,3,5,-1,-1,-1,-1],"loss_changes":[2.0045145E2,5.9390717E1,9.839008E1,0E0,0E0,0E0,0E0],"parents":[2147483647,0,0,1,1,2,2],"right_children":[2,4,6,-1,-1,-1,-1],"split_conditions":[1.45E1,3.75E0,1.75E1,4.002667E-3,8.667346E-4,-1.9506331E-3,1.6636066E-3],"split_indices":[51,77,81,0,0,0,0],"split_type":[0,0,0,0,0,0,0],"sum_hessian":[6.1454673E3,3.0327651E3,3.1127021E3,2.1994827E3,8.332825E2,1.8378785E3,1.2748237E3],"tree_param":{"num_deleted":"0","num_feature":"104","num_nodes":"7","size_leaf_vector":"0"}},{"base_weights":[-1.2995604E-1,-2.4768764E-1,1.433678E-1,-1.0331987E-1,-4.0921682E-1,-1.1744221E-2,3.1761357E-1],"categories":[],"categories_nodes":[],"categories_segments":[],"categories_sizes":[],"default_left":[1,1,1,0,0,0,0],"id":38,"left_children":[1,3,5,-1,-1,-1,-1],"loss_changes":[1.977745E2,1.00123505E2,5.0022488E1,0E0,0E0,0E0,0E0],"parents":[2147483647,0,0,1,1,2,2],"right_children":[2,4,6,-1,-1,-1,-1],"split_conditions":[1.95E1,1.35E1,5.135E-1,-1.0331987E-3,-4.092168E-3,-1.1744221E-4,3.1761357E-3],"split_indices":[28,80,55,0,0,0,0],"split_type":[0,0,0,0,0,0,0],"sum_hessian":[6.143999E3,4.294345E3,1.8496538E3,2.268499E3,2.0258462E3,9.790473E2,8.706065E2],"tree_param":{"num_deleted":"0","num_feature":"104","num_nodes":"7","size_leaf_vector":"0"}},{"base_weights":[1.2995605E-1,2.4768765E-1,-1.433678E-1,1.03319824E-1,4.092169E-1,1.1744195E-2,-3.176135E-1],"categories":[],"categories_nodes":[],"categories_segments":[],"categories_sizes":[],"default_left":[1,1,1,0,0,0,0],"id":39,"left_children":[1,3,5,-1,-1,-1,-1],"loss_changes":[1.9777454E2,1.001236E2,5.002247E1,0E0,0E0,0E0,0E0],"parents":[2147483647,0,0,1,1,2,2],"right_children":[2,4,6,-1,-1,-1,-1],"split_conditions":[1.95E1,1.35E1,5.135E-1,1.0331982E-3,4.092169E-3,1.17441945E-4,-3.176135E-3],"split_indices":[28,80,55,0,0,0,0],"split_type":[0,0,0,0,0,0,0],"sum_hessian":[6.143999E3,4.294345E3,1.8496538E3,2.268499E3,2.0258461E3,9.790473E2,8.706065E2],"tree_param":{"num_deleted":"0","num_feature":"104","num_nodes":"7","size_leaf_vector":"0"}},{"base_weights":[-1.2869059E-1,-2.3175251E-1,1.7853297E-1,-6.300702E-2,-3.7584573E-1,2.5226164E-1,-1.6590078E-1],"categories":[],"categories_nodes":[],"categories_segments":[],"categories_sizes":[],"default_left":[1,1,1,0,0,0,0],"id":40,"left_children":[1,3,5,-1,-1,-1,-1],"loss_changes":[1.9456029E2,1.1184134E2,3.9245113E1,0E0,0E0,0E0,0E0],"parents":[2147483647,0,0,1,1,2,2],"right_children":[2,4,6,-1,-1,-1,-1],"split_conditions":[2.25E1,1.15E1,2.45E1,-6.3007016E-4,-3.7584573E-3,2.5226164E-3,-1.6590077E-3],"split_indices":[51,80,81,0,0,0,0],"split_type":[0,0,0,0,0,0,0],"sum_hessian":[6.142404E3,4.5996426E3,1.5427611E3,2.119253E3,2.4803894E3,1.2709683E3,2.7179282E2],"tree_param":{"num_deleted":"0","num_feature":"104","num_nodes":"7","size_leaf_vector":"0"}},{"base_weights":[1.2869057E-1,2.3175251E-1,-1.78533E-1,6.300701E-2,3.7584573E-1,-2.5226167E-1,1.6590075E-1],"categories":[],"categories_nodes":[],"categories_segments":[],"categories_sizes":[],"default_left":[1,1,1,0,0,0,0],"id":41,"left_children":[1,3,5,-1,-1,-1,-1],"loss_changes":[1.9456033E2,1.1184131E2,3.924511E1,0E0,0E0,0E0,0E0],"parents":[2147483647,0,0,1,1,2,2],"right_children":[2,4,6,-1,-1,-1,-1],"split_conditions":[2.25E1,1.15E1,2.45E1,6.300701E-4,3.7584573E-3,-2.5226166E-3,1.6590075E-3],"split_indices":[51,80,81,0,0,0,0],"split_type":[0,0,0,0,0,0,0],"sum_hessian":[6.1424033E3,4.5996426E3,1.5427611E3,2.119253E3,2.4803894E3,1.2709683E3,2.7179282E2],"tree_param":{"num_deleted":"0","num_feature":"104","num_nodes":"7","size_leaf_vector":"0"}},{"base_weights":[-1.2743632E-1,-3.0667648E-1,4.7128066E-2,-3.9103457E-1,-8.411194E-2,1.9186305E-1,-1.6155265E-1],"categories":[],"categories_nodes":[],"categories_segments":[],"categories_sizes":[],"default_left":[1,1,1,0,0,0,0],"id":42,"left_children":[1,3,5,-1,-1,-1,-1],"loss_changes":[1.9218718E2,5.686487E1,9.403568E1,0E0,0E0,0E0,0E0],"parents":[2147483647,0,0,1,1,2,2],"right_children":[2,4,6,-1,-1,-1,-1],"split_conditions":[1.45E1,3.75E0,1.75E1,-3.9103455E-3,-8.411193E-4,1.9186304E-3,-1.6155265E-3],"split_indices":[51,77,81,0,0,0,0],"split_type":[0,0,0,0,0,0,0],"sum_hessian":[6.140873E3,3.0294854E3,3.1113877E3,2.1962783E3,8.3320703E2,1.8372229E3,1.2741647E3],"tree_param":{"num_deleted":"0","num_feature":"104","num_nodes":"7","size_leaf_vector":"0"}},{"base_weights":[1.2743635E-1,3.066765E-1,-4.7128048E-2,3.910346E-1,8.411202E-2,-1.9186303E-1,1.6155267E-1],"categories":[],"categories_nodes":[],"categories_segments":[],"categories_sizes":[],"default_left":[1,1,1,0,0,0,0],"id":43,"left_children":[1,3,5,-1,-1,-1,-1],"loss_changes":[1.9218723E2,5.6864838E1,9.4035675E1,0E0,0E0,0E0,0E0],"parents":[2147483647,0,0,1,1,2,2],"right_children":[2,4,6,-1,-1,-1,-1],"split_conditions":[1.45E1,3.75E0,1.75E1,3.910346E-3,8.4112014E-4,-1.9186302E-3,1.6155266E-3],"split_indices":[51,77,81,0,0,0,0],"split_type":[0,0,0,0,0,0,0],"sum_hessian":[6.140873E3,3.0294854E3,3.1113877E3,2.1962783E3,8.33207E2,1.8372229E3,1.2741647E3],"tree_param":{"num_deleted":"0","num_feature":"104","num_nodes":"7","size_leaf_vector":"0"}},{"base_weights":[-1.2619692E-1,1.2316906E-1,-2.4953228E-1,-1.1163118E-1,2.3536098E-1,-1.560896E-1,-4.7614554E-1],"categories":[],"categories_nodes":[],"categories_segments":[],"categories_sizes":[],"default_left":[1,1,1,0,0,0,0],"id":44,"left_children":[1,3,5,-1,-1,-1,-1],"loss_changes":[1.8887738E2,5.357071E1,8.692705E1,0E0,0E0,0E0,0E0],"parents":[2147483647,0,0,1,1,2,2],"right_children":[2,4,6,-1,-1,-1,-1],"split_conditions":[-1.6500001E0,-2.05E0,1.95E1,-1.1163118E-3,2.3536098E-3,-1.560896E-3,-4.761455E-3],"split_indices":[25,77,80,0,0,0,0],"split_type":[0,0,0,0,0,0,0],"sum_hessian":[6.139227E3,2.0316105E3,4.1076167E3,6.568761E2,1.3747344E3,2.9095637E3,1.1980531E3],"tree_param":{"num_deleted":"0","num_feature":"104","num_nodes":"7","size_leaf_vector":"0"}},{"base_weights":[1.2619697E-1,-1.2316903E-1,2.4953231E-1,1.11631215E-1,-2.3536095E-1,1.5608963E-1,4.761456E-1],"categories":[],"categories_nodes":[],"categories_segments":[],"categories_sizes":[],"default_left":[1,1,1,0,0,0,0],"id":45,"left_children":[1,3,5,-1,-1,-1,-1],"loss_changes":[1.8887735E2,5.357071E1,8.692708E1,0E0,0E0,0E0,0E0],"parents":[2147483647,0,0,1,1,2,2],"right_children":[2,4,6,-1,-1,-1,-1],"split_conditions":[-1.6500001E0,-2.05E0,1.95E1,1.1163121E-3,-2.3536095E-3,1.5608963E-3,4.761456E-3],"split_indices":[25,77,80,0,0,0,0],"split_type":[0,0,0,0,0,0,0],"sum_hessian":[6.139227E3,2.0316105E3,4.1076167E3,6.568761E2,1.3747344E3,2.9095637E3,1.1980531E3],"tree_param":{"num_deleted":"0","num_feature":"104","num_nodes":"7","size_leaf_vector":"0"}},{"base_weights":[-1.2497023E-1,-2.392954E-1,1.4024828E-1,-9.923368E-2,-3.9630213E-1,-1.04143275E-2,3.0960423E-1],"categories":[],"categories_nodes":[],"categories_segments":[],"categories_sizes":[],"default_left":[1,1,1,0,0,0,0],"id":46,"left_children":[1,3,5,-1,-1,-1,-1],"loss_changes":[1.8616156E2,9.429797E1,4.719869E1,0E0,0E0,0E0,0E0],"parents":[2147483647,0,0,1,1,2,2],"right_children":[2,4,6,-1,-1,-1,-1],"split_conditions":[1.95E1,1.35E1,5.135E-1,-9.923368E-4,-3.963021E-3,-1.0414327E-4,3.0960422E-3],"split_indices":[28,80,55,0,0,0,0],"split_type":[0,0,0,0,0,0,0],"sum_hessian":[6.137554E3,4.288885E3,1.8486699E3,2.2676257E3,2.0212589E3,9.788251E2,8.698448E2],"tree_param":{"num_deleted":"0","num_feature":"104","num_nodes":"7","size_leaf_vector":"0"}},{"base_weights":[1.2497023E-1,2.392954E-1,-1.4024828E-1,9.923367E-2,3.9630213E-1,1.04143275E-2,-3.0960426E-1],"categories":[],"categories_nodes":[],"categories_segments":[],"categories_sizes":[],"default_left":[1,1,1,0,0,0,0],"id":47,"left_children":[1,3,5,-1,-1,-1,-1],"loss_changes":[1.8616159E2,9.429794E1,4.719869E1,0E0,0E0,0E0,0E0],"parents":[2147483647,0,0,1,1,2,2],"right_children":[2,4,6,-1,-1,-1,-1],"split_conditions":[1.95E1,1.35E1,5.135E-1,9.923367E-4,3.963021E-3,1.0414327E-4,-3.0960424E-3],"split_indices":[28,80,55,0,0,0,0],"split_type":[0,0,0,0,0,0,0],"sum_hessian":[6.1375547E3,4.288885E3,1.8486699E3,2.2676257E3,2.0212589E3,9.788251E2,8.698448E2],"tree_param":{"num_deleted":"0","num_feature":"104","num_nodes":"7","size_leaf_vector":"0"}},{"base_weights":[-1.2375801E-1,-2.9920426E-1,4.6988968E-2,-3.821229E-1,-8.076097E-2,1.8834946E-1,-1.5686119E-1],"categories":[],"categories_nodes":[],"categories_segments":[],"categories_sizes":[],"default_left":[1,1,1,0,0,0,0],"id":48,"left_children":[1,3,5,-1,-1,-1,-1],"loss_changes":[1.8385156E2,5.4794556E1,8.9673775E1,0E0,0E0,0E0,0E0],"parents":[2147483647,0,0,1,1,2,2],"right_children":[2,4,6,-1,-1,-1,-1],"split_conditions":[1.45E1,3.75E0,1.75E1,-3.8212289E-3,-8.076097E-4,1.8834946E-3,-1.5686118E-3],"split_indices":[51,77,81,0,0,0,0],"split_type":[0,0,0,0,0,0,0],"sum_hessian":[6.1357305E3,3.0258506E3,3.10988E3,2.1927556E3,8.3309485E2,1.8364584E3,1.2734214E3],"tree_param":{"num_deleted":"0","num_feature":"104","num_nodes":"7","size_leaf_vector":"0"}},{"base_weights":[1.2375801E-1,2.9920426E-1,-4.698897E-2,3.821229E-1,8.076095E-2,-1.8834944E-1,1.5686117E-1],"categories":[],"categories_nodes":[],"categories_segments":[],"categories_sizes":[],"default_left":[1,1,1,0,0,0,0],"id":49,"left_children":[1,3,5,-1,-1,-1,-1],"loss_changes":[1.838516E2,5.4794525E1,8.967375E1,0E0,0E0,0E0,0E0],"parents":[2147483647,0,0,1,1,2,2],"right_children":[2,4,6,-1,-1,-1,-1],"split_conditions":[1.45E1,3.75E0,1.75E1,3.8212289E-3,8.0760947E-4,-1.8834943E-3,1.5686117E-3],"split_indices":[51,77,81,0,0,0,0],"split_type":[0,0,0,0,0,0,0],"sum_hessian":[6.13573E3,3.0258503E3,3.1098796E3,2.1927556E3,8.330948E2,1.8364584E3,1.2734214E3],"tree_param":{"num_deleted":"0","num_feature":"104","num_nodes":"7","size_leaf_vector":"0"}},{"base_weights":[-1.2255773E-1,-2.220537E-1,1.7376511E-1,-5.901405E-2,-3.6156246E-1,2.4512105E-1,-1.5946601E-1],"categories":[],"categories_nodes":[],"categories_segments":[],"categories_sizes":[],"default_left":[1,1,1,0,0,0,0],"id":50,"left_children":[1,3,5,-1,-1,-1,-1],"loss_changes":[1.8091397E2,1.04454025E2,3.6720966E1,0E0,0E0,0E0,0E0],"parents":[2147483647,0,0,1,1,2,2],"right_children":[2,4,6,-1,-1,-1,-1],"split_conditions":[2.25E1,1.15E1,2.45E1,-5.9014047E-4,-3.6156245E-3,2.4512105E-3,-1.5946601E-3],"split_indices":[51,80,81,0,0,0,0],"split_type":[0,0,0,0,0,0,0],"sum_hessian":[6.1339194E3,4.5922393E3,1.5416803E3,2.1181934E3,2.4740457E3,1.2699961E3,2.7168427E2],"tree_param":{"num_deleted":"0","num_feature":"104","num_nodes":"7","size_leaf_vector":"0"}},{"base_weights":[1.2255777E-1,2.2205377E-1,-1.7376512E-1,5.90141E-2,3.6156252E-1,-2.4512105E-1,1.5946592E-1],"categories":[],"categories_nodes":[],"categories_segments":[],"categories_sizes":[],"default_left":[1,1,1,0,0,0,0],"id":51,"left_children":[1,3,5,-1,-1,-1,-1],"loss_changes":[1.8091403E2,1.0445401E2,3.672095E1,0E0,0E0,0E0,0E0],"parents":[2147483647,0,0,1,1,2,2],"right_children":[2,4,6,-1,-1,-1,-1],"split_conditions":[2.25E1,1.15E1,2.45E1,5.90141E-4,3.6156252E-3,-2.4512105E-3,1.5946592E-3],"split_indices":[51,80,81,0,0,0,0],"split_type":[0,0,0,0,0,0,0],"sum_hessian":[6.1339194E3,4.5922393E3,1.5416803E3,2.1181934E3,2.4740457E3,1.2699961E3,2.7168427E2],"tree_param":{"num_deleted":"0","num_feature":"104","num_nodes":"7","size_leaf_vector":"0"}},{"base_weights":[-1.2136868E-1,-2.9429424E-1,4.6826128E-2,-3.7599578E-1,-7.9301246E-2,1.859994E-1,-1.5389882E-1],"categories":[],"categories_nodes":[],"categories_segments":[],"categories_sizes":[],"default_left":[1,1,1,0,0,0,0],"id":52,"left_children":[1,3,5,-1,-1,-1,-1],"loss_changes":[1.7839673E2,5.3090485E1,8.690682E1,0E0,0E0,0E0,0E0],"parents":[2147483647,0,0,1,1,2,2],"right_children":[2,4,6,-1,-1,-1,-1],"split_conditions":[1.45E1,3.75E0,1.75E1,-3.7599578E-3,-7.9301244E-4,1.8599939E-3,-1.5389882E-3],"split_indices":[51,77,81,0,0,0,0],"split_type":[0,0,0,0,0,0,0],"sum_hessian":[6.1321206E3,3.0231694E3,3.1089512E3,2.190129E3,8.3304065E2,1.8360167E3,1.2729344E3],"tree_param":{"num_deleted":"0","num_feature":"104","num_nodes":"7","size_leaf_vector":"0"}},{"base_weights":[1.213687E-1,2.9429427E-1,-4.6826106E-2,3.7599578E-1,7.930133E-2,-1.8599936E-1,1.5389884E-1],"categories":[],"categories_nodes":[],"categories_segments":[],"categories_sizes":[],"default_left":[1,1,1,0,0,0,0],"id":53,"left_children":[1,3,5,-1,-1,-1,-1],"loss_changes":[1.7839676E2,5.3090454E1,8.690681E1,0E0,0E0,0E0,0E0],"parents":[2147483647,0,0,1,1,2,2],"right_children":[2,4,6,-1,-1,-1,-1],"split_conditions":[1.45E1,3.75E0,1.75E1,3.7599578E-3,7.9301326E-4,-1.8599936E-3,1.5389883E-3],"split_indices":[51,77,81,0,0,0,0],"split_type":[0,0,0,0,0,0,0],"sum_hessian":[6.1321206E3,3.0231694E3,3.1089512E3,2.190129E3,8.3304065E2,1.8360166E3,1.2729344E3],"tree_param":{"num_deleted":"0","num_feature":"104","num_nodes":"7","size_leaf_vector":"0"}},{"base_weights":[-1.2019371E-1,-2.5988007E-1,8.508319E-2,-3.4532568E-1,-2.2551948E-2,1.8289419E-1,-1.5813182E-1],"categories":[],"categories_nodes":[],"categories_segments":[],"categories_sizes":[],"default_left":[1,1,1,0,0,0,0],"id":54,"left_children":[1,3,5,-1,-1,-1,-1],"loss_changes":[1.7583057E2,7.398366E1,5.9108414E1,0E0,0E0,0E0,0E0],"parents":[2147483647,0,0,1,1,2,2],"right_children":[2,4,6,-1,-1,-1,-1],"split_conditions":[1.65E1,3.85E0,2.15E1,-3.4532568E-3,-2.2551947E-4,1.8289419E-3,-1.5813182E-3],"split_indices":[27,77,103,0,0,0,0],"split_type":[0,0,0,0,0,0,0],"sum_hessian":[6.130204E3,3.6477356E3,2.4824685E3,2.6817615E3,9.6597406E2,1.7706389E3,7.118296E2],"tree_param":{"num_deleted":"0","num_feature":"104","num_nodes":"7","size_leaf_vector":"0"}},{"base_weights":[1.20193705E-1,2.5988004E-1,-8.508317E-2,3.4532568E-1,2.2551922E-2,-1.8289417E-1,1.5813184E-1],"categories":[],"categories_nodes":[],"categories_segments":[],"categories_sizes":[],"default_left":[1,1,1,0,0,0,0],"id":55,"left_children":[1,3,5,-1,-1,-1,-1],"loss_changes":[1.7583054E2,7.398364E1,5.910841E1,0E0,0E0,0E0,0E0],"parents":[2147483647,0,0,1,1,2,2],"right_children":[2,4,6,-1,-1,-1,-1],"split_conditions":[1.65E1,3.85E0,2.15E1,3.4532568E-3,2.2551922E-4,-1.8289416E-3,1.5813183E-3],"split_indices":[27,77,103,0,0,0,0],"split_type":[0,0,0,0,0,0,0],"sum_hessian":[6.130204E3,3.6477354E3,2.4824685E3,2.6817615E3,9.6597406E2,1.7706389E3,7.118296E2],"tree_param":{"num_deleted":"0","num_feature":"104","num_nodes":"7","size_leaf_vector":"0"}},{"base_weights":[-1.1903073E-1,-2.1646321E-1,1.7096348E-1,-5.672048E-2,-3.533337E-1,2.4074559E-1,-1.548714E-1],"categories":[],"categories_nodes":[],"categories_segments":[],"categories_sizes":[],"default_left":[1,1,1,0,0,0,0],"id":56,"left_children":[1,3,5,-1,-1,-1,-1],"loss_changes":[1.7321805E2,1.0029823E2,3.509799E1,0E0,0E0,0E0,0E0],"parents":[2147483647,0,0,1,1,2,2],"right_children":[2,4,6,-1,-1,-1,-1],"split_conditions":[2.25E1,1.15E1,2.45E1,-5.672048E-4,-3.533337E-3,2.4074558E-3,-1.548714E-3],"split_indices":[51,80,81,0,0,0,0],"split_type":[0,0,0,0,0,0,0],"sum_hessian":[6.12825E3,4.5872695E3,1.5409807E3,2.1174226E3,2.469847E3,1.2693851E3,2.715955E2],"tree_param":{"num_deleted":"0","num_feature":"104","num_nodes":"7","size_leaf_vector":"0"}},{"base_weights":[1.190307E-1,2.1646316E-1,-1.7096347E-1,5.672042E-2,3.5333368E-1,-2.4074559E-1,1.548715E-1],"categories":[],"categories_nodes":[],"categories_segments":[],"categories_sizes":[],"default_left":[1,1,1,0,0,0,0],"id":57,"left_children":[1,3,5,-1,-1,-1,-1],"loss_changes":[1.7321803E2,1.0029823E2,3.5098007E1,0E0,0E0,0E0,0E0],"parents":[2147483647,0,0,1,1,2,2],"right_children":[2,4,6,-1,-1,-1,-1],"split_conditions":[2.25E1,1.15E1,2.45E1,5.672042E-4,3.5333368E-3,-2.4074558E-3,1.5487149E-3],"split_indices":[51,80,81,0,0,0,0],"split_type":[0,0,0,0,0,0,0],"sum_hessian":[6.12825E3,4.5872695E3,1.5409807E3,2.1174226E3,2.469847E3,1.2693851E3,2.715955E2],"tree_param":{"num_deleted":"0","num_feature":"104","num_nodes":"7","size_leaf_vector":"0"}},{"base_weights":[-1.1787872E-1,-2.872365E-1,4.669613E-2,-3.6701822E-1,-7.767903E-2,1.8294355E-1,-1.4984968E-1],"categories":[],"categories_nodes":[],"categories_segments":[],"categories_sizes":[],"default_left":[1,1,1,0,0,0,0],"id":58,"left_children":[1,3,5,-1,-1,-1,-1],"loss_changes":[1.7079388E2,5.0460968E1,8.326667E1,0E0,0E0,0E0,0E0],"parents":[2147483647,0,0,1,1,2,2],"right_children":[2,4,6,-1,-1,-1,-1],"split_conditions":[1.45E1,3.75E0,1.75E1,-3.670182E-3,-7.767903E-4,1.8294355E-3,-1.4984967E-3],"split_indices":[51,77,81,0,0,0,0],"split_type":[0,0,0,0,0,0,0],"sum_hessian":[6.1263066E3,3.0189126E3,3.1073943E3,2.1859404E3,8.329722E2,1.8352505E3,1.2721439E3],"tree_param":{"num_deleted":"0","num_feature":"104","num_nodes":"7","size_leaf_vector":"0"}},{"base_weights":[1.1787872E-1,2.8723648E-1,-4.6696134E-2,3.6701822E-1,7.767902E-2,-1.8294357E-1,1.4984968E-1],"categories":[],"categories_nodes":[],"categories_segments":[],"categories_sizes":[],"default_left":[1,1,1,0,0,0,0],"id":59,"left_children":[1,3,5,-1,-1,-1,-1],"loss_changes":[1.7079388E2,5.0460953E1,8.326668E1,0E0,0E0,0E0,0E0],"parents":[2147483647,0,0,1,1,2,2],"right_children":[2,4,6,-1,-1,-1,-1],"split_conditions":[1.45E1,3.75E0,1.75E1,3.670182E-3,7.767902E-4,-1.8294356E-3,1.4984967E-3],"split_indices":[51,77,81,0,0,0,0],"split_type":[0,0,0,0,0,0,0],"sum_hessian":[6.1263066E3,3.0189126E3,3.1073943E3,2.1859404E3,8.329722E2,1.8352505E3,1.2721438E3],"tree_param":{"num_deleted":"0","num_feature":"104","num_nodes":"7","size_leaf_vector":"0"}},{"base_weights":[-1.1674035E-1,-2.2575682E-1,1.3575658E-1,-9.237913E-2,-3.7580156E-1,-7.544083E-3,2.9702365E-1],"categories":[],"categories_nodes":[],"categories_segments":[],"categories_sizes":[],"default_left":[1,1,1,0,0,0,0],"id":60,"left_children":[1,3,5,-1,-1,-1,-1],"loss_changes":[1.6863617E2,8.5589676E1,4.270265E1,0E0,0E0,0E0,0E0],"parents":[2147483647,0,0,1,1,2,2],"right_children":[2,4,6,-1,-1,-1,-1],"split_conditions":[1.95E1,1.35E1,5.135E-1,-9.2379126E-4,-3.7580156E-3,-7.544083E-5,2.9702366E-3],"split_indices":[28,80,55,0,0,0,0],"split_type":[0,0,0,0,0,0,0],"sum_hessian":[6.1242466E3,4.2775186E3,1.8467281E3,2.2653872E3,2.0121312E3,9.783379E2,8.6839026E2],"tree_param":{"num_deleted":"0","num_feature":"104","num_nodes":"7","size_leaf_vector":"0"}},{"base_weights":[1.1674033E-1,2.2575678E-1,-1.3575658E-1,9.237909E-2,3.7580153E-1,7.544084E-3,-2.9702365E-1],"categories":[],"categories_nodes":[],"categories_segments":[],"categories_sizes":[],"default_left":[1,1,1,0,0,0,0],"id":61,"left_children":[1,3,5,-1,-1,-1,-1],"loss_changes":[1.6863614E2,8.558966E1,4.2702652E1,0E0,0E0,0E0,0E0],"parents":[2147483647,0,0,1,1,2,2],"right_children":[2,4,6,-1,-1,-1,-1],"split_conditions":[1.95E1,1.35E1,5.135E-1,9.237909E-4,3.7580153E-3,7.544084E-5,-2.9702366E-3],"split_indices":[28,80,55,0,0,0,0],"split_type":[0,0,0,0,0,0,0],"sum_hessian":[6.1242466E3,4.2775186E3,1.8467281E3,2.2653872E3,2.0121312E3,9.783378E2,8.6839026E2],"tree_param":{"num_deleted":"0","num_feature":"104","num_nodes":"7","size_leaf_vector":"0"}},{"base_weights":[-1.15614265E-1,-2.824701E-1,4.6422213E-2,-2.948525E-2,-3.4684825E-1,1.4970234E-1,-2.0624088E-1],"categories":[],"categories_nodes":[],"categories_segments":[],"categories_sizes":[],"default_left":[1,1,1,0,0,0,0],"id":62,"left_children":[1,3,5,-1,-1,-1,-1],"loss_changes":[1.6556161E2,4.912393E1,8.111527E1,0E0,0E0,0E0,0E0],"parents":[2147483647,0,0,1,1,2,2],"right_children":[2,4,6,-1,-1,-1,-1],"split_conditions":[1.45E1,5.5E0,2.15E1,-2.9485248E-4,-3.4684825E-3,1.4970234E-3,-2.0624087E-3],"split_indices":[51,103,103,0,0,0,0],"split_type":[0,0,0,0,0,0,0],"sum_hessian":[6.122096E3,3.0158276E3,3.1062686E3,6.1206647E2,2.403761E3,2.205246E3,9.0102246E2],"tree_param":{"num_deleted":"0","num_feature":"104","num_nodes":"7","size_leaf_vector":"0"}},{"base_weights":[1.15614235E-1,2.8247005E-1,-4.642224E-2,2.9485142E-2,3.4684822E-1,-1.4970237E-1,2.0624088E-1],"categories":[],"categories_nodes":[],"categories_segments":[],"categories_sizes":[],"default_left":[1,1,1,0,0,0,0],"id":63,"left_children":[1,3,5,-1,-1,-1,-1],"loss_changes":[1.6556161E2,4.912393E1,8.1115295E1,0E0,0E0,0E0,0E0],"parents":[2147483647,0,0,1,1,2,2],"right_children":[2,4,6,-1,-1,-1,-1],"split_conditions":[1.45E1,5.5E0,2.15E1,2.948514E-4,3.468482E-3,-1.4970236E-3,2.0624087E-3],"split_indices":[51,103,103,0,0,0,0],"split_type":[0,0,0,0,0,0,0],"sum_hessian":[6.122096E3,3.0158274E3,3.1062686E3,6.1206647E2,2.403761E3,2.205246E3,9.0102246E2],"tree_param":{"num_deleted":"0","num_feature":"104","num_nodes":"7","size_leaf_vector":"0"}},{"base_weights":[-1.144976E-1,-2.093187E-1,1.6747352E-1,-5.3902335E-2,-3.4274784E-1,2.3537365E-1,-1.4949305E-1],"categories":[],"categories_nodes":[],"categories_segments":[],"categories_sizes":[],"default_left":[1,1,1,0,0,0,0],"id":64,"left_children":[1,3,5,-1,-1,-1,-1],"loss_changes":[1.6369235E2,9.498035E1,3.319938E1,0E0,0E0,0E0,0E0],"parents":[2147483647,0,0,1,1,2,2],"right_children":[2,4,6,-1,-1,-1,-1],"split_conditions":[2.25E1,1.15E1,2.45E1,-5.390234E-4,-3.4274783E-3,2.3537364E-3,-1.4949305E-3],"split_indices":[51,80,81,0,0,0,0],"split_type":[0,0,0,0,0,0,0],"sum_hessian":[6.120049E3,4.58011E3,1.5399391E3,2.116382E3,2.4637275E3,1.2684673E3,2.7147174E2],"tree_param":{"num_deleted":"0","num_feature":"104","num_nodes":"7","size_leaf_vector":"0"}},{"base_weights":[1.14497595E-1,2.0931868E-1,-1.6747354E-1,5.3902335E-2,3.4274784E-1,-2.3537365E-1,1.4949305E-1],"categories":[],"categories_nodes":[],"categories_segments":[],"categories_sizes":[],"default_left":[1,1,1,0,0,0,0],"id":65,"left_children":[1,3,5,-1,-1,-1,-1],"loss_changes":[1.6369238E2,9.498035E1,3.319938E1,0E0,0E0,0E0,0E0],"parents":[2147483647,0,0,1,1,2,2],"right_children":[2,4,6,-1,-1,-1,-1],"split_conditions":[2.25E1,1.15E1,2.45E1,5.390234E-4,3.4274783E-3,-2.3537364E-3,1.4949305E-3],"split_indices":[51,80,81,0,0,0,0],"split_type":[0,0,0,0,0,0,0],"sum_hessian":[6.120049E3,4.58011E3,1.539939E3,2.116382E3,2.4637275E3,1.2684673E3,2.7147174E2],"tree_param":{"num_deleted":"0","num_feature":"104","num_nodes":"7","size_leaf_vector":"0"}},{"base_weights":[-1.1339273E-1,-2.4740297E-1,8.321687E-2,-3.297544E-1,-1.9437615E-2,2.0419689E-1,-9.738318E-2],"categories":[],"categories_nodes":[],"categories_segments":[],"categories_sizes":[],"default_left":[1,1,1,0,0,0,0],"id":66,"left_children":[1,3,5,-1,-1,-1,-1],"loss_changes":[1.6124043E2,6.830948E1,5.422589E1,0E0,0E0,0E0,0E0],"parents":[2147483647,0,0,1,1,2,2],"right_children":[2,4,6,-1,-1,-1,-1],"split_conditions":[1.65E1,3.85E0,1.65E1,-3.297544E-3,-1.9437615E-4,2.0419687E-3,-9.7383175E-4],"split_indices":[27,77,80,0,0,0,0],"split_type":[0,0,0,0,0,0,0],"sum_hessian":[6.1179346E3,3.6379966E3,2.4799377E3,2.672222E3,9.657748E2,1.4850228E3,9.949149E2],"tree_param":{"num_deleted":"0","num_feature":"104","num_nodes":"7","size_leaf_vector":"0"}},{"base_weights":[1.1339274E-1,2.4740298E-1,-8.321687E-2,3.2975447E-1,1.9437581E-2,-2.0419689E-1,9.738318E-2],"categories":[],"categories_nodes":[],"categories_segments":[],"categories_sizes":[],"default_left":[1,1,1,0,0,0,0],"id":67,"left_children":[1,3,5,-1,-1,-1,-1],"loss_changes":[1.6124045E2,6.830954E1,5.4225883E1,0E0,0E0,0E0,0E0],"parents":[2147483647,0,0,1,1,2,2],"right_children":[2,4,6,-1,-1,-1,-1],"split_conditions":[1.65E1,3.85E0,1.65E1,3.2975446E-3,1.9437581E-4,-2.0419687E-3,9.7383175E-4],"split_indices":[27,77,80,0,0,0,0],"split_type":[0,0,0,0,0,0,0],"sum_hessian":[6.1179346E3,3.6379966E3,2.4799377E3,2.672222E3,9.657747E2,1.4850228E3,9.9491486E2],"tree_param":{"num_deleted":"0","num_feature":"104","num_nodes":"7","size_leaf_vector":"0"}},{"base_weights":[-1.12300515E-1,-2.1818794E-1,1.3270357E-1,-8.845398E-2,-3.6447766E-1,-6.5821866E-3,2.8958657E-1],"categories":[],"categories_nodes":[],"categories_segments":[],"categories_sizes":[],"default_left":[1,1,1,0,0,0,0],"id":68,"left_children":[1,3,5,-1,-1,-1,-1],"loss_changes":[1.5871384E2,8.103107E1,4.0349552E1,0E0,0E0,0E0,0E0],"parents":[2147483647,0,0,1,1,2,2],"right_children":[2,4,6,-1,-1,-1,-1],"split_conditions":[1.95E1,1.35E1,5.135E-1,-8.8453974E-4,-3.6447765E-3,-6.582186E-5,2.8958656E-3],"split_indices":[28,80,55,0,0,0,0],"split_type":[0,0,0,0,0,0,0],"sum_hessian":[6.115708E3,4.2702666E3,1.8454417E3,2.2640479E3,2.0062186E3,9.7805286E2,8.6738873E2],"tree_param":{"num_deleted":"0","num_feature":"104","num_nodes":"7","size_leaf_vector":"0"}},{"base_weights":[1.12300545E-1,2.1818799E-1,-1.3270356E-1,8.8453986E-2,3.6447772E-1,6.582213E-3,-2.8958657E-1],"categories":[],"categories_nodes":[],"categories_segments":[],"categories_sizes":[],"default_left":[1,1,1,0,0,0,0],"id":69,"left_children":[1,3,5,-1,-1,-1,-1],"loss_changes":[1.5871384E2,8.103108E1,4.034956E1,0E0,0E0,0E0,0E0],"parents":[2147483647,0,0,1,1,2,2],"right_children":[2,4,6,-1,-1,-1,-1],"split_conditions":[1.95E1,1.35E1,5.135E-1,8.8453986E-4,3.6447772E-3,6.582213E-5,-2.8958656E-3],"split_indices":[28,80,55,0,0,0,0],"split_type":[0,0,0,0,0,0,0],"sum_hessian":[6.115708E3,4.2702666E3,1.8454417E3,2.2640479E3,2.0062188E3,9.7805286E2,8.6738873E2],"tree_param":{"num_deleted":"0","num_feature":"104","num_nodes":"7","size_leaf_vector":"0"}},{"base_weights":[-1.112203E-1,-2.7377123E-1,4.64369E-2,-2.1225615E-1,-5.3165114E-1,1.4705634E-1,-1.9981544E-1],"categories":[],"categories_nodes":[],"categories_segments":[],"categories_sizes":[],"default_left":[1,1,1,0,0,0,0],"id":70,"left_children":[1,3,5,-1,-1,-1,-1],"loss_changes":[1.5670834E2,4.764612E1,7.6958824E1,0E0,0E0,0E0,0E0],"parents":[2147483647,0,0,1,1,2,2],"right_children":[2,4,6,-1,-1,-1,-1],"split_conditions":[1.45E1,2.25E1,2.15E1,-2.1225614E-3,-5.3165113E-3,1.4705634E-3,-1.9981542E-3],"split_indices":[51,80,103,0,0,0,0],"split_type":[0,0,0,0,0,0,0],"sum_hessian":[6.113396E3,3.0096196E3,3.1037761E3,2.4314426E3,5.781772E2,2.2037288E3,9.0004736E2],"tree_param":{"num_deleted":"0","num_feature":"104","num_nodes":"7","size_leaf_vector":"0"}},{"base_weights":[1.1122031E-1,2.7377126E-1,-4.64369E-2,2.1225616E-1,5.3165114E-1,-1.4705634E-1,1.9981544E-1],"categories":[],"categories_nodes":[],"categories_segments":[],"categories_sizes":[],"default_left":[1,1,1,0,0,0,0],"id":71,"left_children":[1,3,5,-1,-1,-1,-1],"loss_changes":[1.5670836E2,4.764612E1,7.6958824E1,0E0,0E0,0E0,0E0],"parents":[2147483647,0,0,1,1,2,2],"right_children":[2,4,6,-1,-1,-1,-1],"split_conditions":[1.45E1,2.25E1,2.15E1,2.1225617E-3,5.3165113E-3,-1.4705634E-3,1.9981542E-3],"split_indices":[51,80,103,0,0,0,0],"split_type":[0,0,0,0,0,0,0],"sum_hessian":[6.113396E3,3.0096199E3,3.1037761E3,2.4314426E3,5.7817725E2,2.2037288E3,9.0004736E2],"tree_param":{"num_deleted":"0","num_feature":"104","num_nodes":"7","size_leaf_vector":"0"}},{"base_weights":[-1.1014807E-1,-2.0238471E-1,1.6388743E-1,-5.111675E-2,-3.3253857E-1,2.2999936E-1,-1.4463371E-1],"categories":[],"categories_nodes":[],"categories_segments":[],"categories_sizes":[],"default_left":[1,1,1,0,0,0,0],"id":72,"left_children":[1,3,5,-1,-1,-1,-1],"loss_changes":[1.5452785E2,9.002655E1,3.144006E1,0E0,0E0,0E0,0E0],"parents":[2147483647,0,0,1,1,2,2],"right_children":[2,4,6,-1,-1,-1,-1],"split_conditions":[2.25E1,1.15E1,2.45E1,-5.111675E-4,-3.3253857E-3,2.2999935E-3,-1.4463371E-3],"split_indices":[51,80,81,0,0,0,0],"split_type":[0,0,0,0,0,0,0],"sum_hessian":[6.1112793E3,4.572499E3,1.5387799E3,2.1153643E3,2.4571348E3,1.2674392E3,2.7134073E2],"tree_param":{"num_deleted":"0","num_feature":"104","num_nodes":"7","size_leaf_vector":"0"}},{"base_weights":[1.1014807E-1,2.0238473E-1,-1.6388744E-1,5.1116787E-2,3.3253855E-1,-2.2999938E-1,1.4463368E-1],"categories":[],"categories_nodes":[],"categories_segments":[],"categories_sizes":[],"default_left":[1,1,1,0,0,0,0],"id":73,"left_children":[1,3,5,-1,-1,-1,-1],"loss_changes":[1.5452785E2,9.002652E1,3.1440044E1,0E0,0E0,0E0,0E0],"parents":[2147483647,0,0,1,1,2,2],"right_children":[2,4,6,-1,-1,-1,-1],"split_conditions":[2.25E1,1.15E1,2.45E1,5.1116786E-4,3.3253853E-3,-2.2999938E-3,1.4463367E-3],"split_indices":[51,80,81,0,0,0,0],"split_type":[0,0,0,0,0,0,0],"sum_hessian":[6.1112793E3,4.572499E3,1.5387799E3,2.1153643E3,2.4571348E3,1.2674392E3,2.7134073E2],"tree_param":{"num_deleted":"0","num_feature":"104","num_nodes":"7","size_leaf_vector":"0"}},{"base_weights":[-1.0908798E-1,-2.6934096E-1,4.623052E-2,-2.0862159E-1,-5.2432317E-1,1.4529178E-1,-1.9628495E-1],"categories":[],"categories_nodes":[],"categories_segments":[],"categories_sizes":[],"default_left":[1,1,1,0,0,0,0],"id":74,"left_children":[1,3,5,-1,-1,-1,-1],"loss_changes":[1.5209222E2,4.645201E1,7.458977E1,0E0,0E0,0E0,0E0],"parents":[2147483647,0,0,1,1,2,2],"right_children":[2,4,6,-1,-1,-1,-1],"split_conditions":[1.45E1,2.25E1,2.15E1,-2.086216E-3,-5.2432315E-3,1.4529177E-3,-1.9628494E-3],"split_indices":[51,80,103,0,0,0,0],"split_type":[0,0,0,0,0,0,0],"sum_hessian":[6.109013E3,3.006383E3,3.1026304E3,2.4296292E3,5.767539E2,2.2031157E3,8.9951447E2],"tree_param":{"num_deleted":"0","num_feature":"104","num_nodes":"7","size_leaf_vector":"0"}},{"base_weights":[1.09087974E-1,2.69341E-1,-4.623056E-2,2.086216E-1,5.2432317E-1,-1.4529182E-1,1.9628495E-1],"categories":[],"categories_nodes":[],"categories_segments":[],"categories_sizes":[],"default_left":[1,1,1,0,0,0,0],"id":75,"left_children":[1,3,5,-1,-1,-1,-1],"loss_changes":[1.5209229E2,4.645198E1,7.45898E1,0E0,0E0,0E0,0E0],"parents":[2147483647,0,0,1,1,2,2],"right_children":[2,4,6,-1,-1,-1,-1],"split_conditions":[1.45E1,2.25E1,2.15E1,2.0862161E-3,5.2432315E-3,-1.4529182E-3,1.9628494E-3],"split_indices":[51,80,103,0,0,0,0],"split_type":[0,0,0,0,0,0,0],"sum_hessian":[6.109013E3,3.006383E3,3.1026301E3,2.4296292E3,5.767539E2,2.2031157E3,8.9951447E2],"tree_param":{"num_deleted":"0","num_feature":"104","num_nodes":"7","size_leaf_vector":"0"}},{"base_weights":[-1.0803772E-1,-1.9891052E-1,1.6182284E-1,-4.966314E-2,-3.274796E-1,2.2681834E-1,-1.4146386E-1],"categories":[],"categories_nodes":[],"categories_segments":[],"categories_sizes":[],"default_left":[1,1,1,0,0,0,0],"id":76,"left_children":[1,3,5,-1,-1,-1,-1],"loss_changes":[1.4981415E2,8.766873E1,3.0372818E1,0E0,0E0,0E0,0E0],"parents":[2147483647,0,0,1,1,2,2],"right_children":[2,4,6,-1,-1,-1,-1],"split_conditions":[2.25E1,1.15E1,2.45E1,-4.9663143E-4,-3.2747958E-3,2.2681833E-3,-1.4146386E-3],"split_indices":[51,80,81,0,0,0,0],"split_type":[0,0,0,0,0,0,0],"sum_hessian":[6.10682E3,4.5686396E3,1.53818E3,2.114936E3,2.4537036E3,1.2669253E3,2.7125476E2],"tree_param":{"num_deleted":"0","num_feature":"104","num_nodes":"7","size_leaf_vector":"0"}},{"base_weights":[1.080377E-1,1.9891052E-1,-1.6182287E-1,4.966313E-2,3.274796E-1,-2.2681837E-1,1.4146385E-1],"categories":[],"categories_nodes":[],"categories_segments":[],"categories_sizes":[],"default_left":[1,1,1,0,0,0,0],"id":77,"left_children":[1,3,5,-1,-1,-1,-1],"loss_changes":[1.4981415E2,8.766876E1,3.0372814E1,0E0,0E0,0E0,0E0],"parents":[2147483647,0,0,1,1,2,2],"right_children":[2,4,6,-1,-1,-1,-1],"split_conditions":[2.25E1,1.15E1,2.45E1,4.966313E-4,3.2747958E-3,-2.2681837E-3,1.4146385E-3],"split_indices":[51,80,81,0,0,0,0],"split_type":[0,0,0,0,0,0,0],"sum_hessian":[6.1068193E3,4.5686396E3,1.53818E3,2.1149358E3,2.4537036E3,1.2669253E3,2.7125476E2],"tree_param":{"num_deleted":"0","num_feature":"104","num_nodes":"7","size_leaf_vector":"0"}},{"base_weights":[-1.0699924E-1,-2.3559757E-1,8.133805E-2,-3.1572548E-1,-1.4564892E-2,1.9732516E-1,-9.178888E-2],"categories":[],"categories_nodes":[],"categories_segments":[],"categories_sizes":[],"default_left":[1,1,1,0,0,0,0],"id":78,"left_children":[1,3,5,-1,-1,-1,-1],"loss_changes":[1.4789307E2,6.425769E1,4.9779087E1,0E0,0E0,0E0,0E0],"parents":[2147483647,0,0,1,1,2,2],"right_children":[2,4,6,-1,-1,-1,-1],"split_conditions":[1.65E1,3.85E0,1.65E1,-3.1572548E-3,-1.4564893E-4,1.9732516E-3,-9.1788877E-4],"split_indices":[27,77,80,0,0,0,0],"split_type":[0,0,0,0,0,0,0],"sum_hessian":[6.104481E3,3.627406E3,2.4770752E3,2.6619705E3,9.654354E2,1.4832355E3,9.9383966E2],"tree_param":{"num_deleted":"0","num_feature":"104","num_nodes":"7","size_leaf_vector":"0"}},{"base_weights":[1.0699925E-1,2.3559757E-1,-8.133802E-2,3.1572545E-1,1.4564903E-2,-1.9732511E-1,9.1788866E-2],"categories":[],"categories_nodes":[],"categories_segments":[],"categories_sizes":[],"default_left":[1,1,1,0,0,0,0],"id":79,"left_children":[1,3,5,-1,-1,-1,-1],"loss_changes":[1.4789305E2,6.425766E1,4.977906E1,0E0,0E0,0E0,0E0],"parents":[2147483647,0,0,1,1,2,2],"right_children":[2,4,6,-1,-1,-1,-1],"split_conditions":[1.65E1,3.85E0,1.65E1,3.1572543E-3,1.4564903E-4,-1.973251E-3,9.1788865E-4],"split_indices":[27,77,80,0,0,0,0],"split_type":[0,0,0,0,0,0,0],"sum_hessian":[6.1044814E3,3.627406E3,2.4770752E3,2.6619705E3,9.654354E2,1.4832355E3,9.9383966E2],"tree_param":{"num_deleted":"0","num_feature":"104","num_nodes":"7","size_leaf_vector":"0"}},{"base_weights":[-1.0597221E-1,-2.6297715E-1,4.6034895E-2,-2.0319131E-1,-5.146149E-1,1.7247416E-1,-1.3649291E-1],"categories":[],"categories_nodes":[],"categories_segments":[],"categories_sizes":[],"default_left":[1,1,1,0,0,0,0],"id":80,"left_children":[1,3,5,-1,-1,-1,-1],"loss_changes":[1.4566681E2,4.5063522E1,7.1607445E1,0E0,0E0,0E0,0E0],"parents":[2147483647,0,0,1,1,2,2],"right_children":[2,4,6,-1,-1,-1,-1],"split_conditions":[1.45E1,2.25E1,1.75E1,-2.031913E-3,-5.1461486E-3,1.7247415E-3,-1.364929E-3],"split_indices":[51,80,81,0,0,0,0],"split_type":[0,0,0,0,0,0,0],"sum_hessian":[6.1020547E3,3.001322E3,3.100733E3,2.4266006E3,5.747214E2,1.8318457E3,1.2688872E3],"tree_param":{"num_deleted":"0","num_feature":"104","num_nodes":"7","size_leaf_vector":"0"}},{"base_weights":[1.0597221E-1,2.6297718E-1,-4.6034914E-2,2.0319133E-1,5.146149E-1,-1.7247418E-1,1.3649288E-1],"categories":[],"categories_nodes":[],"categories_segments":[],"categories_sizes":[],"default_left":[1,1,1,0,0,0,0],"id":81,"left_children":[1,3,5,-1,-1,-1,-1],"loss_changes":[1.4566684E2,4.506349E1,7.1607445E1,0E0,0E0,0E0,0E0],"parents":[2147483647,0,0,1,1,2,2],"right_children":[2,4,6,-1,-1,-1,-1],"split_conditions":[1.45E1,2.25E1,1.75E1,2.0319133E-3,5.1461486E-3,-1.7247418E-3,1.3649288E-3],"split_indices":[51,80,81,0,0,0,0],"split_type":[0,0,0,0,0,0,0],"sum_hessian":[6.1020547E3,3.001322E3,3.100733E3,2.4266006E3,5.7472144E2,1.8318457E3,1.2688872E3],"tree_param":{"num_deleted":"0","num_feature":"104","num_nodes":"7","size_leaf_vector":"0"}},{"base_weights":[-1.04954384E-1,-2.059837E-1,1.2837847E-1,-1.2268643E-1,-4.161319E-1,-4.4857464E-3,2.7822986E-1],"categories":[],"categories_nodes":[],"categories_segments":[],"categories_sizes":[],"default_left":[1,1,1,0,0,0,0],"id":82,"left_children":[1,3,5,-1,-1,-1,-1],"loss_changes":[1.4384137E2,7.4479645E1,3.671467E1,0E0,0E0,0E0,0E0],"parents":[2147483647,0,0,1,1,2,2],"right_children":[2,4,6,-1,-1,-1,-1],"split_conditions":[1.95E1,1.95E1,5.135E-1,-1.2268643E-3,-4.161319E-3,-4.485746E-5,2.7822985E-3],"split_indices":[28,80,55,0,0,0,0],"split_type":[0,0,0,0,0,0,0],"sum_hessian":[6.099715E3,4.2567354E3,1.8429796E3,3.049555E3,1.2071803E3,9.7737244E2,8.656072E2],"tree_param":{"num_deleted":"0","num_feature":"104","num_nodes":"7","size_leaf_vector":"0"}},{"base_weights":[1.0495436E-1,2.0598368E-1,-1.2837848E-1,1.2268641E-1,4.1613188E-1,4.4857403E-3,-2.782299E-1],"categories":[],"categories_nodes":[],"categories_segments":[],"categories_sizes":[],"default_left":[1,1,1,0,0,0,0],"id":83,"left_children":[1,3,5,-1,-1,-1,-1],"loss_changes":[1.4384137E2,7.447963E1,3.6714684E1,0E0,0E0,0E0,0E0],"parents":[2147483647,0,0,1,1,2,2],"right_children":[2,4,6,-1,-1,-1,-1],"split_conditions":[1.95E1,1.95E1,5.135E-1,1.226864E-3,4.1613188E-3,4.4857403E-5,-2.782299E-3],"split_indices":[28,80,55,0,0,0,0],"split_type":[0,0,0,0,0,0,0],"sum_hessian":[6.099715E3,4.2567354E3,1.8429796E3,3.049555E3,1.2071803E3,9.7737244E2,8.6560724E2],"tree_param":{"num_deleted":"0","num_feature":"104","num_nodes":"7","size_leaf_vector":"0"}},{"base_weights":[-1.0394692E-1,-1.9236957E-1,1.5838651E-1,-4.6811894E-2,-3.1805256E-1,2.2174911E-1,-1.3716044E-1],"categories":[],"categories_nodes":[],"categories_segments":[],"categories_sizes":[],"default_left":[1,1,1,0,0,0,0],"id":84,"left_children":[1,3,5,-1,-1,-1,-1],"loss_changes":[1.4148792E2,8.343231E1,2.8829678E1,0E0,0E0,0E0,0E0],"parents":[2147483647,0,0,1,1,2,2],"right_children":[2,4,6,-1,-1,-1,-1],"split_conditions":[2.25E1,1.15E1,2.45E1,-4.6811893E-4,-3.1805255E-3,2.2174912E-3,-1.3716043E-3],"split_indices":[51,80,81,0,0,0,0],"split_type":[0,0,0,0,0,0,0],"sum_hessian":[6.097298E3,4.56042E3,1.5368779E3,2.1137676E3,2.4466523E3,1.26576E3,2.7111783E2],"tree_param":{"num_deleted":"0","num_feature":"104","num_nodes":"7","size_leaf_vector":"0"}},{"base_weights":[1.0394691E-1,1.9236955E-1,-1.5838651E-1,4.681185E-2,3.1805256E-1,-2.217491E-1,1.3716036E-1],"categories":[],"categories_nodes":[],"categories_segments":[],"categories_sizes":[],"default_left":[1,1,1,0,0,0,0],"id":85,"left_children":[1,3,5,-1,-1,-1,-1],"loss_changes":[1.4148792E2,8.343233E1,2.8829662E1,0E0,0E0,0E0,0E0],"parents":[2147483647,0,0,1,1,2,2],"right_children":[2,4,6,-1,-1,-1,-1],"split_conditions":[2.25E1,1.15E1,2.45E1,4.6811847E-4,3.1805255E-3,-2.217491E-3,1.3716036E-3],"split_indices":[51,80,81,0,0,0,0],"split_type":[0,0,0,0,0,0,0],"sum_hessian":[6.097298E3,4.56042E3,1.5368779E3,2.1137676E3,2.4466523E3,1.2657601E3,2.7111783E2],"tree_param":{"num_deleted":"0","num_feature":"104","num_nodes":"7","size_leaf_vector":"0"}},{"base_weights":[-1.029499E-1,-2.569159E-1,4.5967124E-2,-3.1580925E-1,-9.702662E-3,1.4126356E-1,-1.8749642E-1],"categories":[],"categories_nodes":[],"categories_segments":[],"categories_sizes":[],"default_left":[1,1,1,0,0,0,0],"id":86,"left_children":[1,3,5,-1,-1,-1,-1],"loss_changes":[1.3977817E2,4.363472E1,6.8986595E1,0E0,0E0,0E0,0E0],"parents":[2147483647,0,0,1,1,2,2],"right_children":[2,4,6,-1,-1,-1,-1],"split_conditions":[1.45E1,5.05E0,2.15E1,-3.1580925E-3,-9.702662E-5,1.4126356E-3,-1.8749642E-3],"split_indices":[51,77,103,0,0,0,0],"split_type":[0,0,0,0,0,0,0],"sum_hessian":[6.0948384E3,2.996263E3,3.0985757E3,2.4195732E3,5.766898E2,2.2006836E3,8.978921E2],"tree_param":{"num_deleted":"0","num_feature":"104","num_nodes":"7","size_leaf_vector":"0"}},{"base_weights":[1.0294988E-1,2.5691587E-1,-4.5967128E-2,3.1580922E-1,9.702571E-3,-1.4126356E-1,1.8749644E-1],"categories":[],"categories_nodes":[],"categories_segments":[],"categories_sizes":[],"default_left":[1,1,1,0,0,0,0],"id":87,"left_children":[1,3,5,-1,-1,-1,-1],"loss_changes":[1.3977814E2,4.3634735E1,6.89866E1,0E0,0E0,0E0,0E0],"parents":[2147483647,0,0,1,1,2,2],"right_children":[2,4,6,-1,-1,-1,-1],"split_conditions":[1.45E1,5.05E0,2.15E1,3.158092E-3,9.70257E-5,-1.4126356E-3,1.8749643E-3],"split_indices":[51,77,103,0,0,0,0],"split_type":[0,0,0,0,0,0,0],"sum_hessian":[6.0948384E3,2.996263E3,3.0985754E3,2.4195732E3,5.766898E2,2.2006833E3,8.978921E2],"tree_param":{"num_deleted":"0","num_feature":"104","num_nodes":"7","size_leaf_vector":"0"}},{"base_weights":[-1.01962306E-1,-2.0080978E-1,1.2614962E-1,-1.09475605E-1,-3.8659233E-1,-4.01489E-3,2.7306417E-1],"categories":[],"categories_nodes":[],"categories_segments":[],"categories_sizes":[],"default_left":[1,1,1,0,0,0,0],"id":88,"left_children":[1,3,5,-1,-1,-1,-1],"loss_changes":[1.3742108E2,7.2100235E1,3.5240906E1,0E0,0E0,0E0,0E0],"parents":[2147483647,0,0,1,1,2,2],"right_children":[2,4,6,-1,-1,-1,-1],"split_conditions":[1.95E1,1.95E1,5.135E-1,-1.0947561E-3,-3.8659233E-3,-4.01489E-5,2.7306415E-3],"split_indices":[28,103,55,0,0,0,0],"split_type":[0,0,0,0,0,0,0],"sum_hessian":[6.0924004E3,4.250609E3,1.8417917E3,2.8507273E3,1.3998816E3,9.770817E2,8.6470996E2],"tree_param":{"num_deleted":"0","num_feature":"104","num_nodes":"7","size_leaf_vector":"0"}},{"base_weights":[1.019623E-1,2.0080978E-1,-1.2614962E-1,1.0947559E-1,3.8659236E-1,4.014883E-3,-2.7306417E-1],"categories":[],"categories_nodes":[],"categories_segments":[],"categories_sizes":[],"default_left":[1,1,1,0,0,0,0],"id":89,"left_children":[1,3,5,-1,-1,-1,-1],"loss_changes":[1.3742108E2,7.2100235E1,3.5240906E1,0E0,0E0,0E0,0E0],"parents":[2147483647,0,0,1,1,2,2],"right_children":[2,4,6,-1,-1,-1,-1],"split_conditions":[1.95E1,1.95E1,5.135E-1,1.0947558E-3,3.8659235E-3,4.0148832E-5,-2.7306415E-3],"split_indices":[28,103,55,0,0,0,0],"split_type":[0,0,0,0,0,0,0],"sum_hessian":[6.0924004E3,4.250609E3,1.8417917E3,2.8507273E3,1.3998816E3,9.770817E2,8.6470996E2],"tree_param":{"num_deleted":"0","num_feature":"104","num_nodes":"7","size_leaf_vector":"0"}},{"base_weights":[-1.0098495E-1,-2.527197E-1,4.5659266E-2,-1.9455147E-1,-4.986364E-1,1.3942716E-1,-1.841418E-1],"categories":[],"categories_nodes":[],"categories_segments":[],"categories_sizes":[],"default_left":[1,1,1,0,0,0,0],"id":90,"left_children":[1,3,5,-1,-1,-1,-1],"loss_changes":[1.3554031E2,4.2725708E1,6.6786736E1,0E0,0E0,0E0,0E0],"parents":[2147483647,0,0,1,1,2,2],"right_children":[2,4,6,-1,-1,-1,-1],"split_conditions":[1.45E1,2.25E1,2.15E1,-1.9455146E-3,-4.986364E-3,1.3942715E-3,-1.841418E-3],"split_indices":[51,80,103,0,0,0,0],"split_type":[0,0,0,0,0,0,0],"sum_hessian":[6.0899004E3,2.992646E3,3.0972544E3,2.421633E3,5.71013E2,2.1999724E3,8.972821E2],"tree_param":{"num_deleted":"0","num_feature":"104","num_nodes":"7","size_leaf_vector":"0"}},{"base_weights":[1.0098492E-1,2.5271967E-1,-4.5659285E-2,1.9455144E-1,4.986363E-1,-1.3942717E-1,1.8414178E-1],"categories":[],"categories_nodes":[],"categories_segments":[],"categories_sizes":[],"default_left":[1,1,1,0,0,0,0],"id":91,"left_children":[1,3,5,-1,-1,-1,-1],"loss_changes":[1.355403E2,4.2725693E1,6.6786736E1,0E0,0E0,0E0,0E0],"parents":[2147483647,0,0,1,1,2,2],"right_children":[2,4,6,-1,-1,-1,-1],"split_conditions":[1.45E1,2.25E1,2.15E1,1.9455143E-3,4.986363E-3,-1.3942716E-3,1.8414179E-3],"split_indices":[51,80,103,0,0,0,0],"split_type":[0,0,0,0,0,0,0],"sum_hessian":[6.0899004E3,2.992646E3,3.0972544E3,2.421633E3,5.7101306E2,2.1999724E3,8.972821E2],"tree_param":{"num_deleted":"0","num_feature":"104","num_nodes":"7","size_leaf_vector":"0"}},{"base_weights":[-1.0001694E-1,-1.8609922E-1,1.5511972E-1,-4.386014E-2,-3.0920938E-1,2.1669418E-1,-1.3201301E-1],"categories":[],"categories_nodes":[],"categories_segments":[],"categories_sizes":[],"default_left":[1,1,1,0,0,0,0],"id":92,"left_children":[1,3,5,-1,-1,-1,-1],"loss_changes":[1.337482E2,7.9713104E1,2.719461E1,0E0,0E0,0E0,0E0],"parents":[2147483647,0,0,1,1,2,2],"right_children":[2,4,6,-1,-1,-1,-1],"split_conditions":[2.25E1,1.15E1,2.45E1,-4.386014E-4,-3.0920936E-3,2.1669418E-3,-1.3201301E-3],"split_indices":[51,80,81,0,0,0,0],"split_type":[0,0,0,0,0,0,0],"sum_hessian":[6.087462E3,4.5519272E3,1.535535E3,2.1125195E3,2.4394075E3,1.2645934E3,2.709417E2],"tree_param":{"num_deleted":"0","num_feature":"104","num_nodes":"7","size_leaf_vector":"0"}},{"base_weights":[1.00016944E-1,1.8609925E-1,-1.5511973E-1,4.3860175E-2,3.092094E-1,-2.1669422E-1,1.3201308E-1],"categories":[],"categories_nodes":[],"categories_segments":[],"categories_sizes":[],"default_left":[1,1,1,0,0,0,0],"id":93,"left_children":[1,3,5,-1,-1,-1,-1],"loss_changes":[1.3374825E2,7.971309E1,2.719463E1,0E0,0E0,0E0,0E0],"parents":[2147483647,0,0,1,1,2,2],"right_children":[2,4,6,-1,-1,-1,-1],"split_conditions":[2.25E1,1.15E1,2.45E1,4.3860174E-4,3.092094E-3,-2.1669422E-3,1.3201308E-3],"split_indices":[51,80,81,0,0,0,0],"split_type":[0,0,0,0,0,0,0],"sum_hessian":[6.087462E3,4.5519272E3,1.535535E3,2.1125195E3,2.4394075E3,1.2645934E3,2.7094168E2],"tree_param":{"num_deleted":"0","num_feature":"104","num_nodes":"7","size_leaf_vector":"0"}},{"base_weights":[-9.905938E-2,-2.2084095E-1,7.8851365E-2,-2.983187E-1,-8.187966E-3,1.8830627E-1,-8.447908E-2],"categories":[],"categories_nodes":[],"categories_segments":[],"categories_sizes":[],"default_left":[1,1,1,0,0,0,0],"id":94,"left_children":[1,3,5,-1,-1,-1,-1],"loss_changes":[1.3187602E2,5.9526962E1,4.424036E1,0E0,0E0,0E0,0E0],"parents":[2147483647,0,0,1,1,2,2],"right_children":[2,4,6,-1,-1,-1,-1],"split_conditions":[1.65E1,3.85E0,1.65E1,-2.983187E-3,-8.187966E-5,1.8830627E-3,-8.447908E-4],"split_indices":[27,77,80,0,0,0,0],"split_type":[0,0,0,0,0,0,0],"sum_hessian":[6.084899E3,3.6121245E3,2.4727744E3,2.647232E3,9.648927E2,1.4804841E3,9.9229034E2],"tree_param":{"num_deleted":"0","num_feature":"104","num_nodes":"7","size_leaf_vector":"0"}},{"base_weights":[9.905936E-2,2.2084092E-1,-7.885137E-2,2.9831868E-1,8.187973E-3,-1.8830627E-1,8.447908E-2],"categories":[],"categories_nodes":[],"categories_segments":[],"categories_sizes":[],"default_left":[1,1,1,0,0,0,0],"id":95,"left_children":[1,3,5,-1,-1,-1,-1],"loss_changes":[1.31876E2,5.952693E1,4.424036E1,0E0,0E0,0E0,0E0],"parents":[2147483647,0,0,1,1,2,2],"right_children":[2,4,6,-1,-1,-1,-1],"split_conditions":[1.65E1,3.85E0,1.65E1,2.9831869E-3,8.187973E-5,-1.8830627E-3,8.447908E-4],"split_indices":[27,77,80,0,0,0,0],"split_type":[0,0,0,0,0,0,0],"sum_hessian":[6.084899E3,3.6121245E3,2.4727744E3,2.647232E3,9.648927E2,1.4804841E3,9.9229034E2],"tree_param":{"num_deleted":"0","num_feature":"104","num_nodes":"7","size_leaf_vector":"0"}},{"base_weights":[-9.8112084E-2,-2.4680172E-1,4.5420866E-2,-1.8950553E-1,-4.896759E-1,-9.205293E-2,1.959583E-1],"categories":[],"categories_nodes":[],"categories_segments":[],"categories_sizes":[],"default_left":[1,1,1,0,0,0,0],"id":96,"left_children":[1,3,5,-1,-1,-1,-1],"loss_changes":[1.2983939E2,4.148909E1,6.409272E1,0E0,0E0,0E0,0E0],"parents":[2147483647,0,0,1,1,2,2],"right_children":[2,4,6,-1,-1,-1,-1],"split_conditions":[1.45E1,2.25E1,3.5000002E-1,-1.8950553E-3,-4.896759E-3,-9.2052924E-4,1.959583E-3],"split_indices":[51,80,77,0,0,0,0],"split_type":[0,0,0,0,0,0,0],"sum_hessian":[6.0822637E3,2.9871133E3,3.0951501E3,2.4183767E3,5.687364E2,1.6179733E3,1.477177E3],"tree_param":{"num_deleted":"0","num_feature":"104","num_nodes":"7","size_leaf_vector":"0"}},{"base_weights":[9.8112084E-2,2.4680173E-1,-4.5420874E-2,1.8950555E-1,4.896759E-1,9.2052944E-2,-1.9595833E-1],"categories":[],"categories_nodes":[],"categories_segments":[],"categories_sizes":[],"default_left":[1,1,1,0,0,0,0],"id":97,"left_children":[1,3,5,-1,-1,-1,-1],"loss_changes":[1.2983939E2,4.148909E1,6.4092735E1,0E0,0E0,0E0,0E0],"parents":[2147483647,0,0,1,1,2,2],"right_children":[2,4,6,-1,-1,-1,-1],"split_conditions":[1.45E1,2.25E1,3.5000002E-1,1.8950554E-3,4.896759E-3,9.205294E-4,-1.9595833E-3],"split_indices":[51,80,77,0,0,0,0],"split_type":[0,0,0,0,0,0,0],"sum_hessian":[6.082263E3,2.9871133E3,3.0951501E3,2.4183767E3,5.687364E2,1.6179733E3,1.477177E3],"tree_param":{"num_deleted":"0","num_feature":"104","num_nodes":"7","size_leaf_vector":"0"}},{"base_weights":[-9.717211E-2,-1.815259E-1,1.5263945E-1,-4.2036597E-2,-3.0248415E-1,2.130257E-1,-1.2886699E-1],"categories":[],"categories_nodes":[],"categories_segments":[],"categories_sizes":[],"default_left":[1,1,1,0,0,0,0],"id":98,"left_children":[1,3,5,-1,-1,-1,-1],"loss_changes":[1.2816527E2,7.669347E1,2.6129974E1,0E0,0E0,0E0,0E0],"parents":[2147483647,0,0,1,1,2,2],"right_children":[2,4,6,-1,-1,-1,-1],"split_conditions":[2.25E1,1.15E1,2.45E1,-4.2036595E-4,-3.0248414E-3,2.130257E-3,-1.2886699E-3],"split_indices":[51,80,81,0,0,0,0],"split_type":[0,0,0,0,0,0,0],"sum_hessian":[6.0797803E3,4.545258E3,1.5345223E3,2.1115557E3,2.4337024E3,1.2636901E3,2.7083224E2],"tree_param":{"num_deleted":"0","num_feature":"104","num_nodes":"7","size_leaf_vector":"0"}},{"base_weights":[9.7172104E-2,1.8152589E-1,-1.5263946E-1,4.203657E-2,3.0248415E-1,-2.130257E-1,1.2886697E-1],"categories":[],"categories_nodes":[],"categories_segments":[],"categories_sizes":[],"default_left":[1,1,1,0,0,0,0],"id":99,"left_children":[1,3,5,-1,-1,-1,-1],"loss_changes":[1.2816525E2,7.66935E1,2.6129978E1,0E0,0E0,0E0,0E0],"parents":[2147483647,0,0,1,1,2,2],"right_children":[2,4,6,-1,-1,-1,-1],"split_conditions":[2.25E1,1.15E1,2.45E1,4.203657E-4,3.0248414E-3,-2.130257E-3,1.2886696E-3],"split_indices":[51,80,81,0,0,0,0],"split_type":[0,0,0,0,0,0,0],"sum_hessian":[6.0797803E3,4.545258E3,1.5345223E3,2.1115557E3,2.4337024E3,1.2636901E3,2.7083224E2],"tree_param":{"num_deleted":"0","num_feature":"104","num_nodes":"7","size_leaf_vector":"0"}},{"base_weights":[-9.624298E-2,-1.9112726E-1,1.2234973E-1,-1.1203585E-1,-3.919916E-1,-2.625511E-3,2.6361036E-1],"categories":[],"categories_nodes":[],"categories_segments":[],"categories_sizes":[],"default_left":[1,1,1,0,0,0,0],"id":100,"left_children":[1,3,5,-1,-1,-1,-1],"loss_changes":[1.2609029E2,6.729611E1,3.2490623E1,0E0,0E0,0E0,0E0],"parents":[2147483647,0,0,1,1,2,2],"right_children":[2,4,6,-1,-1,-1,-1],"split_conditions":[1.95E1,1.95E1,5.135E-1,-1.1203585E-3,-3.9199158E-3,-2.625511E-5,2.6361037E-3],"split_indices":[28,80,55,0,0,0,0],"split_type":[0,0,0,0,0,0,0],"sum_hessian":[6.077147E3,4.237783E3,1.8393638E3,3.041668E3,1.196115E3,9.764586E2,8.629051E2],"tree_param":{"num_deleted":"0","num_feature":"104","num_nodes":"7","size_leaf_vector":"0"}},{"base_weights":[9.624298E-2,1.9112726E-1,-1.22349724E-1,1.12035856E-1,3.919916E-1,2.625487E-3,-2.636103E-1],"categories":[],"categories_nodes":[],"categories_segments":[],"categories_sizes":[],"default_left":[1,1,1,0,0,0,0],"id":101,"left_children":[1,3,5,-1,-1,-1,-1],"loss_changes":[1.2609029E2,6.72961E1,3.2490604E1,0E0,0E0,0E0,0E0],"parents":[2147483647,0,0,1,1,2,2],"right_children":[2,4,6,-1,-1,-1,-1],"split_conditions":[1.95E1,1.95E1,5.135E-1,1.1203586E-3,3.9199158E-3,2.625487E-5,-2.636103E-3],"split_indices":[28,80,55,0,0,0,0],"split_type":[0,0,0,0,0,0,0],"sum_hessian":[6.077147E3,4.237783E3,1.8393638E3,3.0416682E3,1.1961151E3,9.764586E2,8.6290515E2],"tree_param":{"num_deleted":"0","num_feature":"104","num_nodes":"7","size_leaf_vector":"0"}},{"base_weights":[-9.5322855E-2,-2.411642E-1,4.5306053E-2,-1.1323258E-2,-3.004052E-1,1.3558003E-1,-1.7609617E-1],"categories":[],"categories_nodes":[],"categories_segments":[],"categories_sizes":[],"default_left":[1,1,1,0,0,0,0],"id":102,"left_children":[1,3,5,-1,-1,-1,-1],"loss_changes":[1.2461655E2,4.060823E1,6.1860565E1,0E0,0E0,0E0,0E0],"parents":[2147483647,0,0,1,1,2,2],"right_children":[2,4,6,-1,-1,-1,-1],"split_conditions":[1.45E1,5.5E0,2.15E1,-1.1323258E-4,-3.004052E-3,1.3558003E-3,-1.7609617E-3],"split_indices":[51,103,103,0,0,0,0],"split_type":[0,0,0,0,0,0,0],"sum_hessian":[6.074505E3,2.9816377E3,3.0928674E3,6.1126544E2,2.370372E3,2.1973237E3,8.955436E2],"tree_param":{"num_deleted":"0","num_feature":"104","num_nodes":"7","size_leaf_vector":"0"}},{"base_weights":[9.532286E-2,2.4116421E-1,-4.5306053E-2,1.1323268E-2,3.0040523E-1,-1.3558003E-1,1.7609617E-1],"categories":[],"categories_nodes":[],"categories_segments":[],"categories_sizes":[],"default_left":[1,1,1,0,0,0,0],"id":103,"left_children":[1,3,5,-1,-1,-1,-1],"loss_changes":[1.2461655E2,4.060823E1,6.186057E1,0E0,0E0,0E0,0E0],"parents":[2147483647,0,0,1,1,2,2],"right_children":[2,4,6,-1,-1,-1,-1],"split_conditions":[1.45E1,5.5E0,2.15E1,1.1323267E-4,3.0040522E-3,-1.3558003E-3,1.7609617E-3],"split_indices":[51,103,103,0,0,0,0],"split_type":[0,0,0,0,0,0,0],"sum_hessian":[6.074505E3,2.9816377E3,3.0928674E3,6.1126544E2,2.370372E3,2.1973237E3,8.955436E2],"tree_param":{"num_deleted":"0","num_feature":"104","num_nodes":"7","size_leaf_vector":"0"}},{"base_weights":[-9.441175E-2,1.4460763E-3,-3.0510998E-1,-2.0611346E-1,9.6880004E-2,-3.6127684E-1,-6.0466256E-2],"categories":[],"categories_nodes":[],"categories_segments":[],"categories_sizes":[],"default_left":[1,1,1,0,0,0,0],"id":104,"left_children":[1,3,5,-1,-1,-1,-1],"loss_changes":[1.2265459E2,8.271774E1,2.6071335E1,0E0,0E0,0E0,0E0],"parents":[2147483647,0,0,1,1,2,2],"right_children":[2,4,6,-1,-1,-1,-1],"split_conditions":[2.85E0,-1.95E0,5.25E0,-2.0611344E-3,9.6880004E-4,-3.6127684E-3,-6.046625E-4],"split_indices":[25,77,77,0,0,0,0],"split_type":[0,0,0,0,0,0,0],"sum_hessian":[6.071867E3,4.1739214E3,1.8979457E3,1.3142959E3,2.8596257E3,1.5431766E3,3.547691E2],"tree_param":{"num_deleted":"0","num_feature":"104","num_nodes":"7","size_leaf_vector":"0"}},{"base_weights":[9.441174E-2,-1.4460884E-3,3.0510998E-1,2.0611346E-1,-9.6880026E-2,3.6127687E-1,6.0466185E-2],"categories":[],"categories_nodes":[],"categories_segments":[],"categories_sizes":[],"default_left":[1,1,1,0,0,0,0],"id":105,"left_children":[1,3,5,-1,-1,-1,-1],"loss_changes":[1.226546E2,8.271775E1,2.6071335E1,0E0,0E0,0E0,0E0],"parents":[2147483647,0,0,1,1,2,2],"right_children":[2,4,6,-1,-1,-1,-1],"split_conditions":[2.85E0,-1.95E0,5.25E0,2.0611344E-3,-9.688002E-4,3.6127686E-3,6.046618E-4],"split_indices":[25,77,77,0,0,0,0],"split_type":[0,0,0,0,0,0,0],"sum_hessian":[6.071867E3,4.1739214E3,1.8979457E3,1.3142959E3,2.8596257E3,1.5431766E3,3.547691E2],"tree_param":{"num_deleted":"0","num_feature":"104","num_nodes":"7","size_leaf_vector":"0"}},{"base_weights":[-9.350473E-2,-1.75787E-1,1.4992064E-1,-3.9564647E-2,-2.942096E-1,2.0860669E-1,-1.2361343E-1],"categories":[],"categories_nodes":[],"categories_segments":[],"categories_sizes":[],"default_left":[1,1,1,0,0,0,0],"id":106,"left_children":[1,3,5,-1,-1,-1,-1],"loss_changes":[1.21617065E2,7.318535E1,2.4652466E1,0E0,0E0,0E0,0E0],"parents":[2147483647,0,0,1,1,2,2],"right_children":[2,4,6,-1,-1,-1,-1],"split_conditions":[2.25E1,1.15E1,2.45E1,-3.9564646E-4,-2.942096E-3,2.0860669E-3,-1.2361343E-3],"split_indices":[51,80,81,0,0,0,0],"split_type":[0,0,0,0,0,0,0],"sum_hessian":[6.0695537E3,4.5364336E3,1.5331205E3,2.110288E3,2.4261453E3,1.262493E3,2.706274E2],"tree_param":{"num_deleted":"0","num_feature":"104","num_nodes":"7","size_leaf_vector":"0"}},{"base_weights":[9.350473E-2,1.7578699E-1,-1.4992061E-1,3.956465E-2,2.942096E-1,-2.0860668E-1,1.2361345E-1],"categories":[],"categories_nodes":[],"categories_segments":[],"categories_sizes":[],"default_left":[1,1,1,0,0,0,0],"id":107,"left_children":[1,3,5,-1,-1,-1,-1],"loss_changes":[1.2161705E2,7.318533E1,2.4652462E1,0E0,0E0,0E0,0E0],"parents":[2147483647,0,0,1,1,2,2],"right_children":[2,4,6,-1,-1,-1,-1],"split_conditions":[2.25E1,1.15E1,2.45E1,3.956465E-4,2.942096E-3,-2.0860666E-3,1.2361344E-3],"split_indices":[51,80,81,0,0,0,0],"split_type":[0,0,0,0,0,0,0],"sum_hessian":[6.0695537E3,4.536433E3,1.5331205E3,2.110288E3,2.4261453E3,1.262493E3,2.7062744E2],"tree_param":{"num_deleted":"0","num_feature":"104","num_nodes":"7","size_leaf_vector":"0"}},{"base_weights":[-9.261192E-2,-2.0900595E-1,7.702357E-2,-2.839815E-1,-4.1957977E-3,1.8118346E-1,-7.8380205E-2],"categories":[],"categories_nodes":[],"categories_segments":[],"categories_sizes":[],"default_left":[1,1,1,0,0,0,0],"id":108,"left_children":[1,3,5,-1,-1,-1,-1],"loss_changes":[1.1982298E2,5.5262985E1,3.999438E1,0E0,0E0,0E0,0E0],"parents":[2147483647,0,0,1,1,2,2],"right_children":[2,4,6,-1,-1,-1,-1],"split_conditions":[1.65E1,3.85E0,1.65E1,-2.8398149E-3,-4.1957977E-5,1.8118345E-3,-7.83802E-4],"split_indices":[27,77,80,0,0,0,0],"split_type":[0,0,0,0,0,0,0],"sum_hessian":[6.066843E3,3.597924E3,2.468919E3,2.6334878E3,9.644363E2,1.478071E3,9.908478E2],"tree_param":{"num_deleted":"0","num_feature":"104","num_nodes":"7","size_leaf_vector":"0"}},{"base_weights":[9.261192E-2,2.0900592E-1,-7.702354E-2,2.8398147E-1,4.195797E-3,-1.811834E-1,7.838019E-2],"categories":[],"categories_nodes":[],"categories_segments":[],"categories_sizes":[],"default_left":[1,1,1,0,0,0,0],"id":109,"left_children":[1,3,5,-1,-1,-1,-1],"loss_changes":[1.1982294E2,5.526297E1,3.999436E1,0E0,0E0,0E0,0E0],"parents":[2147483647,0,0,1,1,2,2],"right_children":[2,4,6,-1,-1,-1,-1],"split_conditions":[1.65E1,3.85E0,1.65E1,2.8398146E-3,4.1957966E-5,-1.8118339E-3,7.838019E-4],"split_indices":[27,77,80,0,0,0,0],"split_type":[0,0,0,0,0,0,0],"sum_hessian":[6.066843E3,3.597924E3,2.468919E3,2.6334878E3,9.644363E2,1.478071E3,9.908478E2],"tree_param":{"num_deleted":"0","num_feature":"104","num_nodes":"7","size_leaf_vector":"0"}},{"base_weights":[-9.172852E-2,2.4442412E-3,-2.989943E-1,1.0129543E-1,-1.9067623E-1,-3.541386E-1,-5.9419196E-2],"categories":[],"categories_nodes":[],"categories_segments":[],"categories_sizes":[],"default_left":[1,1,1,0,0,0,0],"id":110,"left_children":[1,3,5,-1,-1,-1,-1],"loss_changes":[1.18383575E2,7.964958E1,2.5011597E1,0E0,0E0,0E0,0E0],"parents":[2147483647,0,0,1,1,2,2],"right_children":[2,4,6,-1,-1,-1,-1],"split_conditions":[2.85E0,1.85E1,5.25E0,1.0129543E-3,-1.9067622E-3,-3.541386E-3,-5.9419195E-4],"split_indices":[25,80,77,0,0,0,0],"split_type":[0,0,0,0,0,0,0],"sum_hessian":[6.064071E3,4.1702666E3,1.8938038E3,2.7586777E3,1.4115891E3,1.5390696E3,3.5473422E2],"tree_param":{"num_deleted":"0","num_feature":"104","num_nodes":"7","size_leaf_vector":"0"}},{"base_weights":[9.1728516E-2,-2.4442584E-3,2.989943E-1,-1.0129545E-1,1.9067623E-1,3.541386E-1,5.9419196E-2],"categories":[],"categories_nodes":[],"categories_segments":[],"categories_sizes":[],"default_left":[1,1,1,0,0,0,0],"id":111,"left_children":[1,3,5,-1,-1,-1,-1],"loss_changes":[1.18383606E2,7.964959E1,2.5011597E1,0E0,0E0,0E0,0E0],"parents":[2147483647,0,0,1,1,2,2],"right_children":[2,4,6,-1,-1,-1,-1],"split_conditions":[2.85E0,1.85E1,5.25E0,-1.0129545E-3,1.9067622E-3,3.541386E-3,5.9419195E-4],"split_indices":[25,80,77,0,0,0,0],"split_type":[0,0,0,0,0,0,0],"sum_hessian":[6.064071E3,4.1702666E3,1.8938038E3,2.7586777E3,1.4115891E3,1.5390696E3,3.5473422E2],"tree_param":{"num_deleted":"0","num_feature":"104","num_nodes":"7","size_leaf_vector":"0"}},{"base_weights":[-9.08486E-2,-1.7162827E-1,1.4793554E-1,-3.8090102E-2,-2.8794765E-1,2.0535603E-1,-1.1966781E-1],"categories":[],"categories_nodes":[],"categories_segments":[],"categories_sizes":[],"default_left":[1,1,1,0,0,0,0],"id":112,"left_children":[1,3,5,-1,-1,-1,-1],"loss_changes":[1.1696767E2,7.036328E1,2.3581532E1,0E0,0E0,0E0,0E0],"parents":[2147483647,0,0,1,1,2,2],"right_children":[2,4,6,-1,-1,-1,-1],"split_conditions":[2.25E1,1.15E1,2.45E1,-3.80901E-4,-2.8794764E-3,2.0535602E-3,-1.1966781E-3],"split_indices":[51,80,81,0,0,0,0],"split_type":[0,0,0,0,0,0,0],"sum_hessian":[6.0616714E3,4.529606E3,1.5320653E3,2.1093435E3,2.4202625E3,1.2615938E3,2.7047153E2],"tree_param":{"num_deleted":"0","num_feature":"104","num_nodes":"7","size_leaf_vector":"0"}},{"base_weights":[9.08486E-2,1.7162827E-1,-1.4793555E-1,3.8090084E-2,2.8794768E-1,-2.0535608E-1,1.196679E-1],"categories":[],"categories_nodes":[],"categories_segments":[],"categories_sizes":[],"default_left":[1,1,1,0,0,0,0],"id":113,"left_children":[1,3,5,-1,-1,-1,-1],"loss_changes":[1.1696769E2,7.036331E1,2.3581547E1,0E0,0E0,0E0,0E0],"parents":[2147483647,0,0,1,1,2,2],"right_children":[2,4,6,-1,-1,-1,-1],"split_conditions":[2.25E1,1.15E1,2.45E1,3.8090083E-4,2.8794769E-3,-2.0535607E-3,1.196679E-3],"split_indices":[51,80,81,0,0,0,0],"split_type":[0,0,0,0,0,0,0],"sum_hessian":[6.0616714E3,4.529606E3,1.5320653E3,2.1093435E3,2.4202625E3,1.2615938E3,2.7047153E2],"tree_param":{"num_deleted":"0","num_feature":"104","num_nodes":"7","size_leaf_vector":"0"}},{"base_weights":[-8.9981996E-2,2.9856616E-3,-2.947999E-1,-1.9827591E-1,9.538295E-2,-3.4930292E-1,-5.84315E-2],"categories":[],"categories_nodes":[],"categories_segments":[],"categories_sizes":[],"default_left":[1,1,1,0,0,0,0],"id":114,"left_children":[1,3,5,-1,-1,-1,-1],"loss_changes":[1.1539028E2,7.754602E1,2.4352448E1,0E0,0E0,0E0,0E0],"parents":[2147483647,0,0,1,1,2,2],"right_children":[2,4,6,-1,-1,-1,-1],"split_conditions":[2.85E0,-1.95E0,5.25E0,-1.982759E-3,9.538295E-4,-3.4930292E-3,-5.84315E-4],"split_indices":[25,77,77,0,0,0,0],"split_type":[0,0,0,0,0,0,0],"sum_hessian":[6.058908E3,4.168015E3,1.8908931E3,1.3110704E3,2.8569448E3,1.5361924E3,3.5470068E2],"tree_param":{"num_deleted":"0","num_feature":"104","num_nodes":"7","size_leaf_vector":"0"}},{"base_weights":[8.998199E-2,-2.985684E-3,2.9479992E-1,1.9827588E-1,-9.5382966E-2,3.4930292E-1,5.8431577E-2],"categories":[],"categories_nodes":[],"categories_segments":[],"categories_sizes":[],"default_left":[1,1,1,0,0,0,0],"id":115,"left_children":[1,3,5,-1,-1,-1,-1],"loss_changes":[1.1539029E2,7.7546005E1,2.4352432E1,0E0,0E0,0E0,0E0],"parents":[2147483647,0,0,1,1,2,2],"right_children":[2,4,6,-1,-1,-1,-1],"split_conditions":[2.85E0,-1.95E0,5.25E0,1.9827588E-3,-9.538296E-4,3.4930292E-3,5.8431574E-4],"split_indices":[25,77,77,0,0,0,0],"split_type":[0,0,0,0,0,0,0],"sum_hessian":[6.058908E3,4.168015E3,1.8908932E3,1.3110703E3,2.8569448E3,1.5361925E3,3.5470065E2],"tree_param":{"num_deleted":"0","num_feature":"104","num_nodes":"7","size_leaf_vector":"0"}},{"base_weights":[-8.9119166E-2,-1.7969666E-1,1.190567E-1,-1.03838086E-1,-3.7345296E-1,5.613072E-4,2.5318423E-1],"categories":[],"categories_nodes":[],"categories_segments":[],"categories_sizes":[],"default_left":[1,1,1,0,0,0,0],"id":116,"left_children":[1,3,5,-1,-1,-1,-1],"loss_changes":[1.1424176E2,6.2006973E1,2.9198458E1,0E0,0E0,0E0,0E0],"parents":[2147483647,0,0,1,1,2,2],"right_children":[2,4,6,-1,-1,-1,-1],"split_conditions":[1.95E1,1.95E1,5.135E-1,-1.0383808E-3,-3.7345295E-3,5.6130716E-6,2.5318423E-3],"split_indices":[28,80,55,0,0,0,0],"split_type":[0,0,0,0,0,0,0],"sum_hessian":[6.0564927E3,4.220351E3,1.8361415E3,3.034021E3,1.1863301E3,9.7541345E2,8.60728E2],"tree_param":{"num_deleted":"0","num_feature":"104","num_nodes":"7","size_leaf_vector":"0"}},{"base_weights":[8.911916E-2,1.7969665E-1,-1.1905671E-1,1.03838086E-1,3.7345293E-1,-5.612986E-4,-2.5318423E-1],"categories":[],"categories_nodes":[],"categories_segments":[],"categories_sizes":[],"default_left":[1,1,1,0,0,0,0],"id":117,"left_children":[1,3,5,-1,-1,-1,-1],"loss_changes":[1.1424177E2,6.2006958E1,2.9198463E1,0E0,0E0,0E0,0E0],"parents":[2147483647,0,0,1,1,2,2],"right_children":[2,4,6,-1,-1,-1,-1],"split_conditions":[1.95E1,1.95E1,5.135E-1,1.0383808E-3,3.7345293E-3,-5.612986E-6,-2.5318423E-3],"split_indices":[28,80,55,0,0,0,0],"split_type":[0,0,0,0,0,0,0],"sum_hessian":[6.0564927E3,4.220351E3,1.8361416E3,3.034021E3,1.1863301E3,9.7541345E2,8.607281E2],"tree_param":{"num_deleted":"0","num_feature":"104","num_nodes":"7","size_leaf_vector":"0"}},{"base_weights":[-8.826921E-2,-2.2725525E-1,4.5320187E-2,-1.7265087E-1,-4.60954E-1,-8.327876E-2,1.8605088E-1],"categories":[],"categories_nodes":[],"categories_segments":[],"categories_sizes":[],"default_left":[1,1,1,0,0,0,0],"id":118,"left_children":[1,3,5,-1,-1,-1,-1],"loss_changes":[1.1242865E2,3.778975E1,5.5903942E1,0E0,0E0,0E0,0E0],"parents":[2147483647,0,0,1,1,2,2],"right_children":[2,4,6,-1,-1,-1,-1],"split_conditions":[1.45E1,2.25E1,3.5000002E-1,-1.7265087E-3,-4.60954E-3,-8.327876E-4,1.8605087E-3],"split_indices":[51,80,77,0,0,0,0],"split_type":[0,0,0,0,0,0,0],"sum_hessian":[6.05372E3,2.9665886E3,3.0871318E3,2.4061287E3,5.604599E2,1.613308E3,1.4738239E3],"tree_param":{"num_deleted":"0","num_feature":"104","num_nodes":"7","size_leaf_vector":"0"}},{"base_weights":[8.826922E-2,2.2725527E-1,-4.532018E-2,1.7265089E-1,4.60954E-1,8.327877E-2,-1.8605088E-1],"categories":[],"categories_nodes":[],"categories_segments":[],"categories_sizes":[],"default_left":[1,1,1,0,0,0,0],"id":119,"left_children":[1,3,5,-1,-1,-1,-1],"loss_changes":[1.12428665E2,3.7789734E1,5.5903946E1,0E0,0E0,0E0,0E0],"parents":[2147483647,0,0,1,1,2,2],"right_children":[2,4,6,-1,-1,-1,-1],"split_conditions":[1.45E1,2.25E1,3.5000002E-1,1.7265088E-3,4.60954E-3,8.3278766E-4,-1.8605087E-3],"split_indices":[51,80,77,0,0,0,0],"split_type":[0,0,0,0,0,0,0],"sum_hessian":[6.05372E3,2.9665886E3,3.0871318E3,2.4061287E3,5.6045996E2,1.613308E3,1.4738239E3],"tree_param":{"num_deleted":"0","num_feature":"104","num_nodes":"7","size_leaf_vector":"0"}},{"base_weights":[-8.742663E-2,-1.6624609E-1,1.4531228E-1,-3.5869587E-2,-2.8011647E-1,2.0126696E-1,-1.1538327E-1],"categories":[],"categories_nodes":[],"categories_segments":[],"categories_sizes":[],"default_left":[1,1,1,0,0,0,0],"id":120,"left_children":[1,3,5,-1,-1,-1,-1],"loss_changes":[1.1104491E2,6.711524E1,2.2364971E1,0E0,0E0,0E0,0E0],"parents":[2147483647,0,0,1,1,2,2],"right_children":[2,4,6,-1,-1,-1,-1],"split_conditions":[2.25E1,1.15E1,2.45E1,-3.5869586E-4,-2.8011645E-3,2.0126696E-3,-1.1538327E-3],"split_indices":[51,80,81,0,0,0,0],"split_type":[0,0,0,0,0,0,0],"sum_hessian":[6.0510396E3,4.520433E3,1.5306061E3,2.1080852E3,2.4123481E3,1.2603231E3,2.7028296E2],"tree_param":{"num_deleted":"0","num_feature":"104","num_nodes":"7","size_leaf_vector":"0"}},{"base_weights":[8.7426655E-2,1.662461E-1,-1.4531225E-1,3.586961E-2,2.801165E-1,-2.0126691E-1,1.153832E-1],"categories":[],"categories_nodes":[],"categories_segments":[],"categories_sizes":[],"default_left":[1,1,1,0,0,0,0],"id":121,"left_children":[1,3,5,-1,-1,-1,-1],"loss_changes":[1.1104491E2,6.7115234E1,2.236496E1,0E0,0E0,0E0,0E0],"parents":[2147483647,0,0,1,1,2,2],"right_children":[2,4,6,-1,-1,-1,-1],"split_conditions":[2.25E1,1.15E1,2.45E1,3.586961E-4,2.801165E-3,-2.012669E-3,1.153832E-3],"split_indices":[51,80,81,0,0,0,0],"split_type":[0,0,0,0,0,0,0],"sum_hessian":[6.0510396E3,4.520433E3,1.5306061E3,2.1080852E3,2.4123481E3,1.2603231E3,2.7028296E2],"tree_param":{"num_deleted":"0","num_feature":"104","num_nodes":"7","size_leaf_vector":"0"}},{"base_weights":[-8.659356E-2,4.2693648E-3,-2.8711116E-1,1.015611E-1,-1.770871E-1,-3.4086296E-1,-5.4739434E-2],"categories":[],"categories_nodes":[],"categories_segments":[],"categories_sizes":[],"default_left":[1,1,1,0,0,0,0],"id":122,"left_children":[1,3,5,-1,-1,-1,-1],"loss_changes":[1.1021568E2,7.348682E1,2.3542953E1,0E0,0E0,0E0,0E0],"parents":[2147483647,0,0,1,1,2,2],"right_children":[2,4,6,-1,-1,-1,-1],"split_conditions":[2.85E0,1.95E1,5.25E0,1.015611E-3,-1.770871E-3,-3.4086294E-3,-5.4739433E-4],"split_indices":[25,103,77,0,0,0,0],"split_type":[0,0,0,0,0,0,0],"sum_hessian":[6.0482197E3,4.162841E3,1.8853788E3,2.7096455E3,1.4531952E3,1.5308082E3,3.545706E2],"tree_param":{"num_deleted":"0","num_feature":"104","num_nodes":"7","size_leaf_vector":"0"}},{"base_weights":[8.659356E-2,-4.269345E-3,2.8711113E-1,-1.01561084E-1,1.7708711E-1,3.4086296E-1,5.473933E-2],"categories":[],"categories_nodes":[],"categories_segments":[],"categories_sizes":[],"default_left":[1,1,1,0,0,0,0],"id":123,"left_children":[1,3,5,-1,-1,-1,-1],"loss_changes":[1.1021565E2,7.34868E1,2.3542984E1,0E0,0E0,0E0,0E0],"parents":[2147483647,0,0,1,1,2,2],"right_children":[2,4,6,-1,-1,-1,-1],"split_conditions":[2.85E0,1.95E1,5.25E0,-1.0156109E-3,1.7708711E-3,3.4086294E-3,5.473933E-4],"split_indices":[25,103,77,0,0,0,0],"split_type":[0,0,0,0,0,0,0],"sum_hessian":[6.0482197E3,4.162841E3,1.8853788E3,2.7096455E3,1.4531952E3,1.5308081E3,3.545706E2],"tree_param":{"num_deleted":"0","num_feature":"104","num_nodes":"7","size_leaf_vector":"0"}},{"base_weights":[-8.576431E-2,-1.7409396E-1,1.1700064E-1,-1.00090034E-1,-3.637921E-1,1.6955145E-1,-1.6949065E-1],"categories":[],"categories_nodes":[],"categories_segments":[],"categories_sizes":[],"default_left":[1,1,1,0,0,0,0],"id":124,"left_children":[1,3,5,-1,-1,-1,-1],"loss_changes":[1.0831824E2,5.909777E1,2.766156E1,0E0,0E0,0E0,0E0],"parents":[2147483647,0,0,1,1,2,2],"right_children":[2,4,6,-1,-1,-1,-1],"split_conditions":[1.95E1,1.95E1,2.55E1,-1.0009003E-3,-3.6379208E-3,1.6955144E-3,-1.6949065E-3],"split_indices":[28,80,103,0,0,0,0],"split_type":[0,0,0,0,0,0,0],"sum_hessian":[6.045729E3,4.2113135E3,1.8344156E3,3.030572E3,1.1807416E3,1.5504299E3,2.8398566E2],"tree_param":{"num_deleted":"0","num_feature":"104","num_nodes":"7","size_leaf_vector":"0"}},{"base_weights":[8.5764304E-2,1.7409396E-1,-1.17000654E-1,1.0009001E-1,3.637921E-1,-1.6955148E-1,1.6949068E-1],"categories":[],"categories_nodes":[],"categories_segments":[],"categories_sizes":[],"default_left":[1,1,1,0,0,0,0],"id":125,"left_children":[1,3,5,-1,-1,-1,-1],"loss_changes":[1.0831825E2,5.909777E1,2.7661573E1,0E0,0E0,0E0,0E0],"parents":[2147483647,0,0,1,1,2,2],"right_children":[2,4,6,-1,-1,-1,-1],"split_conditions":[1.95E1,1.95E1,2.55E1,1.0009E-3,3.6379208E-3,-1.6955148E-3,1.6949067E-3],"split_indices":[28,80,103,0,0,0,0],"split_type":[0,0,0,0,0,0,0],"sum_hessian":[6.045729E3,4.2113135E3,1.8344156E3,3.030572E3,1.1807416E3,1.5504299E3,2.8398566E2],"tree_param":{"num_deleted":"0","num_feature":"104","num_nodes":"7","size_leaf_vector":"0"}},{"base_weights":[-8.494666E-2,4.7131157E-3,-2.830178E-1,9.828595E-2,-1.7863256E-1,-3.3627236E-1,-5.3204052E-2],"categories":[],"categories_nodes":[],"categories_segments":[],"categories_sizes":[],"default_left":[1,1,1,0,0,0,0],"id":126,"left_children":[1,3,5,-1,-1,-1,-1],"loss_changes":[1.0733639E2,7.1414635E1,2.303209E1,0E0,0E0,0E0,0E0],"parents":[2147483647,0,0,1,1,2,2],"right_children":[2,4,6,-1,-1,-1,-1],"split_conditions":[2.85E0,1.85E1,5.25E0,9.828595E-4,-1.7863255E-3,-3.3627236E-3,-5.320405E-4],"split_indices":[25,80,77,0,0,0,0],"split_type":[0,0,0,0,0,0,0],"sum_hessian":[6.0429756E3,4.160597E3,1.8823784E3,2.7550073E3,1.4055897E3,1.5278644E3,3.5451407E2],"tree_param":{"num_deleted":"0","num_feature":"104","num_nodes":"7","size_leaf_vector":"0"}},{"base_weights":[8.4946655E-2,-4.713123E-3,2.830178E-1,-9.8285966E-2,1.7863256E-1,3.362724E-1,5.320403E-2],"categories":[],"categories_nodes":[],"categories_segments":[],"categories_sizes":[],"default_left":[1,1,1,0,0,0,0],"id":127,"left_children":[1,3,5,-1,-1,-1,-1],"loss_changes":[1.07336395E2,7.141465E1,2.303209E1,0E0,0E0,0E0,0E0],"parents":[2147483647,0,0,1,1,2,2],"right_children":[2,4,6,-1,-1,-1,-1],"split_conditions":[2.85E0,1.85E1,5.25E0,-9.828596E-4,1.7863255E-3,3.3627239E-3,5.320403E-4],"split_indices":[25,80,77,0,0,0,0],"split_type":[0,0,0,0,0,0,0],"sum_hessian":[6.0429756E3,4.160597E3,1.8823784E3,2.7550073E3,1.4055897E3,1.5278644E3,3.5451404E2],"tree_param":{"num_deleted":"0","num_feature":"104","num_nodes":"7","size_leaf_vector":"0"}},{"base_weights":[-8.4133856E-2,-1.6116647E-1,1.4307606E-1,-3.3890612E-2,-2.7263317E-1,1.7934032E-1,-2.4109423E-1],"categories":[],"categories_nodes":[],"categories_segments":[],"categories_sizes":[],"default_left":[1,1,1,0,0,0,0],"id":128,"left_children":[1,3,5,-1,-1,-1,-1],